{"learner":{"attributes":{"scikit_learn":"{\"_estimator_type\": \"regressor\"}"},"feature_names":[],"feature_types":[],"gradient_booster":{"model":{"gbtree_model_param":{"num_parallel_tree":"1","num_trees":"1941"},"iteration_indptr":[0,1,2,3,4,5,6,7,8,9,10,11,12,13,14,15,16,17,18,19,20,21,22,23,24,25,26,27,28,29,30,31,32,33,34,35,36,37,38,39,40,41,42,43,44,45,46,47,48,49,50,51,52,53,54,55,56,57,58,59,60,61,62,63,64,65,66,67,68,69,70,71,72,73,74,75,76,77,78,79,80,81,82,83,84,85,86,87,88,89,90,91,92,93,94,95,96,97,98,99,100,101,102,103,104,105,106,107,108,109,110,111,112,113,114,115,116,117,118,119,120,121,122,123,124,125,126,127,128,129,130,131,132,133,134,135,136,137,138,139,140,141,142,143,144,145,146,147,148,149,150,151,152,153,154,155,156,157,158,159,160,161,162,163,164,165,166,167,168,169,170,171,172,173,174,175,176,177,178,179,180,181,182,183,184,185,186,187,188,189,190,191,192,193,194,195,196,197,198,199,200,201,202,203,204,205,206,207,208,209,210,211,212,213,214,215,216,217,218,219,220,221,222,223,224,225,226,227,228,229,230,231,232,233,234,235,236,237,238,239,240,241,242,243,244,245,246,247,248,249,250,251,252,253,254,255,256,257,258,259,260,261,262,263,264,265,266,267,268,269,270,271,272,273,274,275,276,277,278,279,280,281,282,283,284,285,286,287,288,289,290,291,292,293,294,295,296,297,298,299,300,301,302,303,304,305,306,307,308,309,310,311,312,313,314,315,316,317,318,319,320,321,322,323,324,325,326,327,328,329,330,331,332,333,334,335,336,337,338,339,340,341,342,343,344,345,346,347,348,349,350,351,352,353,354,355,356,357,358,359,360,361,362,363,364,365,366,367,368,369,370,371,372,373,374,375,376,377,378,379,380,381,382,383,384,385,386,387,388,389,390,391,392,393,394,395,396,397,398,399,400,401,402,403,404,405,406,407,408,409,410,411,412,413,414,415,416,417,418,419,420,421,422,423,424,425,426,427,428,429,430,431,432,433,434,435,436,437,438,439,440,441,442,443,444,445,446,447,448,449,450,451,452,453,454,455,456,457,458,459,460,461,462,463,464,465,466,467,468,469,470,471,472,473,474,475,476,477,478,479,480,481,482,483,484,485,486,487,488,489,490,491,492,493,494,495,496,497,498,499,500,501,502,503,504,505,506,507,508,509,510,511,512,513,514,515,516,517,518,519,520,521,522,523,524,525,526,527,528,529,530,531,532,533,534,535,536,537,538,539,540,541,542,543,544,545,546,547,548,549,550,551,552,553,554,555,556,557,558,559,560,561,562,563,564,565,566,567,568,569,570,571,572,573,574,575,576,577,578,579,580,581,582,583,584,585,586,587,588,589,590,591,592,593,594,595,596,597,598,599,600,601,602,603,604,605,606,607,608,609,610,611,612,613,614,615,616,617,618,619,620,621,622,623,624,625,626,627,628,629,630,631,632,633,634,635,636,637,638,639,640,641,642,643,644,645,646,647,648,649,650,651,652,653,654,655,656,657,658,659,660,661,662,663,664,665,666,667,668,669,670,671,672,673,674,675,676,677,678,679,680,681,682,683,684,685,686,687,688,689,690,691,692,693,694,695,696,697,698,699,700,701,702,703,704,705,706,707,708,709,710,711,712,713,714,715,716,717,718,719,720,721,722,723,724,725,726,727,728,729,730,731,732,733,734,735,736,737,738,739,740,741,742,743,744,745,746,747,748,749,750,751,752,753,754,755,756,757,758,759,760,761,762,763,764,765,766,767,768,769,770,771,772,773,774,775,776,777,778,779,780,781,782,783,784,785,786,787,788,789,790,791,792,793,794,795,796,797,798,799,800,801,802,803,804,805,806,807,808,809,810,811,812,813,814,815,816,817,818,819,820,821,822,823,824,825,826,827,828,829,830,831,832,833,834,835,836,837,838,839,840,841,842,843,844,845,846,847,848,849,850,851,852,853,854,855,856,857,858,859,860,861,862,863,864,865,866,867,868,869,870,871,872,873,874,875,876,877,878,879,880,881,882,883,884,885,886,887,888,889,890,891,892,893,894,895,896,897,898,899,900,901,902,903,904,905,906,907,908,909,910,911,912,913,914,915,916,917,918,919,920,921,922,923,924,925,926,927,928,929,930,931,932,933,934,935,936,937,938,939,940,941,942,943,944,945,946,947,948,949,950,951,952,953,954,955,956,957,958,959,960,961,962,963,964,965,966,967,968,969,970,971,972,973,974,975,976,977,978,979,980,981,982,983,984,985,986,987,988,989,990,991,992,993,994,995,996,997,998,999,1000,1001,1002,1003,1004,1005,1006,1007,1008,1009,1010,1011,1012,1013,1014,1015,1016,1017,1018,1019,1020,1021,1022,1023,1024,1025,1026,1027,1028,1029,1030,1031,1032,1033,1034,1035,1036,1037,1038,1039,1040,1041,1042,1043,1044,1045,1046,1047,1048,1049,1050,1051,1052,1053,1054,1055,1056,1057,1058,1059,1060,1061,1062,1063,1064,1065,1066,1067,1068,1069,1070,1071,1072,1073,1074,1075,1076,1077,1078,1079,1080,1081,1082,1083,1084,1085,1086,1087,1088,1089,1090,1091,1092,1093,1094,1095,1096,1097,1098,1099,1100,1101,1102,1103,1104,1105,1106,1107,1108,1109,1110,1111,1112,1113,1114,1115,1116,1117,1118,1119,1120,1121,1122,1123,1124,1125,1126,1127,1128,1129,1130,1131,1132,1133,1134,1135,1136,1137,1138,1139,1140,1141,1142,1143,1144,1145,1146,1147,1148,1149,1150,1151,1152,1153,1154,1155,1156,1157,1158,1159,1160,1161,1162,1163,1164,1165,1166,1167,1168,1169,1170,1171,1172,1173,1174,1175,1176,1177,1178,1179,1180,1181,1182,1183,1184,1185,1186,1187,1188,1189,1190,1191,1192,1193,1194,1195,1196,1197,1198,1199,1200,1201,1202,1203,1204,1205,1206,1207,1208,1209,1210,1211,1212,1213,1214,1215,1216,1217,1218,1219,1220,1221,1222,1223,1224,1225,1226,1227,1228,1229,1230,1231,1232,1233,1234,1235,1236,1237,1238,1239,1240,1241,1242,1243,1244,1245,1246,1247,1248,1249,1250,1251,1252,1253,1254,1255,1256,1257,1258,1259,1260,1261,1262,1263,1264,1265,1266,1267,1268,1269,1270,1271,1272,1273,1274,1275,1276,1277,1278,1279,1280,1281,1282,1283,1284,1285,1286,1287,1288,1289,1290,1291,1292,1293,1294,1295,1296,1297,1298,1299,1300,1301,1302,1303,1304,1305,1306,1307,1308,1309,1310,1311,1312,1313,1314,1315,1316,1317,1318,1319,1320,1321,1322,1323,1324,1325,1326,1327,1328,1329,1330,1331,1332,1333,1334,1335,1336,1337,1338,1339,1340,1341,1342,1343,1344,1345,1346,1347,1348,1349,1350,1351,1352,1353,1354,1355,1356,1357,1358,1359,1360,1361,1362,1363,1364,1365,1366,1367,1368,1369,1370,1371,1372,1373,1374,1375,1376,1377,1378,1379,1380,1381,1382,1383,1384,1385,1386,1387,1388,1389,1390,1391,1392,1393,1394,1395,1396,1397,1398,1399,1400,1401,1402,1403,1404,1405,1406,1407,1408,1409,1410,1411,1412,1413,1414,1415,1416,1417,1418,1419,1420,1421,1422,1423,1424,1425,1426,1427,1428,1429,1430,1431,1432,1433,1434,1435,1436,1437,1438,1439,1440,1441,1442,1443,1444,1445,1446,1447,1448,1449,1450,1451,1452,1453,1454,1455,1456,1457,1458,1459,1460,1461,1462,1463,1464,1465,1466,1467,1468,1469,1470,1471,1472,1473,1474,1475,1476,1477,1478,1479,1480,1481,1482,1483,1484,1485,1486,1487,1488,1489,1490,1491,1492,1493,1494,1495,1496,1497,1498,1499,1500,1501,1502,1503,1504,1505,1506,1507,1508,1509,1510,1511,1512,1513,1514,1515,1516,1517,1518,1519,1520,1521,1522,1523,1524,1525,1526,1527,1528,1529,1530,1531,1532,1533,1534,1535,1536,1537,1538,1539,1540,1541,1542,1543,1544,1545,1546,1547,1548,1549,1550,1551,1552,1553,1554,1555,1556,1557,1558,1559,1560,1561,1562,1563,1564,1565,1566,1567,1568,1569,1570,1571,1572,1573,1574,1575,1576,1577,1578,1579,1580,1581,1582,1583,1584,1585,1586,1587,1588,1589,1590,1591,1592,1593,1594,1595,1596,1597,1598,1599,1600,1601,1602,1603,1604,1605,1606,1607,1608,1609,1610,1611,1612,1613,1614,1615,1616,1617,1618,1619,1620,1621,1622,1623,1624,1625,1626,1627,1628,1629,1630,1631,1632,1633,1634,1635,1636,1637,1638,1639,1640,1641,1642,1643,1644,1645,1646,1647,1648,1649,1650,1651,1652,1653,1654,1655,1656,1657,1658,1659,1660,1661,1662,1663,1664,1665,1666,1667,1668,1669,1670,1671,1672,1673,1674,1675,1676,1677,1678,1679,1680,1681,1682,1683,1684,1685,1686,1687,1688,1689,1690,1691,1692,1693,1694,1695,1696,1697,1698,1699,1700,1701,1702,1703,1704,1705,1706,1707,1708,1709,1710,1711,1712,1713,1714,1715,1716,1717,1718,1719,1720,1721,1722,1723,1724,1725,1726,1727,1728,1729,1730,1731,1732,1733,1734,1735,1736,1737,1738,1739,1740,1741,1742,1743,1744,1745,1746,1747,1748,1749,1750,1751,1752,1753,1754,1755,1756,1757,1758,1759,1760,1761,1762,1763,1764,1765,1766,1767,1768,1769,1770,1771,1772,1773,1774,1775,1776,1777,1778,1779,1780,1781,1782,1783,1784,1785,1786,1787,1788,1789,1790,1791,1792,1793,1794,1795,1796,1797,1798,1799,1800,1801,1802,1803,1804,1805,1806,1807,1808,1809,1810,1811,1812,1813,1814,1815,1816,1817,1818,1819,1820,1821,1822,1823,1824,1825,1826,1827,1828,1829,1830,1831,1832,1833,1834,1835,1836,1837,1838,1839,1840,1841,1842,1843,1844,1845,1846,1847,1848,1849,1850,1851,1852,1853,1854,1855,1856,1857,1858,1859,1860,1861,1862,1863,1864,1865,1866,1867,1868,1869,1870,1871,1872,1873,1874,1875,1876,1877,1878,1879,1880,1881,1882,1883,1884,1885,1886,1887,1888,1889,1890,1891,1892,1893,1894,1895,1896,1897,1898,1899,1900,1901,1902,1903,1904,1905,1906,1907,1908,1909,1910,1911,1912,1913,1914,1915,1916,1917,1918,1919,1920,1921,1922,1923,1924,1925,1926,1927,1928,1929,1930,1931,1932,1933,1934,1935,1936,1937,1938,1939,1940,1941],"tree_info":[0,0,0,0,0,0,0,0,0,0,0,0,0,0,0,0,0,0,0,0,0,0,0,0,0,0,0,0,0,0,0,0,0,0,0,0,0,0,0,0,0,0,0,0,0,0,0,0,0,0,0,0,0,0,0,0,0,0,0,0,0,0,0,0,0,0,0,0,0,0,0,0,0,0,0,0,0,0,0,0,0,0,0,0,0,0,0,0,0,0,0,0,0,0,0,0,0,0,0,0,0,0,0,0,0,0,0,0,0,0,0,0,0,0,0,0,0,0,0,0,0,0,0,0,0,0,0,0,0,0,0,0,0,0,0,0,0,0,0,0,0,0,0,0,0,0,0,0,0,0,0,0,0,0,0,0,0,0,0,0,0,0,0,0,0,0,0,0,0,0,0,0,0,0,0,0,0,0,0,0,0,0,0,0,0,0,0,0,0,0,0,0,0,0,0,0,0,0,0,0,0,0,0,0,0,0,0,0,0,0,0,0,0,0,0,0,0,0,0,0,0,0,0,0,0,0,0,0,0,0,0,0,0,0,0,0,0,0,0,0,0,0,0,0,0,0,0,0,0,0,0,0,0,0,0,0,0,0,0,0,0,0,0,0,0,0,0,0,0,0,0,0,0,0,0,0,0,0,0,0,0,0,0,0,0,0,0,0,0,0,0,0,0,0,0,0,0,0,0,0,0,0,0,0,0,0,0,0,0,0,0,0,0,0,0,0,0,0,0,0,0,0,0,0,0,0,0,0,0,0,0,0,0,0,0,0,0,0,0,0,0,0,0,0,0,0,0,0,0,0,0,0,0,0,0,0,0,0,0,0,0,0,0,0,0,0,0,0,0,0,0,0,0,0,0,0,0,0,0,0,0,0,0,0,0,0,0,0,0,0,0,0,0,0,0,0,0,0,0,0,0,0,0,0,0,0,0,0,0,0,0,0,0,0,0,0,0,0,0,0,0,0,0,0,0,0,0,0,0,0,0,0,0,0,0,0,0,0,0,0,0,0,0,0,0,0,0,0,0,0,0,0,0,0,0,0,0,0,0,0,0,0,0,0,0,0,0,0,0,0,0,0,0,0,0,0,0,0,0,0,0,0,0,0,0,0,0,0,0,0,0,0,0,0,0,0,0,0,0,0,0,0,0,0,0,0,0,0,0,0,0,0,0,0,0,0,0,0,0,0,0,0,0,0,0,0,0,0,0,0,0,0,0,0,0,0,0,0,0,0,0,0,0,0,0,0,0,0,0,0,0,0,0,0,0,0,0,0,0,0,0,0,0,0,0,0,0,0,0,0,0,0,0,0,0,0,0,0,0,0,0,0,0,0,0,0,0,0,0,0,0,0,0,0,0,0,0,0,0,0,0,0,0,0,0,0,0,0,0,0,0,0,0,0,0,0,0,0,0,0,0,0,0,0,0,0,0,0,0,0,0,0,0,0,0,0,0,0,0,0,0,0,0,0,0,0,0,0,0,0,0,0,0,0,0,0,0,0,0,0,0,0,0,0,0,0,0,0,0,0,0,0,0,0,0,0,0,0,0,0,0,0,0,0,0,0,0,0,0,0,0,0,0,0,0,0,0,0,0,0,0,0,0,0,0,0,0,0,0,0,0,0,0,0,0,0,0,0,0,0,0,0,0,0,0,0,0,0,0,0,0,0,0,0,0,0,0,0,0,0,0,0,0,0,0,0,0,0,0,0,0,0,0,0,0,0,0,0,0,0,0,0,0,0,0,0,0,0,0,0,0,0,0,0,0,0,0,0,0,0,0,0,0,0,0,0,0,0,0,0,0,0,0,0,0,0,0,0,0,0,0,0,0,0,0,0,0,0,0,0,0,0,0,0,0,0,0,0,0,0,0,0,0,0,0,0,0,0,0,0,0,0,0,0,0,0,0,0,0,0,0,0,0,0,0,0,0,0,0,0,0,0,0,0,0,0,0,0,0,0,0,0,0,0,0,0,0,0,0,0,0,0,0,0,0,0,0,0,0,0,0,0,0,0,0,0,0,0,0,0,0,0,0,0,0,0,0,0,0,0,0,0,0,0,0,0,0,0,0,0,0,0,0,0,0,0,0,0,0,0,0,0,0,0,0,0,0,0,0,0,0,0,0,0,0,0,0,0,0,0,0,0,0,0,0,0,0,0,0,0,0,0,0,0,0,0,0,0,0,0,0,0,0,0,0,0,0,0,0,0,0,0,0,0,0,0,0,0,0,0,0,0,0,0,0,0,0,0,0,0,0,0,0,0,0,0,0,0,0,0,0,0,0,0,0,0,0,0,0,0,0,0,0,0,0,0,0,0,0,0,0,0,0,0,0,0,0,0,0,0,0,0,0,0,0,0,0,0,0,0,0,0,0,0,0,0,0,0,0,0,0,0,0,0,0,0,0,0,0,0,0,0,0,0,0,0,0,0,0,0,0,0,0,0,0,0,0,0,0,0,0,0,0,0,0,0,0,0,0,0,0,0,0,0,0,0,0,0,0,0,0,0,0,0,0,0,0,0,0,0,0,0,0,0,0,0,0,0,0,0,0,0,0,0,0,0,0,0,0,0,0,0,0,0,0,0,0,0,0,0,0,0,0,0,0,0,0,0,0,0,0,0,0,0,0,0,0,0,0,0,0,0,0,0,0,0,0,0,0,0,0,0,0,0,0,0,0,0,0,0,0,0,0,0,0,0,0,0,0,0,0,0,0,0,0,0,0,0,0,0,0,0,0,0,0,0,0,0,0,0,0,0,0,0,0,0,0,0,0,0,0,0,0,0,0,0,0,0,0,0,0,0,0,0,0,0,0,0,0,0,0,0,0,0,0,0,0,0,0,0,0,0,0,0,0,0,0,0,0,0,0,0,0,0,0,0,0,0,0,0,0,0,0,0,0,0,0,0,0,0,0,0,0,0,0,0,0,0,0,0,0,0,0,0,0,0,0,0,0,0,0,0,0,0,0,0,0,0,0,0,0,0,0,0,0,0,0,0,0,0,0,0,0,0,0,0,0,0,0,0,0,0,0,0,0,0,0,0,0,0,0,0,0,0,0,0,0,0,0,0,0,0,0,0,0,0,0,0,0,0,0,0,0,0,0,0,0,0,0,0,0,0,0,0,0,0,0,0,0,0,0,0,0,0,0,0,0,0,0,0,0,0,0,0,0,0,0,0,0,0,0,0,0,0,0,0,0,0,0,0,0,0,0,0,0,0,0,0,0,0,0,0,0,0,0,0,0,0,0,0,0,0,0,0,0,0,0,0,0,0,0,0,0,0,0,0,0,0,0,0,0,0,0,0,0,0,0,0,0,0,0,0,0,0,0,0,0,0,0,0,0,0,0,0,0,0,0,0,0,0,0,0,0,0,0,0,0,0,0,0,0,0,0,0,0,0,0,0,0,0,0,0,0,0,0,0,0,0,0,0,0,0,0,0,0,0,0,0,0,0,0,0,0,0,0,0,0,0,0,0,0,0,0,0,0,0,0,0,0,0,0,0,0,0,0,0,0,0,0,0,0,0,0,0,0,0,0,0,0,0,0,0,0,0,0,0,0,0,0,0,0,0,0,0,0,0,0,0,0,0,0,0,0,0,0,0,0,0,0,0,0,0,0,0,0,0,0,0,0,0,0,0,0,0,0,0,0,0,0,0,0,0,0,0,0,0,0,0,0,0,0,0,0,0,0,0,0,0,0,0,0,0,0,0,0,0,0,0,0,0,0,0,0,0,0,0,0,0,0,0,0,0,0,0,0,0,0,0,0,0,0,0,0,0,0,0,0,0,0,0,0,0,0,0,0,0,0,0,0,0,0,0,0,0,0,0,0,0,0,0,0,0,0,0,0,0,0,0,0,0,0,0,0,0,0,0,0,0,0,0,0,0,0,0,0,0,0,0,0,0,0,0,0,0,0,0,0,0,0,0,0,0,0,0,0,0,0,0,0,0,0,0,0,0,0,0,0,0,0,0,0,0,0,0,0,0,0,0,0,0,0,0,0,0,0,0,0,0,0,0,0,0,0,0,0,0,0,0,0,0,0,0,0,0,0,0,0,0,0,0,0,0,0,0,0,0,0,0,0,0,0,0,0,0,0,0,0,0,0,0,0,0,0,0,0,0,0,0,0,0,0,0,0,0,0,0,0,0,0,0,0,0,0,0,0,0,0,0,0,0,0,0,0,0,0,0,0,0,0,0,0,0,0,0,0,0,0,0,0,0,0,0,0,0,0,0,0,0,0,0,0,0,0,0,0,0,0,0,0,0,0,0,0,0,0,0,0,0,0,0,0,0,0,0,0,0,0,0,0,0,0,0,0,0,0,0,0,0,0,0,0,0,0,0,0,0,0,0,0,0,0,0,0,0,0,0,0,0,0,0,0,0,0,0,0,0,0,0,0,0,0],"trees":[{"base_weights":[4.987817E-5,1.0715567E-3,-5.365642E-3,1.75427E-3,-2.0776342E-3,-1.7019589E-2,-3.8343754E-3,1.4551622E-3,1.28922155E-2,-5.140579E-3,4.772937E-3,-2.6976777E-2,2.17109E-3,-5.7420307E-3,7.6220604E-4,1.6972596E-2,1.2672187E-3,1.7685419E-3,3.4369081E-3,2.4079238E-3,-7.1748993E-3,8.186543E-3,-1.8260236E-3,-6.175881E-4,-1.8711499E-3,-7.597162E-4,3.162296E-4,-3.8089661E-3,-1.3286699E-2,6.7852007E-4,-1.5936481E-3,1.2332267E-3,1.0837877E-4,1.1511495E-3,1.164787E-3,-8.718588E-4,3.0775138E-4,-8.980945E-3,5.583792E-3,2.756135E-3,-9.239853E-3,3.7144332E-3,1.2194349E-2,4.2705747E-4,-5.520427E-3,3.8007347E-5,-1.0374672E-4,-1.3718465E-2,-1.4351101E-3,1.4217956E-3,-1.9793453E-2,8.4697176E-4,-8.596778E-3,1.692748E-3,-1.7185753E-3,5.25453E-5,-1.2798855E-4,-6.9357257E-4,-8.356196E-5,6.9864565E-3,-2.03066E-4,-4.2479273E-4,1.030075E-2,-1.45019945E-2,-6.223788E-3,4.8588045E-4,-4.342047E-5,2.5794032E-4,8.089812E-4,1.9896521E-4,-7.5901677E-3,-6.7163333E-3,-1.8094713E-3,-3.7370718E-3,9.465799E-4,-5.8709395E-7,1.09751476E-4,-5.4216734E-4,-1.4560492E-3,-2.3810198E-3,8.395061E-4,-7.1571005E-4,-1.1083671E-4,2.171228E-3,-5.0950604E-3,-5.0503137E-3,3.3571497E-3,1.4702799E-3,8.352467E-3,1.4720933E-4,6.691781E-4,-1.7327446E-2,-2.4982696E-4,4.95164E-3,-8.056071E-3,-4.034874E-3,2.961025E-3,-1.3687238E-4,-5.5413425E-4,-7.5176926E-3,-5.5039116E-5,1.139126E-3,-6.270098E-3,2.8966635E-3,-3.4363647E-3,4.326731E-3,-3.99395E-3,-3.7261732E-3,2.61429E-3,-1.1570705E-2,1.8900901E-3,-6.094542E-3,4.043974E-3,-6.766884E-4,4.634177E-3,-8.052989E-6,1.352785E-4,5.1628303E-4,1.3757098E-4,-4.5971884E-3,-1.2764278E-3,3.4135807E-4,-3.62976E-4,6.0409642E-5,3.4059162E-4,3.5112444E-3,-1.0984335E-2,-6.4703454E-5,-2.8444023E-4,6.55266E-5,2.4333932E-4,-6.746127E-5,-4.9342925E-4,-3.6131463E-3,3.762664E-3,2.045166E-3,-1.0683375E-2,4.0622687E-4,2.7194017E-4,1.3265356E-4,-5.0434433E-3,3.0203478E-4,7.236372E-5,-3.6975558E-4,-9.1262837E-4,-9.4979315E-4,-3.0872895E-4,7.563388E-3,2.099053E-3,-1.2510797E-2,-8.9700945E-5,-3.894798E-4,3.6004393E-3,8.065051E-4,-7.5070113E-3,3.5257757E-4,-6.229152E-5,6.6082203E-3,-3.0044059E-3,-7.1207616E-3,8.576799E-5,-1.0313777E-4,3.4354225E-4,-1.8210739E-2,-7.36E-3,-5.990117E-5,-2.5274977E-4,7.520391E-5,2.8656158E-4,2.4713526E-4,-8.754128E-4,-7.9192966E-4,-1.0332285E-3,-1.5650477E-3,4.467598E-3,-6.80189E-5,-3.296711E-4,9.308881E-4,-1.768958E-4,-4.426065E-4,2.813288E-4,7.420026E-4,-1.2164587E-4,-4.4423944E-4,1.4118782E-4,-2.694736E-4,-8.1243523E-4,5.041496E-4,5.097994E-5,-3.6459626E-4,2.0166898E-4,1.1899714E-4,-4.8624087E-4,1.07893095E-4,8.6431665E-4,-3.130729E-4,2.4210995E-5,-5.0125434E-4,-1.14915776E-4,-4.7658916E-5,3.8734248E-5,-1.1860974E-3,-2.5414265E-4,9.534776E-5,-5.277817E-4,-2.466816E-4,1.7093083E-4,1.7354037E-5,-1.0676084E-4,1.08668435E-4,-2.6666533E-4,3.5134287E-4,3.524509E-5,1.2289481E-4,-1.032886E-5],"categories":[],"categories_nodes":[],"categories_segments":[],"categories_sizes":[],"default_left":[0,0,0,0,0,0,0,0,0,0,0,0,0,0,0,0,0,0,0,0,0,0,0,0,0,0,0,0,0,0,0,0,0,0,0,0,0,0,0,0,0,0,0,0,0,0,0,0,0,0,0,0,0,0,0,0,0,0,0,0,0,0,0,0,0,0,0,0,0,0,0,0,0,0,0,0,0,0,0,0,0,0,0,0,0,0,0,0,0,0,0,0,0,0,0,0,0,0,0,0,0,0,0,0,0,0,0,0,0,0,0,0,0,0,0,0,0,0,0,0,0,0,0,0,0,0,0,0,0,0,0,0,0,0,0,0,0,0,0,0,0,0,0,0,0,0,0,0,0,0,0,0,0,0,0,0,0,0,0,0,0,0,0,0,0,0,0,0,0,0,0,0,0,0,0,0,0,0,0,0,0,0,0,0,0,0,0,0,0,0,0,0,0,0,0,0,0,0,0,0,0,0,0,0,0,0,0,0,0,0,0,0,0,0,0],"id":0,"left_children":[1,3,5,7,9,11,13,15,17,19,21,23,25,27,29,31,33,-1,35,37,39,41,43,-1,-1,45,-1,47,49,-1,51,-1,-1,53,-1,55,-1,57,59,61,63,65,67,-1,69,-1,-1,71,73,75,77,79,81,83,85,-1,-1,-1,-1,87,-1,-1,89,91,93,-1,95,-1,-1,-1,97,99,-1,101,103,-1,-1,-1,-1,105,-1,-1,-1,107,109,111,113,115,117,-1,-1,119,121,123,125,127,129,-1,-1,131,-1,133,135,137,139,141,143,145,147,149,151,153,155,-1,157,-1,-1,-1,-1,159,-1,-1,-1,-1,-1,161,163,-1,-1,-1,-1,-1,-1,165,167,169,171,-1,173,-1,175,-1,-1,-1,177,-1,179,181,183,185,-1,-1,187,189,191,-1,-1,193,195,197,-1,199,-1,201,203,-1,-1,-1,-1,-1,205,-1,207,209,211,-1,-1,213,-1,-1,-1,-1,-1,-1,-1,-1,-1,-1,-1,-1,-1,-1,-1,-1,-1,-1,-1,-1,-1,-1,-1,-1,-1,-1,-1,-1,-1,-1,-1,-1,-1,-1,-1,-1,-1],"loss_changes":[2.7888084E-3,9.1524253E-4,1.3623645E-3,1.1439145E-3,1.6192376E-3,1.778336E-3,6.3572265E-4,9.729847E-4,1.4063938E-3,8.3114847E-4,5.5557897E-4,1.85702E-4,4.297624E-5,6.9319236E-4,5.888485E-4,2.2579497E-4,7.1917346E-4,0E0,6.18938E-5,4.8418224E-4,8.867658E-4,2.4147856E-4,3.477265E-4,0E0,0E0,5.6052913E-6,0E0,9.683089E-4,9.851877E-4,0E0,3.3202884E-4,0E0,0E0,5.266876E-4,0E0,9.2237E-6,0E0,5.1324256E-5,1.5228998E-4,6.866514E-4,4.6522636E-4,1.5959932E-4,5.0307135E-5,0E0,1.5612936E-4,0E0,0E0,7.779327E-4,1.9542701E-4,2.7728547E-6,1.5912321E-4,6.982753E-4,1.0332558E-4,9.3344593E-4,9.301481E-4,0E0,0E0,0E0,0E0,5.553587E-5,0E0,0E0,2.0738342E-5,4.7889655E-4,5.313277E-4,0E0,8.389999E-5,0E0,0E0,0E0,4.0307525E-5,2.515086E-5,0E0,2.2947005E-4,1.6380195E-4,0E0,0E0,0E0,0E0,1.5792948E-4,0E0,0E0,0E0,7.047766E-4,8.813034E-4,3.3803092E-4,4.7823312E-4,4.552008E-6,3.602996E-6,0E0,0E0,5.0921575E-4,1.4902362E-4,8.692135E-6,7.498842E-4,2.2989116E-6,4.3868167E-6,0E0,0E0,2.9449438E-5,0E0,1.0086943E-4,4.6222014E-4,1.3952407E-4,6.6905486E-5,1.8101855E-6,7.602817E-5,8.2202884E-4,6.1651366E-4,7.470371E-5,1.721103E-4,2.9848004E-4,4.898069E-5,0E0,3.3651057E-4,0E0,0E0,0E0,0E0,7.20001E-5,0E0,0E0,0E0,0E0,0E0,4.4781365E-5,3.1121424E-4,0E0,0E0,0E0,0E0,0E0,0E0,1.3843855E-6,8.337425E-6,3.6444075E-5,2.2085581E-4,0E0,7.635836E-5,0E0,6.232818E-6,0E0,0E0,0E0,2.6678048E-5,0E0,6.4836966E-4,1.2059335E-3,7.90469E-4,4.5165536E-5,0E0,0E0,1.179242E-4,1.3709237E-4,2.379329E-4,0E0,0E0,6.4649736E-4,4.3754248E-5,6.8218797E-6,0E0,2.234834E-6,0E0,7.162732E-5,2.2472744E-4,0E0,0E0,0E0,0E0,0E0,5.183123E-5,0E0,3.8282715E-6,8.252091E-5,1.5055008E-5,0E0,0E0,5.706731E-6,0E0,0E0,0E0,0E0,0E0,0E0,0E0,0E0,0E0,0E0,0E0,0E0,0E0,0E0,0E0,0E0,0E0,0E0,0E0,0E0,0E0,0E0,0E0,0E0,0E0,0E0,0E0,0E0,0E0,0E0,0E0,0E0,0E0,0E0,0E0,0E0,0E0],"parents":[2147483647,0,0,1,1,2,2,3,3,4,4,5,5,6,6,7,7,8,8,9,9,10,10,11,11,12,12,13,13,14,14,15,15,16,16,18,18,19,19,20,20,21,21,22,22,25,25,27,27,28,28,30,30,33,33,35,35,37,37,38,38,39,39,40,40,41,41,42,42,44,44,47,47,48,48,49,49,50,50,51,51,52,52,53,53,54,54,59,59,62,62,63,63,64,64,66,66,70,70,71,71,73,73,74,74,79,79,83,83,84,84,85,85,86,86,87,87,88,88,91,91,92,92,93,93,94,94,95,95,96,96,99,99,101,101,102,102,103,103,104,104,105,105,106,106,107,107,108,108,109,109,110,110,111,111,112,112,114,114,119,119,125,125,126,126,133,133,134,134,135,135,136,136,138,138,140,140,144,144,146,146,147,147,148,148,149,149,152,152,153,153,154,154,157,157,158,158,159,159,161,161,163,163,164,164,170,170,172,172,173,173,174,174,177,177],"right_children":[2,4,6,8,10,12,14,16,18,20,22,24,26,28,30,32,34,-1,36,38,40,42,44,-1,-1,46,-1,48,50,-1,52,-1,-1,54,-1,56,-1,58,60,62,64,66,68,-1,70,-1,-1,72,74,76,78,80,82,84,86,-1,-1,-1,-1,88,-1,-1,90,92,94,-1,96,-1,-1,-1,98,100,-1,102,104,-1,-1,-1,-1,106,-1,-1,-1,108,110,112,114,116,118,-1,-1,120,122,124,126,128,130,-1,-1,132,-1,134,136,138,140,142,144,146,148,150,152,154,156,-1,158,-1,-1,-1,-1,160,-1,-1,-1,-1,-1,162,164,-1,-1,-1,-1,-1,-1,166,168,170,172,-1,174,-1,176,-1,-1,-1,178,-1,180,182,184,186,-1,-1,188,190,192,-1,-1,194,196,198,-1,200,-1,202,204,-1,-1,-1,-1,-1,206,-1,208,210,212,-1,-1,214,-1,-1,-1,-1,-1,-1,-1,-1,-1,-1,-1,-1,-1,-1,-1,-1,-1,-1,-1,-1,-1,-1,-1,-1,-1,-1,-1,-1,-1,-1,-1,-1,-1,-1,-1,-1,-1],"split_conditions":[8.4986943E-1,2.8038514E-1,8.5609174E-1,4.977231E-1,4.2849305E-1,5.942983E-1,3.0338413E-1,1.6150184E-3,3.6933357E-1,1.8746635E-1,4.123004E-1,8.522843E-2,5.923238E-2,9.4934505E-1,3.2187176E-1,5.485941E-1,8.4929055E-1,1.7685419E-3,4.4328648E-1,2.727747E-1,2.6610675E-1,4.6124044E-1,4.4833872E-1,-6.175881E-4,-1.8711499E-3,4.848512E-2,3.162296E-4,3.664182E-1,1.7816465E-1,6.7852007E-4,3.4885558E-1,1.2332267E-3,1.0837877E-4,3.2821357E-1,1.164787E-3,1.0036956E-1,3.0775138E-4,3.3488724E-1,6.753275E-1,2.0710437E-1,3.8264254E-1,2.8240618E-1,8.835438E-2,4.2705747E-4,3.7387818E-1,3.8007347E-5,-1.0374672E-4,3.861945E-1,6.21329E-1,1.0091634E-1,5.4205656E-1,4.269342E-1,9.391868E-1,6.890375E-1,2.0283405E-1,5.25453E-5,-1.2798855E-4,-6.9357257E-4,-8.356196E-5,9.20925E-2,-2.03066E-4,-4.2479273E-4,3.0093825E-1,5.339536E-1,1.8283559E-2,4.8588045E-4,1.9842535E-1,2.5794032E-4,8.089812E-4,1.9896521E-4,4.4965532E-1,9.3025637E-1,-1.8094713E-3,3.0724946E-1,7.0490986E-1,-5.8709395E-7,1.09751476E-4,-5.4216734E-4,-1.4560492E-3,1.8617198E-1,8.395061E-4,-7.1571005E-4,-1.1083671E-4,4.5870617E-2,2.544559E-1,8.268866E-1,3.3123016E-1,3.0823708E-1,6.7322296E-1,1.4720933E-4,6.691781E-4,3.149436E-1,3.0823708E-1,5.1877955E-3,4.5997077E-1,3.8643458E-1,3.9467028E-1,-1.3687238E-4,-5.5413425E-4,3.116813E-1,-5.5039116E-5,4.717577E-1,4.5349926E-1,4.8765627E-1,5.8356047E-2,3.1508157E-1,3.018619E-1,4.7946513E-1,1.375222E-1,7.5426203E-1,1.20236024E-1,3.5884196E-1,6.666663E-2,-6.766884E-4,4.274878E-1,-8.052989E-6,1.352785E-4,5.1628303E-4,1.3757098E-4,2.6029557E-1,-1.2764278E-3,3.4135807E-4,-3.62976E-4,6.0409642E-5,3.4059162E-4,3.126947E-1,5.525387E-1,-6.4703454E-5,-2.8444023E-4,6.55266E-5,2.4333932E-4,-6.746127E-5,-4.9342925E-4,1.02064654E-1,4.965331E-1,7.768108E-2,5.485941E-1,4.0622687E-4,6.869291E-1,1.3265356E-4,3.927364E-1,3.0203478E-4,7.236372E-5,-3.6975558E-4,6.116355E-1,-9.4979315E-4,2.2709028E-1,2.253915E-1,1.8596967E-1,6.9408554E-1,-8.9700945E-5,-3.894798E-4,2.7067044E-1,1.5537104E-1,3.4962818E-1,3.5257757E-4,-6.229152E-5,3.8687643E-1,2.4973513E-1,3.4755802E-1,8.576799E-5,2.8932813E-1,3.4354225E-4,4.021014E-1,6.472388E-1,-5.990117E-5,-2.5274977E-4,7.520391E-5,2.8656158E-4,2.4713526E-4,1.2545851E-1,-7.9192966E-4,9.263219E-2,6.536356E-1,1.3272172E-1,-6.80189E-5,-3.296711E-4,2.606875E-1,-1.768958E-4,-4.426065E-4,2.813288E-4,7.420026E-4,-1.2164587E-4,-4.4423944E-4,1.4118782E-4,-2.694736E-4,-8.1243523E-4,5.041496E-4,5.097994E-5,-3.6459626E-4,2.0166898E-4,1.1899714E-4,-4.8624087E-4,1.07893095E-4,8.6431665E-4,-3.130729E-4,2.4210995E-5,-5.0125434E-4,-1.14915776E-4,-4.7658916E-5,3.8734248E-5,-1.1860974E-3,-2.5414265E-4,9.534776E-5,-5.277817E-4,-2.466816E-4,1.7093083E-4,1.7354037E-5,-1.0676084E-4,1.08668435E-4,-2.6666533E-4,3.5134287E-4,3.524509E-5,1.2289481E-4,-1.032886E-5],"split_indices":[4,1,4,6,2,9,2,4,4,6,6,1,1,4,2,3,4,0,4,3,3,1,2,0,0,1,0,3,6,0,1,0,0,6,0,1,0,1,9,3,3,9,3,0,4,0,0,9,9,1,3,2,4,3,1,0,0,0,0,6,0,0,1,9,4,0,6,0,0,0,3,4,0,9,9,0,0,0,0,9,0,0,0,2,6,4,6,1,9,0,0,3,1,4,3,1,1,0,0,3,0,3,3,3,1,1,9,3,4,4,1,9,1,0,6,0,0,0,0,2,0,0,0,0,0,2,3,0,0,0,0,0,0,1,3,1,3,0,9,0,3,0,0,0,9,0,6,1,4,3,0,0,6,9,3,0,0,6,1,1,0,1,0,1,3,0,0,0,0,0,1,0,1,9,1,0,0,1,0,0,0,0,0,0,0,0,0,0,0,0,0,0,0,0,0,0,0,0,0,0,0,0,0,0,0,0,0,0,0,0,0,0,0,0,0],"split_type":[0,0,0,0,0,0,0,0,0,0,0,0,0,0,0,0,0,0,0,0,0,0,0,0,0,0,0,0,0,0,0,0,0,0,0,0,0,0,0,0,0,0,0,0,0,0,0,0,0,0,0,0,0,0,0,0,0,0,0,0,0,0,0,0,0,0,0,0,0,0,0,0,0,0,0,0,0,0,0,0,0,0,0,0,0,0,0,0,0,0,0,0,0,0,0,0,0,0,0,0,0,0,0,0,0,0,0,0,0,0,0,0,0,0,0,0,0,0,0,0,0,0,0,0,0,0,0,0,0,0,0,0,0,0,0,0,0,0,0,0,0,0,0,0,0,0,0,0,0,0,0,0,0,0,0,0,0,0,0,0,0,0,0,0,0,0,0,0,0,0,0,0,0,0,0,0,0,0,0,0,0,0,0,0,0,0,0,0,0,0,0,0,0,0,0,0,0,0,0,0,0,0,0,0,0,0,0,0,0,0,0,0,0,0,0],"sum_hessian":[5.02E2,4.23E2,7.9E1,3.48E2,7.5E1,8E0,7.1E1,3.4E2,8E0,5.2E1,2.3E1,5E0,3E0,5E1,2.1E1,3E0,3.37E2,2E0,6E0,1.1E1,4.1E1,1.5E1,8E0,2E0,3E0,2E0,1E0,4.1E1,9E0,3E0,1.8E1,2E0,1E0,3.36E2,1E0,2E0,4E0,2E0,9E0,7E0,3.4E1,8E0,7E0,2E0,6E0,1E0,1E0,7E0,3.4E1,3E0,6E0,1.4E1,4E0,2.83E2,5.3E1,1E0,1E0,1E0,1E0,8E0,1E0,3E0,4E0,1.1E1,2.3E1,3E0,5E0,2E0,5E0,1E0,5E0,6E0,1E0,1.7E1,1.7E1,1E0,2E0,3E0,3E0,1.2E1,2E0,2E0,2E0,2.65E2,1.8E1,3.2E1,2.1E1,2E0,6E0,1E0,3E0,9E0,2E0,3E0,2E1,2E0,3E0,2E0,3E0,5E0,1E0,6E0,1.1E1,1.2E1,5E0,2E0,1E1,1.8E1,2.47E2,9E0,9E0,2.9E1,3E0,1E0,2E1,1E0,1E0,5E0,1E0,3E0,6E0,1E0,1E0,1E0,2E0,4E0,1.6E1,1E0,1E0,2E0,1E0,1E0,4E0,2E0,4E0,4E0,7E0,4E0,8E0,1E0,4E0,1E0,1E0,5E0,5E0,3E0,1.5E1,2.2E1,2.25E2,8E0,1E0,1E0,8E0,5E0,2.4E1,2E0,1E0,1.6E1,4E0,2E0,1E0,2E0,2E0,4E0,1.2E1,1E0,1E0,2E0,2E0,2E0,2E0,5E0,2E0,6E0,2E0,1E0,3E0,3E0,2E0,6E0,9E0,1.4E1,8E0,7E0,2.18E2,2E0,6E0,2E0,6E0,1E0,4E0,2E0,2.2E1,1.1E1,5E0,2E0,2E0,1E0,1E0,1E0,1E0,3E0,1E0,2E0,1E1,1E0,1E0,1E0,1E0,3E0,3E0,1E0,1E0,1E0,2E0],"tree_param":{"num_deleted":"0","num_feature":"10","num_nodes":"215","size_leaf_vector":"1"}},{"base_weights":[-1.4508523E-4,-3.6881835E-4,9.773379E-3,5.6838355E-4,-2.8936295E-3,1.2014479E-2,-3.6451733E-4,-3.0950904E-3,1.1771051E-3,-1.7665608E-3,-1.04140015E-2,4.092007E-3,1.9118551E-2,1.1201291E-3,-1.0885222E-2,4.685863E-3,-3.2979174E-4,-4.692111E-3,1.343958E-3,-1.287114E-3,-1.5275293E-2,3.8591807E-4,-7.3569943E-4,2.7555955E-4,2.1509813E-2,-1.2635123E-3,7.881746E-3,6.5299785E-3,-1.632742E-2,-1.9795294E-3,6.8089794E-3,-2.0322495E-3,1.5067954E-3,-1.1041782E-2,-1.9249906E-3,6.4960485E-3,-2.0801004E-3,4.8724105E-4,-4.3170303E-3,-1.6452968E-2,-1.0091159E-4,-8.115172E-5,1.7490544E-5,1.4629237E-3,2.8731598E-4,-3.5217886E-3,5.369208E-3,1.4317663E-3,5.491899E-4,-3.0012862E-4,1.0763797E-2,-1.6370106E-3,-1.0461397E-2,2.650907E-3,-9.476976E-3,1.4480868E-3,1.2442628E-2,2.7121163E-3,-3.7225955E-3,-2.7179336E-3,4.6502287E-3,-1.45287E-3,-5.2018953E-3,9.294463E-4,-3.1977976E-3,2.901623E-3,1.7013059E-3,-5.1669874E-3,7.411683E-3,-6.28298E-5,-2.7371533E-4,-6.9431793E-3,-1.9536708E-2,-6.934228E-3,5.8407366E-4,5.785666E-4,-3.652677E-5,1.6600052E-4,-4.210765E-5,7.4033334E-4,1.3137655E-4,-1.197073E-2,1.3360292E-4,5.879753E-3,-3.172321E-3,1.8401026E-4,-1.3551727E-2,-1.4786477E-3,1.681599E-2,1.42405685E-2,-8.335441E-4,8.7052566E-4,8.344419E-4,-1.6752501E-3,-1.2191151E-2,-1.3613072E-3,-1.1309121E-2,6.074814E-3,-1.5543476E-3,-2.6660555E-3,-7.852034E-4,-1.4671042E-3,-1.5365368E-2,7.979575E-3,-8.3708344E-4,4.536135E-3,-7.05171E-3,1.6093869E-2,3.8827833E-4,3.7617003E-5,-5.5912574E-4,-7.267351E-3,-1.326296E-3,-2.3377698E-3,-5.9850846E-4,1.9666948E-3,-3.2976072E-3,-1.3185887E-2,-2.734435E-4,4.0640475E-4,8.1273454E-4,2.8313426E-4,-5.770007E-3,-4.4892317E-5,-1.5550949E-2,8.092313E-4,-9.765249E-3,1.0664485E-3,2.44104E-4,3.7296861E-3,1.7277373E-2,-8.34452E-3,4.0123382E-4,4.987457E-4,-4.6159563E-4,1.3091731E-3,-5.985468E-3,-1.1388912E-3,-4.1243825E-3,-5.8450276E-4,-9.130999E-4,-7.2007126E-4,-1.5701211E-4,2.4900818E-3,1.1603861E-2,-9.541578E-3,2.1682375E-3,-5.0454965E-4,-5.7539676E-4,2.4048808E-4,-5.044629E-3,1.00494115E-4,-1.1582373E-3,-2.9395614E-3,6.6451944E-4,7.2903545E-3,-2.9775589E-3,-3.9430943E-4,5.242535E-4,-9.463325E-3,1.3584216E-3,2.4689088E-4,1.0732963E-3,-3.461377E-3,3.110361E-4,8.329411E-5,-7.1214885E-4,-6.148639E-4,-2.2242755E-4,-2.8828352E-3,4.063677E-3,-4.5780536E-5,-2.3956635E-4,-9.2092337E-4,-6.4168265E-3,8.4074105E-5,-1.3746969E-5,-4.546088E-4,-1.00154946E-4,-9.932779E-4,-2.0809901E-4,2.7596168E-3,-1.0607793E-2,-1.4826107E-4,-1.2129309E-2,7.880106E-3,-3.3541807E-4,1.9272339E-2,2.9831978E-3,-1.13273425E-4,-6.087903E-4,-3.8399064E-4,7.403429E-4,-2.7723986E-4,6.254777E-3,-1.1076655E-2,1.7258367E-3,7.364912E-4,-7.831649E-3,4.271021E-3,-2.406098E-3,-2.2336121E-3,5.591026E-3,1.4730059E-2,4.1403705E-3,-8.736556E-5,-6.756647E-4,-3.714378E-4,4.0489607E-3,2.7894957E-3,-3.2835745E-3,-6.5067364E-3,1.7630169E-3,-6.4580643E-4,-2.6950908E-3,-3.1188372E-4,5.7519075E-5,5.188127E-4,1.1203255E-4,9.416087E-5,-3.6017653E-3,-5.1149167E-3,-8.979567E-4,3.932615E-3,-2.5266432E-3,-3.6372637E-4,-2.3754092E-5,-5.895425E-5,1.7491255E-5,-2.275528E-4,-2.1903243E-5,2.724728E-4,2.2090175E-5,-1.1160116E-4,-4.1916154E-4,-1.14369286E-4,4.1949464E-4,1.4713434E-4,-9.1400795E-4,-8.377984E-4,-7.368183E-5,-6.317792E-6,5.4802897E-4,4.2529835E-5,1.2282187E-3,-7.996997E-5,4.641424E-4,-2.945766E-5,2.2803404E-4,2.3400465E-4,-2.8061657E-4,1.3486546E-4,5.5980834E-4,-7.381193E-4,4.7357022E-4,4.2299237E-4,-1.1503101E-4,-5.2918633E-4,-1.4639935E-4,-5.9302786E-4,4.988134E-4,-3.1648792E-4,7.418171E-5,-3.7164454E-4,2.16347E-4,6.45169E-4,2.2171595E-4,1.0933735E-3,3.8327766E-4,-2.6980366E-4,4.9626984E-4,3.109007E-4,-1.5385218E-4,-1.00754274E-4,2.515265E-4,-2.3050456E-4,7.996199E-6,-4.8299084E-4,2.7585718E-5,2.2431296E-4,-4.1296396E-5,-1.619159E-5,-4.750674E-4,1.9780739E-5,-2.6713958E-4,5.2518495E-5,-6.5140676E-4,2.6184905E-4,6.0953134E-5,-2.1498985E-5,-1.9713523E-4],"categories":[],"categories_nodes":[],"categories_segments":[],"categories_sizes":[],"default_left":[0,0,0,0,0,0,0,0,0,0,0,0,0,0,0,0,0,0,0,0,0,0,0,0,0,0,0,0,0,0,0,0,0,0,0,0,0,0,0,0,0,0,0,0,0,0,0,0,0,0,0,0,0,0,0,0,0,0,0,0,0,0,0,0,0,0,0,0,0,0,0,0,0,0,0,0,0,0,0,0,0,0,0,0,0,0,0,0,0,0,0,0,0,0,0,0,0,0,0,0,0,0,0,0,0,0,0,0,0,0,0,0,0,0,0,0,0,0,0,0,0,0,0,0,0,0,0,0,0,0,0,0,0,0,0,0,0,0,0,0,0,0,0,0,0,0,0,0,0,0,0,0,0,0,0,0,0,0,0,0,0,0,0,0,0,0,0,0,0,0,0,0,0,0,0,0,0,0,0,0,0,0,0,0,0,0,0,0,0,0,0,0,0,0,0,0,0,0,0,0,0,0,0,0,0,0,0,0,0,0,0,0,0,0,0,0,0,0,0,0,0,0,0,0,0,0,0,0,0,0,0,0,0,0,0,0,0,0,0,0,0,0,0,0,0,0,0,0,0,0,0,0,0,0,0,0,0,0,0,0,0,0,0,0,0,0,0,0,0,0,0,0,0,0,0,0,0,0,0,0,0,0,0,0,0,0,0,0,0,0,0],"id":1,"left_children":[1,3,5,7,9,11,-1,13,15,17,19,21,23,25,27,29,31,33,35,37,39,-1,41,-1,43,45,47,49,51,53,55,57,59,61,63,65,67,-1,69,71,-1,-1,-1,-1,-1,73,75,77,-1,-1,79,-1,81,83,85,87,89,91,93,95,97,-1,99,-1,101,103,-1,105,107,-1,-1,109,111,113,115,-1,-1,-1,-1,-1,-1,117,-1,119,121,-1,123,125,127,129,131,133,-1,135,137,139,141,143,145,147,-1,149,151,153,155,157,159,161,163,-1,-1,165,-1,167,-1,169,171,173,-1,-1,175,-1,177,-1,179,181,183,-1,-1,185,187,189,-1,-1,191,193,195,-1,197,199,-1,-1,-1,201,203,205,207,-1,209,211,213,-1,-1,215,-1,217,219,-1,-1,221,223,-1,-1,225,-1,-1,-1,227,-1,229,231,-1,-1,-1,233,-1,-1,-1,-1,-1,-1,235,237,-1,239,241,-1,243,245,-1,-1,-1,247,249,251,253,255,-1,257,259,261,263,265,267,269,-1,-1,-1,271,273,275,277,279,-1,281,-1,-1,-1,-1,-1,283,285,-1,287,289,-1,-1,-1,-1,-1,-1,-1,-1,-1,-1,-1,-1,-1,-1,-1,-1,-1,-1,-1,-1,-1,-1,-1,-1,-1,-1,-1,-1,-1,-1,-1,-1,-1,-1,-1,-1,-1,-1,-1,-1,-1,-1,-1,-1,-1,-1,-1,-1,-1,-1,-1,-1,-1,-1,-1,-1,-1,-1,-1,-1,-1,-1,-1,-1,-1,-1],"loss_changes":[1.1064918E-3,1.1540122E-3,4.726235E-4,7.9753593E-4,1.1004317E-3,4.8458483E-4,0E0,1.686886E-3,1.61947E-3,1.0619035E-3,7.346027E-4,8.0169535E-5,6.8728E-5,5.579458E-4,1.8126031E-3,1.3154079E-3,6.7530526E-4,1.0329629E-3,1.0190528E-3,2.4290018E-4,1.4644093E-4,0E0,2.5179434E-6,0E0,1.2821914E-4,4.083506E-4,8.147326E-5,3.043693E-4,6.927103E-4,8.2360086E-4,2.096079E-3,9.082936E-4,1.393775E-3,1.3557072E-3,1.0386825E-3,1.8155157E-3,1.0637983E-3,0E0,3.1166928E-6,1.5761028E-4,0E0,0E0,0E0,0E0,0E0,2.842702E-4,2.0215198E-4,1.1476583E-5,0E0,0E0,4.1030056E-5,0E0,2.3986225E-4,3.0068704E-4,5.077514E-4,1.6890427E-3,8.2344236E-4,6.367183E-4,1.4186355E-3,5.090812E-4,5.397793E-4,0E0,2.6225983E-4,0E0,8.40849E-4,4.053639E-4,0E0,5.2575534E-4,5.425576E-4,0E0,0E0,8.9841065E-5,1.2958841E-4,1.4971377E-4,6.015433E-5,0E0,0E0,0E0,0E0,0E0,0E0,2.5361893E-5,0E0,5.3313386E-5,1.5426122E-4,0E0,1.6665808E-4,6.145821E-4,4.7917012E-5,8.931458E-4,3.5054682E-4,2.8363982E-4,0E0,8.825549E-4,8.931982E-4,4.4027047E-4,2.6470341E-5,9.4229286E-4,3.7748614E-4,1.4750633E-4,0E0,2.2724445E-4,4.3805758E-4,3.8171478E-4,2.47863E-4,3.209105E-4,4.7934125E-4,3.9054314E-5,1.3423209E-4,0E0,0E0,1.505199E-4,0E0,1.3320983E-5,0E0,9.3069946E-5,3.128731E-6,4.8001413E-5,0E0,0E0,2.3800014E-6,0E0,2.888561E-5,0E0,5.7366327E-5,6.0823094E-4,8.789572E-5,0E0,0E0,3.62713E-4,5.9838407E-4,2.1558866E-5,0E0,0E0,1.8362582E-4,3.2341067E-4,1.118388E-3,0E0,6.635693E-4,3.5522363E-4,0E0,0E0,0E0,4.6657343E-4,3.8232678E-4,5.196585E-5,1.7175698E-4,0E0,1.0028679E-4,2.785654E-4,1.4323174E-4,0E0,0E0,3.452401E-5,0E0,9.860625E-6,3.7531216E-5,0E0,0E0,3.9803376E-4,6.994176E-5,0E0,0E0,3.209266E-5,0E0,0E0,0E0,1.8048196E-6,0E0,6.4753094E-6,1.27574895E-5,0E0,0E0,0E0,1.1690281E-6,0E0,0E0,0E0,0E0,0E0,0E0,5.065638E-4,3.1601402E-4,0E0,1.1133327E-4,7.869126E-5,0E0,7.3256483E-4,9.963649E-5,0E0,0E0,0E0,8.64147E-5,6.5586605E-4,1.124214E-4,6.6844583E-4,2.6489186E-4,0E0,3.3540186E-5,7.8927976E-4,3.3684025E-4,3.515637E-4,1.4272623E-4,3.180185E-4,3.15656E-4,0E0,0E0,0E0,8.639085E-5,4.3237847E-5,1.5176709E-5,6.916534E-5,1.1869227E-4,0E0,1.3144889E-4,0E0,0E0,0E0,0E0,0E0,4.2179454E-5,4.569034E-4,0E0,2.180801E-6,4.481686E-6,0E0,0E0,0E0,0E0,0E0,0E0,0E0,0E0,0E0,0E0,0E0,0E0,0E0,0E0,0E0,0E0,0E0,0E0,0E0,0E0,0E0,0E0,0E0,0E0,0E0,0E0,0E0,0E0,0E0,0E0,0E0,0E0,0E0,0E0,0E0,0E0,0E0,0E0,0E0,0E0,0E0,0E0,0E0,0E0,0E0,0E0,0E0,0E0,0E0,0E0,0E0,0E0,0E0,0E0,0E0,0E0,0E0,0E0,0E0,0E0,0E0,0E0,0E0,0E0,0E0,0E0],"parents":[2147483647,0,0,1,1,2,2,3,3,4,4,5,5,7,7,8,8,9,9,10,10,11,11,12,12,13,13,14,14,15,15,16,16,17,17,18,18,19,19,20,20,22,22,24,24,25,25,26,26,27,27,28,28,29,29,30,30,31,31,32,32,33,33,34,34,35,35,36,36,38,38,39,39,45,45,46,46,47,47,50,50,52,52,53,53,54,54,55,55,56,56,57,57,58,58,59,59,60,60,62,62,64,64,65,65,67,67,68,68,71,71,72,72,73,73,74,74,81,81,83,83,84,84,86,86,87,87,88,88,89,89,90,90,91,91,93,93,94,94,95,95,96,96,97,97,98,98,99,99,101,101,102,102,103,103,104,104,105,105,106,106,107,107,108,108,111,111,113,113,115,115,116,116,117,117,120,120,122,122,124,124,125,125,126,126,129,129,130,130,131,131,134,134,135,135,136,136,138,138,139,139,143,143,144,144,145,145,146,146,148,148,149,149,150,150,153,153,155,155,156,156,159,159,160,160,163,163,167,167,169,169,170,170,174,174,181,181,182,182,184,184,185,185,187,187,188,188,192,192,193,193,194,194,195,195,196,196,198,198,199,199,200,200,201,201,202,202,203,203,204,204,208,208,209,209,210,210,211,211,212,212,214,214,220,220,221,221,223,223,224,224],"right_children":[2,4,6,8,10,12,-1,14,16,18,20,22,24,26,28,30,32,34,36,38,40,-1,42,-1,44,46,48,50,52,54,56,58,60,62,64,66,68,-1,70,72,-1,-1,-1,-1,-1,74,76,78,-1,-1,80,-1,82,84,86,88,90,92,94,96,98,-1,100,-1,102,104,-1,106,108,-1,-1,110,112,114,116,-1,-1,-1,-1,-1,-1,118,-1,120,122,-1,124,126,128,130,132,134,-1,136,138,140,142,144,146,148,-1,150,152,154,156,158,160,162,164,-1,-1,166,-1,168,-1,170,172,174,-1,-1,176,-1,178,-1,180,182,184,-1,-1,186,188,190,-1,-1,192,194,196,-1,198,200,-1,-1,-1,202,204,206,208,-1,210,212,214,-1,-1,216,-1,218,220,-1,-1,222,224,-1,-1,226,-1,-1,-1,228,-1,230,232,-1,-1,-1,234,-1,-1,-1,-1,-1,-1,236,238,-1,240,242,-1,244,246,-1,-1,-1,248,250,252,254,256,-1,258,260,262,264,266,268,270,-1,-1,-1,272,274,276,278,280,-1,282,-1,-1,-1,-1,-1,284,286,-1,288,290,-1,-1,-1,-1,-1,-1,-1,-1,-1,-1,-1,-1,-1,-1,-1,-1,-1,-1,-1,-1,-1,-1,-1,-1,-1,-1,-1,-1,-1,-1,-1,-1,-1,-1,-1,-1,-1,-1,-1,-1,-1,-1,-1,-1,-1,-1,-1,-1,-1,-1,-1,-1,-1,-1,-1,-1,-1,-1,-1,-1,-1,-1,-1,-1,-1,-1],"split_conditions":[5.080627E-1,3.0865526E-1,4.8602438E-1,3.7500045E-1,3.4885558E-1,3.3700773E-1,-3.6451733E-4,4.5191813E-1,4.896659E-1,2.1003295E-1,3.835223E-1,5.691879E-1,5.2396625E-1,5.051864E-1,1.8758093E-1,9.263219E-2,3.4841E-1,1.7728393E-1,3.257462E-1,1.6587265E-1,6.4953864E-1,3.8591807E-4,1.5808032E-1,2.7555955E-4,7.3250496E-1,2.8932813E-1,3.3662823E-1,1.1940103E-1,3.7094468E-1,3.9882123E-1,4.5992914E-1,1.9101296E-1,1.9884592E-1,4.4896084E-1,1.8301171E-1,3.228463E-1,6.890375E-1,4.8724105E-4,1.3011722E-1,1.7664547E-1,-1.0091159E-4,-8.115172E-5,1.7490544E-5,1.4629237E-3,2.8731598E-4,3.861945E-1,2.4724744E-1,1.6505745E-1,5.491899E-4,-3.0012862E-4,3.233383E-1,-1.6370106E-3,6.662733E-1,6.479176E-1,1.7664547E-1,1.9581084E-1,2.5326163E-1,3.0141175E-1,2.9205507E-1,6.7322296E-1,2.3153862E-1,-1.45287E-3,1.5347621E-1,9.294463E-4,1.9759755E-1,2.869088E-1,1.7013059E-3,2.3898447E-1,7.0752394E-1,-6.28298E-5,-2.7371533E-4,3.2265228E-1,3.149436E-1,1.6080825E-1,3.5942647E-1,5.785666E-4,-3.652677E-5,1.6600052E-4,-4.210765E-5,7.4033334E-4,1.3137655E-4,3.401064E-1,1.3360292E-4,4.8600262E-1,1.990942E-2,1.8401026E-4,1.1322527E-1,2.521231E-1,2.942146E-1,1.5799847E-1,4.4538677E-1,7.976377E-2,8.344419E-4,4.5468342E-1,3.7643522E-1,3.5843858E-1,1.918719E-1,1.4815974E-1,2.658927E-1,5.095929E-1,-7.852034E-4,5.090851E-1,1.8617198E-1,1.9219558E-1,3.2821357E-1,2.2213829E-1,6.0899794E-1,3.32461E-1,4.4564235E-1,3.7617003E-5,-5.5912574E-4,3.7959513E-1,-1.326296E-3,2.4837598E-1,-5.9850846E-4,1.7183134E-1,7.562084E-2,3.4755802E-1,-2.734435E-4,4.0640475E-4,5.502386E-2,2.8313426E-4,6.76359E-2,-4.4892317E-5,2.3557283E-1,1.6629356E-1,3.906247E-1,1.0664485E-3,2.44104E-4,6.619652E-1,8.660242E-1,1.1897746E-1,4.0123382E-4,4.987457E-4,5.142632E-1,1.7269221E-1,5.271769E-1,-1.1388912E-3,7.6031685E-2,5.203743E-1,-9.130999E-4,-7.2007126E-4,-1.5701211E-4,4.9891722E-1,5.5985975E-1,5.6170213E-1,2.1119761E-1,-5.0454965E-4,5.905397E-1,2.825057E-1,5.194529E-1,1.00494115E-4,-1.1582373E-3,2.824622E-1,6.6451944E-4,2.2225998E-1,2.1908005E-1,-3.9430943E-4,5.242535E-4,4.2978168E-1,8.304299E-1,2.4689088E-4,1.0732963E-3,2.3500058E-1,3.110361E-4,8.329411E-5,-7.1214885E-4,1.4661059E-1,-2.2242755E-4,1.6304122E-1,2.078319E-1,-4.5780536E-5,-2.3956635E-4,-9.2092337E-4,4.0505567E-1,8.4074105E-5,-1.3746969E-5,-4.546088E-4,-1.00154946E-4,-9.932779E-4,-2.0809901E-4,1.2449201E-1,3.4369696E-2,-1.4826107E-4,1.8935937E-1,4.0653825E-1,-3.3541807E-4,3.9904246E-1,4.557933E-1,-1.13273425E-4,-6.087903E-4,-3.8399064E-4,1.7694688E-1,1.7885253E-1,2.4120106E-1,7.0490986E-1,7.698069E-2,7.364912E-4,2.7023456E-1,3.725885E-1,1.6202648E-1,1.2084438E-1,5.099744E-1,1.9548671E-1,5.6959033E-1,-8.736556E-5,-6.756647E-4,-3.714378E-4,2.897507E-1,5.923238E-2,1.21436305E-1,1.7863818E-1,3.2091162E-1,-6.4580643E-4,3.8393408E-1,-3.1188372E-4,5.7519075E-5,5.188127E-4,1.1203255E-4,9.416087E-5,3.5451677E-1,4.6013314E-1,-8.979567E-4,3.0093825E-1,2.658927E-1,-3.6372637E-4,-2.3754092E-5,-5.895425E-5,1.7491255E-5,-2.275528E-4,-2.1903243E-5,2.724728E-4,2.2090175E-5,-1.1160116E-4,-4.1916154E-4,-1.14369286E-4,4.1949464E-4,1.4713434E-4,-9.1400795E-4,-8.377984E-4,-7.368183E-5,-6.317792E-6,5.4802897E-4,4.2529835E-5,1.2282187E-3,-7.996997E-5,4.641424E-4,-2.945766E-5,2.2803404E-4,2.3400465E-4,-2.8061657E-4,1.3486546E-4,5.5980834E-4,-7.381193E-4,4.7357022E-4,4.2299237E-4,-1.1503101E-4,-5.2918633E-4,-1.4639935E-4,-5.9302786E-4,4.988134E-4,-3.1648792E-4,7.418171E-5,-3.7164454E-4,2.16347E-4,6.45169E-4,2.2171595E-4,1.0933735E-3,3.8327766E-4,-2.6980366E-4,4.9626984E-4,3.109007E-4,-1.5385218E-4,-1.00754274E-4,2.515265E-4,-2.3050456E-4,7.996199E-6,-4.8299084E-4,2.7585718E-5,2.2431296E-4,-4.1296396E-5,-1.619159E-5,-4.750674E-4,1.9780739E-5,-2.6713958E-4,5.2518495E-5,-6.5140676E-4,2.6184905E-4,6.0953134E-5,-2.1498985E-5,-1.9713523E-4],"split_indices":[1,6,6,3,1,3,0,7,3,1,7,7,7,9,8,1,7,7,7,9,6,0,3,0,3,1,8,1,8,7,9,6,6,3,7,7,3,0,3,8,0,0,0,0,0,9,9,1,0,0,3,0,8,9,8,1,6,7,7,9,1,0,7,0,1,3,0,1,3,0,0,6,3,1,3,0,0,0,0,0,0,3,0,3,1,0,6,6,1,6,3,7,0,8,9,1,6,1,1,3,0,8,9,3,6,1,7,6,7,0,0,1,0,6,0,6,1,1,0,0,1,0,1,0,6,1,9,0,0,9,7,1,0,0,3,1,8,0,1,3,0,0,0,8,9,3,6,0,3,8,8,0,0,1,0,1,1,0,0,3,7,0,0,1,0,0,0,1,0,1,1,0,0,0,1,0,0,0,0,0,0,1,6,0,1,3,0,3,3,0,0,0,6,7,6,9,1,0,6,7,1,1,3,1,9,0,0,0,6,1,1,1,7,0,6,0,0,0,0,0,8,6,0,1,1,0,0,0,0,0,0,0,0,0,0,0,0,0,0,0,0,0,0,0,0,0,0,0,0,0,0,0,0,0,0,0,0,0,0,0,0,0,0,0,0,0,0,0,0,0,0,0,0,0,0,0,0,0,0,0,0,0,0,0,0,0,0,0,0,0,0],"split_type":[0,0,0,0,0,0,0,0,0,0,0,0,0,0,0,0,0,0,0,0,0,0,0,0,0,0,0,0,0,0,0,0,0,0,0,0,0,0,0,0,0,0,0,0,0,0,0,0,0,0,0,0,0,0,0,0,0,0,0,0,0,0,0,0,0,0,0,0,0,0,0,0,0,0,0,0,0,0,0,0,0,0,0,0,0,0,0,0,0,0,0,0,0,0,0,0,0,0,0,0,0,0,0,0,0,0,0,0,0,0,0,0,0,0,0,0,0,0,0,0,0,0,0,0,0,0,0,0,0,0,0,0,0,0,0,0,0,0,0,0,0,0,0,0,0,0,0,0,0,0,0,0,0,0,0,0,0,0,0,0,0,0,0,0,0,0,0,0,0,0,0,0,0,0,0,0,0,0,0,0,0,0,0,0,0,0,0,0,0,0,0,0,0,0,0,0,0,0,0,0,0,0,0,0,0,0,0,0,0,0,0,0,0,0,0,0,0,0,0,0,0,0,0,0,0,0,0,0,0,0,0,0,0,0,0,0,0,0,0,0,0,0,0,0,0,0,0,0,0,0,0,0,0,0,0,0,0,0,0,0,0,0,0,0,0,0,0,0,0,0,0,0,0,0,0,0,0,0,0,0,0,0,0,0,0,0,0,0,0,0,0],"sum_hessian":[4.96E2,4.86E2,1E1,3.55E2,1.31E2,9E0,1E0,5E1,3.05E2,1.15E2,1.6E1,5E0,4E0,3.3E1,1.7E1,9.1E1,2.14E2,5.9E1,5.6E1,6E0,1E1,3E0,2E0,1E0,3E0,2.5E1,8E0,4E0,1.3E1,2.2E1,6.9E1,1.11E2,1.03E2,1.7E1,4.2E1,2.2E1,3.4E1,1E0,5E0,9E0,1E0,1E0,1E0,2E0,1E0,1.9E1,6E0,2E0,6E0,1E0,3E0,3E0,1E1,1.4E1,8E0,3.6E1,3.3E1,2.9E1,8.2E1,4.4E1,5.9E1,4E0,1.3E1,2E0,4E1,2E1,2E0,2.6E1,8E0,1E0,4E0,3E0,6E0,1E1,9E0,3E0,3E0,1E0,1E0,2E0,1E0,9E0,1E0,9E0,5E0,2E0,6E0,3.1E1,5E0,2.9E1,4E0,2.6E1,3E0,6.7E1,1.5E1,3.9E1,5E0,4.8E1,1.1E1,1.1E1,2E0,3.6E1,4E0,8E0,1.2E1,4E0,2.2E1,3E0,5E0,1E0,2E0,2E0,4E0,5E0,5E0,7E0,2E0,7E0,2E0,7E0,2E0,1E0,4E0,1E0,5E0,2.5E1,6E0,4E0,1E0,7E0,2.2E1,2E0,2E0,3E0,2.3E1,4E1,2.7E1,7E0,8E0,3.8E1,1E0,4E0,1E0,3E1,1.8E1,3E0,8E0,2E0,9E0,2.5E1,1.1E1,1E0,3E0,2E0,6E0,2E0,1E1,1E0,3E0,1.7E1,5E0,1E0,2E0,3E0,2E0,1E0,1E0,3E0,2E0,2E0,5E0,1E0,1E0,4E0,3E0,1E0,1E0,2E0,2E0,4E0,1E0,2.2E1,3E0,2E0,4E0,5E0,2E0,1.9E1,3E0,1E0,1E0,3E0,2E1,3.1E1,9E0,1.6E1,1.1E1,1E0,7E0,1E1,2.8E1,1.2E1,1.8E1,1.2E1,6E0,1E0,2E0,1E0,7E0,4E0,5E0,4E0,2.1E1,2E0,9E0,1E0,1E0,1E0,1E0,1E0,9E0,1.1E1,6E0,3E0,2E0,1E0,2E0,2E0,1E0,1E0,1E0,4E0,1E0,1E0,2E0,1.1E1,1.1E1,1E0,2E0,3E0,1E0,1E0,4E0,2E0,1.7E1,2E0,1E0,1.5E1,5E0,1.6E1,1.5E1,5E0,4E0,1.5E1,1E0,4E0,7E0,5E0,2E0,2E0,8E0,1.5E1,1.3E1,7E0,5E0,3E0,1.5E1,7E0,5E0,2E0,4E0,6E0,1E0,1E0,3E0,4E0,1E0,3E0,1E0,1.1E1,1E1,7E0,2E0,2E0,7E0,6E0,5E0,2E0,1E0,1E0,1E0],"tree_param":{"num_deleted":"0","num_feature":"10","num_nodes":"291","size_leaf_vector":"1"}},{"base_weights":[-1.6854727E-4,1.4484981E-2,-3.4763425E-4,1.9606466E-3,1.1685782E-3,-4.4208817E-5,-8.301668E-3,-1.0838216E-4,2.7803984E-4,-3.9419695E-3,4.1553704E-4,4.4910013E-4,-1.0799069E-2,-7.5882548E-3,1.9068711E-3,7.2906567E-3,-1.5196797E-5,-7.373932E-3,-1.1093912E-3,1.022476E-3,-1.3863919E-2,1.4032144E-2,-1.0583032E-3,2.0840503E-3,1.809419E-2,7.985008E-3,-3.0457063E-4,-1.0031236E-2,2.7848693E-4,5.3511616E-3,-9.595242E-4,-1.523966E-2,-1.9053336E-3,1.123451E-3,-6.621333E-5,7.7841553E-4,-2.81115E-3,-6.275633E-3,4.1743624E-3,8.283466E-3,1.8277897E-3,-4.2005518E-4,1.1136228E-2,3.9825434E-4,-5.049576E-3,-1.0393527E-3,-6.254767E-3,1.32491635E-2,-2.183006E-3,-1.6676089E-2,-1.9939356E-4,-1.8185741E-4,1.698605E-5,-1.1148145E-2,8.968606E-4,-1.7138747E-3,-5.757491E-4,8.4209135E-3,1.2089954E-3,5.610052E-4,3.1048417E-5,-4.08346E-4,1.34356255E-2,-3.7754113E-3,1.0686792E-3,-2.9567913E-3,-1.7482854E-2,-1.4170132E-3,-4.2888193E-4,3.0829466E-4,1.117567E-3,2.147668E-3,-5.003324E-4,-7.881098E-5,-1.7748686E-2,-2.1599534E-4,-8.558554E-4,-5.9266493E-4,4.1583385E-3,-2.0878872E-5,-1.2742527E-4,-9.9167635E-5,6.226065E-4,3.3709256E-3,-2.8766312E-3,1.5391794E-2,3.0885756E-3,-2.5686398E-3,-1.7100614E-3,3.219662E-3,-1.3835223E-4,-5.3007607E-3,1.077793E-3,-2.0640695E-2,-3.687493E-4,-1.2534496E-4,2.7286876E-6,2.6886468E-4,-1.0812497E-3,-1.9156216E-2,-3.8486422E-4,5.9783515E-3,-6.626907E-5,3.2104107E-4,3.3395976E-4,-2.4643567E-4,3.776122E-5,9.83561E-4,3.6877426E-4,3.7817727E-4,-1.1091822E-4,3.7551203E-5,-1.08644795E-2,4.0532793E-3,-4.2724577E-3,1.4280921E-3,-2.41502E-3,-7.6714344E-3,-3.0432907E-3,6.444271E-4,-1.882957E-3,-2.4727336E-4,-1.3647552E-3,3.6531983E-5,-1.3009414E-4,-4.386409E-4,-1.2044363E-3,4.3927014E-4,7.2596435E-5,2.397696E-4,-1.649436E-4,-6.1017545E-5,6.636551E-5,1.0208734E-4,-6.37762E-4,2.0197421E-4,-7.298159E-4,5.647039E-5,3.563301E-4,1.8199584E-4,-5.17304E-4,3.0714473E-5,6.063339E-4,-5.046744E-4,-2.267311E-6,-4.6435987E-5,-6.134369E-4,6.103064E-5,-3.6635672E-4,-2.7668243E-4,9.896172E-5],"categories":[],"categories_nodes":[],"categories_segments":[],"categories_sizes":[],"default_left":[0,0,0,0,0,0,0,0,0,0,0,0,0,0,0,0,0,0,0,0,0,0,0,0,0,0,0,0,0,0,0,0,0,0,0,0,0,0,0,0,0,0,0,0,0,0,0,0,0,0,0,0,0,0,0,0,0,0,0,0,0,0,0,0,0,0,0,0,0,0,0,0,0,0,0,0,0,0,0,0,0,0,0,0,0,0,0,0,0,0,0,0,0,0,0,0,0,0,0,0,0,0,0,0,0,0,0,0,0,0,0,0,0,0,0,0,0,0,0,0,0,0,0,0,0,0,0,0,0,0,0,0,0,0,0,0,0,0,0,0,0,0,0,0,0,0,0,0,0,0,0],"id":2,"left_children":[1,3,5,7,-1,9,11,-1,-1,13,15,-1,17,19,21,23,25,27,-1,29,31,33,35,37,39,41,43,45,-1,47,-1,49,51,-1,-1,-1,53,55,57,59,-1,-1,61,63,65,-1,67,69,71,73,-1,-1,-1,75,77,79,-1,81,83,-1,-1,-1,85,87,89,91,93,95,-1,-1,-1,97,-1,-1,99,-1,-1,-1,101,-1,-1,-1,-1,103,105,107,109,111,-1,113,115,117,119,121,-1,-1,-1,-1,123,125,-1,127,129,-1,131,-1,-1,-1,-1,-1,-1,133,135,137,139,141,143,145,147,-1,149,-1,-1,-1,-1,-1,-1,-1,-1,-1,-1,-1,-1,-1,-1,-1,-1,-1,-1,-1,-1,-1,-1,-1,-1,-1,-1,-1,-1,-1,-1],"loss_changes":[1.3040424E-3,3.940264E-4,1.1822265E-3,4.198708E-5,0E0,8.492442E-4,8.0722E-4,0E0,0E0,1.0807968E-3,1.2557218E-3,0E0,3.2027997E-4,1.6893555E-3,7.339212E-4,1.3685344E-3,9.2845195E-4,4.6992354E-4,0E0,1.158962E-3,2.6709773E-4,3.5282457E-4,4.7155665E-4,3.4073502E-4,8.0417003E-4,7.5460464E-4,1.2926206E-3,2.1904218E-4,0E0,7.4298144E-4,0E0,2.1317275E-4,9.1583815E-6,0E0,0E0,0E0,5.04617E-4,5.049676E-5,1.7870791E-4,6.175027E-5,0E0,0E0,5.977015E-4,9.498022E-4,1.2493156E-3,0E0,4.0832732E-5,1.8690701E-4,2.1537318E-4,2.0565116E-4,0E0,0E0,0E0,8.097448E-5,4.7991137E-4,1.20821E-6,0E0,1.628529E-4,9.802531E-5,0E0,0E0,0E0,1.751075E-4,1.391047E-3,7.585662E-4,4.2181858E-4,1.1321949E-4,3.422997E-6,0E0,0E0,0E0,4.5611192E-5,0E0,0E0,7.488765E-5,0E0,0E0,0E0,7.7284596E-5,0E0,0E0,0E0,0E0,4.478816E-5,2.2504191E-5,2.5291229E-5,6.4727734E-5,9.949529E-4,0E0,6.731013E-4,6.739083E-4,1.2650178E-4,5.290518E-4,1.4529494E-4,0E0,0E0,0E0,0E0,7.4661366E-6,6.0118735E-5,0E0,4.4479035E-5,5.9058748E-5,0E0,5.7618918E-6,0E0,0E0,0E0,0E0,0E0,0E0,7.112759E-4,3.266289E-4,6.14187E-4,4.1186294E-4,9.055143E-4,1.1582213E-3,2.5587028E-4,2.2375002E-4,0E0,1.5499201E-4,0E0,0E0,0E0,0E0,0E0,0E0,0E0,0E0,0E0,0E0,0E0,0E0,0E0,0E0,0E0,0E0,0E0,0E0,0E0,0E0,0E0,0E0,0E0,0E0,0E0,0E0,0E0,0E0,0E0,0E0],"parents":[2147483647,0,0,1,1,2,2,3,3,5,5,6,6,9,9,10,10,12,12,13,13,14,14,15,15,16,16,17,17,19,19,20,20,21,21,22,22,23,23,24,24,25,25,26,26,27,27,29,29,31,31,32,32,36,36,37,37,38,38,39,39,42,42,43,43,44,44,46,46,47,47,48,48,49,49,53,53,54,54,55,55,57,57,58,58,62,62,63,63,64,64,65,65,66,66,67,67,71,71,74,74,78,78,83,83,84,84,85,85,86,86,87,87,89,89,90,90,91,91,92,92,93,93,98,98,99,99,101,101,102,102,104,104,111,111,112,112,113,113,114,114,115,115,116,116,117,117,118,118,120,120],"right_children":[2,4,6,8,-1,10,12,-1,-1,14,16,-1,18,20,22,24,26,28,-1,30,32,34,36,38,40,42,44,46,-1,48,-1,50,52,-1,-1,-1,54,56,58,60,-1,-1,62,64,66,-1,68,70,72,74,-1,-1,-1,76,78,80,-1,82,84,-1,-1,-1,86,88,90,92,94,96,-1,-1,-1,98,-1,-1,100,-1,-1,-1,102,-1,-1,-1,-1,104,106,108,110,112,-1,114,116,118,120,122,-1,-1,-1,-1,124,126,-1,128,130,-1,132,-1,-1,-1,-1,-1,-1,134,136,138,140,142,144,146,148,-1,150,-1,-1,-1,-1,-1,-1,-1,-1,-1,-1,-1,-1,-1,-1,-1,-1,-1,-1,-1,-1,-1,-1,-1,-1,-1,-1,-1,-1,-1,-1],"split_conditions":[1.4296682E-3,2.3648651E-1,9.641674E-1,3.0955747E-1,1.1685782E-3,8.522388E-2,1.3944682E-1,-1.0838216E-4,2.7803984E-4,5.465777E-1,3.0648026E-1,4.4910013E-4,3.212217E-1,3.0981672E-1,4.4662192E-1,2.924857E-1,1.2350204E-1,5.4205656E-1,-1.1093912E-3,3.2265228E-1,3.0968654E-1,2.77494E-2,5.485941E-1,1.6389614E-1,3.8776574E-1,1.8084483E-1,5.82482E-1,1.7192614E-1,2.7848693E-4,3.4080986E-2,-9.595242E-4,8.143789E-2,4.4414318E-1,1.123451E-3,-6.621333E-5,7.7841553E-4,5.4399645E-1,3.7174526E-1,3.3466646E-1,7.4892825E-1,1.8277897E-3,-4.2005518E-4,3.8264254E-1,3.8584772E-1,4.3473846E-1,-1.0393527E-3,9.749441E-1,1.7490612E-1,2.8445193E-1,1.5808032E-1,-1.9939356E-4,-1.8185741E-4,1.698605E-5,2.1641138E-1,5.1924447E-3,1.8005641E-1,-5.757491E-4,1.3629447E-1,2.702563E-1,5.610052E-4,3.1048417E-5,-4.08346E-4,1.149798E-1,6.369349E-1,4.8765627E-1,8.27332E-1,6.890375E-1,2.7806008E-1,-4.2888193E-4,3.0829466E-4,1.117567E-3,1.4155956E-1,-5.003324E-4,-7.881098E-5,4.6920484E-1,-2.1599534E-4,-8.558554E-4,-5.9266493E-4,6.894004E-1,-2.0878872E-5,-1.2742527E-4,-9.9167635E-5,6.226065E-4,6.962213E-1,2.727747E-1,7.481201E-1,5.554673E-1,4.1502845E-1,-1.7100614E-3,3.5390064E-1,5.40323E-1,2.544559E-1,8.2930267E-1,5.832266E-1,-3.687493E-4,-1.2534496E-4,2.7286876E-6,2.6886468E-4,2.7589345E-1,3.2203838E-1,-3.8486422E-4,5.3179187E-1,7.492864E-3,3.2104107E-4,1.3011722E-1,-2.4643567E-4,3.776122E-5,9.83561E-4,3.6877426E-4,3.7817727E-4,-1.1091822E-4,5.029274E-1,1.7329046E-1,4.1599223E-1,4.873519E-1,5.0481606E-1,5.338902E-1,4.114385E-1,5.691496E-1,6.444271E-4,3.021907E-1,-2.4727336E-4,-1.3647552E-3,3.6531983E-5,-1.3009414E-4,-4.386409E-4,-1.2044363E-3,4.3927014E-4,7.2596435E-5,2.397696E-4,-1.649436E-4,-6.1017545E-5,6.636551E-5,1.0208734E-4,-6.37762E-4,2.0197421E-4,-7.298159E-4,5.647039E-5,3.563301E-4,1.8199584E-4,-5.17304E-4,3.0714473E-5,6.063339E-4,-5.046744E-4,-2.267311E-6,-4.6435987E-5,-6.134369E-4,6.103064E-5,-3.6635672E-4,-2.7668243E-4,9.896172E-5],"split_indices":[5,6,5,0,0,5,8,0,0,3,0,0,8,8,0,0,5,3,0,6,6,5,3,8,6,6,0,9,0,5,0,5,0,0,0,0,0,3,9,5,0,0,3,0,6,0,5,6,9,3,0,0,0,6,5,0,0,9,0,0,0,0,5,9,3,5,3,0,0,0,0,8,0,0,0,0,0,0,3,0,0,0,0,5,3,9,0,3,0,6,9,6,5,0,0,0,0,0,0,8,0,8,5,0,3,0,0,0,0,0,0,8,5,9,5,8,3,5,9,0,6,0,0,0,0,0,0,0,0,0,0,0,0,0,0,0,0,0,0,0,0,0,0,0,0,0,0,0,0,0,0],"split_type":[0,0,0,0,0,0,0,0,0,0,0,0,0,0,0,0,0,0,0,0,0,0,0,0,0,0,0,0,0,0,0,0,0,0,0,0,0,0,0,0,0,0,0,0,0,0,0,0,0,0,0,0,0,0,0,0,0,0,0,0,0,0,0,0,0,0,0,0,0,0,0,0,0,0,0,0,0,0,0,0,0,0,0,0,0,0,0,0,0,0,0,0,0,0,0,0,0,0,0,0,0,0,0,0,0,0,0,0,0,0,0,0,0,0,0,0,0,0,0,0,0,0,0,0,0,0,0,0,0,0,0,0,0,0,0,0,0,0,0,0,0,0,0,0,0,0,0,0,0,0,0],"sum_hessian":[4.94E2,5E0,4.89E2,2E0,3E0,4.72E2,1.7E1,1E0,1E0,4.9E1,4.23E2,2E0,1.5E1,3E1,1.9E1,2.4E1,3.99E2,1.2E1,3E0,1.3E1,1.7E1,3E0,1.6E1,1.7E1,7E0,1.3E1,3.86E2,1E1,2E0,1.1E1,2E0,1.5E1,2E0,2E0,1E0,1E0,1.5E1,3E0,1.4E1,5E0,2E0,2E0,1.1E1,3.37E2,4.9E1,2E0,8E0,5E0,6E0,1.3E1,2E0,1E0,1E0,4E0,1.1E1,2E0,1E0,5E0,9E0,4E0,1E0,1E0,1E1,4.6E1,2.91E2,4.3E1,6E0,2E0,6E0,3E0,2E0,4E0,2E0,1E0,1.2E1,2E0,2E0,2E0,9E0,1E0,1E0,1E0,4E0,6E0,3E0,8E0,2E0,4.5E1,1E0,1.04E2,1.87E2,2.7E1,1.6E1,4E0,2E0,1E0,1E0,2E0,2E0,1E1,2E0,6E0,3E0,3E0,3E0,2E0,1E0,6E0,2E0,1E0,1E0,3.5E1,1E1,9.4E1,1E1,1.11E2,7.6E1,1.2E1,1.5E1,3E0,1.3E1,1E0,3E0,1E0,1E0,2E0,8E0,4E0,2E0,1E0,2E0,1E0,2E0,3.1E1,4E0,1E0,9E0,3.9E1,5.5E1,4E0,6E0,1.02E2,9E0,2E1,5.6E1,4E0,8E0,7E0,8E0,7E0,6E0],"tree_param":{"num_deleted":"0","num_feature":"10","num_nodes":"151","size_leaf_vector":"1"}},{"base_weights":[-1.8948663E-4,1.3872417E-2,-3.5552593E-4,1.7376734E-2,-1.05256004E-4,-1.0226699E-4,-8.121018E-3,2.7002013E-4,1.1180189E-3,4.634065E-3,-5.0890725E-4,3.930851E-4,-9.570956E-3,-2.905771E-4,1.0395625E-2,8.539147E-4,-1.749342E-3,3.1429762E-4,-1.1032919E-2,1.5974347E-3,-9.185989E-3,2.3732722E-2,4.8898305E-3,6.709201E-3,5.6563873E-5,-9.160744E-3,-1.1377828E-3,-1.3297803E-2,9.831445E-5,4.8538283E-3,-3.4868354E-3,-8.5503154E-4,2.2271082E-4,3.5478264E-5,1.6936174E-3,-7.8059244E-4,7.347719E-3,4.8505142E-3,1.1158119E-3,-9.1303803E-4,4.1430867E-3,-1.2654383E-2,6.230586E-3,3.8901862E-4,-3.4938795E-3,-2.1036755E-4,-1.3843664E-2,6.9105797E-3,5.9226085E-4,-6.003424E-3,2.7086204E-3,-9.87231E-5,9.591524E-3,8.414696E-4,3.7930019E-3,9.142096E-3,-1.2377922E-3,8.957485E-3,4.533841E-4,-1.7966798E-2,-1.6912945E-3,-6.9387077E-4,7.788976E-4,9.745906E-3,-4.583018E-5,-6.8675294E-3,-8.600279E-4,-3.2406423E-4,-8.680558E-4,8.183981E-5,7.492471E-3,-1.439361E-4,1.9878726E-3,7.899755E-5,-5.787334E-4,-2.0276646E-5,2.546576E-4,1.8099713E-3,-1.6800972E-4,-1.2374984E-4,1.1133953E-2,1.5167232E-3,7.1653547E-3,1.3762739E-3,-4.9729703E-4,-8.366668E-3,-7.3061354E-4,1.222558E-2,-6.774432E-4,-1.329824E-3,5.0824427E-4,-1.527935E-4,-1.9374521E-2,2.3900764E-3,-6.3739525E-4,-7.653778E-5,1.6496107E-5,-9.1770105E-4,1.1950238E-3,1.868931E-3,-4.5615276E-3,-2.4403896E-2,-4.6671582E-3,-1.7086288E-3,9.326041E-3,1.18694756E-4,4.646954E-4,1.3940324E-4,2.0246613E-5,1.5357917E-5,1.412616E-4,7.879627E-4,3.6816244E-4,2.4869845E-3,-1.8421498E-4,7.897098E-3,3.7826136E-5,-1.0381435E-2,2.8169554E-4,3.2253487E-3,-1.8094119E-3,1.3886455E-2,5.4322174E-3,-5.502221E-4,2.262609E-4,5.4203277E-4,-3.14439E-3,-1.1809608E-3,-3.0567558E-4,5.592053E-5,2.3285374E-4,4.3534458E-4,-3.6081643E-4,3.9168275E-3,-1.578124E-3,-6.0043074E-3,9.563872E-3,-2.2110998E-4,-1.729665E-3,-1.1867284E-2,-1.3124163E-3,4.320952E-3,-3.2503968E-3,7.877599E-4,-1.0564495E-4,-4.1998366E-5,2.3056444E-4,5.630503E-4,2.0731737E-4,-7.010766E-4,1.0934316E-4,-4.6051497E-4,3.2811685E-4,-3.7972242E-4,-5.166688E-5,-6.5813234E-5,9.176651E-4,-9.083134E-5,4.7838347E-4,-4.587519E-4,1.1599146E-5,2.6223564E-5,4.8854604E-4,-4.2956296E-4,2.166437E-4,-2.195954E-4,-1.305708E-3,9.6453464E-4,-3.433671E-4,-1.0297333E-4,-1.3619483E-3,-6.6060707E-4,6.715618E-5,3.5785433E-5,3.8562153E-4,3.3420933E-5,-3.3304485E-4],"categories":[],"categories_nodes":[],"categories_segments":[],"categories_sizes":[],"default_left":[0,0,0,0,0,0,0,0,0,0,0,0,0,0,0,0,0,0,0,0,0,0,0,0,0,0,0,0,0,0,0,0,0,0,0,0,0,0,0,0,0,0,0,0,0,0,0,0,0,0,0,0,0,0,0,0,0,0,0,0,0,0,0,0,0,0,0,0,0,0,0,0,0,0,0,0,0,0,0,0,0,0,0,0,0,0,0,0,0,0,0,0,0,0,0,0,0,0,0,0,0,0,0,0,0,0,0,0,0,0,0,0,0,0,0,0,0,0,0,0,0,0,0,0,0,0,0,0,0,0,0,0,0,0,0,0,0,0,0,0,0,0,0,0,0,0,0,0,0,0,0,0,0,0,0,0,0,0,0,0,0,0,0,0,0,0,0,0,0,0,0,0,0,0,0,0,0],"id":3,"left_children":[1,3,5,7,-1,9,11,-1,-1,13,15,-1,17,19,21,23,25,-1,27,29,31,33,35,37,39,41,43,45,-1,47,49,-1,-1,-1,-1,-1,51,53,-1,55,57,59,61,63,65,-1,67,69,71,73,75,77,79,-1,81,83,85,87,89,91,93,95,-1,97,99,101,103,-1,-1,-1,105,-1,107,-1,-1,-1,-1,109,-1,-1,111,113,115,-1,-1,117,119,121,123,125,-1,-1,127,129,-1,-1,-1,131,-1,133,135,137,139,141,143,-1,-1,-1,-1,-1,-1,-1,-1,145,-1,147,-1,149,-1,151,153,155,157,-1,-1,-1,159,-1,-1,-1,-1,-1,-1,161,163,165,167,-1,-1,169,171,173,175,-1,-1,-1,-1,-1,-1,-1,-1,-1,-1,-1,-1,-1,-1,-1,-1,-1,-1,-1,-1,-1,-1,-1,-1,-1,-1,-1,-1,-1,-1,-1,-1,-1,-1],"loss_changes":[1.2003643E-3,3.6174885E-4,9.962764E-4,3.648759E-5,0E0,9.4994216E-4,4.1169475E-4,0E0,0E0,1.1095917E-3,7.689769E-4,0E0,3.8947363E-4,3.8415616E-4,1.2057147E-3,1.0127322E-3,1.0683148E-3,0E0,4.265377E-4,3.314958E-4,3.5133125E-4,6.3220854E-4,7.333058E-4,5.166851E-4,7.645444E-4,1.0467356E-3,7.963607E-4,1.2734905E-5,0E0,1.01086946E-4,1.4099228E-4,0E0,0E0,0E0,0E0,0E0,2.1815562E-4,1.9177882E-4,0E0,5.207257E-4,6.5319554E-4,8.432199E-4,2.107704E-4,5.497389E-4,7.671489E-4,0E0,2.4402281E-5,1.4936202E-5,2.6503669E-5,1.9195827E-4,1.7211436E-5,2.6753187E-5,2.0491442E-4,0E0,1.6568965E-4,1.5125673E-3,5.434605E-4,5.1208807E-4,3.395618E-4,1.6432186E-4,2.5556356E-4,2.2397644E-6,0E0,7.208577E-4,1.1325679E-3,1.3523907E-3,4.481301E-4,0E0,0E0,0E0,4.8409274E-6,0E0,1.9584731E-6,0E0,0E0,0E0,0E0,2.3063367E-6,0E0,0E0,2.082286E-5,7.649127E-5,3.769237E-5,0E0,0E0,3.1764602E-4,6.1611505E-4,5.9960876E-5,2.411841E-4,3.99336E-4,0E0,0E0,3.050873E-5,7.782324E-6,0E0,0E0,0E0,2.2789519E-4,0E0,6.556287E-4,8.5223815E-4,3.4417165E-4,8.2983484E-4,4.5096688E-4,2.18234E-4,0E0,0E0,0E0,0E0,0E0,0E0,0E0,0E0,6.601163E-5,0E0,2.9067742E-5,0E0,2.1877559E-4,0E0,9.0100407E-4,4.869485E-4,2.9148266E-4,9.32264E-5,0E0,0E0,0E0,2.7504045E-4,0E0,0E0,0E0,0E0,0E0,0E0,9.1023656E-4,1.1234196E-3,1.2295308E-3,5.4365594E-4,0E0,0E0,1.2600728E-3,6.4107636E-4,8.332463E-5,3.704946E-4,0E0,0E0,0E0,0E0,0E0,0E0,0E0,0E0,0E0,0E0,0E0,0E0,0E0,0E0,0E0,0E0,0E0,0E0,0E0,0E0,0E0,0E0,0E0,0E0,0E0,0E0,0E0,0E0,0E0,0E0,0E0,0E0,0E0,0E0],"parents":[2147483647,0,0,1,1,2,2,3,3,5,5,6,6,9,9,10,10,12,12,13,13,14,14,15,15,16,16,18,18,19,19,20,20,21,21,22,22,23,23,24,24,25,25,26,26,27,27,29,29,30,30,36,36,37,37,39,39,40,40,41,41,42,42,43,43,44,44,46,46,47,47,48,48,49,49,50,50,51,51,52,52,54,54,55,55,56,56,57,57,58,58,59,59,60,60,61,61,63,63,64,64,65,65,66,66,70,70,72,72,77,77,80,80,81,81,82,82,85,85,86,86,87,87,88,88,89,89,92,92,93,93,97,97,99,99,100,100,101,101,102,102,103,103,104,104,113,113,115,115,117,117,119,119,120,120,121,121,122,122,126,126,133,133,134,134,135,135,136,136,139,139,140,140,141,141,142,142],"right_children":[2,4,6,8,-1,10,12,-1,-1,14,16,-1,18,20,22,24,26,-1,28,30,32,34,36,38,40,42,44,46,-1,48,50,-1,-1,-1,-1,-1,52,54,-1,56,58,60,62,64,66,-1,68,70,72,74,76,78,80,-1,82,84,86,88,90,92,94,96,-1,98,100,102,104,-1,-1,-1,106,-1,108,-1,-1,-1,-1,110,-1,-1,112,114,116,-1,-1,118,120,122,124,126,-1,-1,128,130,-1,-1,-1,132,-1,134,136,138,140,142,144,-1,-1,-1,-1,-1,-1,-1,-1,146,-1,148,-1,150,-1,152,154,156,158,-1,-1,-1,160,-1,-1,-1,-1,-1,-1,162,164,166,168,-1,-1,170,172,174,176,-1,-1,-1,-1,-1,-1,-1,-1,-1,-1,-1,-1,-1,-1,-1,-1,-1,-1,-1,-1,-1,-1,-1,-1,-1,-1,-1,-1,-1,-1,-1,-1,-1,-1],"split_conditions":[1.4296682E-3,8.350052E-1,9.749441E-1,2.1967499E-1,-1.05256004E-4,1.9960618E-1,1.3944682E-1,2.7002013E-4,1.1180189E-3,1.4988719E-1,1.5458292E-1,3.930851E-4,2.2472632E-1,5.333555E-1,2.1817538E-1,1.562145E-1,3.326147E-2,3.1429762E-4,4.9272153E-1,2.8132203E-1,1.8407243E-1,2.7589345E-1,1.1547194E-1,1.5284693E-1,1.3654636E-1,3.7958878E-1,8.4071225E-1,1.3245325E-1,9.831445E-5,6.782959E-1,8.583526E-1,-8.5503154E-4,2.2271082E-4,3.5478264E-5,1.6936174E-3,-7.8059244E-4,1.1534059E-1,2.77494E-2,1.1158119E-3,1.2457167E-2,4.7384742E-1,4.6920484E-1,4.0052778E-1,9.8179385E-2,2.2576989E-1,-2.1036755E-4,1.4427297E-1,3.0027726E-1,3.0494446E-1,2.4639419E-1,1.8005641E-1,4.3162748E-1,4.1844794E-1,8.414696E-4,1.3407743E-1,4.1489053E-1,5.997214E-2,2.7067044E-1,5.832266E-1,1.5799847E-1,7.568955E-1,3.739223E-1,7.788976E-4,8.639308E-2,5.6919277E-1,3.8584772E-1,6.948035E-1,-3.2406423E-4,-8.680558E-4,8.183981E-5,3.4369696E-2,-1.439361E-4,4.7712478E-1,7.899755E-5,-5.787334E-4,-2.0276646E-5,2.546576E-4,4.0203464E-1,-1.6800972E-4,-1.2374984E-4,8.671321E-1,8.2350427E-1,5.800726E-1,1.3762739E-3,-4.9729703E-4,4.954627E-1,2.8624043E-1,4.5214388E-1,3.564129E-1,1.6786046E-1,5.0824427E-4,-1.527935E-4,2.7195108E-1,6.980245E-1,-6.3739525E-4,-7.653778E-5,1.6496107E-5,1.5997416E-1,1.1950238E-3,3.106647E-1,7.266811E-1,3.6337247E-1,1.17900364E-1,2.652639E-1,3.0494446E-1,1.18694756E-4,4.646954E-4,1.3940324E-4,2.0246613E-5,1.5357917E-5,1.412616E-4,7.879627E-4,3.6816244E-4,3.8779938E-1,-1.8421498E-4,4.8596397E-1,3.7826136E-5,6.8119144E-1,2.8169554E-4,1.8508618E-1,4.193188E-1,1.1666586E-1,4.5657682E-1,-5.502221E-4,2.262609E-4,5.4203277E-4,1.9668339E-1,-1.1809608E-3,-3.0567558E-4,5.592053E-5,2.3285374E-4,4.3534458E-4,-3.6081643E-4,2.3722239E-1,3.7887982E-1,4.274878E-1,2.089111E-1,-2.2110998E-4,-1.729665E-3,4.6511167E-1,8.644361E-1,1.9799338E-1,3.8326794E-1,7.877599E-4,-1.0564495E-4,-4.1998366E-5,2.3056444E-4,5.630503E-4,2.0731737E-4,-7.010766E-4,1.0934316E-4,-4.6051497E-4,3.2811685E-4,-3.7972242E-4,-5.166688E-5,-6.5813234E-5,9.176651E-4,-9.083134E-5,4.7838347E-4,-4.587519E-4,1.1599146E-5,2.6223564E-5,4.8854604E-4,-4.2956296E-4,2.166437E-4,-2.195954E-4,-1.305708E-3,9.6453464E-4,-3.433671E-4,-1.0297333E-4,-1.3619483E-3,-6.6060707E-4,6.715618E-5,3.5785433E-5,3.8562153E-4,3.3420933E-5,-3.3304485E-4],"split_indices":[5,7,5,6,0,8,8,0,0,8,2,0,7,0,5,6,5,0,0,6,2,0,2,6,2,2,5,6,0,7,5,0,0,0,0,0,6,5,0,5,0,0,2,5,2,0,8,0,0,2,0,0,5,0,6,0,5,6,0,6,0,0,0,5,0,0,6,0,0,0,6,0,0,0,0,0,0,0,0,0,5,5,8,0,0,0,5,0,0,6,0,0,2,0,0,0,0,2,0,6,0,0,7,2,0,0,0,0,0,0,0,0,0,7,0,0,0,8,0,6,5,7,0,0,0,0,6,0,0,0,0,0,0,6,6,6,2,0,0,8,5,7,0,0,0,0,0,0,0,0,0,0,0,0,0,0,0,0,0,0,0,0,0,0,0,0,0,0,0,0,0,0,0,0,0,0,0],"split_type":[0,0,0,0,0,0,0,0,0,0,0,0,0,0,0,0,0,0,0,0,0,0,0,0,0,0,0,0,0,0,0,0,0,0,0,0,0,0,0,0,0,0,0,0,0,0,0,0,0,0,0,0,0,0,0,0,0,0,0,0,0,0,0,0,0,0,0,0,0,0,0,0,0,0,0,0,0,0,0,0,0,0,0,0,0,0,0,0,0,0,0,0,0,0,0,0,0,0,0,0,0,0,0,0,0,0,0,0,0,0,0,0,0,0,0,0,0,0,0,0,0,0,0,0,0,0,0,0,0,0,0,0,0,0,0,0,0,0,0,0,0,0,0,0,0,0,0,0,0,0,0,0,0,0,0,0,0,0,0,0,0,0,0,0,0,0,0,0,0,0,0,0,0,0,0,0,0],"sum_hessian":[5.11E2,5E0,5.06E2,4E0,1E0,4.91E2,1.5E1,1E0,3E0,3.8E1,4.53E2,1E0,1.4E1,2.1E1,1.7E1,2.16E2,2.37E2,1E0,1.3E1,1.8E1,3E0,4E0,1.3E1,2.5E1,1.91E2,1.7E1,2.2E2,1.1E1,2E0,1.1E1,7E0,2E0,1E0,1E0,3E0,1E0,1.2E1,2.3E1,2E0,1.55E2,3.6E1,1.4E1,3E0,1.34E2,8.6E1,1E0,1E1,7E0,4E0,5E0,2E0,3E0,9E0,1E0,2.2E1,4E0,1.51E2,1.5E1,2.1E1,9E0,5E0,2E0,1E0,5E0,1.29E2,3.7E1,4.9E1,2E0,8E0,1E0,6E0,1E0,3E0,2E0,3E0,1E0,1E0,2E0,1E0,1E0,8E0,1.4E1,8E0,2E0,2E0,9E0,1.42E2,1.1E1,4E0,1.8E1,3E0,1E0,8E0,4E0,1E0,1E0,1E0,3E0,2E0,9.1E1,3.8E1,3E0,3.4E1,4.6E1,3E0,1E0,5E0,2E0,1E0,1E0,1E0,4E0,4E0,1.2E1,2E0,7E0,1E0,8E0,1E0,3E1,1.12E2,8E0,3E0,1E0,3E0,2E0,1.6E1,7E0,1E0,3E0,1E0,1E0,2E0,5.7E1,3.4E1,3.5E1,3E0,1E0,2E0,1E1,2.4E1,9E0,3.7E1,2E0,1E0,4E0,8E0,4E0,3E0,7E0,1E0,5E0,2.5E1,1.7E1,9.5E1,1E0,7E0,1E0,2E0,6E0,1E1,3.3E1,2.4E1,1.6E1,1.8E1,3.2E1,3E0,2E0,1E0,6E0,4E0,4E0,2E1,4E0,5E0,1.5E1,2.2E1],"tree_param":{"num_deleted":"0","num_feature":"10","num_nodes":"177","size_leaf_vector":"1"}},{"base_weights":[8.459213E-5,1.0601656E-3,-5.3822054E-3,1.9096067E-3,-6.114432E-4,-1.63159E-2,-4.074434E-3,4.4753794E-3,5.562724E-4,-1.661655E-3,5.168475E-3,-5.208051E-4,-2.149413E-2,-8.723334E-4,-6.8322495E-3,-7.778897E-3,5.202224E-3,9.895329E-4,-7.3846965E-3,-1.1592917E-3,-1.0486544E-3,7.609954E-3,-3.0173738E-3,3.6735084E-5,-8.1801125E-5,6.993219E-5,-2.6277857E-2,-8.9980115E-4,5.354404E-4,-3.4056485E-3,-1.3972747E-2,2.4844913E-4,-1.10573955E-2,7.1420185E-3,1.6728053E-3,1.8050314E-3,-3.3751673E-3,-7.172549E-4,1.5071E-4,1.2327366E-3,-1.407564E-3,1.013765E-2,8.6495426E-4,2.825163E-4,-4.7298512E-4,-4.0253618E-4,-1.6936172E-3,4.907555E-3,-2.714299E-3,-1.992688E-3,-9.224137E-3,-2.0314256E-2,3.7888333E-3,-8.370838E-4,7.947924E-5,1.1357538E-2,3.8990867E-3,4.6070847E-3,-6.1236015E-3,-1.0427475E-4,4.4209165E-3,-1.24901505E-2,-1.4171639E-3,1.8700554E-4,-1.7251536E-4,-9.7278105E-3,-6.588027E-4,1.4672236E-2,5.4695047E-3,-6.7689153E-4,2.473123E-4,2.9954938E-3,6.2994636E-4,-7.0208292E-3,1.0559802E-3,-3.2800392E-3,3.2977832E-3,-6.553028E-4,-1.969179E-5,-3.086916E-4,-1.374409E-3,-3.0803957E-3,7.036891E-4,2.2070833E-2,6.2489123E-3,1.5547483E-3,1.0454755E-3,-1.4349382E-3,7.8902105E-3,-8.92208E-4,-8.238169E-3,1.397105E-3,-8.354415E-3,1.33619625E-2,3.111446E-3,-1.62268E-4,-8.195255E-4,-3.1514678E-3,4.6000434E-3,3.4454933E-5,-1.0941404E-2,-2.130102E-3,3.3017339E-3,9.864863E-4,3.7749883E-4,-2.5779393E-4,7.527659E-3,5.739144E-5,-1.2247192E-4,-1.4607591E-4,3.728209E-3,-8.410597E-3,1.1818227E-4,-1.8312645E-3,3.7880457E-4,-3.825862E-4,-7.7204313E-4,4.2910306E-4,-1.1203406E-4,1.5220846E-5,-2.8177208E-4,9.233001E-6,1.4524646E-3,1.2358787E-2,1.6549198E-3,8.006846E-4,-1.9885034E-4,1.3848332E-3,-4.889616E-4,5.047643E-3,1.1233507E-3,6.6156535E-5,-1.12730224E-4,1.0474643E-4,-1.02164475E-2,3.3949656E-4,1.3855555E-2,-1.4061941E-2,1.5992757E-3,1.8551675E-4,9.350022E-4,-1.617289E-3,5.2798092E-3,1.6714276E-4,-7.226119E-3,4.6816655E-4,-1.620634E-3,-8.8720187E-4,-2.489294E-4,1.0639911E-3,-2.6059323E-3,6.119624E-3,-5.571056E-4,1.1364215E-4,4.6874786E-4,4.541611E-3,-1.2708046E-4,-1.0109205E-2,-1.2748105E-4,-3.394842E-4,1.0256118E-4,2.6241597E-3,-2.195684E-3,1.3225401E-3,9.124523E-4,4.4151163E-3,-4.969252E-3,-6.7391503E-3,4.172397E-3,2.378815E-4,-6.248472E-5,3.1319486E-3,6.7300955E-4,-8.3667226E-4,-4.4470555E-3,-3.8866248E-4,9.931916E-4,2.971229E-4,9.7609975E-4,-1.7703356E-2,-5.084333E-3,-3.0437966E-3,4.186363E-4,-7.196593E-3,3.0946224E-3,1.131255E-2,3.2897704E-4,-3.823568E-3,3.5638744E-3,-1.0470476E-2,-3.8588608E-3,-2.404756E-4,1.0023972E-4,1.4842373E-3,-3.5437949E-3,7.535331E-3,-7.1918324E-4,-3.447215E-3,5.3345347E-3,-5.5013094E-5,5.2581537E-3,-6.6816725E-4,-7.911114E-5,2.455761E-4,-6.56009E-5,-3.730207E-3,3.7786645E-5,-6.391492E-5,1.783563E-4,4.5442922E-4,-2.9624172E-4,-6.789064E-5,-4.7149308E-4,-6.9644E-5,-8.2160754E-4,-8.540541E-5,4.559789E-4,4.4218305E-4,1.5317459E-5,-2.9593243E-4,-6.9181835E-5,5.7603374E-5,-3.7772828E-4,-1.2582415E-4,-1.1751887E-3,-3.4452276E-4,-6.9822425E-5,-3.1037454E-4,-2.7202997E-5,-6.534468E-4,-1.8710071E-4,3.6082556E-4,-3.353612E-5,7.9316655E-5,6.816511E-4,-5.0558057E-4,1.2294072E-4,1.2908109E-4,-3.163197E-4,3.5386183E-4,-1.1005602E-4,-7.481499E-4,-8.580983E-5,9.054928E-5,-4.0182497E-4,-5.2743754E-4,2.676696E-4,-3.723448E-4,-9.144203E-6,6.1767E-4,1.3734352E-4,-2.9186648E-4,1.3926032E-4,-3.9072646E-4,7.1148206E-5,5.548809E-5,3.56927E-4,3.8764917E-4,1.0102011E-4,8.4531755E-5,-2.92037E-4],"categories":[],"categories_nodes":[],"categories_segments":[],"categories_sizes":[],"default_left":[0,0,0,0,0,0,0,0,0,0,0,0,0,0,0,0,0,0,0,0,0,0,0,0,0,0,0,0,0,0,0,0,0,0,0,0,0,0,0,0,0,0,0,0,0,0,0,0,0,0,0,0,0,0,0,0,0,0,0,0,0,0,0,0,0,0,0,0,0,0,0,0,0,0,0,0,0,0,0,0,0,0,0,0,0,0,0,0,0,0,0,0,0,0,0,0,0,0,0,0,0,0,0,0,0,0,0,0,0,0,0,0,0,0,0,0,0,0,0,0,0,0,0,0,0,0,0,0,0,0,0,0,0,0,0,0,0,0,0,0,0,0,0,0,0,0,0,0,0,0,0,0,0,0,0,0,0,0,0,0,0,0,0,0,0,0,0,0,0,0,0,0,0,0,0,0,0,0,0,0,0,0,0,0,0,0,0,0,0,0,0,0,0,0,0,0,0,0,0,0,0,0,0,0,0,0,0,0,0,0,0,0,0,0,0,0,0,0,0,0,0,0,0,0,0,0,0,0,0,0,0,0,0,0,0,0,0,0,0,0,0,0,0,0,0,0,0,0,0,0,0,0,0,0,0,0,0,0,0,0,0],"id":4,"left_children":[1,3,5,7,9,11,13,15,17,19,21,23,25,27,29,31,33,35,37,-1,39,41,43,-1,-1,-1,45,-1,47,49,51,-1,53,55,57,59,61,-1,63,-1,65,67,69,-1,-1,-1,-1,71,73,75,77,79,81,-1,-1,83,85,87,89,91,93,95,97,-1,-1,99,101,103,105,107,-1,109,-1,111,113,115,117,-1,-1,-1,-1,119,-1,121,123,125,-1,127,129,131,133,135,137,139,141,-1,-1,143,145,-1,147,149,151,-1,-1,-1,153,-1,-1,-1,155,157,-1,159,-1,-1,161,-1,-1,-1,-1,-1,-1,163,165,-1,167,169,-1,171,-1,-1,-1,-1,173,175,177,179,181,-1,-1,183,185,187,189,-1,191,-1,-1,-1,193,195,197,-1,-1,199,-1,201,-1,-1,-1,203,205,207,-1,209,211,213,215,-1,-1,217,-1,-1,219,221,-1,-1,-1,223,225,227,-1,229,231,233,235,237,239,241,243,-1,-1,245,247,249,251,253,255,-1,257,-1,-1,-1,-1,259,-1,-1,-1,-1,-1,-1,-1,-1,-1,-1,-1,-1,-1,-1,-1,-1,-1,-1,-1,-1,-1,-1,-1,-1,-1,-1,-1,-1,-1,-1,-1,-1,-1,-1,-1,-1,-1,-1,-1,-1,-1,-1,-1,-1,-1,-1,-1,-1,-1,-1,-1,-1,-1,-1,-1],"loss_changes":[2.7470028E-3,6.2167854E-4,1.0488259E-3,1.0044914E-3,9.069688E-4,6.431311E-4,6.2102696E-4,9.311638E-4,6.644445E-4,1.4027602E-3,4.826304E-4,4.0187465E-6,6.8358216E-4,7.131764E-4,8.821838E-4,2.8535965E-4,6.384554E-4,6.5390434E-4,3.823156E-4,0E0,1.0197323E-3,2.9811903E-4,2.8622354E-4,0E0,0E0,0E0,9.241328E-5,0E0,4.6798403E-4,2.0359413E-4,1.4285895E-3,0E0,2.3469876E-4,7.8962534E-4,8.2890125E-4,7.696179E-4,4.9986725E-4,0E0,5.8241498E-5,0E0,7.536365E-4,1.9493536E-4,3.4560344E-5,0E0,0E0,0E0,0E0,1.2823424E-4,3.1591346E-4,1.674628E-4,9.096204E-5,3.452981E-4,2.6864058E-4,0E0,0E0,1.2850668E-3,1.17227E-3,5.2707683E-4,1.0327116E-4,1.1264655E-3,7.194474E-4,4.3075648E-5,2.7538853E-4,0E0,0E0,1.3183954E-4,6.6549925E-4,6.523216E-6,1.9727585E-4,1.4199971E-5,0E0,5.80431E-5,0E0,1.3067081E-4,1.8703655E-4,1.5460851E-4,1.229269E-4,0E0,0E0,0E0,0E0,1.9388282E-5,0E0,5.4062787E-4,5.1285286E-4,6.943738E-4,0E0,2.1028017E-4,4.6142878E-4,1.0902266E-5,1.577767E-4,1.0098605E-3,8.178421E-4,1.7888658E-4,6.0324866E-4,0E0,0E0,2.7165143E-4,1.4436494E-4,0E0,1.9830279E-4,8.6061575E-4,3.404966E-4,0E0,0E0,0E0,7.2557596E-6,0E0,0E0,0E0,6.307292E-5,6.192131E-5,0E0,1.2750248E-4,0E0,0E0,6.37815E-5,0E0,0E0,0E0,0E0,0E0,0E0,2.844166E-4,2.41348E-4,0E0,8.5720717E-4,5.8540703E-5,0E0,1.5365519E-4,0E0,0E0,0E0,0E0,8.390384E-5,8.9152076E-4,7.2928844E-5,2.042111E-4,1.7970253E-4,0E0,0E0,5.2176527E-4,1.1909617E-3,1.762912E-4,5.7917176E-5,0E0,3.2913445E-5,0E0,0E0,0E0,3.198132E-4,1.7969072E-4,2.5677407E-4,0E0,0E0,4.4390195E-5,0E0,6.1356404E-5,0E0,0E0,0E0,2.9407505E-5,4.181362E-5,1.6325697E-5,0E0,3.380486E-4,3.8983737E-5,4.80888E-4,3.914269E-4,0E0,0E0,1.6688676E-4,0E0,0E0,2.7190617E-6,6.0461747E-4,0E0,0E0,0E0,2.0406733E-4,6.5299755E-6,2.1502667E-5,0E0,1.1023006E-4,1.3142035E-4,7.3851785E-5,3.9558424E-4,7.2629315E-5,1.1014645E-4,7.0484704E-5,1.121208E-4,0E0,0E0,5.7901186E-4,6.591645E-4,2.197455E-4,6.660946E-5,1.6402503E-4,1.26914965E-5,0E0,3.436627E-5,0E0,0E0,0E0,0E0,4.8946327E-5,0E0,0E0,0E0,0E0,0E0,0E0,0E0,0E0,0E0,0E0,0E0,0E0,0E0,0E0,0E0,0E0,0E0,0E0,0E0,0E0,0E0,0E0,0E0,0E0,0E0,0E0,0E0,0E0,0E0,0E0,0E0,0E0,0E0,0E0,0E0,0E0,0E0,0E0,0E0,0E0,0E0,0E0,0E0,0E0,0E0,0E0,0E0,0E0,0E0,0E0,0E0,0E0,0E0,0E0,0E0],"parents":[2147483647,0,0,1,1,2,2,3,3,4,4,5,5,6,6,7,7,8,8,9,9,10,10,11,11,12,12,13,13,14,14,15,15,16,16,17,17,18,18,20,20,21,21,22,22,26,26,28,28,29,29,30,30,32,32,33,33,34,34,35,35,36,36,38,38,40,40,41,41,42,42,47,47,48,48,49,49,50,50,51,51,52,52,55,55,56,56,57,57,58,58,59,59,60,60,61,61,62,62,65,65,66,66,67,67,68,68,69,69,71,71,73,73,74,74,75,75,76,76,81,81,83,83,84,84,85,85,87,87,88,88,89,89,90,90,91,91,92,92,93,93,94,94,97,97,98,98,100,100,101,101,102,102,106,106,110,110,111,111,113,113,116,116,123,123,124,124,126,126,127,127,129,129,134,134,135,135,136,136,137,137,138,138,141,141,142,142,143,143,144,144,146,146,150,150,151,151,152,152,155,155,157,157,161,161,162,162,163,163,165,165,166,166,167,167,168,168,171,171,174,174,175,175,179,179,180,180,181,181,183,183,184,184,185,185,186,186,187,187,188,188,189,189,190,190,193,193,194,194,195,195,196,196,197,197,198,198,200,200,205,205],"right_children":[2,4,6,8,10,12,14,16,18,20,22,24,26,28,30,32,34,36,38,-1,40,42,44,-1,-1,-1,46,-1,48,50,52,-1,54,56,58,60,62,-1,64,-1,66,68,70,-1,-1,-1,-1,72,74,76,78,80,82,-1,-1,84,86,88,90,92,94,96,98,-1,-1,100,102,104,106,108,-1,110,-1,112,114,116,118,-1,-1,-1,-1,120,-1,122,124,126,-1,128,130,132,134,136,138,140,142,-1,-1,144,146,-1,148,150,152,-1,-1,-1,154,-1,-1,-1,156,158,-1,160,-1,-1,162,-1,-1,-1,-1,-1,-1,164,166,-1,168,170,-1,172,-1,-1,-1,-1,174,176,178,180,182,-1,-1,184,186,188,190,-1,192,-1,-1,-1,194,196,198,-1,-1,200,-1,202,-1,-1,-1,204,206,208,-1,210,212,214,216,-1,-1,218,-1,-1,220,222,-1,-1,-1,224,226,228,-1,230,232,234,236,238,240,242,244,-1,-1,246,248,250,252,254,256,-1,258,-1,-1,-1,-1,260,-1,-1,-1,-1,-1,-1,-1,-1,-1,-1,-1,-1,-1,-1,-1,-1,-1,-1,-1,-1,-1,-1,-1,-1,-1,-1,-1,-1,-1,-1,-1,-1,-1,-1,-1,-1,-1,-1,-1,-1,-1,-1,-1,-1,-1,-1,-1,-1,-1,-1,-1,-1,-1,-1,-1],"split_conditions":[8.4986943E-1,2.0440549E-1,8.5609174E-1,4.896659E-1,4.2849305E-1,9.065661E-2,2.5504076E-1,4.2087004E-2,6.894004E-1,3.311432E-2,7.9010034E-1,8.0948584E-2,1.8000555E-1,7.976377E-2,3.212217E-1,2.0792078E-2,6.1582446E-1,3.2265228E-1,2.6569772E-1,-1.1592917E-3,5.4156683E-2,7.927659E-1,3.7387818E-1,3.6735084E-5,-8.1801125E-5,6.993219E-5,1.149639E-1,-8.9980115E-4,1.6787319E-1,3.5860875E-1,6.9408554E-1,2.4844913E-4,4.7946513E-1,3.257462E-1,2.5054973E-1,1.2624526E-1,4.965331E-1,-7.172549E-4,1.7704552E-1,1.2327366E-3,1.01353124E-1,4.626563E-1,5.1150274E-1,2.825163E-4,-4.7298512E-4,-4.0253618E-4,-1.6936172E-3,9.4691104E-1,1.7765355E-1,3.6166322E-1,3.6005554E-1,1.3407743E-1,2.7451283E-1,-8.370838E-4,7.947924E-5,3.8352987E-1,4.7946513E-1,1.1546228E-1,3.6845484E-1,1.149639E-1,1.356439E-1,5.9535462E-2,4.123004E-1,1.8700554E-4,-1.7251536E-4,1.7664547E-1,5.5423236E-1,4.8602438E-1,4.653787E-1,1.9219558E-1,2.473123E-4,8.372267E-2,6.2994636E-4,6.0067266E-1,2.2472632E-1,3.664182E-1,4.626563E-1,-6.553028E-4,-1.969179E-5,-3.086916E-4,-1.374409E-3,4.1248104E-1,7.036891E-4,1.20809905E-1,1.9516169E-1,4.4565096E-2,1.0454755E-3,4.951733E-1,4.9963453E-1,3.2297847E-1,2.5395116E-1,1.1275828E-1,4.7598296E-1,3.0298084E-1,4.2270052E-1,-1.62268E-4,-8.195255E-4,3.5860875E-1,1.3878085E-1,3.4454933E-5,7.123279E-1,1.0847787E-1,7.378504E-1,9.864863E-4,3.7749883E-4,-2.5779393E-4,1.4347842E-1,5.739144E-5,-1.2247192E-4,-1.4607591E-4,2.1173567E-1,2.4173288E-1,1.1818227E-4,6.335529E-1,3.7880457E-4,-3.825862E-4,4.5349926E-1,4.2910306E-4,-1.1203406E-4,1.5220846E-5,-2.8177208E-4,9.233001E-6,1.4524646E-3,3.8195056E-1,4.5822078E-1,8.006846E-4,1.8596967E-1,7.972093E-2,-4.889616E-4,1.761151E-1,1.1233507E-3,6.6156535E-5,-1.12730224E-4,1.0474643E-4,2.0535597E-1,8.350052E-1,9.930025E-3,6.00755E-1,2.3877265E-1,1.8551675E-4,9.350022E-4,1.5275349E-1,7.768718E-1,1.1393948E-1,1.7728393E-1,4.6816655E-4,1.4857051E-1,-8.8720187E-4,-2.489294E-4,1.0639911E-3,4.2961776E-1,6.2261754E-1,3.8866627E-1,1.1364215E-4,4.6874786E-4,8.629301E-1,-1.2708046E-4,5.877682E-1,-1.2748105E-4,-3.394842E-4,1.0256118E-4,2.3023434E-1,4.0213218E-1,1.5275349E-1,9.124523E-4,2.7948266E-1,1.0517261E-1,2.3406129E-1,1.9714743E-1,2.378815E-4,-6.248472E-5,3.5942647E-1,6.7300955E-4,-8.3667226E-4,1.1721387E-1,1.0025668E-1,9.931916E-4,2.971229E-4,9.7609975E-4,5.0815237E-1,1.1941164E-1,4.0416315E-1,4.186363E-4,4.0953442E-1,4.1278076E-1,1.1322527E-1,5.0236344E-1,3.2725966E-1,6.1949277E-1,6.2357384E-1,3.7953252E-1,-2.404756E-4,1.0023972E-4,3.6329302E-1,7.991549E-1,2.5326163E-1,2.395466E-1,4.4216886E-1,2.318379E-1,-5.5013094E-5,9.3411976E-1,-6.6816725E-4,-7.911114E-5,2.455761E-4,-6.56009E-5,3.0141175E-1,3.7786645E-5,-6.391492E-5,1.783563E-4,4.5442922E-4,-2.9624172E-4,-6.789064E-5,-4.7149308E-4,-6.9644E-5,-8.2160754E-4,-8.540541E-5,4.559789E-4,4.4218305E-4,1.5317459E-5,-2.9593243E-4,-6.9181835E-5,5.7603374E-5,-3.7772828E-4,-1.2582415E-4,-1.1751887E-3,-3.4452276E-4,-6.9822425E-5,-3.1037454E-4,-2.7202997E-5,-6.534468E-4,-1.8710071E-4,3.6082556E-4,-3.353612E-5,7.9316655E-5,6.816511E-4,-5.0558057E-4,1.2294072E-4,1.2908109E-4,-3.163197E-4,3.5386183E-4,-1.1005602E-4,-7.481499E-4,-8.580983E-5,9.054928E-5,-4.0182497E-4,-5.2743754E-4,2.676696E-4,-3.723448E-4,-9.144203E-6,6.1767E-4,1.3734352E-4,-2.9186648E-4,1.3926032E-4,-3.9072646E-4,7.1148206E-5,5.548809E-5,3.56927E-4,3.8764917E-4,1.0102011E-4,8.4531755E-5,-2.92037E-4],"split_indices":[4,2,4,3,2,2,7,2,3,4,3,2,3,7,8,2,4,6,6,0,4,4,4,0,0,0,2,0,7,6,3,0,3,7,6,2,3,0,2,0,4,2,2,0,0,0,0,4,2,2,3,6,6,0,0,4,3,2,3,2,2,2,6,0,0,8,7,6,2,3,0,2,0,8,7,3,2,0,0,0,0,2,0,6,7,4,0,8,8,3,8,2,8,8,4,0,0,6,2,0,7,4,7,0,0,0,6,0,0,0,2,7,0,3,0,0,3,0,0,0,0,0,0,3,3,0,4,2,0,2,0,0,0,0,7,7,4,3,6,0,0,2,4,7,7,0,2,0,0,0,4,3,6,0,0,4,0,3,0,0,0,2,7,2,0,7,2,6,6,0,0,3,0,0,2,2,0,0,0,3,2,4,0,8,8,6,3,6,3,3,6,0,0,4,4,6,2,8,2,0,4,0,0,0,0,7,0,0,0,0,0,0,0,0,0,0,0,0,0,0,0,0,0,0,0,0,0,0,0,0,0,0,0,0,0,0,0,0,0,0,0,0,0,0,0,0,0,0,0,0,0,0,0,0,0,0,0,0,0,0,0],"split_type":[0,0,0,0,0,0,0,0,0,0,0,0,0,0,0,0,0,0,0,0,0,0,0,0,0,0,0,0,0,0,0,0,0,0,0,0,0,0,0,0,0,0,0,0,0,0,0,0,0,0,0,0,0,0,0,0,0,0,0,0,0,0,0,0,0,0,0,0,0,0,0,0,0,0,0,0,0,0,0,0,0,0,0,0,0,0,0,0,0,0,0,0,0,0,0,0,0,0,0,0,0,0,0,0,0,0,0,0,0,0,0,0,0,0,0,0,0,0,0,0,0,0,0,0,0,0,0,0,0,0,0,0,0,0,0,0,0,0,0,0,0,0,0,0,0,0,0,0,0,0,0,0,0,0,0,0,0,0,0,0,0,0,0,0,0,0,0,0,0,0,0,0,0,0,0,0,0,0,0,0,0,0,0,0,0,0,0,0,0,0,0,0,0,0,0,0,0,0,0,0,0,0,0,0,0,0,0,0,0,0,0,0,0,0,0,0,0,0,0,0,0,0,0,0,0,0,0,0,0,0,0,0,0,0,0,0,0,0,0,0,0,0,0,0,0,0,0,0,0,0,0,0,0,0,0,0,0,0,0,0,0],"sum_hessian":[5.13E2,4.36E2,7.7E1,2.89E2,1.47E2,7E0,7E1,9.9E1,1.9E2,1.25E2,2.2E1,2E0,5E0,3.3E1,3.7E1,5E0,9.4E1,1.81E2,9E0,3E0,1.22E2,1.7E1,5E0,1E0,1E0,1E0,4E0,2E0,3.1E1,2.6E1,1.1E1,1E0,4E0,6E1,3.4E1,1.53E2,2.8E1,5E0,4E0,1E0,1.21E2,1.2E1,5E0,2E0,3E0,1E0,3E0,1.3E1,1.8E1,2.2E1,4E0,8E0,3E0,3E0,1E0,2.5E1,3.5E1,2.5E1,9E0,8.9E1,6.4E1,4E0,2.4E1,2E0,2E0,9E0,1.12E2,5E0,7E0,4E0,1E0,1.1E1,2E0,8E0,1E1,1.8E1,4E0,3E0,1E0,2E0,6E0,2E0,1E0,7E0,1.8E1,3.1E1,4E0,9E0,1.6E1,3E0,6E0,7.6E1,1.3E1,7E0,5.7E1,1E0,3E0,1.9E1,5E0,1E0,8E0,8.2E1,3E1,3E0,2E0,1E0,6E0,2E0,2E0,1E0,1E1,7E0,1E0,7E0,3E0,7E0,1.1E1,2E0,2E0,1E0,1E0,1E0,6E0,7E0,1.1E1,3E0,2.8E1,7E0,2E0,1.4E1,2E0,1E0,2E0,1E0,5E0,7.1E1,5E0,8E0,5E0,2E0,5E0,1.8E1,3.9E1,1.1E1,8E0,3E0,2E0,4E0,4E0,1E0,8.1E1,1.7E1,1.3E1,1E0,5E0,9E0,1E0,5E0,2E0,3E0,4E0,3E0,8E0,2E0,5E0,8E0,3E0,1.1E1,1.7E1,3E0,4E0,1.2E1,2E0,2E0,3E0,6.9E1,2E0,2E0,3E0,5E0,3E0,3E0,2E0,8E0,1E1,1.7E1,2.2E1,5E0,6E0,3E0,5E0,1E0,1E0,1.5E1,6.6E1,1.4E1,3E0,9E0,4E0,1E0,8E0,4E0,1E0,2E0,1E0,5E0,3E0,1E0,1E0,6E0,2E0,2E0,1E0,7E0,4E0,7E0,1E1,4E0,8E0,2E0,1E0,5.7E1,1.2E1,1E0,4E0,2E0,1E0,1E0,2E0,3E0,5E0,5E0,5E0,1E0,1.6E1,3E0,1.9E1,1E0,4E0,4E0,2E0,2E0,1E0,2E0,3E0,3E0,1.2E1,3.5E1,3.1E1,8E0,6E0,1E0,2E0,5E0,4E0,1E0,3E0,5E0,3E0,1E0,4E0],"tree_param":{"num_deleted":"0","num_feature":"10","num_nodes":"261","size_leaf_vector":"1"}},{"base_weights":[-2.0027353E-5,7.599009E-4,-4.36937E-3,1.2909157E-2,5.8860914E-4,-1.4085239E-2,-3.3640864E-3,-9.503994E-5,1.6149987E-2,1.7903647E-3,-5.040833E-4,-5.05783E-4,-1.9415865E-2,4.4242482E-4,-5.159845E-3,1.0342835E-3,2.6057017E-4,5.0791665E-3,9.886286E-6,-1.1465471E-3,5.505425E-3,-7.944167E-5,3.5675508E-5,-3.7328654E-3,-1.6514194E-3,1.5752243E-3,-3.2185111E-3,-2.9426396E-3,-1.80427E-2,-7.4150097E-3,6.12224E-3,-3.2882523E-3,2.4199379E-3,-7.968289E-3,-4.0686227E-4,9.060864E-4,3.699953E-3,6.7915076E-5,-3.909255E-4,-1.3967203E-3,3.8636131E-3,1.14773444E-4,-2.6871142E-4,-5.523121E-3,2.7971517E-3,-1.557031E-3,-2.6444122E-4,2.1231311E-4,-1.3882807E-2,1.2398721E-3,4.805172E-3,4.9838E-3,-5.154302E-3,-1.0362299E-2,2.8926586E-3,-6.180294E-4,-1.3925954E-2,-7.0591306E-4,1.0559959E-2,5.7785976E-4,2.7712606E-4,2.5188737E-3,-3.7743296E-3,3.712666E-4,6.474849E-4,2.9523293E-3,-7.7649974E-3,4.658781E-3,-6.1737426E-4,-2.3474122E-4,-9.113281E-4,1.1965253E-3,8.491629E-3,-2.1416822E-3,1.3962715E-2,-5.899921E-3,4.4696926E-4,-1.7248504E-4,-7.241802E-4,4.907183E-3,-7.360688E-4,4.277725E-3,-6.3693286E-3,-1.5398984E-2,2.3200375E-5,-1.8580351E-4,-6.933956E-3,-6.767831E-5,1.3786541E-2,3.562878E-3,-1.3934624E-3,1.813621E-4,1.8572711E-5,-9.6979675E-5,-3.0615827E-4,-1.418625E-4,1.0156727E-4,-7.6251477E-3,8.708349E-3,-1.9327503E-3,-9.601705E-3,-1.5324815E-3,6.669408E-3,-8.949848E-3,2.5094908E-3,1.2953499E-2,3.4754246E-4,-4.696471E-3,3.8036506E-4,9.960014E-4,3.4645927E-4,-2.6069905E-3,-8.429986E-3,9.020073E-3,2.639719E-3,-3.4346406E-3,5.3425427E-3,5.088278E-3,6.48868E-6,-8.9781685E-3,1.1727995E-4,-1.7831143E-2,-3.7802304E-3,-7.5966143E-3,1.3359205E-4,-9.6534356E-4,-4.8928806E-3,2.2033938E-4,9.135249E-4,2.9643104E-4,-7.902688E-5,2.2577391E-4,-2.418009E-3,-4.2126074E-5,-6.1768934E-4,1.21778576E-4,5.6706613E-4,1.4711736E-3,-4.0160457E-4,-8.35507E-4,-7.1724458E-3,6.920917E-6,-1.2248765E-4,6.7528756E-4,2.838625E-3,-1.3777563E-4,-5.9654395E-4,8.912567E-3,1.4679428E-3,6.8562543E-3,1.7318858E-2,-3.1077252E-3,6.77787E-4,1.04527775E-4,-6.3605495E-3,-5.572048E-3,5.950663E-4,-1.1633538E-2,-2.4613056E-3,4.598016E-3,8.468802E-4,-4.3820697E-3,4.3624155E-3,-8.613606E-4,-1.351242E-2,8.185376E-3,-2.5734428E-4,4.6960016E-5,3.4343355E-4,-6.043904E-4,-1.2927355E-4,-9.470112E-3,-2.0953739E-2,3.346112E-5,-3.6057012E-4,2.6633817E-4,-1.0401684E-2,4.7026905E-3,-3.9571588E-4,-1.5369008E-3,-4.3553478E-4,-3.8011902E-4,-2.8490016E-4,1.8371796E-4,-4.2270352E-5,-7.723167E-3,-3.769706E-7,3.2263163E-3,1.4781819E-5,1.01725134E-4,6.177102E-4,-1.3200336E-4,2.95319E-4,5.1038678E-5,5.3586543E-4,1.5641822E-4,1.0677093E-3,-2.923499E-4,4.1918756E-4,-4.2187987E-4,-7.355334E-5,-1.2193521E-4,-6.4008526E-4,-3.240708E-4,2.0923637E-4,6.945615E-5,-7.251132E-4,3.331461E-4,-5.1426666E-4,9.8462E-4,-4.0136524E-6,3.0676718E-5,-3.051488E-4,1.4323597E-4,6.072604E-4,4.8711798E-5,-5.2513496E-4,-2.2998026E-4,-8.8601303E-4,5.447303E-4,5.4759992E-5,-1.3257712E-4,1.691745E-4,-1.4120626E-4,-6.342739E-4,-3.692849E-4,-1.3263228E-3,-7.3244853E-4,3.097492E-5,3.9741572E-4,3.4329994E-5,4.728729E-5,-1.8280657E-4,-3.5918702E-4,9.138791E-5,-1.166329E-4,1.5603933E-4,-1.2357906E-4,-4.620626E-4,2.5332277E-4,8.918589E-5],"categories":[],"categories_nodes":[],"categories_segments":[],"categories_sizes":[],"default_left":[0,0,0,0,0,0,0,0,0,0,0,0,0,0,0,0,0,0,0,0,0,0,0,0,0,0,0,0,0,0,0,0,0,0,0,0,0,0,0,0,0,0,0,0,0,0,0,0,0,0,0,0,0,0,0,0,0,0,0,0,0,0,0,0,0,0,0,0,0,0,0,0,0,0,0,0,0,0,0,0,0,0,0,0,0,0,0,0,0,0,0,0,0,0,0,0,0,0,0,0,0,0,0,0,0,0,0,0,0,0,0,0,0,0,0,0,0,0,0,0,0,0,0,0,0,0,0,0,0,0,0,0,0,0,0,0,0,0,0,0,0,0,0,0,0,0,0,0,0,0,0,0,0,0,0,0,0,0,0,0,0,0,0,0,0,0,0,0,0,0,0,0,0,0,0,0,0,0,0,0,0,0,0,0,0,0,0,0,0,0,0,0,0,0,0,0,0,0,0,0,0,0,0,0,0,0,0,0,0,0,0,0,0,0,0,0,0,0,0,0,0,0,0,0,0,0,0,0,0,0,0,0,0,0,0,0,0,0,0,0,0],"id":5,"left_children":[1,3,5,7,9,11,13,-1,15,17,19,21,23,25,27,-1,-1,29,31,33,35,-1,-1,37,-1,39,41,43,45,47,49,51,53,55,57,-1,59,-1,-1,61,63,-1,-1,65,67,-1,-1,-1,69,-1,71,73,75,77,79,81,83,85,87,-1,89,91,93,-1,95,97,99,101,-1,-1,-1,103,105,107,109,111,-1,-1,-1,113,115,117,119,121,-1,123,125,-1,127,129,131,-1,-1,-1,-1,-1,-1,133,135,137,139,141,143,145,147,149,151,153,-1,-1,-1,155,157,159,161,163,165,167,-1,169,-1,171,173,175,177,-1,179,-1,-1,-1,-1,-1,181,-1,-1,-1,-1,183,-1,-1,185,-1,-1,-1,187,-1,-1,189,191,193,195,197,-1,-1,199,201,203,205,207,209,-1,211,213,215,217,219,221,-1,-1,-1,-1,223,225,-1,-1,-1,227,229,231,233,-1,-1,235,-1,-1,237,-1,239,-1,-1,-1,-1,-1,-1,-1,-1,-1,-1,-1,-1,-1,-1,-1,-1,-1,-1,-1,-1,-1,-1,-1,-1,-1,-1,-1,-1,-1,-1,-1,-1,-1,-1,-1,-1,-1,-1,-1,-1,-1,-1,-1,-1,-1,-1,-1,-1,-1,-1,-1,-1,-1],"loss_changes":[1.7401142E-3,8.976656E-4,7.144582E-4,3.0966057E-4,5.655566E-4,4.9688877E-4,4.9444434E-4,0E0,2.2494583E-5,1.2003563E-3,8.7887375E-4,3.7902578E-6,6.1542366E-4,1.0460043E-4,1.3465397E-3,0E0,0E0,9.837247E-4,1.0730809E-3,1.0311756E-3,3.4708675E-4,0E0,0E0,5.2813444E-5,0E0,1.3461472E-4,5.4250537E-5,6.5234024E-4,7.1927323E-4,4.8167098E-4,1.2530801E-3,9.0554345E-4,5.0128397E-4,8.672009E-4,6.174668E-4,0E0,4.2967E-4,0E0,0E0,9.329483E-5,8.6830434E-5,0E0,0E0,5.929522E-4,4.016846E-4,0E0,0E0,0E0,1.0881922E-5,0E0,8.27936E-4,7.3367375E-4,4.9786596E-4,1.0927295E-5,5.591842E-4,3.088157E-4,2.3835641E-4,5.8825786E-4,2.0546396E-4,0E0,8.181269E-5,4.480031E-6,1.0329408E-5,0E0,2.5078685E-5,4.9259164E-4,2.3853348E-4,1.720489E-4,0E0,0E0,0E0,4.620802E-4,1.121972E-3,1.8718258E-4,2.7704635E-5,3.5293284E-4,0E0,0E0,0E0,4.3315522E-4,4.7764962E-4,1.9684601E-5,1.2785464E-4,2.1518068E-4,0E0,4.010345E-4,1.9815855E-4,0E0,2.1211396E-5,4.590168E-5,6.38381E-5,0E0,0E0,0E0,0E0,0E0,0E0,5.5938013E-5,1.6246573E-5,1.3006918E-4,1.0957476E-4,4.1598714E-6,1.597094E-4,1.1813245E-5,1.8699022E-4,4.1359058E-4,5.0926505E-4,7.6508324E-5,0E0,0E0,0E0,2.0269568E-4,4.4939073E-4,3.5801693E-4,4.182979E-4,5.070199E-4,1.453824E-4,1.3640893E-5,0E0,1.691244E-5,0E0,1.0430813E-5,3.59371E-5,2.8784177E-4,3.9606993E-4,0E0,1.0431532E-4,0E0,0E0,0E0,0E0,0E0,7.820233E-5,0E0,0E0,0E0,0E0,2.1215948E-5,0E0,0E0,5.5199373E-5,0E0,0E0,0E0,6.1814753E-6,0E0,0E0,3.245697E-5,3.8202136E-4,1.3705814E-4,1.4096033E-4,2.4016852E-4,0E0,0E0,1.48984545E-5,1.8667601E-4,2.2758241E-4,2.0740996E-4,5.830011E-4,6.414464E-4,0E0,3.403159E-5,2.8667133E-4,2.4668005E-4,9.122537E-6,4.5627647E-5,3.2780325E-5,0E0,0E0,0E0,0E0,1.5919068E-5,1.0877848E-6,0E0,0E0,0E0,1.5744974E-4,1.4857465E-4,4.980772E-4,1.12318296E-4,0E0,0E0,4.181964E-5,0E0,0E0,3.6322162E-6,0E0,4.9559894E-6,0E0,0E0,0E0,0E0,0E0,0E0,0E0,0E0,0E0,0E0,0E0,0E0,0E0,0E0,0E0,0E0,0E0,0E0,0E0,0E0,0E0,0E0,0E0,0E0,0E0,0E0,0E0,0E0,0E0,0E0,0E0,0E0,0E0,0E0,0E0,0E0,0E0,0E0,0E0,0E0,0E0,0E0,0E0,0E0,0E0,0E0,0E0,0E0,0E0,0E0,0E0,0E0,0E0],"parents":[2147483647,0,0,1,1,2,2,3,3,4,4,5,5,6,6,8,8,9,9,10,10,11,11,12,12,13,13,14,14,17,17,18,18,19,19,20,20,23,23,25,25,26,26,27,27,28,28,29,29,30,30,31,31,32,32,33,33,34,34,36,36,39,39,40,40,43,43,44,44,48,48,50,50,51,51,52,52,53,53,54,54,55,55,56,56,57,57,58,58,60,60,61,61,62,62,64,64,65,65,66,66,67,67,71,71,72,72,73,73,74,74,75,75,79,79,80,80,81,81,82,82,83,83,85,85,86,86,88,88,89,89,90,90,97,97,98,98,99,99,100,100,101,101,102,102,103,103,104,104,105,105,106,106,107,107,111,111,112,112,113,113,114,114,115,115,116,116,117,117,119,119,121,121,122,122,123,123,124,124,126,126,132,132,137,137,140,140,144,144,147,147,148,148,149,149,150,150,151,151,154,154,155,155,156,156,157,157,158,158,159,159,161,161,162,162,163,163,164,164,165,165,166,166,171,171,172,172,176,176,177,177,178,178,179,179,182,182,185,185,187,187],"right_children":[2,4,6,8,10,12,14,-1,16,18,20,22,24,26,28,-1,-1,30,32,34,36,-1,-1,38,-1,40,42,44,46,48,50,52,54,56,58,-1,60,-1,-1,62,64,-1,-1,66,68,-1,-1,-1,70,-1,72,74,76,78,80,82,84,86,88,-1,90,92,94,-1,96,98,100,102,-1,-1,-1,104,106,108,110,112,-1,-1,-1,114,116,118,120,122,-1,124,126,-1,128,130,132,-1,-1,-1,-1,-1,-1,134,136,138,140,142,144,146,148,150,152,154,-1,-1,-1,156,158,160,162,164,166,168,-1,170,-1,172,174,176,178,-1,180,-1,-1,-1,-1,-1,182,-1,-1,-1,-1,184,-1,-1,186,-1,-1,-1,188,-1,-1,190,192,194,196,198,-1,-1,200,202,204,206,208,210,-1,212,214,216,218,220,222,-1,-1,-1,-1,224,226,-1,-1,-1,228,230,232,234,-1,-1,236,-1,-1,238,-1,240,-1,-1,-1,-1,-1,-1,-1,-1,-1,-1,-1,-1,-1,-1,-1,-1,-1,-1,-1,-1,-1,-1,-1,-1,-1,-1,-1,-1,-1,-1,-1,-1,-1,-1,-1,-1,-1,-1,-1,-1,-1,-1,-1,-1,-1,-1,-1,-1,-1,-1,-1,-1,-1],"split_conditions":[8.4986943E-1,1.4296682E-3,8.5609174E-1,3.116813E-1,1.5368864E-1,9.065661E-2,9.102511E-1,-9.503994E-5,5.4156683E-2,4.896659E-1,4.2849305E-1,4.6422625E-1,3.561155E-1,7.0490986E-1,6.154607E-1,1.0342835E-3,2.6057017E-4,4.2087004E-2,4.552429E-1,8.7945424E-2,8.9826435E-2,-7.944167E-5,3.5675508E-5,2.2116226E-1,-1.6514194E-3,5.221304E-1,9.677055E-2,5.485941E-1,6.3501245E-1,4.0144312E-1,8.6893246E-2,3.2645267E-2,1.8307288E-1,1.884015E-1,6.980245E-1,9.060864E-4,2.960212E-1,6.7915076E-5,-3.909255E-4,9.731728E-2,4.7735035E-1,1.14773444E-4,-2.6871142E-4,2.869088E-1,9.766287E-1,-1.557031E-3,-2.6444122E-4,2.1231311E-4,4.0527856E-1,1.2398721E-3,4.5898077E-1,1.701977E-2,5.906638E-1,4.4662192E-1,7.7772975E-1,3.724826E-2,2.7195108E-1,6.1829174E-1,8.9826435E-2,5.7785976E-4,2.62108E-1,4.7712478E-1,1.761151E-1,3.712666E-4,8.372267E-2,2.0874669E-1,9.2956406E-1,9.2956406E-1,-6.1737426E-4,-2.3474122E-4,-9.113281E-4,3.479485E-1,6.5057945E-1,5.537097E-1,7.6985285E-2,8.784572E-2,4.4696926E-4,-1.7248504E-4,-7.241802E-4,4.714678E-1,5.6520516E-1,2.7875138E-2,1.8090229E-1,3.326147E-2,2.3200375E-5,1.5634704E-1,3.520833E-1,-6.767831E-5,7.266811E-1,7.448879E-1,1.1224595E-1,1.813621E-4,1.8572711E-5,-9.6979675E-5,-3.0615827E-4,-1.418625E-4,1.0156727E-4,1.8097514E-1,8.7219685E-1,4.562149E-1,1.4473242E-1,1.4356266E-1,4.8596397E-1,7.340521E-2,3.6672312E-1,4.304891E-1,7.481201E-1,1.6150184E-3,3.8036506E-4,9.960014E-4,3.4645927E-4,5.422901E-1,1.1941164E-1,6.543624E-1,6.5435894E-2,5.5772257E-1,8.824993E-1,5.1877955E-3,6.48868E-6,3.3154175E-1,1.1727995E-4,1.2457167E-2,2.7589345E-1,3.2543966E-1,2.832651E-1,-9.6534356E-4,2.9445907E-1,2.2033938E-4,9.135249E-4,2.9643104E-4,-7.902688E-5,2.2577391E-4,4.8601213E-1,-4.2126074E-5,-6.1768934E-4,1.21778576E-4,5.6706613E-4,2.0494513E-1,-4.0160457E-4,-8.35507E-4,3.704735E-1,6.920917E-6,-1.2248765E-4,6.7528756E-4,6.2556887E-1,-1.3777563E-4,-5.9654395E-4,3.5030356E-1,4.1489053E-1,4.955774E-1,6.365157E-2,4.7946513E-1,6.77787E-4,1.04527775E-4,6.995943E-1,4.7287807E-1,2.9365367E-1,1.6191918E-1,5.2629036E-1,4.626036E-1,8.468802E-4,5.3987186E-3,8.2350427E-1,6.3500077E-1,5.608699E-1,5.324219E-1,1.0911096E-1,4.6960016E-5,3.4343355E-4,-6.043904E-4,-1.2927355E-4,2.8818893E-1,2.0444001E-1,3.346112E-5,-3.6057012E-4,2.6633817E-4,5.664004E-1,8.716506E-1,8.4071225E-1,2.059592E-1,-4.3553478E-4,-3.8011902E-4,4.8268154E-1,1.8371796E-4,-4.2270352E-5,3.0121094E-1,-3.769706E-7,9.338347E-1,1.4781819E-5,1.01725134E-4,6.177102E-4,-1.3200336E-4,2.95319E-4,5.1038678E-5,5.3586543E-4,1.5641822E-4,1.0677093E-3,-2.923499E-4,4.1918756E-4,-4.2187987E-4,-7.355334E-5,-1.2193521E-4,-6.4008526E-4,-3.240708E-4,2.0923637E-4,6.945615E-5,-7.251132E-4,3.331461E-4,-5.1426666E-4,9.8462E-4,-4.0136524E-6,3.0676718E-5,-3.051488E-4,1.4323597E-4,6.072604E-4,4.8711798E-5,-5.2513496E-4,-2.2998026E-4,-8.8601303E-4,5.447303E-4,5.4759992E-5,-1.3257712E-4,1.691745E-4,-1.4120626E-4,-6.342739E-4,-3.692849E-4,-1.3263228E-3,-7.3244853E-4,3.097492E-5,3.9741572E-4,3.4329994E-5,4.728729E-5,-1.8280657E-4,-3.5918702E-4,9.138791E-5,-1.166329E-4,1.5603933E-4,-1.2357906E-4,-4.620626E-4,2.5332277E-4,8.918589E-5],"split_indices":[4,5,4,3,2,2,5,0,4,3,2,0,9,9,9,0,0,2,4,4,4,0,0,0,0,9,2,3,3,0,4,5,9,2,0,0,9,0,0,2,0,0,0,3,4,0,0,0,0,0,9,5,0,0,4,4,2,0,4,0,0,0,2,0,2,0,5,5,0,0,0,0,9,0,2,2,0,0,0,0,3,4,2,5,0,2,3,0,0,4,4,0,0,0,0,0,0,0,4,0,2,2,0,2,0,3,9,4,0,0,0,3,2,4,2,3,5,4,0,0,0,5,0,3,9,0,2,0,0,0,0,0,4,0,0,0,0,2,0,0,9,0,0,0,0,0,0,0,0,9,2,3,0,0,9,0,9,9,0,5,0,2,5,9,3,0,2,0,0,0,0,0,2,0,0,0,0,5,5,2,0,0,2,0,0,3,0,5,0,0,0,0,0,0,0,0,0,0,0,0,0,0,0,0,0,0,0,0,0,0,0,0,0,0,0,0,0,0,0,0,0,0,0,0,0,0,0,0,0,0,0,0,0,0,0,0,0,0,0,0,0],"split_type":[0,0,0,0,0,0,0,0,0,0,0,0,0,0,0,0,0,0,0,0,0,0,0,0,0,0,0,0,0,0,0,0,0,0,0,0,0,0,0,0,0,0,0,0,0,0,0,0,0,0,0,0,0,0,0,0,0,0,0,0,0,0,0,0,0,0,0,0,0,0,0,0,0,0,0,0,0,0,0,0,0,0,0,0,0,0,0,0,0,0,0,0,0,0,0,0,0,0,0,0,0,0,0,0,0,0,0,0,0,0,0,0,0,0,0,0,0,0,0,0,0,0,0,0,0,0,0,0,0,0,0,0,0,0,0,0,0,0,0,0,0,0,0,0,0,0,0,0,0,0,0,0,0,0,0,0,0,0,0,0,0,0,0,0,0,0,0,0,0,0,0,0,0,0,0,0,0,0,0,0,0,0,0,0,0,0,0,0,0,0,0,0,0,0,0,0,0,0,0,0,0,0,0,0,0,0,0,0,0,0,0,0,0,0,0,0,0,0,0,0,0,0,0,0,0,0,0,0,0,0,0,0,0,0,0,0,0,0,0,0,0],"sum_hessian":[5.11E2,4.34E2,7.7E1,5E0,4.29E2,6E0,7.1E1,1E0,4E0,2.04E2,2.25E2,2E0,4E0,2.3E1,4.8E1,3E0,1E0,7.1E1,1.33E2,2.04E2,2.1E1,1E0,1E0,2E0,2E0,1.8E1,5E0,4.2E1,6E0,5E0,6.6E1,5.6E1,7.7E1,1.9E1,1.85E2,2E0,1.9E1,1E0,1E0,8E0,1E1,1E0,4E0,2.9E1,1.3E1,3E0,3E0,2E0,3E0,4E0,6.2E1,1E1,4.6E1,2E0,7.5E1,9E0,1E1,1.81E2,4E0,6E0,1.3E1,3E0,5E0,5E0,5E0,6E0,2.3E1,1.2E1,1E0,1E0,2E0,3.2E1,3E1,6E0,4E0,4.4E1,2E0,1E0,1E0,4.8E1,2.7E1,5E0,4E0,9E0,1E0,1.68E2,1.3E1,1E0,3E0,4E0,9E0,2E0,1E0,3E0,2E0,1E0,4E0,2E0,4E0,6E0,1.7E1,3E0,9E0,3E0,2.9E1,1.9E1,1.1E1,5E0,1E0,2E0,2E0,2E1,2.4E1,1.6E1,3.2E1,1.9E1,8E0,4E0,1E0,3E0,1E0,7E0,2E0,6E0,1.62E2,1E0,1.2E1,1E0,2E0,3E0,1E0,1E0,8E0,1E0,1E0,1E0,3E0,4E0,2E0,4E0,1.3E1,1E0,2E0,3E0,6E0,1E0,2E0,3E0,2.6E1,9E0,1E1,9E0,2E0,1E0,4E0,1E1,1E1,1.5E1,9E0,1E1,6E0,6E0,2.6E1,1.6E1,3E0,5E0,3E0,1E0,3E0,2E0,1E0,3E0,4E0,1E0,1E0,1E0,5E0,1.6E1,1.46E2,6E0,6E0,2E0,6E0,2E0,2E0,1.2E1,1E0,5E0,1E0,1E0,2E0,1.3E1,1.3E1,3E0,6E0,1E0,9E0,8E0,1E0,3E0,1E0,7E0,3E0,3E0,7E0,1E0,1.4E1,4E0,5E0,2E0,8E0,1E0,5E0,2.1E1,5E0,1.4E1,2E0,1E0,2E0,4E0,1E0,2E0,1E0,1E0,2E0,1E0,3E0,4E0,1E0,1E1,6E0,1.02E2,4.4E1,2E0,4E0,4E0,2E0,1E0,1.1E1,2E0,3E0],"tree_param":{"num_deleted":"0","num_feature":"10","num_nodes":"241","size_leaf_vector":"1"}},{"base_weights":[-1.4661773E-4,7.3433813E-4,-4.772523E-3,4.9346033E-4,9.204233E-3,-6.3110553E-3,1.5718401E-3,1.1693698E-3,-2.528462E-3,1.246126E-3,4.5647016E-3,1.173342E-3,-7.965348E-3,4.4972557E-3,-4.540964E-3,9.2261826E-4,1.1540983E-2,4.1650943E-3,-4.3230103E-3,6.261655E-3,-3.0885628E-4,4.2177825E-3,-6.7310943E-3,-1.7828504E-2,-5.648024E-3,-1.1651884E-3,7.4741263E-3,-5.9956685E-4,-1.2918256E-3,6.3002337E-4,9.64319E-3,1.5461602E-3,1.986843E-3,2.0742926E-3,8.76816E-3,-9.854518E-3,-1.8361547E-3,5.2185665E-4,5.1935896E-4,-1.2799198E-3,5.7523075E-4,-5.9987284E-4,-1.178196E-4,-2.8058613E-2,-9.435799E-3,-4.5174384E-3,-1.6389817E-2,-1.5813849E-4,4.6110155E-5,2.3810861E-4,9.846447E-3,6.9088617E-4,-2.6601722E-4,1.378622E-3,-3.506962E-3,1.0405591E-3,2.2694324E-3,-1.1368858E-3,2.211127E-4,-3.6263105E-3,5.010817E-3,1.202166E-4,5.7215994E-4,-5.8039064E-3,-1.0189675E-3,1.5986932E-4,-5.3391885E-3,8.2896826E-5,-6.4424035E-5,-2.0286445E-4,1.2281477E-4,-1.8503702E-4,-2.034823E-3,-6.728611E-4,-1.4866621E-4,-8.9756586E-4,-6.6293045E-3,-1.1949891E-3,-9.849674E-5,1.4395975E-4,-1.2335586E-4,4.1330266E-5,6.650901E-4,-8.094371E-5,1.0710329E-4,1.2729043E-2,1.1687638E-3,3.6491852E-3,-5.1273075E-3,-2.4155418E-3,5.3772086E-4,-9.5272575E-5,-3.1038483E-6,2.1499135E-4,-6.3962964E-3,8.236649E-3,7.8282127E-4,-8.153659E-3,3.1899786E-4,-3.6366128E-3,7.7368463E-3,-7.103377E-3,1.7292203E-3,2.0787842E-4,-2.1194774E-3,-4.0557114E-3,-1.2234624E-2,9.86168E-4,2.3767987E-4,1.0479098E-3,9.958181E-4,-3.342382E-4,6.7342045E-3,-5.8562314E-6,-7.422928E-3,5.8434714E-5,-3.525902E-3,-1.108045E-4,-4.1811352E-4,5.3678994E-4,1.1430273E-4,-9.322906E-4,2.2046115E-4,-1.4357935E-2,-3.25678E-3,-1.0020581E-2,3.7494139E-3,9.5523644E-4,3.4615211E-3,2.5093632E-3,-9.079272E-3,1.768237E-4,-6.572621E-5,-4.0180534E-3,1.0816331E-3,-5.3201085E-3,2.3319034E-3,-8.5929804E-4,-1.6350207E-4,-1.3130635E-3,1.6684055E-3,9.659945E-3,-7.857125E-5,-5.828584E-4,2.519091E-3,-9.591866E-3,-2.3427592E-3,-4.9629827E-5,-2.3811487E-4,2.7979575E-5,-9.036194E-5,-1.2777811E-4,-9.714555E-4,1.4296672E-4,-5.581518E-3,2.1270348E-3,-1.4841816E-2,7.3471945E-3,-1.3178054E-3,5.4161767E-3,-1.6016306E-3,6.301522E-6,2.1083743E-4,-9.566373E-3,-1.2138229E-4,-1.0220837E-3,-6.210413E-3,-4.149513E-4,2.470346E-4,-1.5658989E-3,-7.7914656E-3,1.6733808E-4,1.8037004E-5,9.492247E-5,-4.6028776E-4,2.9221506E-4,4.099791E-5,1.5727064E-4,6.0580333E-4,-2.4332841E-4,3.0190658E-4,-4.187624E-4,-1.176308E-3,1.0993829E-4,-3.168624E-4,-4.120088E-4,6.406784E-5,1.3721868E-5,2.2482454E-4,-2.110807E-4,-1.036046E-3,4.6475743E-5,6.009069E-4,-2.1590934E-4,8.920748E-5,-1.646419E-4,4.4079265E-4,2.3279905E-5,-1.6187139E-4,-1.2554482E-4,-5.852808E-4,-1.7139174E-4,1.9537941E-4,-4.092551E-4,-7.715026E-5,3.8963364E-5,-1.3777065E-4,-2.3193743E-4,4.101707E-5,-6.5254944E-4,-1.1588358E-4],"categories":[],"categories_nodes":[],"categories_segments":[],"categories_sizes":[],"default_left":[0,0,0,0,0,0,0,0,0,0,0,0,0,0,0,0,0,0,0,0,0,0,0,0,0,0,0,0,0,0,0,0,0,0,0,0,0,0,0,0,0,0,0,0,0,0,0,0,0,0,0,0,0,0,0,0,0,0,0,0,0,0,0,0,0,0,0,0,0,0,0,0,0,0,0,0,0,0,0,0,0,0,0,0,0,0,0,0,0,0,0,0,0,0,0,0,0,0,0,0,0,0,0,0,0,0,0,0,0,0,0,0,0,0,0,0,0,0,0,0,0,0,0,0,0,0,0,0,0,0,0,0,0,0,0,0,0,0,0,0,0,0,0,0,0,0,0,0,0,0,0,0,0,0,0,0,0,0,0,0,0,0,0,0,0,0,0,0,0,0,0,0,0,0,0,0,0,0,0,0,0,0,0,0,0,0,0,0,0,0,0,0,0,0,0,0,0,0,0,0,0,0,0,0,0,0,0,0,0,0,0],"id":6,"left_children":[1,3,5,7,9,11,13,15,17,-1,19,21,23,25,27,29,31,33,35,37,-1,39,41,43,45,47,49,-1,51,53,55,-1,57,59,61,63,65,-1,67,69,-1,-1,-1,71,73,75,77,-1,-1,79,81,83,-1,85,87,-1,89,91,-1,93,95,-1,-1,97,-1,99,101,-1,-1,-1,-1,-1,-1,-1,-1,103,105,-1,-1,-1,-1,-1,-1,-1,-1,107,109,111,113,115,-1,-1,-1,-1,117,119,121,123,-1,125,127,129,131,-1,133,135,137,-1,-1,139,-1,-1,141,143,145,-1,147,-1,-1,-1,-1,149,-1,151,153,155,157,-1,159,161,163,-1,-1,165,167,169,171,-1,-1,173,175,177,-1,-1,179,181,183,-1,-1,-1,-1,-1,-1,-1,185,187,189,191,193,195,197,-1,-1,199,-1,201,203,205,-1,207,209,-1,-1,-1,-1,-1,-1,-1,-1,-1,-1,-1,-1,-1,-1,-1,-1,-1,-1,-1,-1,-1,-1,-1,-1,-1,-1,-1,-1,-1,-1,-1,-1,-1,-1,-1,-1,-1,-1,-1,-1],"loss_changes":[2.1144676E-3,8.8498957E-4,8.2008354E-4,8.7103876E-4,5.915933E-4,8.388988E-4,3.2442424E-4,8.799576E-4,9.5493457E-4,0E0,2.0183926E-4,3.412299E-4,1.1563913E-3,2.1098513E-4,1.006645E-4,8.640182E-4,1.1132156E-3,1.4542192E-4,8.347812E-4,1.3921116E-4,0E0,3.2908324E-4,4.7546433E-5,5.9382734E-4,4.84608E-4,1.767233E-5,1.349847E-4,0E0,3.609407E-5,1.0299225E-3,6.399633E-4,0E0,3.895763E-5,2.3579027E-4,1.776815E-5,4.9847644E-4,3.0850776E-4,0E0,7.6102865E-6,5.323417E-5,0E0,0E0,0E0,6.0400995E-4,7.691281E-5,3.2277132E-4,2.1863647E-4,0E0,0E0,2.1429987E-5,8.39188E-5,1.2369255E-5,0E0,6.5445894E-4,6.100774E-4,0E0,2.537788E-4,1.583327E-6,0E0,1.2567813E-4,1.1630145E-4,0E0,0E0,4.179255E-4,0E0,8.6234574E-4,2.1180336E-4,0E0,0E0,0E0,0E0,0E0,0E0,0E0,0E0,1.01136284E-4,3.3987674E-4,0E0,0E0,0E0,0E0,0E0,0E0,0E0,0E0,1.1749589E-4,5.2066497E-4,3.3033942E-4,4.9374683E-4,2.2605871E-5,0E0,0E0,0E0,0E0,1.3237295E-6,1.4980149E-5,2.9622397E-5,3.178183E-4,0E0,9.806145E-4,3.198472E-4,2.697021E-4,1.8821594E-5,0E0,8.943179E-5,1.7393564E-4,1.5790213E-4,0E0,0E0,4.0652344E-4,0E0,0E0,2.026564E-4,3.8240317E-4,2.970671E-4,0E0,2.8649993E-6,0E0,0E0,0E0,0E0,4.354646E-6,0E0,1.1339248E-4,1.2049288E-4,6.758007E-4,1.9198959E-4,0E0,8.784847E-5,7.848421E-6,1.7244718E-5,0E0,0E0,5.2766627E-5,3.0517147E-5,1.455252E-4,3.6876572E-6,0E0,0E0,1.156958E-3,7.089008E-4,6.3783955E-6,0E0,0E0,2.4152012E-4,3.558083E-4,1.4429433E-4,0E0,0E0,0E0,0E0,0E0,0E0,0E0,7.0591996E-5,1.2450097E-5,2.1320733E-4,1.1207833E-4,4.0514973E-5,1.3220709E-4,8.37728E-6,0E0,0E0,2.0731706E-5,0E0,5.302628E-5,1.2048913E-5,1.2371003E-5,0E0,4.7571444E-5,1.808437E-4,0E0,0E0,0E0,0E0,0E0,0E0,0E0,0E0,0E0,0E0,0E0,0E0,0E0,0E0,0E0,0E0,0E0,0E0,0E0,0E0,0E0,0E0,0E0,0E0,0E0,0E0,0E0,0E0,0E0,0E0,0E0,0E0,0E0,0E0,0E0,0E0,0E0,0E0,0E0,0E0],"parents":[2147483647,0,0,1,1,2,2,3,3,4,4,5,5,6,6,7,7,8,8,10,10,11,11,12,12,13,13,14,14,15,15,16,16,17,17,18,18,19,19,21,21,22,22,23,23,24,24,25,25,26,26,28,28,29,29,30,30,32,32,33,33,34,34,35,35,36,36,38,38,39,39,43,43,44,44,45,45,46,46,49,49,50,50,51,51,53,53,54,54,56,56,57,57,59,59,60,60,63,63,65,65,66,66,75,75,76,76,85,85,86,86,87,87,88,88,89,89,94,94,95,95,96,96,97,97,99,99,100,100,101,101,102,102,104,104,105,105,106,106,109,109,112,112,113,113,114,114,116,116,121,121,123,123,124,124,125,125,126,126,128,128,129,129,130,130,133,133,134,134,135,135,136,136,139,139,140,140,141,141,144,144,145,145,146,146,154,154,155,155,156,156,157,157,158,158,159,159,160,160,163,163,165,165,166,166,167,167,169,169,170,170],"right_children":[2,4,6,8,10,12,14,16,18,-1,20,22,24,26,28,30,32,34,36,38,-1,40,42,44,46,48,50,-1,52,54,56,-1,58,60,62,64,66,-1,68,70,-1,-1,-1,72,74,76,78,-1,-1,80,82,84,-1,86,88,-1,90,92,-1,94,96,-1,-1,98,-1,100,102,-1,-1,-1,-1,-1,-1,-1,-1,104,106,-1,-1,-1,-1,-1,-1,-1,-1,108,110,112,114,116,-1,-1,-1,-1,118,120,122,124,-1,126,128,130,132,-1,134,136,138,-1,-1,140,-1,-1,142,144,146,-1,148,-1,-1,-1,-1,150,-1,152,154,156,158,-1,160,162,164,-1,-1,166,168,170,172,-1,-1,174,176,178,-1,-1,180,182,184,-1,-1,-1,-1,-1,-1,-1,186,188,190,192,194,196,198,-1,-1,200,-1,202,204,206,-1,208,210,-1,-1,-1,-1,-1,-1,-1,-1,-1,-1,-1,-1,-1,-1,-1,-1,-1,-1,-1,-1,-1,-1,-1,-1,-1,-1,-1,-1,-1,-1,-1,-1,-1,-1,-1,-1,-1,-1,-1,-1],"split_conditions":[8.4986943E-1,5.080627E-1,6.3730407E-1,2.616919E-1,5.4156683E-2,3.116813E-1,5.685839E-1,4.977231E-1,2.6610675E-1,1.246126E-3,6.506203E-1,3.860924E-1,3.629377E-1,1.278814E-1,1.6080825E-1,8.350052E-1,3.6933357E-1,2.2547975E-1,3.964491E-1,5.2396625E-1,-3.0885628E-4,8.798133E-1,9.391868E-1,1.3242237E-1,6.335529E-1,9.894987E-2,9.791258E-2,-5.9956685E-4,6.2556887E-1,3.2821357E-1,2.3749195E-1,1.5461602E-3,4.3731645E-1,3.327797E-1,3.0093825E-1,3.6845484E-1,6.197264E-1,5.2185665E-4,8.499655E-1,2.580898E-1,5.7523075E-4,-5.9987284E-4,-1.178196E-4,1.2706754E-1,3.9700234E-1,1.7857407E-1,1.02605924E-1,-1.5813849E-4,4.6110155E-5,5.324219E-1,1.9398607E-1,5.7125425E-1,-2.6601722E-4,1.6150184E-3,1.043253E-1,1.0405591E-3,1.9714743E-1,2.7589345E-1,2.211127E-4,1.8005641E-1,7.761636E-1,1.202166E-4,5.7215994E-4,3.520833E-1,-1.0189675E-3,6.665631E-1,7.123279E-1,8.2896826E-5,-6.4424035E-5,-2.0286445E-4,1.2281477E-4,-1.8503702E-4,-2.034823E-3,-6.728611E-4,-1.4866621E-4,4.257525E-1,4.876549E-1,-1.1949891E-3,-9.849674E-5,1.4395975E-4,-1.2335586E-4,4.1330266E-5,6.650901E-4,-8.094371E-5,1.0710329E-4,5.485941E-1,8.4704816E-1,7.178321E-2,4.07951E-1,4.28482E-1,5.3772086E-4,-9.5272575E-5,-3.1038483E-6,2.1499135E-4,2.8818893E-1,1.9219558E-1,3.2441968E-1,4.9771863E-1,3.1899786E-4,5.4877806E-1,1.0847787E-1,3.724826E-2,7.266811E-1,2.0787842E-4,5.33613E-1,4.624905E-1,5.877682E-1,9.86168E-4,2.3767987E-4,4.12466E-1,9.958181E-4,-3.342382E-4,5.1559085E-1,3.3932433E-1,2.1003295E-1,5.8434714E-5,8.04669E-2,-1.108045E-4,-4.1811352E-4,5.3678994E-4,1.1430273E-4,5.1009618E-2,2.2046115E-4,3.2441968E-1,1.2162913E-1,2.0618375E-1,6.880712E-1,9.5523644E-4,8.00851E-1,6.980245E-1,8.297861E-1,1.768237E-4,-6.572621E-5,4.500252E-1,5.286296E-1,4.036018E-1,4.7712478E-1,-8.5929804E-4,-1.6350207E-4,4.5775366E-1,4.896659E-1,3.346278E-1,-7.857125E-5,-5.828584E-4,3.3241338E-1,2.0051505E-1,4.522098E-1,-4.9629827E-5,-2.3811487E-4,2.7979575E-5,-9.036194E-5,-1.2777811E-4,-9.714555E-4,1.4296672E-4,3.2292005E-1,3.0357558E-1,4.6870115E-1,3.0648026E-1,6.00755E-1,6.858086E-1,5.928189E-1,6.301522E-6,2.1083743E-4,3.8739055E-2,-1.2138229E-4,4.717577E-1,5.328479E-1,5.151346E-1,2.470346E-4,1.1139883E-1,9.3411976E-1,1.6733808E-4,1.8037004E-5,9.492247E-5,-4.6028776E-4,2.9221506E-4,4.099791E-5,1.5727064E-4,6.0580333E-4,-2.4332841E-4,3.0190658E-4,-4.187624E-4,-1.176308E-3,1.0993829E-4,-3.168624E-4,-4.120088E-4,6.406784E-5,1.3721868E-5,2.2482454E-4,-2.110807E-4,-1.036046E-3,4.6475743E-5,6.009069E-4,-2.1590934E-4,8.920748E-5,-1.646419E-4,4.4079265E-4,2.3279905E-5,-1.6187139E-4,-1.2554482E-4,-5.852808E-4,-1.7139174E-4,1.9537941E-4,-4.092551E-4,-7.715026E-5,3.8963364E-5,-1.3777065E-4,-2.3193743E-4,4.101707E-5,-6.5254944E-4,-1.1588358E-4],"split_indices":[4,1,3,1,4,3,0,6,3,0,0,7,3,1,1,7,4,3,3,7,0,4,4,1,3,1,7,0,0,6,4,0,0,1,1,3,0,0,7,1,0,0,0,1,0,7,1,0,0,0,6,0,0,4,1,0,6,0,0,0,4,0,0,3,0,3,7,0,0,0,0,0,0,0,0,0,0,0,0,0,0,0,0,0,0,3,4,7,0,3,0,0,0,0,0,3,0,7,0,7,4,4,0,0,3,0,3,0,0,0,0,0,0,6,1,0,1,0,0,0,0,3,0,0,6,7,7,0,3,0,4,0,0,0,0,0,0,0,0,7,3,6,0,0,3,1,4,0,0,0,0,0,0,0,0,1,0,0,3,3,0,0,0,4,0,3,3,0,0,1,4,0,0,0,0,0,0,0,0,0,0,0,0,0,0,0,0,0,0,0,0,0,0,0,0,0,0,0,0,0,0,0,0,0,0,0,0,0,0,0,0],"split_type":[0,0,0,0,0,0,0,0,0,0,0,0,0,0,0,0,0,0,0,0,0,0,0,0,0,0,0,0,0,0,0,0,0,0,0,0,0,0,0,0,0,0,0,0,0,0,0,0,0,0,0,0,0,0,0,0,0,0,0,0,0,0,0,0,0,0,0,0,0,0,0,0,0,0,0,0,0,0,0,0,0,0,0,0,0,0,0,0,0,0,0,0,0,0,0,0,0,0,0,0,0,0,0,0,0,0,0,0,0,0,0,0,0,0,0,0,0,0,0,0,0,0,0,0,0,0,0,0,0,0,0,0,0,0,0,0,0,0,0,0,0,0,0,0,0,0,0,0,0,0,0,0,0,0,0,0,0,0,0,0,0,0,0,0,0,0,0,0,0,0,0,0,0,0,0,0,0,0,0,0,0,0,0,0,0,0,0,0,0,0,0,0,0,0,0,0,0,0,0,0,0,0,0,0,0,0,0,0,0,0,0],"sum_hessian":[5.17E2,4.35E2,8.2E1,4.24E2,1.1E1,6.6E1,1.6E1,3.47E2,7.7E1,2E0,9E0,1.2E1,5.4E1,1.1E1,5E0,3.4E2,7E0,1.6E1,6.1E1,8E0,1E0,9E0,3E0,9E0,4.5E1,4E0,7E0,1E0,4E0,3.3E2,1E1,2E0,5E0,1.2E1,4E0,1.8E1,4.3E1,5E0,3E0,5E0,4E0,1E0,2E0,3E0,6E0,4.2E1,3E0,2E0,2E0,2E0,5E0,3E0,1E0,2.8E2,5E1,4E0,6E0,2E0,3E0,4E0,8E0,1E0,3E0,1.3E1,5E0,2.8E1,1.5E1,2E0,1E0,3E0,2E0,1E0,2E0,4E0,2E0,1.6E1,2.6E1,2E0,1E0,1E0,1E0,1E0,4E0,1E0,2E0,4E0,2.76E2,9E0,4.1E1,4E0,2E0,1E0,1E0,1E0,3E0,4E0,4E0,1.1E1,2E0,1.9E1,9E0,1.2E1,3E0,3E0,1.3E1,1.9E1,7E0,2E0,2E0,2.75E2,1E0,2E0,7E0,1.3E1,2.8E1,1E0,3E0,1E0,2E0,3E0,1E0,3E0,1E0,4E0,7E0,1E1,9E0,2E0,7E0,2E0,1E1,2E0,1E0,8E0,5E0,1.6E1,3E0,5E0,2E0,5.7E1,2.18E2,5E0,2E0,2E0,1.1E1,1.9E1,9E0,1E0,2E0,1E0,2E0,1E0,3E0,2E0,5E0,3E0,7E0,5E0,4E0,5E0,2E0,1E0,1E0,9E0,1E0,4E0,4E0,4E0,1E0,7E0,9E0,2E0,1E0,4E1,1.7E1,4.7E1,1.71E2,1E0,4E0,3E0,8E0,1.7E1,2E0,4E0,5E0,4E0,1E0,2E0,1E0,2E0,5E0,2E0,3E0,2E0,2E0,1E0,4E0,1E0,1E0,1E0,8E0,3E0,1E0,3E0,1E0,3E0,1E0,3E0,4E0,5E0,4E0],"tree_param":{"num_deleted":"0","num_feature":"10","num_nodes":"211","size_leaf_vector":"1"}},{"base_weights":[-2.2650628E-4,-4.6075098E-4,8.728253E-3,-1.9531087E-4,-7.4988096E-3,