{"learner":{"attributes":{"scikit_learn":"{\"_estimator_type\": \"regressor\"}"},"feature_names":[],"feature_types":[],"gradient_booster":{"model":{"gbtree_model_param":{"num_parallel_tree":"1","num_trees":"1157"},"iteration_indptr":[0,1,2,3,4,5,6,7,8,9,10,11,12,13,14,15,16,17,18,19,20,21,22,23,24,25,26,27,28,29,30,31,32,33,34,35,36,37,38,39,40,41,42,43,44,45,46,47,48,49,50,51,52,53,54,55,56,57,58,59,60,61,62,63,64,65,66,67,68,69,70,71,72,73,74,75,76,77,78,79,80,81,82,83,84,85,86,87,88,89,90,91,92,93,94,95,96,97,98,99,100,101,102,103,104,105,106,107,108,109,110,111,112,113,114,115,116,117,118,119,120,121,122,123,124,125,126,127,128,129,130,131,132,133,134,135,136,137,138,139,140,141,142,143,144,145,146,147,148,149,150,151,152,153,154,155,156,157,158,159,160,161,162,163,164,165,166,167,168,169,170,171,172,173,174,175,176,177,178,179,180,181,182,183,184,185,186,187,188,189,190,191,192,193,194,195,196,197,198,199,200,201,202,203,204,205,206,207,208,209,210,211,212,213,214,215,216,217,218,219,220,221,222,223,224,225,226,227,228,229,230,231,232,233,234,235,236,237,238,239,240,241,242,243,244,245,246,247,248,249,250,251,252,253,254,255,256,257,258,259,260,261,262,263,264,265,266,267,268,269,270,271,272,273,274,275,276,277,278,279,280,281,282,283,284,285,286,287,288,289,290,291,292,293,294,295,296,297,298,299,300,301,302,303,304,305,306,307,308,309,310,311,312,313,314,315,316,317,318,319,320,321,322,323,324,325,326,327,328,329,330,331,332,333,334,335,336,337,338,339,340,341,342,343,344,345,346,347,348,349,350,351,352,353,354,355,356,357,358,359,360,361,362,363,364,365,366,367,368,369,370,371,372,373,374,375,376,377,378,379,380,381,382,383,384,385,386,387,388,389,390,391,392,393,394,395,396,397,398,399,400,401,402,403,404,405,406,407,408,409,410,411,412,413,414,415,416,417,418,419,420,421,422,423,424,425,426,427,428,429,430,431,432,433,434,435,436,437,438,439,440,441,442,443,444,445,446,447,448,449,450,451,452,453,454,455,456,457,458,459,460,461,462,463,464,465,466,467,468,469,470,471,472,473,474,475,476,477,478,479,480,481,482,483,484,485,486,487,488,489,490,491,492,493,494,495,496,497,498,499,500,501,502,503,504,505,506,507,508,509,510,511,512,513,514,515,516,517,518,519,520,521,522,523,524,525,526,527,528,529,530,531,532,533,534,535,536,537,538,539,540,541,542,543,544,545,546,547,548,549,550,551,552,553,554,555,556,557,558,559,560,561,562,563,564,565,566,567,568,569,570,571,572,573,574,575,576,577,578,579,580,581,582,583,584,585,586,587,588,589,590,591,592,593,594,595,596,597,598,599,600,601,602,603,604,605,606,607,608,609,610,611,612,613,614,615,616,617,618,619,620,621,622,623,624,625,626,627,628,629,630,631,632,633,634,635,636,637,638,639,640,641,642,643,644,645,646,647,648,649,650,651,652,653,654,655,656,657,658,659,660,661,662,663,664,665,666,667,668,669,670,671,672,673,674,675,676,677,678,679,680,681,682,683,684,685,686,687,688,689,690,691,692,693,694,695,696,697,698,699,700,701,702,703,704,705,706,707,708,709,710,711,712,713,714,715,716,717,718,719,720,721,722,723,724,725,726,727,728,729,730,731,732,733,734,735,736,737,738,739,740,741,742,743,744,745,746,747,748,749,750,751,752,753,754,755,756,757,758,759,760,761,762,763,764,765,766,767,768,769,770,771,772,773,774,775,776,777,778,779,780,781,782,783,784,785,786,787,788,789,790,791,792,793,794,795,796,797,798,799,800,801,802,803,804,805,806,807,808,809,810,811,812,813,814,815,816,817,818,819,820,821,822,823,824,825,826,827,828,829,830,831,832,833,834,835,836,837,838,839,840,841,842,843,844,845,846,847,848,849,850,851,852,853,854,855,856,857,858,859,860,861,862,863,864,865,866,867,868,869,870,871,872,873,874,875,876,877,878,879,880,881,882,883,884,885,886,887,888,889,890,891,892,893,894,895,896,897,898,899,900,901,902,903,904,905,906,907,908,909,910,911,912,913,914,915,916,917,918,919,920,921,922,923,924,925,926,927,928,929,930,931,932,933,934,935,936,937,938,939,940,941,942,943,944,945,946,947,948,949,950,951,952,953,954,955,956,957,958,959,960,961,962,963,964,965,966,967,968,969,970,971,972,973,974,975,976,977,978,979,980,981,982,983,984,985,986,987,988,989,990,991,992,993,994,995,996,997,998,999,1000,1001,1002,1003,1004,1005,1006,1007,1008,1009,1010,1011,1012,1013,1014,1015,1016,1017,1018,1019,1020,1021,1022,1023,1024,1025,1026,1027,1028,1029,1030,1031,1032,1033,1034,1035,1036,1037,1038,1039,1040,1041,1042,1043,1044,1045,1046,1047,1048,1049,1050,1051,1052,1053,1054,1055,1056,1057,1058,1059,1060,1061,1062,1063,1064,1065,1066,1067,1068,1069,1070,1071,1072,1073,1074,1075,1076,1077,1078,1079,1080,1081,1082,1083,1084,1085,1086,1087,1088,1089,1090,1091,1092,1093,1094,1095,1096,1097,1098,1099,1100,1101,1102,1103,1104,1105,1106,1107,1108,1109,1110,1111,1112,1113,1114,1115,1116,1117,1118,1119,1120,1121,1122,1123,1124,1125,1126,1127,1128,1129,1130,1131,1132,1133,1134,1135,1136,1137,1138,1139,1140,1141,1142,1143,1144,1145,1146,1147,1148,1149,1150,1151,1152,1153,1154,1155,1156,1157],"tree_info":[0,0,0,0,0,0,0,0,0,0,0,0,0,0,0,0,0,0,0,0,0,0,0,0,0,0,0,0,0,0,0,0,0,0,0,0,0,0,0,0,0,0,0,0,0,0,0,0,0,0,0,0,0,0,0,0,0,0,0,0,0,0,0,0,0,0,0,0,0,0,0,0,0,0,0,0,0,0,0,0,0,0,0,0,0,0,0,0,0,0,0,0,0,0,0,0,0,0,0,0,0,0,0,0,0,0,0,0,0,0,0,0,0,0,0,0,0,0,0,0,0,0,0,0,0,0,0,0,0,0,0,0,0,0,0,0,0,0,0,0,0,0,0,0,0,0,0,0,0,0,0,0,0,0,0,0,0,0,0,0,0,0,0,0,0,0,0,0,0,0,0,0,0,0,0,0,0,0,0,0,0,0,0,0,0,0,0,0,0,0,0,0,0,0,0,0,0,0,0,0,0,0,0,0,0,0,0,0,0,0,0,0,0,0,0,0,0,0,0,0,0,0,0,0,0,0,0,0,0,0,0,0,0,0,0,0,0,0,0,0,0,0,0,0,0,0,0,0,0,0,0,0,0,0,0,0,0,0,0,0,0,0,0,0,0,0,0,0,0,0,0,0,0,0,0,0,0,0,0,0,0,0,0,0,0,0,0,0,0,0,0,0,0,0,0,0,0,0,0,0,0,0,0,0,0,0,0,0,0,0,0,0,0,0,0,0,0,0,0,0,0,0,0,0,0,0,0,0,0,0,0,0,0,0,0,0,0,0,0,0,0,0,0,0,0,0,0,0,0,0,0,0,0,0,0,0,0,0,0,0,0,0,0,0,0,0,0,0,0,0,0,0,0,0,0,0,0,0,0,0,0,0,0,0,0,0,0,0,0,0,0,0,0,0,0,0,0,0,0,0,0,0,0,0,0,0,0,0,0,0,0,0,0,0,0,0,0,0,0,0,0,0,0,0,0,0,0,0,0,0,0,0,0,0,0,0,0,0,0,0,0,0,0,0,0,0,0,0,0,0,0,0,0,0,0,0,0,0,0,0,0,0,0,0,0,0,0,0,0,0,0,0,0,0,0,0,0,0,0,0,0,0,0,0,0,0,0,0,0,0,0,0,0,0,0,0,0,0,0,0,0,0,0,0,0,0,0,0,0,0,0,0,0,0,0,0,0,0,0,0,0,0,0,0,0,0,0,0,0,0,0,0,0,0,0,0,0,0,0,0,0,0,0,0,0,0,0,0,0,0,0,0,0,0,0,0,0,0,0,0,0,0,0,0,0,0,0,0,0,0,0,0,0,0,0,0,0,0,0,0,0,0,0,0,0,0,0,0,0,0,0,0,0,0,0,0,0,0,0,0,0,0,0,0,0,0,0,0,0,0,0,0,0,0,0,0,0,0,0,0,0,0,0,0,0,0,0,0,0,0,0,0,0,0,0,0,0,0,0,0,0,0,0,0,0,0,0,0,0,0,0,0,0,0,0,0,0,0,0,0,0,0,0,0,0,0,0,0,0,0,0,0,0,0,0,0,0,0,0,0,0,0,0,0,0,0,0,0,0,0,0,0,0,0,0,0,0,0,0,0,0,0,0,0,0,0,0,0,0,0,0,0,0,0,0,0,0,0,0,0,0,0,0,0,0,0,0,0,0,0,0,0,0,0,0,0,0,0,0,0,0,0,0,0,0,0,0,0,0,0,0,0,0,0,0,0,0,0,0,0,0,0,0,0,0,0,0,0,0,0,0,0,0,0,0,0,0,0,0,0,0,0,0,0,0,0,0,0,0,0,0,0,0,0,0,0,0,0,0,0,0,0,0,0,0,0,0,0,0,0,0,0,0,0,0,0,0,0,0,0,0,0,0,0,0,0,0,0,0,0,0,0,0,0,0,0,0,0,0,0,0,0,0,0,0,0,0,0,0,0,0,0,0,0,0,0,0,0,0,0,0,0,0,0,0,0,0,0,0,0,0,0,0,0,0,0,0,0,0,0,0,0,0,0,0,0,0,0,0,0,0,0,0,0,0,0,0,0,0,0,0,0,0,0,0,0,0,0,0,0,0,0,0,0,0,0,0,0,0,0,0,0,0,0,0,0,0,0,0,0,0,0,0,0,0,0,0,0,0,0,0,0,0,0,0,0,0,0,0,0,0,0,0,0,0,0,0,0,0,0,0,0,0,0,0,0,0,0,0,0,0,0,0,0,0,0,0,0,0,0,0,0,0,0,0,0,0,0,0,0,0,0,0,0,0,0,0,0,0,0,0,0,0,0,0,0,0,0,0,0,0,0,0,0,0,0,0,0,0,0,0,0,0,0,0,0,0,0,0,0,0,0,0,0,0,0,0,0,0,0,0,0,0,0,0,0,0,0,0,0,0,0,0,0,0,0,0,0,0,0,0,0,0,0,0,0,0,0,0,0,0,0,0,0,0,0,0,0,0,0,0,0,0,0,0,0,0,0,0,0,0,0,0,0,0,0,0,0,0,0,0,0,0,0,0,0,0,0,0,0,0,0,0,0,0,0,0,0,0,0,0,0,0,0,0,0,0,0,0,0,0,0,0,0,0,0,0,0,0,0,0,0,0,0,0,0,0,0,0,0,0,0,0,0,0,0,0],"trees":[{"base_weights":[8.227888E-5,3.4592673E-3,-7.349163E-5,5.0571194E-4,5.836278E-3,5.1806873E-4,-7.837753E-4,3.4538208E-4,-6.112126E-5,8.931925E-5,1.3625737E-3,6.3471845E-4,-2.5484473E-3,-5.73243E-4,-4.3023713E-3,-3.450517E-4,9.364848E-5,-4.056173E-4,2.5111729E-6,-4.2020994E-5,-3.5755764E-4,6.743432E-5,-8.697636E-4],"categories":[],"categories_nodes":[],"categories_segments":[],"categories_sizes":[],"default_left":[0,0,0,0,0,0,0,0,0,0,0,0,0,0,0,0,0,0,0,0,0,0,0],"id":0,"left_children":[1,3,5,7,9,11,13,-1,-1,-1,-1,15,17,19,21,-1,-1,-1,-1,-1,-1,-1,-1],"loss_changes":[1.31237E-4,7.427549E-5,1.0082804E-4,1.4431595E-5,1.432863E-4,4.8477315E-5,7.8278485E-5,0E0,0E0,0E0,0E0,4.58851E-5,8.371484E-6,5.558139E-5,7.758348E-5,0E0,0E0,0E0,0E0,0E0,0E0,0E0,0E0],"parents":[2147483647,0,0,1,1,2,2,3,3,4,4,5,5,6,6,11,11,12,12,13,13,14,14],"right_children":[2,4,6,8,10,12,14,-1,-1,-1,-1,16,18,20,22,-1,-1,-1,-1,-1,-1,-1,-1],"split_conditions":[1.1222212E-1,2.3198935E-1,4.1226584E-1,2.1976832E-1,2.693395E-1,3.2267755E-1,8.0247456E-1,3.4538208E-4,-6.112126E-5,8.931925E-5,1.3625737E-3,4.044322E-2,2.762104E-1,8.222926E-1,4.1622393E-2,-3.450517E-4,9.364848E-5,-4.056173E-4,2.5111729E-6,-4.2020994E-5,-3.5755764E-4,6.743432E-5,-8.697636E-4],"split_indices":[8,6,4,0,0,6,3,0,0,0,0,6,0,4,2,0,0,0,0,0,0,0,0],"split_type":[0,0,0,0,0,0,0,0,0,0,0,0,0,0,0,0,0,0,0,0,0,0,0],"sum_hessian":[2.48E2,1E1,2.38E2,5E0,5E0,1.3E2,1.08E2,1E0,4E0,3E0,2E0,1.26E2,4E0,1.03E2,5E0,3E0,1.23E2,3E0,1E0,9.4E1,9E0,2E0,3E0],"tree_param":{"num_deleted":"0","num_feature":"9","num_nodes":"23","size_leaf_vector":"1"}},{"base_weights":[7.864259E-5,9.4404205E-4,-3.9202903E-4,1.8003695E-3,1.5446648E-4,-1.0103859E-4,-2.0333582E-3,2.0521204E-4,2.8562073E-3,-2.7756605E-5,3.831619E-4,-3.2859002E-3,8.037937E-5,-4.8110733E-4,-1.7290346E-3,-5.5538843E-5,4.7969565E-4,4.887885E-4,1.8901248E-4,-2.293302E-4,2.221664E-5,-1.6046093E-4,-1.1067812E-3,-2.311477E-5,2.253549E-4,1.1009937E-4,-2.718016E-4],"categories":[],"categories_nodes":[],"categories_segments":[],"categories_sizes":[],"default_left":[0,0,0,0,0,0,0,0,0,0,0,0,0,0,0,0,0,0,0,0,0,0,0,0,0,0,0],"id":1,"left_children":[1,3,5,7,9,11,13,15,17,19,-1,21,23,-1,25,-1,-1,-1,-1,-1,-1,-1,-1,-1,-1,-1,-1],"loss_changes":[1.08716944E-4,6.32786E-5,8.242128E-5,7.520412E-5,2.6178865E-5,8.5777196E-5,7.3472183E-6,4.5297715E-5,3.0975425E-5,1.7631002E-5,0E0,7.685813E-5,6.305278E-5,0E0,2.7543923E-5,0E0,0E0,0E0,0E0,0E0,0E0,0E0,0E0,0E0,0E0,0E0,0E0],"parents":[2147483647,0,0,1,1,2,2,3,3,4,4,5,5,6,6,7,7,8,8,9,9,11,11,12,12,14,14],"right_children":[2,4,6,8,10,12,14,16,18,20,-1,22,24,-1,26,-1,-1,-1,-1,-1,-1,-1,-1,-1,-1,-1,-1],"split_conditions":[3.4176433E-1,1.3403693E-1,2.3198935E-1,2.6926133E-1,8.188475E-1,3.4973174E-1,1.18284255E-1,3.356562E-1,7.4440634E-1,3.7033595E-2,3.831619E-4,3.0205357E-1,1.7450836E-1,-4.8110733E-4,2.2734179E-1,-5.5538843E-5,4.7969565E-4,4.887885E-4,1.8901248E-4,-2.293302E-4,2.221664E-5,-1.6046093E-4,-1.1067812E-3,-2.311477E-5,2.253549E-4,1.1009937E-4,-2.718016E-4],"split_indices":[4,6,6,0,3,4,0,4,3,4,0,0,6,0,0,0,0,0,0,0,0,0,0,0,0,0,0],"split_type":[0,0,0,0,0,0,0,0,0,0,0,0,0,0,0,0,0,0,0,0,0,0,0,0,0,0,0],"sum_hessian":[2.65E2,9.3E1,1.72E2,4.4E1,4.9E1,1.47E2,2.5E1,1.8E1,2.6E1,4.7E1,2E0,7E0,1.4E2,2E0,2.3E1,1.6E1,2E0,1.4E1,1.2E1,4E0,4.3E1,6E0,1E0,1.22E2,1.8E1,3E0,2E1],"tree_param":{"num_deleted":"0","num_feature":"9","num_nodes":"27","size_leaf_vector":"1"}},{"base_weights":[1.044771E-4,-2.9909605E-4,7.446917E-4,-8.4730724E-5,-1.6654863E-3,9.3180605E-4,-4.306455E-3,-1.4741253E-3,3.7586542E-5,-2.6361397E-3,1.3732382E-4,1.1315948E-3,-2.520009E-3,-6.617205E-4,-1.0070645E-4,4.21558E-5,-2.682284E-4,3.455173E-5,-1.1783719E-4,4.2662887E-6,-4.19698E-4,3.1469273E-4,-1.1245662E-4,3.041194E-4,6.9458765E-5,-1.3063206E-4,-6.3305843E-4],"categories":[],"categories_nodes":[],"categories_segments":[],"categories_sizes":[],"default_left":[0,0,0,0,0,0,0,0,0,0,0,0,0,0,0,0,0,0,0,0,0,0,0,0,0,0,0],"id":2,"left_children":[1,3,5,7,9,11,13,15,17,19,21,23,25,-1,-1,-1,-1,-1,-1,-1,-1,-1,-1,-1,-1,-1,-1],"loss_changes":[7.1533796E-5,4.965302E-5,1.05142986E-4,2.5207555E-5,4.0609797E-5,7.457355E-5,8.603689E-6,1.4551417E-5,3.1298696E-5,2.695166E-5,2.376293E-5,7.183317E-5,1.6937687E-5,0E0,0E0,0E0,0E0,0E0,0E0,0E0,0E0,0E0,0E0,0E0,0E0,0E0,0E0],"parents":[2147483647,0,0,1,1,2,2,3,3,4,4,5,5,6,6,7,7,8,8,9,9,10,10,11,11,12,12],"right_children":[2,4,6,8,10,12,14,16,18,20,22,24,26,-1,-1,-1,-1,-1,-1,-1,-1,-1,-1,-1,-1,-1,-1],"split_conditions":[7.2699076E-1,7.098513E-1,1.0045092E-1,4.044322E-2,1.462282E-1,8.3826363E-1,1.4216496E-1,2.4785095E-1,4.4056243E-1,2.0556363E-1,3.7930456E-1,2.932958E-1,3.0408883E-1,-6.617205E-4,-1.0070645E-4,4.21558E-5,-2.682284E-4,3.455173E-5,-1.1783719E-4,4.2662887E-6,-4.19698E-4,3.1469273E-4,-1.1245662E-4,3.041194E-4,6.9458765E-5,-1.3063206E-4,-6.3305843E-4],"split_indices":[3,4,2,6,6,4,2,0,8,8,8,0,0,0,0,0,0,0,0,0,0,0,0,0,0,0,0],"split_type":[0,0,0,0,0,0,0,0,0,0,0,0,0,0,0,0,0,0,0,0,0,0,0,0,0,0,0],"sum_hessian":[2.75E2,1.69E2,1.06E2,1.47E2,2.2E1,1.03E2,3E0,1.1E1,1.36E2,1.4E1,8E0,9.8E1,5E0,2E0,1E0,3E0,8E0,1.1E2,2.6E1,3E0,1.1E1,2E0,6E0,3E1,6.8E1,4E0,1E0],"tree_param":{"num_deleted":"0","num_feature":"9","num_nodes":"27","size_leaf_vector":"1"}},{"base_weights":[5.722393E-5,-1.2269469E-4,5.3484696E-3,3.836546E-4,-1.1810688E-3,2.9503722E-3,2.062748E-4,3.3762404E-3,1.877599E-4,-2.4197036E-3,-4.3893463E-4,-2.0265303E-4,1.0732828E-3,1.0987682E-4,6.7582756E-4,7.5766584E-5,-3.9874925E-5,-3.4203002E-4,2.2540245E-5,-2.80111E-5,-3.2716882E-4,2.6160385E-4,-7.6328964E-5],"categories":[],"categories_nodes":[],"categories_segments":[],"categories_sizes":[],"default_left":[0,0,0,0,0,0,0,0,0,0,0,0,0,0,0,0,0,0,0,0,0,0,0],"id":3,"left_children":[1,3,5,7,9,-1,11,13,15,17,19,-1,21,-1,-1,-1,-1,-1,-1,-1,-1,-1,-1],"loss_changes":[2.6055053E-4,1.4246847E-4,8.2336063E-4,1.0488779E-4,7.799197E-5,0E0,1.4217652E-5,4.9187074E-5,3.50952E-5,2.331844E-5,2.5102814E-5,0E0,1.1162596E-5,0E0,0E0,0E0,0E0,0E0,0E0,0E0,0E0,0E0,0E0],"parents":[2147483647,0,0,1,1,2,2,3,3,4,4,6,6,7,7,8,8,9,9,10,10,12,12],"right_children":[2,4,6,8,10,-1,12,14,16,18,20,-1,22,-1,-1,-1,-1,-1,-1,-1,-1,-1,-1],"split_conditions":[8.350489E-1,4.021591E-1,8.414061E-1,2.4136195E-1,3.8718244E-1,2.9503722E-3,5.0875044E-1,2.852769E-1,3.430489E-1,3.1799597E-1,8.0182743E-1,-2.0265303E-4,4.5306438E-1,1.0987682E-4,6.7582756E-4,7.5766584E-5,-3.9874925E-5,-3.4203002E-4,2.2540245E-5,-2.80111E-5,-3.2716882E-4,2.6160385E-4,-7.6328964E-5],"split_indices":[3,8,3,5,7,0,7,0,7,0,3,0,0,0,0,0,0,0,0,0,0,0,0],"split_type":[0,0,0,0,0,0,0,0,0,0,0,0,0,0,0,0,0,0,0,0,0,0,0],"sum_hessian":[2.72E2,2.64E2,8E0,1.79E2,8.5E1,1E0,7E0,1E1,1.69E2,3.1E1,5.4E1,2E0,5E0,5E0,5E0,9.3E1,7.6E1,2.8E1,3E0,5E1,4E0,3E0,2E0],"tree_param":{"num_deleted":"0","num_feature":"9","num_nodes":"23","size_leaf_vector":"1"}},{"base_weights":[-2.4698072E-4,-9.5920834E-5,-3.0563173E-3,2.525403E-3,-1.9915134E-4,-3.521203E-3,-2.2594853E-5,-4.773435E-4,1.2301261E-3,-3.963222E-5,-1.4795859E-3,-2.3736737E-3,-6.629661E-4,1.1266677E-4,-1.3712274E-4,-1.3032874E-4,2.4278184E-5,7.135315E-5,-3.357575E-4,-4.3455837E-4,-1.0778944E-4],"categories":[],"categories_nodes":[],"categories_segments":[],"categories_sizes":[],"default_left":[0,0,0,0,0,0,0,0,0,0,0,0,0,0,0,0,0,0,0,0,0],"id":4,"left_children":[1,3,5,7,9,11,-1,13,-1,15,17,19,-1,-1,-1,-1,-1,-1,-1,-1,-1],"loss_changes":[1.164108E-4,7.140029E-5,1.8106453E-5,2.1978842E-4,5.1617568E-5,1.1034848E-5,0E0,7.5422504E-6,0E0,5.1705465E-5,6.811645E-5,1.149645E-5,0E0,0E0,0E0,0E0,0E0,0E0,0E0,0E0,0E0],"parents":[2147483647,0,0,1,1,2,2,3,3,4,4,5,5,7,7,9,9,10,10,11,11],"right_children":[2,4,6,8,10,12,-1,14,-1,16,18,20,-1,-1,-1,-1,-1,-1,-1,-1,-1],"split_conditions":[9.097307E-2,1.0530173E-1,3.1279963E-1,2.3911633E-1,2.4403694E-1,4.236446E-1,-2.2594853E-5,1.4499051E-2,1.2301261E-3,7.069956E-2,2.5992918E-1,2.9803494E-1,-6.629661E-4,1.1266677E-4,-1.3712274E-4,-1.3032874E-4,2.4278184E-5,7.135315E-5,-3.357575E-4,-4.3455837E-4,-1.0778944E-4],"split_indices":[1,8,1,7,6,8,0,8,0,6,0,7,0,0,0,0,0,0,0,0,0],"split_type":[0,0,0,0,0,0,0,0,0,0,0,0,0,0,0,0,0,0,0,0,0],"sum_hessian":[2.74E2,2.61E2,1.3E1,9E0,2.52E2,1.1E1,2E0,7E0,2E0,2.25E2,2.7E1,8E0,3E0,2E0,5E0,4.2E1,1.83E2,1E1,1.7E1,4E0,4E0],"tree_param":{"num_deleted":"0","num_feature":"9","num_nodes":"21","size_leaf_vector":"1"}},{"base_weights":[1.7262211E-4,-1.6189459E-5,5.5031027E-3,3.7601603E-5,-8.681854E-4,2.7615773E-3,7.5206876E-4,2.106383E-3,-1.4821895E-4,4.5062136E-4,-7.7223784E-4,1.639271E-4,1.1681721E-3,-9.7050415E-6,-3.6334866E-4,-1.7886665E-5,-2.4935737E-4],"categories":[],"categories_nodes":[],"categories_segments":[],"categories_sizes":[],"default_left":[0,0,0,0,0,0,0,0,0,0,0,0,0,0,0,0,0],"id":5,"left_children":[1,3,5,7,-1,-1,9,11,13,-1,15,-1,-1,-1,-1,-1,-1],"loss_changes":[2.6478712E-4,9.3851435E-5,6.785875E-4,9.795541E-5,0E0,0E0,3.6860587E-5,1.09566325E-4,4.5359935E-5,0E0,4.2391885E-6,0E0,0E0,0E0,0E0,0E0,0E0],"parents":[2147483647,0,0,1,1,2,2,3,3,6,6,7,7,8,8,10,10],"right_children":[2,4,6,8,-1,-1,10,12,14,-1,16,-1,-1,-1,-1,-1,-1],"split_conditions":[3.6457264E-1,3.6164993E-1,3.6620656E-1,1.7501661E-1,-8.681854E-4,2.7615773E-3,9.044366E-2,3.3355615E-1,6.84928E-1,4.5062136E-4,1.4216496E-1,1.639271E-4,1.1681721E-3,-9.7050415E-6,-3.6334866E-4,-1.7886665E-5,-2.4935737E-4],"split_indices":[0,0,0,8,0,0,2,7,8,0,2,0,0,0,0,0,0],"split_type":[0,0,0,0,0,0,0,0,0,0,0,0,0,0,0,0,0],"sum_hessian":[2.62E2,2.54E2,8E0,2.53E2,1E0,1E0,7E0,2E1,2.33E2,2E0,5E0,1.9E1,1E0,2.28E2,5E0,4E0,1E0],"tree_param":{"num_deleted":"0","num_feature":"9","num_nodes":"17","size_leaf_vector":"1"}},{"base_weights":[1.3649253E-4,-2.0826454E-5,4.5961775E-3,1.6027904E-4,-1.4439722E-3,2.5863056E-3,7.697493E-5,-4.0061472E-4,2.1852348E-4,5.9116468E-5,-2.3658108E-3,2.2437263E-4,-4.17059E-4,3.5429207E-4,1.4066943E-5,-4.7011662E-4,1.5003978E-4,-1.0201614E-3,-1.9795232E-4,2.7220774E-5,-9.044811E-5],"categories":[],"categories_nodes":[],"categories_segments":[],"categories_sizes":[],"default_left":[0,0,0,0,0,0,0,0,0,0,0,0,0,0,0,0,0,0,0,0,0],"id":6,"left_children":[1,3,5,7,9,-1,11,-1,13,15,17,-1,19,-1,-1,-1,-1,-1,-1,-1,-1],"loss_changes":[1.853163E-4,6.621276E-5,6.4019684E-4,4.4729495E-5,4.0322404E-5,0E0,7.4190298E-6,0E0,6.2033345E-5,5.507902E-5,6.977699E-5,0E0,1.4590277E-6,0E0,0E0,0E0,0E0,0E0,0E0,0E0,0E0],"parents":[2147483647,0,0,1,1,2,2,3,3,4,4,6,6,8,8,9,9,10,10,12,12],"right_children":[2,4,6,8,10,-1,12,-1,14,16,18,-1,20,-1,-1,-1,-1,-1,-1,-1,-1],"split_conditions":[3.5857928E-1,3.1011578E-1,1.0313318E-1,1.18284255E-1,4.585084E-1,2.5863056E-3,3.6457264E-1,-4.0061472E-4,1.2561451E-1,3.1074095E-1,4.6574685E-1,2.2437263E-4,3.3407196E-1,3.5429207E-4,1.4066943E-5,-4.7011662E-4,1.5003978E-4,-1.0201614E-3,-1.9795232E-4,2.7220774E-5,-9.044811E-5],"split_indices":[0,0,6,0,5,0,0,0,8,0,5,0,7,0,0,0,0,0,0,0,0],"split_type":[0,0,0,0,0,0,0,0,0,0,0,0,0,0,0,0,0,0,0,0,0],"sum_hessian":[2.63E2,2.55E2,8E0,2.27E2,2.8E1,1E0,7E0,3E0,2.24E2,1.1E1,1.7E1,1E0,6E0,8E0,2.16E2,2E0,9E0,1E0,1.6E1,2E0,4E0],"tree_param":{"num_deleted":"0","num_feature":"9","num_nodes":"21","size_leaf_vector":"1"}},{"base_weights":[-1.898354E-4,1.8583509E-3,-2.5641875E-4,-9.4065166E-5,5.794538E-3,-2.1386649E-4,-3.0752302E-3,-1.3977027E-4,5.2897434E-4,8.821354E-4,2.2116669E-4,-1.5491998E-3,-1.2400557E-4,-4.797677E-4,-6.106245E-5,1.0828853E-4,-4.8712525E-5,1.0012699E-4,-2.673958E-4,-2.8306298E-5,2.4107032E-4],"categories":[],"categories_nodes":[],"categories_segments":[],"categories_sizes":[],"default_left":[0,0,0,0,0,0,0,0,0,0,0,0,0,0,0,0,0,0,0,0,0],"id":7,"left_children":[1,3,5,7,9,11,13,-1,15,-1,-1,17,19,-1,-1,-1,-1,-1,-1,-1,-1],"loss_changes":[3.8934304E-5,6.9710746E-5,3.2207732E-5,4.9744563E-6,1.9314684E-6,3.2326338E-5,5.490947E-6,0E0,1.8065633E-6,0E0,0E0,2.381378E-5,5.1493567E-5,0E0,0E0,0E0,0E0,0E0,0E0,0E0,0E0],"parents":[2147483647,0,0,1,1,2,2,3,3,4,4,5,5,6,6,8,8,11,11,12,12],"right_children":[2,4,6,8,10,12,14,-1,16,-1,-1,18,20,-1,-1,-1,-1,-1,-1,-1,-1],"split_conditions":[5.6917287E-2,7.238992E-1,9.0764385E-1,1.9675482E-2,3.2169927E-2,6.245225E-1,1E0,-1.3977027E-4,2.4088426E-1,8.821354E-4,2.2116669E-4,6.2860474E-2,8.461748E-2,-4.797677E-4,-6.106245E-5,1.0828853E-4,-4.8712525E-5,1.0012699E-4,-2.673958E-4,-2.8306298E-5,2.4107032E-4],"split_indices":[4,3,3,4,1,3,3,0,5,0,0,2,1,0,0,0,0,0,0,0,0],"split_type":[0,0,0,0,0,0,0,0,0,0,0,0,0,0,0,0,0,0,0,0,0],"sum_hessian":[2.81E2,8E0,2.73E2,6E0,2E0,2.7E2,3E0,2E0,4E0,1E0,1E0,1.6E1,2.54E2,2E0,1E0,3E0,1E0,3E0,1.3E1,2.43E2,1.1E1],"tree_param":{"num_deleted":"0","num_feature":"9","num_nodes":"21","size_leaf_vector":"1"}},{"base_weights":[-1.7420428E-4,1.32723E-4,-8.6079474E-4,7.1564363E-4,-3.9748047E-4,-7.4217847E-4,-3.736964E-3,4.5346147E-3,5.741023E-4,-1.0824117E-3,1.233158E-4,-1.113028E-3,2.2527616E-4,-8.255274E-4,1.1399527E-4,3.7259804E-5,8.261481E-4,1.4302269E-5,1.5382674E-4,-2.0640233E-4,-7.141834E-5,-5.9707345E-5,4.7290097E-5,-2.0096627E-4,-1.7837012E-5,1.0508702E-4,-6.440289E-5],"categories":[],"categories_nodes":[],"categories_segments":[],"categories_sizes":[],"default_left":[0,0,0,0,0,0,0,0,0,0,0,0,0,0,0,0,0,0,0,0,0,0,0,0,0,0,0],"id":8,"left_children":[1,3,5,7,9,11,13,15,17,19,21,23,25,-1,-1,-1,-1,-1,-1,-1,-1,-1,-1,-1,-1,-1,-1],"loss_changes":[5.5958575E-5,5.7152694E-5,2.5201673E-5,4.4964396E-5,3.4734316E-5,2.895316E-5,4.4309323E-5,2.3202403E-5,2.5170984E-5,1.0952837E-5,8.461473E-6,2.6298418E-5,1.0574282E-5,0E0,0E0,0E0,0E0,0E0,0E0,0E0,0E0,0E0,0E0,0E0,0E0,0E0,0E0],"parents":[2147483647,0,0,1,1,2,2,3,3,4,4,5,5,6,6,7,7,8,8,9,9,10,10,11,11,12,12],"right_children":[2,4,6,8,10,12,14,16,18,20,22,24,26,-1,-1,-1,-1,-1,-1,-1,-1,-1,-1,-1,-1,-1,-1],"split_conditions":[4.9980667E-1,3.550343E-1,8.118745E-1,2.5187047E-2,2.5990346E-2,7.321025E-1,3.6457264E-1,2.9627836E-1,2.7007082E-1,4.2228523E-1,2.3525019E-1,4.3202907E-2,7.242062E-1,-8.255274E-4,1.1399527E-4,3.7259804E-5,8.261481E-4,1.4302269E-5,1.5382674E-4,-2.0640233E-4,-7.141834E-5,-5.9707345E-5,4.7290097E-5,-2.0096627E-4,-1.7837012E-5,1.0508702E-4,-6.440289E-5],"split_indices":[4,7,3,4,2,3,0,0,0,7,4,2,4,0,0,0,0,0,0,0,0,0,0,0,0,0,0],"split_type":[0,0,0,0,0,0,0,0,0,0,0,0,0,0,0,0,0,0,0,0,0,0,0,0,0,0,0],"sum_hessian":[2.64E2,1.83E2,8.1E1,8.7E1,9.6E1,7.9E1,2E0,2E0,8.5E1,4.1E1,5.5E1,5.7E1,2.2E1,1E0,1E0,1E0,1E0,5E1,3.5E1,1.9E1,2.2E1,1.6E1,3.9E1,3.8E1,1.9E1,1.2E1,1E1],"tree_param":{"num_deleted":"0","num_feature":"9","num_nodes":"27","size_leaf_vector":"1"}},{"base_weights":[-3.7182537E-5,7.956978E-5,-2.4761532E-3,2.860826E-4,-8.98481E-4,-3.7041488E-3,-6.307995E-4,-3.25239E-4,7.6433475E-4,-1.6945913E-3,9.285117E-4,-6.364869E-4,-1.8634446E-4,-1.8442921E-4,-2.2313614E-5,7.742446E-5,-1.2625422E-4,2.926799E-4,6.974996E-5,-1.5439322E-4,-4.99924E-4,3.893763E-4,6.702366E-5],"categories":[],"categories_nodes":[],"categories_segments":[],"categories_sizes":[],"default_left":[0,0,0,0,0,0,0,0,0,0,0,0,0,0,0,0,0,0,0,0,0,0,0],"id":9,"left_children":[1,3,5,7,9,11,13,15,17,19,21,-1,-1,-1,-1,-1,-1,-1,-1,-1,-1,-1,-1],"loss_changes":[7.480296E-5,5.095403E-5,2.4856454E-5,6.1060695E-5,6.557091E-5,1.3145713E-5,1.9890808E-6,5.819928E-5,3.7478865E-5,2.8478069E-5,1.0373643E-5,0E0,0E0,0E0,0E0,0E0,0E0,0E0,0E0,0E0,0E0,0E0,0E0],"parents":[2147483647,0,0,1,1,2,2,3,3,4,4,5,5,6,6,7,7,8,8,9,9,10,10],"right_children":[2,4,6,8,10,12,14,16,18,20,22,-1,-1,-1,-1,-1,-1,-1,-1,-1,-1,-1,-1],"split_conditions":[1.1072918E-1,3.079741E-1,2.2854607E-1,2.5872928E-1,4.86148E-1,3.384173E-1,1.0698684E-1,2.2810277E-1,2.653022E-1,2.2520058E-1,4.900554E-1,-6.364869E-4,-1.8634446E-4,-1.8442921E-4,-2.2313614E-5,7.742446E-5,-1.2625422E-4,2.926799E-4,6.974996E-5,-1.5439322E-4,-4.99924E-4,3.893763E-4,6.702366E-5],"split_indices":[1,0,1,0,7,0,0,0,0,6,7,0,0,0,0,0,0,0,0,0,0,0,0],"split_type":[0,0,0,0,0,0,0,0,0,0,0,0,0,0,0,0,0,0,0,0,0,0,0],"sum_hessian":[2.61E2,2.5E2,1.1E1,2.07E2,4.3E1,6E0,5E0,9.1E1,1.16E2,3E1,1.3E1,3E0,3E0,1E0,4E0,3.8E1,5.3E1,1.3E1,1.03E2,2.6E1,4E0,1E0,1.2E1],"tree_param":{"num_deleted":"0","num_feature":"9","num_nodes":"23","size_leaf_vector":"1"}},{"base_weights":[-1.3898828E-4,-1.2787293E-3,-3.1758368E-6,-2.0346586E-3,-3.7746734E-4,3.05989E-4,-5.6625967E-4,-6.1186314E-5,-2.8388522E-4,2.3944587E-4,-8.227694E-5,1.7237283E-4,5.2400976E-3,-3.0157762E-4,-1.2984737E-3,8.4880674E-5,-3.4223554E-5,3.2432923E-5,-5.060095E-4,9.139313E-4,2.7758756E-4,-7.0045964E-5,7.7899575E-5,-2.9684167E-4,5.8853297E-5],"categories":[],"categories_nodes":[],"categories_segments":[],"categories_sizes":[],"default_left":[0,0,0,0,0,0,0,0,0,0,0,0,0,0,0,0,0,0,0,0,0,0,0,0,0],"id":10,"left_children":[1,3,5,7,9,11,13,-1,-1,15,-1,17,19,21,23,-1,-1,-1,-1,-1,-1,-1,-1,-1,-1],"loss_changes":[4.0705974E-5,1.8308107E-5,4.12575E-5,3.621506E-6,2.4932667E-6,9.996606E-5,1.5887937E-5,0E0,0E0,1.2728383E-6,0E0,5.287781E-5,8.190655E-6,1.4768224E-5,4.1403207E-5,0E0,0E0,0E0,0E0,0E0,0E0,0E0,0E0,0E0,0E0],"parents":[2147483647,0,0,1,1,2,2,3,3,4,4,5,5,6,6,9,9,11,11,12,12,13,13,14,14],"right_children":[2,4,6,8,10,12,14,-1,-1,16,-1,18,20,22,24,-1,-1,-1,-1,-1,-1,-1,-1,-1,-1],"split_conditions":[6.4351016E-1,2.9524592E-1,4.066304E-1,1.1964429E-1,5.7428088E-2,4.04095E-1,7.6552683E-1,-6.1186314E-5,-2.8388522E-4,6.36616E-1,-8.227694E-5,8.09619E-1,1.7210955E-2,7.38869E-1,8.188475E-1,8.4880674E-5,-3.4223554E-5,3.2432923E-5,-5.060095E-4,9.139313E-4,2.7758756E-4,-7.0045964E-5,7.7899575E-5,-2.9684167E-4,5.8853297E-5],"split_indices":[3,7,7,7,2,7,3,0,0,3,0,3,2,3,3,0,0,0,0,0,0,0,0,0,0],"split_type":[0,0,0,0,0,0,0,0,0,0,0,0,0,0,0,0,0,0,0,0,0,0,0,0,0],"sum_hessian":[2.62E2,2.7E1,2.35E2,1.4E1,1.3E1,1.52E2,8.3E1,2E0,1.2E1,4E0,9E0,1.49E2,3E0,6.2E1,2.1E1,2E0,2E0,1.47E2,2E0,1E0,2E0,4.9E1,1.3E1,1.3E1,8E0],"tree_param":{"num_deleted":"0","num_feature":"9","num_nodes":"25","size_leaf_vector":"1"}},{"base_weights":[1.8915898E-4,2.7902276E-4,-1.9847683E-3,7.529312E-4,-2.4011759E-5,-2.6540786E-3,-1.9034713E-5,5.2082404E-3,5.2031025E-4,7.6145533E-4,-2.0100425E-4,-2.9064412E-3,-5.6330387E-5,1.9750949E-5,1.0821032E-3,-1.355242E-4,1.1561302E-4,5.065095E-5,3.1655107E-4,-7.6155244E-5,4.998095E-5,-1.9254113E-4,-4.5308925E-4],"categories":[],"categories_nodes":[],"categories_segments":[],"categories_sizes":[],"default_left":[0,0,0,0,0,0,0,0,0,0,0,0,0,0,0,0,0,0,0,0,0,0,0],"id":11,"left_children":[1,3,5,7,9,11,-1,13,15,17,19,21,-1,-1,-1,-1,-1,-1,-1,-1,-1,-1,-1],"loss_changes":[5.4081705E-5,3.7931284E-5,1.3110661E-5,1.0403912E-4,2.2674585E-5,3.1725976E-6,0E0,8.246058E-5,6.2360676E-5,1.7840252E-5,3.1793785E-5,1.0348303E-6,0E0,0E0,0E0,0E0,0E0,0E0,0E0,0E0,0E0,0E0,0E0],"parents":[2147483647,0,0,1,1,2,2,3,3,4,4,5,5,7,7,8,8,9,9,10,10,11,11],"right_children":[2,4,6,8,10,12,-1,14,16,18,20,22,-1,-1,-1,-1,-1,-1,-1,-1,-1,-1,-1],"split_conditions":[1.1072918E-1,1.058823E-1,3.1279963E-1,1.3225786E-1,2.3366489E-1,1E0,-1.9034713E-5,2.7525923E-1,4.550633E-2,4.3820825E-1,7.333279E-1,8.990312E-1,-5.6330387E-5,1.9750949E-5,1.0821032E-3,-1.355242E-4,1.1561302E-4,5.065095E-5,3.1655107E-4,-7.6155244E-5,4.998095E-5,-1.9254113E-4,-4.5308925E-4],"split_indices":[1,6,1,4,0,3,0,0,6,6,3,3,0,0,0,0,0,0,0,0,0,0,0],"split_type":[0,0,0,0,0,0,0,0,0,0,0,0,0,0,0,0,0,0,0,0,0,0,0],"sum_hessian":[2.73E2,2.63E2,1E1,1.02E2,1.61E2,7E0,3E0,4E0,9.8E1,2.9E1,1.32E2,6E0,1E0,2E0,2E0,1.9E1,7.9E1,2.5E1,4E0,7.9E1,5.3E1,3E0,3E0],"tree_param":{"num_deleted":"0","num_feature":"9","num_nodes":"23","size_leaf_vector":"1"}},{"base_weights":[1.9558196E-4,3.9943476E-5,3.2454182E-3,2.5435054E-4,-6.496259E-4,2.4512964E-3,2.973201E-4,4.0579285E-3,1.9422125E-4,1.0398739E-3,-8.1904326E-4,1.9359316E-3,-1.1496784E-3,7.4095056E-5,6.9854996E-4,1.2698681E-5,3.4220784E-4,-1.1476044E-5,2.0660298E-4,-8.333674E-5,-4.406367E-4,3.81139E-4,8.275453E-5,8.481181E-5,-3.401988E-4],"categories":[],"categories_nodes":[],"categories_segments":[],"categories_sizes":[],"default_left":[0,0,0,0,0,0,0,0,0,0,0,0,0,0,0,0,0,0,0,0,0,0,0,0,0],"id":12,"left_children":[1,3,5,7,9,-1,11,13,15,17,19,21,23,-1,-1,-1,-1,-1,-1,-1,-1,-1,-1,-1,-1],"loss_changes":[1.2708243E-4,3.8014463E-5,6.099876E-4,4.403833E-5,1.831177E-5,0E0,3.067852E-5,1.1850923E-5,4.5439025E-5,4.1330436E-6,2.1859334E-5,6.260123E-6,2.1264761E-5,0E0,0E0,0E0,0E0,0E0,0E0,0E0,0E0,0E0,0E0,0E0,0E0],"parents":[2147483647,0,0,1,1,2,2,3,3,4,4,6,6,7,7,8,8,9,9,10,10,11,11,12,12],"right_children":[2,4,6,8,10,-1,12,14,16,18,20,22,24,-1,-1,-1,-1,-1,-1,-1,-1,-1,-1,-1,-1],"split_conditions":[3.5857928E-1,4.4056243E-1,1.0313318E-1,2.5187047E-2,2.1019602E-1,2.4512964E-3,8.596566E-1,2.689572E-1,3.2267755E-1,4.936511E-1,6.443496E-1,3.2691526E-1,4.9589908E-1,7.4095056E-5,6.9854996E-4,1.2698681E-5,3.4220784E-4,-1.1476044E-5,2.0660298E-4,-8.333674E-5,-4.406367E-4,3.81139E-4,8.275453E-5,8.481181E-5,-3.401988E-4],"split_indices":[0,8,6,4,0,0,3,0,6,4,8,4,8,0,0,0,0,0,0,0,0,0,0,0,0],"split_type":[0,0,0,0,0,0,0,0,0,0,0,0,0,0,0,0,0,0,0,0,0,0,0,0,0],"sum_hessian":[2.67E2,2.55E2,1.2E1,1.95E2,6E1,1E0,1.1E1,2E0,1.93E2,5E0,5.5E1,5E0,6E0,1E0,1E0,1.87E2,6E0,2E0,3E0,5.3E1,2E0,2E0,3E0,3E0,3E0],"tree_param":{"num_deleted":"0","num_feature":"9","num_nodes":"25","size_leaf_vector":"1"}},{"base_weights":[-1.3959738E-5,-1.4080801E-4,3.5534375E-3,-8.469893E-5,-4.788333E-3,2.2957174E-3,-5.237947E-4,-1.8218144E-4,1.7139949E-3,-1.7207387E-4,-7.3964294E-4,-2.694527E-3,1.3175502E-3,4.3235683E-5,-6.208567E-5,3.1167953E-4,1.1978743E-4,-4.605942E-4,6.827021E-6,2.8260826E-4,-3.867665E-6],"categories":[],"categories_nodes":[],"categories_segments":[],"categories_sizes":[],"default_left":[0,0,0,0,0,0,0,0,0,0,0,0,0,0,0,0,0,0,0,0,0],"id":13,"left_children":[1,3,5,7,9,-1,11,13,15,-1,-1,17,19,-1,-1,-1,-1,-1,-1,-1,-1],"loss_changes":[1.18607604E-4,6.556884E-5,5.4273393E-4,4.4322896E-5,2.796478E-6,0E0,3.5526708E-5,3.8516548E-5,5.1074167E-6,0E0,0E0,1.0463185E-5,6.1934816E-6,0E0,0E0,0E0,0E0,0E0,0E0,0E0,0E0],"parents":[2147483647,0,0,1,1,2,2,3,3,4,4,6,6,7,7,8,8,11,11,12,12],"right_children":[2,4,6,8,10,-1,12,14,16,-1,-1,18,20,-1,-1,-1,-1,-1,-1,-1,-1],"split_conditions":[3.6457264E-1,3.5752514E-1,1.0313318E-1,7.9013693E-1,3.6164993E-1,2.2957174E-3,1.5133965E-1,3.4690708E-1,8.0531204E-1,-1.7207387E-4,-7.3964294E-4,9.0764385E-1,8.596566E-1,4.3235683E-5,-6.208567E-5,3.1167953E-4,1.1978743E-4,-4.605942E-4,6.827021E-6,2.8260826E-4,-3.867665E-6],"split_indices":[0,0,6,3,0,0,4,4,3,0,0,3,3,0,0,0,0,0,0,0,0],"split_type":[0,0,0,0,0,0,0,0,0,0,0,0,0,0,0,0,0,0,0,0,0],"sum_hessian":[2.6E2,2.52E2,8E0,2.5E2,2E0,1E0,7E0,2.38E2,1.2E1,1E0,1E0,3E0,4E0,8.8E1,1.5E2,5E0,7E0,2E0,1E0,2E0,2E0],"tree_param":{"num_deleted":"0","num_feature":"9","num_nodes":"21","size_leaf_vector":"1"}},{"base_weights":[-1.7869108E-5,3.0560952E-4,-2.7568953E-4,-2.891546E-4,9.668864E-4,-4.924679E-4,6.295173E-4,5.3769216E-4,-8.541727E-4,-1.4504219E-3,1.2736993E-3,-1.3335764E-3,-2.877246E-4,2.6817652E-3,4.7151407E-6,-1.8907363E-4,1.5077766E-4,-1.3642904E-4,2.730977E-4,-2.7001646E-4,2.043612E-5,3.0312184E-4,6.380326E-5,-9.1969705E-5,-2.683143E-4,2.1456424E-4,-5.1835053E-5,3.927369E-4,1.3973366E-4,3.1562924E-4,-2.6821477E-5],"categories":[],"categories_nodes":[],"categories_segments":[],"categories_sizes":[],"default_left":[0,0,0,0,0,0,0,0,0,0,0,0,0,0,0,0,0,0,0,0,0,0,0,0,0,0,0,0,0,0,0],"id":14,"left_children":[1,3,5,7,9,11,13,15,17,19,21,23,25,27,29,-1,-1,-1,-1,-1,-1,-1,-1,-1,-1,-1,-1,-1,-1,-1,-1],"loss_changes":[2.2935688E-5,4.8262635E-5,3.0333093E-5,3.0826202E-5,4.4863762E-5,2.0970503E-5,3.8454826E-5,3.7354177E-5,2.8172726E-5,7.976337E-6,4.3477252E-5,9.872663E-6,2.4790541E-5,1.1558914E-6,1.3391972E-5,0E0,0E0,0E0,0E0,0E0,0E0,0E0,0E0,0E0,0E0,0E0,0E0,0E0,0E0,0E0,0E0],"parents":[2147483647,0,0,1,1,2,2,3,3,4,4,5,5,6,6,7,7,8,8,9,9,10,10,11,11,12,12,13,13,14,14],"right_children":[2,4,6,8,10,12,14,16,18,20,22,24,26,28,30,-1,-1,-1,-1,-1,-1,-1,-1,-1,-1,-1,-1,-1,-1,-1,-1],"split_conditions":[3.3407196E-1,2.8251344E-1,4.780051E-1,1.8538709E-1,2.660604E-1,2.0473751E-1,4.6208653E-1,2.1405464E-1,3.1878433E-1,8.881393E-1,3.018349E-1,2.7027383E-1,2.438345E-1,4.1709113E-1,4.900554E-1,-1.8907363E-4,1.5077766E-4,-1.3642904E-4,2.730977E-4,-2.7001646E-4,2.043612E-5,3.0312184E-4,6.380326E-5,-9.1969705E-5,-2.683143E-4,2.1456424E-4,-5.1835053E-5,3.927369E-4,1.3973366E-4,3.1562924E-4,-2.6821477E-5],"split_indices":[7,8,7,8,7,4,8,0,0,4,7,0,4,8,7,0,0,0,0,0,0,0,0,0,0,0,0,0,0,0,0],"split_type":[0,0,0,0,0,0,0,0,0,0,0,0,0,0,0,0,0,0,0,0,0,0,0,0,0,0,0,0,0,0,0],"sum_hessian":[2.73E2,1.21E2,1.52E2,6.4E1,5.7E1,1.23E2,2.9E1,2.6E1,3.8E1,6E0,5.1E1,2.3E1,1E2,6E0,2.3E1,6E0,2E1,3.6E1,2E0,4E0,2E0,2E1,3.1E1,1.4E1,9E0,5E0,9.5E1,4E0,2E0,1E0,2.2E1],"tree_param":{"num_deleted":"0","num_feature":"9","num_nodes":"31","size_leaf_vector":"1"}},{"base_weights":[-1.238336E-4,4.260959E-5,-1.3474822E-3,1.9091396E-3,-2.2782764E-5,-9.234295E-4,-9.216093E-4,-1.0472925E-3,7.185624E-3,5.1873975E-4,-3.2266157E-4,-6.894095E-4,-5.9025205E-4,-1.7809225E-4,4.641368E-5,2.7730185E-4,1.0908683E-3,-4.970901E-5,1.8842288E-4,-2.598315E-4,-2.6594293E-5,2.6041287E-4,-1.0817726E-4],"categories":[],"categories_nodes":[],"categories_segments":[],"categories_sizes":[],"default_left":[0,0,0,0,0,0,0,0,0,0,0,0,0,0,0,0,0,0,0,0,0,0,0],"id":15,"left_children":[1,3,5,7,9,-1,11,13,15,17,19,-1,21,-1,-1,-1,-1,-1,-1,-1,-1,-1,-1],"loss_changes":[5.4436765E-5,2.88489E-5,7.407222E-5,1.3232198E-4,3.7354945E-5,0E0,4.311673E-5,3.5286462E-6,2.3538742E-6,7.266593E-5,2.844692E-5,0E0,2.2510209E-5,0E0,0E0,0E0,0E0,0E0,0E0,0E0,0E0,0E0,0E0],"parents":[2147483647,0,0,1,1,2,2,3,3,4,4,6,6,7,7,8,8,9,9,10,10,12,12],"right_children":[2,4,6,8,10,-1,12,14,16,18,20,-1,22,-1,-1,-1,-1,-1,-1,-1,-1,-1,-1],"split_conditions":[3.1642327E-1,1.1222212E-1,3.1799597E-1,7.7935034E-1,3.169209E-1,-9.234295E-4,1.5645367E-1,5.0401784E-2,2.1976832E-1,2.8907135E-1,2.1696997E-1,-6.894095E-4,2.80977E-2,-1.7809225E-4,4.641368E-5,2.7730185E-4,1.0908683E-3,-4.970901E-5,1.8842288E-4,-2.598315E-4,-2.6594293E-5,2.6041287E-4,-1.0817726E-4],"split_indices":[0,8,0,5,7,0,8,2,0,8,8,0,2,0,0,0,0,0,0,0,0,0,0],"split_type":[0,0,0,0,0,0,0,0,0,0,0,0,0,0,0,0,0,0,0,0,0,0,0],"sum_hessian":[2.66E2,2.35E2,3.1E1,7E0,2.28E2,1E0,3E1,5E0,2E0,8.1E1,1.47E2,1E0,2.9E1,4E0,1E0,1E0,1E0,4.2E1,3.9E1,8E0,1.39E2,2E0,2.7E1],"tree_param":{"num_deleted":"0","num_feature":"9","num_nodes":"23","size_leaf_vector":"1"}},{"base_weights":[-9.195255E-5,4.9284117E-6,-1.3101193E-3,-1.3847043E-3,7.631299E-5,-7.4715295E-4,-4.4629868E-4,2.1977985E-4,-2.1086754E-3,-1.8448816E-4,5.0475326E-4,7.037014E-4,-1.2119472E-3,-1.6530238E-4,-6.4565404E-4,-3.5276928E-5,2.3743186E-4,2.2349403E-4,7.8262965E-6,1.376961E-4,-5.2079813E-5,1.5102491E-4,-1.8890797E-4],"categories":[],"categories_nodes":[],"categories_segments":[],"categories_sizes":[],"default_left":[0,0,0,0,0,0,0,0,0,0,0,0,0,0,0,0,0,0,0,0,0,0,0],"id":16,"left_children":[1,3,5,7,9,11,-1,-1,13,15,17,19,21,-1,-1,-1,-1,-1,-1,-1,-1,-1,-1],"loss_changes":[3.364135E-5,2.6393229E-5,2.3450895E-5,3.297884E-5,2.8362763E-5,1.2991128E-5,0E0,0E0,1.9791078E-5,3.0853058E-5,5.331548E-5,2.5675834E-6,1.1059925E-5,0E0,0E0,0E0,0E0,0E0,0E0,0E0,0E0,0E0,0E0],"parents":[2147483647,0,0,1,1,2,2,3,3,4,4,5,5,8,8,9,9,10,10,11,11,12,12],"right_children":[2,4,6,8,10,12,-1,-1,14,16,18,20,22,-1,-1,-1,-1,-1,-1,-1,-1,-1,-1],"split_conditions":[8.3826363E-1,1.5645367E-1,6.84928E-1,9.538501E-2,7.280009E-1,8.467456E-1,-4.4629868E-4,2.1977985E-4,2.8207755E-1,8.0558676E-1,7.4440634E-1,2.908675E-1,4.4845592E-2,-1.6530238E-4,-6.4565404E-4,-3.5276928E-5,2.3743186E-4,2.2349403E-4,7.8262965E-6,1.376961E-4,-5.2079813E-5,1.5102491E-4,-1.8890797E-4],"split_indices":[4,8,8,6,3,5,0,0,0,4,3,0,6,0,0,0,0,0,0,0,0,0,0],"split_type":[0,0,0,0,0,0,0,0,0,0,0,0,0,0,0,0,0,0,0,0,0,0,0],"sum_hessian":[2.84E2,2.64E2,2E1,1.2E1,2.52E2,1.7E1,3E0,2E0,1E1,1.57E2,9.5E1,4E0,1.3E1,9E0,1E0,1.51E2,6E0,2.4E1,7.1E1,3E0,1E0,1E0,1.2E1],"tree_param":{"num_deleted":"0","num_feature":"9","num_nodes":"23","size_leaf_vector":"1"}},{"base_weights":[3.6230937E-4,2.5069332E-4,3.6705341E-3,5.7833566E-4,-3.210762E-4,2.1596719E-3,-1.2411951E-4,1.4082994E-4,1.1987195E-3,1.9431621E-3,-5.144765E-4,-3.6448723E-4,6.785572E-4,6.910097E-5,-1.345148E-4,4.2140373E-4,7.251672E-5,-1.2999056E-5,1.0321246E-3,5.5827397E-5,-1.16481155E-4,3.4856703E-4,-8.855369E-5],"categories":[],"categories_nodes":[],"categories_segments":[],"categories_sizes":[],"default_left":[0,0,0,0,0,0,0,0,0,0,0,0,0,0,0,0,0,0,0,0,0,0,0],"id":17,"left_children":[1,3,5,7,9,-1,11,13,15,17,19,-1,21,-1,-1,-1,-1,-1,-1,-1,-1,-1,-1],"loss_changes":[1.0173158E-4,5.0766394E-5,4.578122E-4,4.651567E-5,4.4352248E-5,0E0,1.9590032E-5,4.9993138E-5,9.259354E-5,1.0209501E-4,3.5798796E-5,0E0,2.1832024E-5,0E0,0E0,0E0,0E0,0E0,0E0,0E0,0E0,0E0,0E0],"parents":[2147483647,0,0,1,1,2,2,3,3,4,4,6,6,7,7,8,8,9,9,10,10,12,12],"right_children":[2,4,6,8,10,-1,12,14,16,18,20,-1,22,-1,-1,-1,-1,-1,-1,-1,-1,-1,-1],"split_conditions":[3.5752514E-1,5.6959414E-1,1.0313318E-1,2.9107431E-2,1.2561451E-1,2.1596719E-3,7.407807E-2,4.426108E-1,3.3894535E-2,2.7007082E-1,9.376795E-2,-3.6448723E-4,7.604376E-2,6.910097E-5,-1.345148E-4,4.2140373E-4,7.251672E-5,-1.2999056E-5,1.0321246E-3,5.5827397E-5,-1.16481155E-4,3.4856703E-4,-8.855369E-5],"split_indices":[0,5,6,2,8,0,5,8,2,0,6,0,2,0,0,0,0,0,0,0,0,0,0],"split_type":[0,0,0,0,0,0,0,0,0,0,0,0,0,0,0,0,0,0,0,0,0,0,0],"sum_hessian":[2.77E2,2.69E2,8E0,1.71E2,9.8E1,1E0,7E0,1.01E2,7E1,7E0,9.1E1,1E0,6E0,7.6E1,2.5E1,1.5E1,5.5E1,6E0,1E0,2.7E1,6.4E1,2E0,4E0],"tree_param":{"num_deleted":"0","num_feature":"9","num_nodes":"23","size_leaf_vector":"1"}},{"base_weights":[4.9204477E-6,2.5607366E-4,-7.891272E-4,8.3240695E-5,3.83791E-3,-3.8339384E-4,-2.1528276E-3,1.6609828E-3,-4.3454347E-5,2.0226021E-3,3.3413718E-4,-6.8746385E-4,1.260898E-3,-2.7816666E-3,1.4557845E-5,1.8548004E-5,5.5325124E-4,-2.5002443E-4,9.246742E-6,1.360856E-4,-8.527902E-5,-2.590261E-4,-1.7960236E-5,2.95025E-4,-1.6324152E-4,1.7957456E-5,-3.919941E-4],"categories":[],"categories_nodes":[],"categories_segments":[],"categories_sizes":[],"default_left":[0,0,0,0,0,0,0,0,0,0,0,0,0,0,0,0,0,0,0,0,0,0,0,0,0,0,0],"id":18,"left_children":[1,3,5,7,9,11,13,15,17,-1,19,21,23,25,-1,-1,-1,-1,-1,-1,-1,-1,-1,-1,-1,-1,-1],"loss_changes":[5.1454976E-5,1.2101619E-4,3.347914E-5,3.765189E-5,3.761149E-4,2.5365833E-5,2.0281637E-5,5.657246E-5,3.9347255E-5,0E0,6.659022E-6,3.0740008E-5,2.4654175E-5,1.0290954E-5,0E0,0E0,0E0,0E0,0E0,0E0,0E0,0E0,0E0,0E0,0E0,0E0,0E0],"parents":[2147483647,0,0,1,1,2,2,3,3,4,4,5,5,6,6,7,7,8,8,10,10,11,11,12,12,13,13],"right_children":[2,4,6,8,10,12,14,16,18,-1,20,22,24,26,-1,-1,-1,-1,-1,-1,-1,-1,-1,-1,-1,-1,-1],"split_conditions":[4.4695213E-1,3.5136116E-1,4.77692E-2,2.361044E-1,3.6620656E-1,3.8926564E-2,5.99825E-1,2.889252E-1,2.537709E-1,2.0226021E-3,9.044366E-2,4.0897897E-1,3.2776478E-1,2.3366489E-1,1.4557845E-5,1.8548004E-5,5.5325124E-4,-2.5002443E-4,9.246742E-6,1.360856E-4,-8.527902E-5,-2.590261E-4,-1.7960236E-5,2.95025E-4,-1.6324152E-4,1.7957456E-5,-3.919941E-4],"split_indices":[8,0,2,5,0,2,7,0,5,0,2,7,0,0,0,0,0,0,0,0,0,0,0,0,0,0,0],"split_type":[0,0,0,0,0,0,0,0,0,0,0,0,0,0,0,0,0,0,0,0,0,0,0,0,0,0,0],"sum_hessian":[2.56E2,1.95E2,6.1E1,1.87E2,8E0,4.8E1,1.3E1,1.3E1,1.74E2,1E0,7E0,4.1E1,7E0,1E1,3E0,9E0,4E0,9E0,1.65E2,4E0,3E0,1.1E1,3E1,5E0,2E0,1E0,9E0],"tree_param":{"num_deleted":"0","num_feature":"9","num_nodes":"27","size_leaf_vector":"1"}},{"base_weights":[-1.5955199E-4,6.135984E-5,-1.0797724E-3,-1.1805588E-4,7.5673347E-4,-1.50662E-4,-2.2554281E-3,1.3751293E-3,-2.0183332E-4,1.262525E-3,-1.61392E-3,-6.3603226E-4,1.8159293E-3,-3.330151E-3,-3.330339E-4,3.4645715E-4,-3.226131E-5,-3.7530022E-5,8.317255E-5,4.5956188E-4,7.2167386E-5,-3.1096354E-4,7.56222E-5,3.28111E-5,-2.1790934E-4,3.2553356E-4,2.6968393E-5,-1.7891459E-4,-7.1796455E-4,1.2548042E-4,-1.0812955E-4],"categories":[],"categories_nodes":[],"categories_segments":[],"categories_sizes":[],"default_left":[0,0,0,0,0,0,0,0,0,0,0,0,0,0,0,0,0,0,0,0,0,0,0,0,0,0,0,0,0,0,0],"id":19,"left_children":[1,3,5,7,9,11,13,15,17,19,21,23,25,27,29,-1,-1,-1,-1,-1,-1,-1,-1,-1,-1,-1,-1,-1,-1,-1,-1],"loss_changes":[5.2514442E-5,2.6164378E-5,5.4275886E-5,2.116845E-5,5.3597043E-5,2.8836212E-5,4.4343848E-5,2.0551919E-5,1.2979992E-5,5.6850655E-5,1.6235064E-5,2.364373E-5,6.657512E-6,5.4571414E-5,7.0128594E-6,0E0,0E0,0E0,0E0,0E0,0E0,0E0,0E0,0E0,0E0,0E0,0E0,0E0,0E0,0E0,0E0],"parents":[2147483647,0,0,1,1,2,2,3,3,4,4,5,5,6,6,7,7,8,8,9,9,10,10,11,11,12,12,13,13,14,14],"right_children":[2,4,6,8,10,12,14,16,18,20,22,24,26,28,30,-1,-1,-1,-1,-1,-1,-1,-1,-1,-1,-1,-1,-1,-1,-1,-1],"split_conditions":[7.579418E-1,7.333279E-1,4.634217E-1,8.956792E-3,3.2840855E-2,7.16538E-2,4.539452E-1,5.602818E-1,2.7501765E-1,2.4207728E-1,4.812025E-2,4.154324E-1,8.081189E-2,3.6045146E-1,3.9163455E-2,3.4645715E-4,-3.226131E-5,-3.7530022E-5,8.317255E-5,4.5956188E-4,7.2167386E-5,-3.1096354E-4,7.56222E-5,3.28111E-5,-2.1790934E-4,3.2553356E-4,2.6968393E-5,-1.7891459E-4,-7.1796455E-4,1.2548042E-4,-1.0812955E-4],"split_indices":[3,3,5,2,2,2,7,5,6,4,2,7,2,7,2,0,0,0,0,0,0,0,0,0,0,0,0,0,0,0,0],"split_type":[0,0,0,0,0,0,0,0,0,0,0,0,0,0,0,0,0,0,0,0,0,0,0,0,0,0,0,0,0,0,0],"sum_hessian":[2.57E2,2.08E2,4.9E1,1.66E2,4.2E1,2.8E1,2.1E1,8E0,1.58E2,3.5E1,7E0,2.3E1,5E0,1.3E1,8E0,4E0,4E0,1.43E2,1.5E1,7E0,2.8E1,5E0,2E0,1.3E1,1E1,3E0,2E0,8E0,5E0,2E0,6E0],"tree_param":{"num_deleted":"0","num_feature":"9","num_nodes":"31","size_leaf_vector":"1"}},{"base_weights":[-1.5819862E-5,-1.1390589E-4,2.4021012E-3,-5.7500547E-5,-3.8645873E-3,1.042948E-2,-5.405919E-4,-3.110789E-4,6.504715E-4,-7.077181E-4,8.0467566E-5,1.9397994E-3,4.6013385E-5,-2.5643635E-4,1.7075497E-4,-1.8877725E-5,-1.4990265E-4,5.4199377E-4,3.9551167E-5,7.78618E-5,-7.919483E-5],"categories":[],"categories_nodes":[],"categories_segments":[],"categories_sizes":[],"default_left":[0,0,0,0,0,0,0,0,0,0,0,0,0,0,0,0,0,0,0,0,0],"id":20,"left_children":[1,3,5,7,9,11,13,15,17,-1,-1,-1,-1,-1,19,-1,-1,-1,-1,-1,-1],"loss_changes":[6.6916786E-5,5.7110126E-5,2.6548133E-4,4.831542E-5,3.431878E-5,1.4100302E-4,9.817617E-6,2.7787843E-5,8.57549E-5,0E0,0E0,0E0,0E0,0E0,2.844905E-6,0E0,0E0,0E0,0E0,0E0,0E0],"parents":[2147483647,0,0,1,1,2,2,3,3,4,4,5,5,6,6,7,7,8,8,14,14],"right_children":[2,4,6,8,10,12,14,16,18,-1,-1,-1,-1,-1,20,-1,-1,-1,-1,-1,-1],"split_conditions":[3.6457264E-1,8.350489E-1,6.306424E-2,7.38869E-1,3.6830682E-1,3.6620656E-1,3.8450795E-1,2.8158775E-1,1.3225786E-1,-7.077181E-4,8.0467566E-5,1.9397994E-3,4.6013385E-5,-2.5643635E-4,1.361499E-1,-1.8877725E-5,-1.4990265E-4,5.4199377E-4,3.9551167E-5,7.78618E-5,-7.919483E-5],"split_indices":[0,3,1,3,7,0,0,0,4,0,0,0,0,0,1,0,0,0,0,0,0],"split_type":[0,0,0,0,0,0,0,0,0,0,0,0,0,0,0,0,0,0,0,0,0],"sum_hessian":[2.8E2,2.7E2,1E1,2.67E2,3E0,2E0,8E0,1.97E2,7E1,2E0,1E0,1E0,1E0,2E0,6E0,1.67E2,3E1,5E0,6.5E1,4E0,2E0],"tree_param":{"num_deleted":"0","num_feature":"9","num_nodes":"21","size_leaf_vector":"1"}},{"base_weights":[1.8894434E-5,3.0686439E-3,-8.413041E-5,6.494525E-3,-2.857899E-4,-1.0229972E-3,8.360887E-5,2.495713E-4,9.328033E-4,1.0750541E-5,-1.1219355E-4,-4.6903777E-4,-3.2509668E-3,-4.722183E-5,2.8944474E-3,1.1921786E-6,-2.2669396E-4,-2.1604187E-4,-5.061207E-4,4.7941767E-6,-6.9444865E-4,1.8166844E-3,-4.0835745E-5],"categories":[],"categories_nodes":[],"categories_segments":[],"categories_sizes":[],"default_left":[0,0,0,0,0,0,0,0,0,0,0,0,0,0,0,0,0,0,0,0,0,0,0],"id":21,"left_children":[1,3,5,7,9,11,13,-1,-1,-1,-1,15,17,19,21,-1,-1,-1,-1,-1,-1,-1,-1],"loss_changes":[7.692296E-5,9.3791205E-5,3.740944E-5,1.0224612E-6,1.1827295E-6,4.2906544E-5,7.442097E-5,0E0,0E0,0E0,0E0,1.8917463E-5,1.1969532E-6,8.9632274E-5,3.350844E-4,0E0,0E0,0E0,0E0,0E0,0E0,0E0,0E0],"parents":[2147483647,0,0,1,1,2,2,3,3,4,4,5,5,6,6,11,11,12,12,13,13,14,14],"right_children":[2,4,6,8,10,12,14,-1,-1,-1,-1,16,18,20,22,-1,-1,-1,-1,-1,-1,-1,-1],"split_conditions":[1.1222212E-1,4.1424043E-2,3.2553542E-1,2.1976832E-1,5.3754907E-2,2.9476452E-1,3.6457264E-1,2.495713E-4,9.328033E-4,1.0750541E-5,-1.1219355E-4,1.4912687E-1,1.5053928E-1,3.5752514E-1,3.6620656E-1,1.1921786E-6,-2.2669396E-4,-2.1604187E-4,-5.061207E-4,4.7941767E-6,-6.9444865E-4,1.8166844E-3,-4.0835745E-5],"split_indices":[8,1,5,0,1,0,0,0,0,0,0,4,6,0,0,0,0,0,0,0,0,0,0],"split_type":[0,0,0,0,0,0,0,0,0,0,0,0,0,0,0,0,0,0,0,0,0,0,0],"sum_hessian":[2.43E2,7E0,2.36E2,3E0,4E0,3.5E1,2.01E2,1E0,2E0,3E0,1E0,2.9E1,6E0,1.93E2,8E0,2.2E1,7E0,3E0,3E0,1.91E2,2E0,1E0,7E0],"tree_param":{"num_deleted":"0","num_feature":"9","num_nodes":"23","size_leaf_vector":"1"}},{"base_weights":[9.702245E-5,-8.0569164E-4,2.2283831E-4,6.245378E-4,-1.4546843E-3,2.5427835E-3,1.7187899E-4,-1.8833394E-4,1.3333199E-3,-3.5799554E-4,-1.1903276E-3,4.3572293E-4,-6.4519794E-5,-8.132262E-5,6.0267845E-4,-8.0021E-5,1.283335E-4,1.9997651E-4,7.797104E-6,8.969609E-5,-1.9621027E-4,1.3279375E-5,-2.3549153E-4,3.2187527E-4,2.8395572E-5],"categories":[],"categories_nodes":[],"categories_segments":[],"categories_sizes":[],"default_left":[0,0,0,0,0,0,0,0,0,0,0,0,0,0,0,0,0,0,0,0,0,0,0,0,0],"id":22,"left_children":[1,3,5,7,9,11,13,15,17,-1,19,-1,-1,21,23,-1,-1,-1,-1,-1,-1,-1,-1,-1,-1],"loss_changes":[3.061784E-5,3.1539388E-5,2.7463539E-5,6.588748E-6,4.9460723E-6,1.5319561E-5,2.535537E-5,3.818518E-6,1.7507364E-6,0E0,1.5250607E-5,0E0,0E0,4.867915E-5,6.243508E-5,0E0,0E0,0E0,0E0,0E0,0E0,0E0,0E0,0E0,0E0],"parents":[2147483647,0,0,1,1,2,2,3,3,4,4,5,5,6,6,7,7,8,8,10,10,13,13,14,14],"right_children":[2,4,6,8,10,12,14,16,18,-1,20,-1,-1,22,24,-1,-1,-1,-1,-1,-1,-1,-1,-1,-1],"split_conditions":[2.4012594E-1,2.2734179E-1,2.4890819E-1,2.097536E-1,9.809742E-2,2.5790843E-1,5.5056477E-1,8.755783E-2,2.2471653E-1,-3.5799554E-4,3.3309054E-1,4.3572293E-4,-6.4519794E-5,5.392779E-1,5.695036E-1,-8.0021E-5,1.283335E-4,1.9997651E-4,7.797104E-6,8.969609E-5,-1.9621027E-4,1.3279375E-5,-2.3549153E-4,3.2187527E-4,2.8395572E-5],"split_indices":[7,0,7,0,7,0,5,1,0,0,4,0,0,5,5,0,0,0,0,0,0,0,0,0,0],"split_type":[0,0,0,0,0,0,0,0,0,0,0,0,0,0,0,0,0,0,0,0,0,0,0,0,0],"sum_hessian":[2.67E2,3.2E1,2.35E2,1E1,2.2E1,4E0,2.31E2,5E0,5E0,2E0,2E1,3E0,1E0,1.46E2,8.5E1,4E0,1E0,4E0,1E0,3E0,1.7E1,1.33E2,1.3E1,1.3E1,7.2E1],"tree_param":{"num_deleted":"0","num_feature":"9","num_nodes":"25","size_leaf_vector":"1"}},{"base_weights":[1.7113029E-5,9.294138E-5,-1.6525368E-3,-1.2954655E-3,1.7587403E-4,-4.1967835E-3,1.441847E-4,1.3030521E-3,-2.3588403E-3,3.2891036E-4,-6.357895E-4,-1.2054893E-4,-6.056285E-4,1.2688551E-4,-7.222487E-5,3.8093294E-5,3.3732355E-4,-6.00679E-5,-3.4593692E-4,2.2920221E-5,1.8751495E-4,-2.5434044E-4,-2.9347371E-5],"categories":[],"categories_nodes":[],"categories_segments":[],"categories_sizes":[],"default_left":[0,0,0,0,0,0,0,0,0,0,0,0,0,0,0,0,0,0,0,0,0,0,0],"id":23,"left_children":[1,3,5,7,9,11,13,15,17,19,21,-1,-1,-1,-1,-1,-1,-1,-1,-1,-1,-1,-1],"loss_changes":[3.4970457E-5,3.0625924E-5,5.5460758E-5,4.4521665E-5,3.126262E-5,4.7938447E-6,5.449245E-6,5.9944114E-6,6.3111875E-6,3.567695E-5,2.1674401E-5,0E0,0E0,0E0,0E0,0E0,0E0,0E0,0E0,0E0,0E0,0E0,0E0],"parents":[2147483647,0,0,1,1,2,2,3,3,4,4,5,5,6,6,7,7,8,8,9,9,10,10],"right_children":[2,4,6,8,10,12,14,16,18,20,22,-1,-1,-1,-1,-1,-1,-1,-1,-1,-1,-1,-1],"split_conditions":[3.5752514E-1,4.044322E-2,3.6620656E-1,2.4785095E-1,2.4403694E-1,3.5857928E-1,9.004448E-2,4.4198865E-1,7.1215006E-3,2.0548059E-1,2.7501765E-1,-1.2054893E-4,-6.056285E-4,1.2688551E-4,-7.222487E-5,3.8093294E-5,3.3732355E-4,-6.00679E-5,-3.4593692E-4,2.2920221E-5,1.8751495E-4,-2.5434044E-4,-2.9347371E-5],"split_indices":[0,6,0,0,6,0,1,4,1,6,6,0,0,0,0,0,0,0,0,0,0,0,0],"split_type":[0,0,0,0,0,0,0,0,0,0,0,0,0,0,0,0,0,0,0,0,0,0,0],"sum_hessian":[2.74E2,2.63E2,1.1E1,1.4E1,2.49E2,4E0,7E0,4E0,1E1,2.1E2,3.9E1,1E0,3E0,3E0,4E0,3E0,1E0,2E0,8E0,1.87E2,2.3E1,8E0,3.1E1],"tree_param":{"num_deleted":"0","num_feature":"9","num_nodes":"23","size_leaf_vector":"1"}},{"base_weights":[2.4624653E-5,-3.996393E-4,4.2411516E-4,-1.4613068E-4,-1.4080533E-3,6.931536E-5,1.1322079E-3,-1.0444493E-3,6.447981E-5,-2.2651372E-3,-5.1161466E-4,9.07189E-4,-2.5206743E-4,5.8628623E-3,5.420774E-4,2.6176727E-4,-1.6711032E-4,1.2688339E-4,-3.460039E-5,-5.4089076E-5,-5.5085676E-4,2.9382725E-5,-1.3935883E-4,-6.166464E-5,2.71119E-4,2.773346E-5,-8.585998E-5,6.1249964E-5,1.7380189E-3,1.20451645E-4,-8.7679226E-5],"categories":[],"categories_nodes":[],"categories_segments":[],"categories_sizes":[],"default_left":[0,0,0,0,0,0,0,0,0,0,0,0,0,0,0,0,0,0,0,0,0,0,0,0,0,0,0,0,0,0,0],"id":24,"left_children":[1,3,5,7,9,11,13,15,17,19,21,23,25,27,29,-1,-1,-1,-1,-1,-1,-1,-1,-1,-1,-1,-1,-1,-1,-1,-1],"loss_changes":[4.5423174E-5,3.3027656E-5,3.4591423E-5,1.9932855E-5,1.8817522E-5,2.5271544E-5,1.2524023E-4,1.961784E-5,2.7378677E-5,4.7746733E-5,6.3530897E-6,4.553754E-5,1.37255065E-5,2.0401287E-4,2.1720876E-5,0E0,0E0,0E0,0E0,0E0,0E0,0E0,0E0,0E0,0E0,0E0,0E0,0E0,0E0,0E0,0E0],"parents":[2147483647,0,0,1,1,2,2,3,3,4,4,5,5,6,6,7,7,8,8,9,9,10,10,11,11,12,12,13,13,14,14],"right_children":[2,4,6,8,10,12,14,16,18,20,22,24,26,28,30,-1,-1,-1,-1,-1,-1,-1,-1,-1,-1,-1,-1,-1,-1,-1,-1],"split_conditions":[2.7748263E-2,2.4235647E-2,5.970362E-1,5.6908887E-2,1.18055835E-1,3.4509804E-2,6.370927E-1,7.0251436E-3,9.360079E-2,1.0469174E-1,2.6993204E-2,3.0909829E-2,4.634217E-1,6.1782175E-1,6.2860474E-2,2.6176727E-4,-1.6711032E-4,1.2688339E-4,-3.460039E-5,-5.4089076E-5,-5.5085676E-4,2.9382725E-5,-1.3935883E-4,-6.166464E-5,2.71119E-4,2.773346E-5,-8.585998E-5,6.1249964E-5,1.7380189E-3,1.20451645E-4,-8.7679226E-5],"split_indices":[2,2,5,6,6,2,5,2,6,6,1,2,5,5,2,0,0,0,0,0,0,0,0,0,0,0,0,0,0,0,0],"split_type":[0,0,0,0,0,0,0,0,0,0,0,0,0,0,0,0,0,0,0,0,0,0,0,0,0,0,0,0,0,0,0],"sum_hessian":[2.66E2,1.29E2,1.37E2,1.04E2,2.5E1,9.2E1,4.5E1,1.9E1,8.5E1,1.2E1,1.3E1,2.5E1,6.7E1,4E0,4.1E1,1E0,1.8E1,2.2E1,6.3E1,7E0,5E0,6E0,7E0,1.2E1,1.3E1,3.2E1,3.5E1,3E0,1E0,3.1E1,1E1],"tree_param":{"num_deleted":"0","num_feature":"9","num_nodes":"31","size_leaf_vector":"1"}},{"base_weights":[1.14736955E-4,8.780155E-6,2.1842944E-3,-2.0765864E-4,4.365222E-4,1.6277104E-3,2.2913679E-4,-7.606512E-5,-1.933968E-3,1.8386769E-3,1.1439547E-4,2.7105515E-4,-1.3828184E-4,1.110834E-5,-1.329152E-4,-3.3151617E-4,-5.874996E-5,6.4257336E-5,5.9264334E-4,-2.0413604E-4,3.4178778E-5,8.66793E-5,-8.9496956E-5],"categories":[],"categories_nodes":[],"categories_segments":[],"categories_sizes":[],"default_left":[0,0,0,0,0,0,0,0,0,0,0,0,0,0,0,0,0,0,0,0,0,0,0],"id":25,"left_children":[1,3,5,7,9,-1,11,13,15,17,19,-1,21,-1,-1,-1,-1,-1,-1,-1,-1,-1,-1],"loss_changes":[5.8529567E-5,2.3698542E-5,2.6746863E-4,3.8471986E-5,3.8633414E-5,0E0,8.699913E-6,2.5347097E-5,1.0755346E-5,5.797374E-5,1.9373445E-5,0E0,5.6008735E-6,0E0,0E0,0E0,0E0,0E0,0E0,0E0,0E0,0E0,0E0],"parents":[2147483647,0,0,1,1,2,2,3,3,4,4,6,6,7,7,8,8,9,9,10,10,12,12],"right_children":[2,4,6,8,10,-1,12,14,16,18,20,-1,22,-1,-1,-1,-1,-1,-1,-1,-1,-1,-1],"split_conditions":[3.5857928E-1,2.8320804E-1,3.6620656E-1,7.286158E-1,2.8905773E-1,1.6277104E-3,3.4946543E-1,8.467456E-1,1.5523866E-1,2.86504E-1,2.9020205E-1,2.7105515E-4,2.1295926E-1,1.110834E-5,-1.329152E-4,-3.3151617E-4,-5.874996E-5,6.4257336E-5,5.9264334E-4,-2.0413604E-4,3.4178778E-5,8.66793E-5,-8.9496956E-5],"split_indices":[0,0,0,3,0,0,5,5,6,0,0,0,6,0,0,0,0,0,0,0,0,0,0],"split_type":[0,0,0,0,0,0,0,0,0,0,0,0,0,0,0,0,0,0,0,0,0,0,0],"sum_hessian":[2.66E2,2.54E2,1.2E1,1.69E2,8.5E1,1E0,1.1E1,1.58E2,1.1E1,1.5E1,7E1,1E0,1E1,1.36E2,2.2E1,7E0,4E0,1.1E1,4E0,5E0,6.5E1,4E0,6E0],"tree_param":{"num_deleted":"0","num_feature":"9","num_nodes":"23","size_leaf_vector":"1"}},{"base_weights":[-5.208288E-5,3.7192625E-5,-1.308966E-3,9.653191E-5,-1.799557E-3,-2.9418166E-3,2.9149622E-4,-1.5178851E-3,1.499436E-4,-2.7736614E-3,-1.6760268E-5,-1.4940165E-3,-6.7776284E-4,1.2178536E-3,-2.794932E-4,-6.186148E-5,-3.080213E-4,8.883546E-4,1.1678928E-5,-8.007383E-5,-4.0005948E-4,4.1489777E-5,-2.3508158E-4,3.6884532E-5,2.5385185E-4,6.27085E-5,-1.247945E-4],"categories":[],"categories_nodes":[],"categories_segments":[],"categories_sizes":[],"default_left":[0,0,0,0,0,0,0,0,0,0,0,0,0,0,0,0,0,0,0,0,0,0,0,0,0,0,0],"id":26,"left_children":[1,3,5,7,9,11,13,15,17,19,-1,21,-1,23,25,-1,-1,-1,-1,-1,-1,-1,-1,-1,-1,-1,-1],"loss_changes":[3.0457288E-5,2.7857533E-5,4.7897214E-5,2.1526093E-5,1.2628481E-5,2.3263972E-5,5.629785E-6,6.309074E-6,9.458391E-5,2.061879E-6,0E0,5.167858E-6,0E0,2.3193788E-6,4.2955776E-6,0E0,0E0,0E0,0E0,0E0,0E0,0E0,0E0,0E0,0E0,0E0,0E0],"parents":[2147483647,0,0,1,1,2,2,3,3,4,4,5,5,6,6,7,7,8,8,9,9,11,11,13,13,14,14],"right_children":[2,4,6,8,10,12,14,16,18,20,-1,22,-1,24,26,-1,-1,-1,-1,-1,-1,-1,-1,-1,-1,-1,-1],"split_conditions":[3.4292E-1,1.06556274E-1,3.6620656E-1,7.6944284E-2,3.1279963E-1,3.6164993E-1,7.604376E-2,2.693395E-1,1.0530173E-1,1.1072918E-1,-1.6760268E-5,4.1424043E-2,-6.7776284E-4,4.015062E-1,3.9872262E-1,-6.186148E-5,-3.080213E-4,8.883546E-4,1.1678928E-5,-8.007383E-5,-4.0005948E-4,4.1489777E-5,-2.3508158E-4,3.6884532E-5,2.5385185E-4,6.27085E-5,-1.247945E-4],"split_indices":[0,1,0,8,1,0,2,0,8,1,0,1,0,0,8,0,0,0,0,0,0,0,0,0,0,0,0],"split_type":[0,0,0,0,0,0,0,0,0,0,0,0,0,0,0,0,0,0,0,0,0,0,0,0,0,0,0],"sum_hessian":[2.7E2,2.53E2,1.7E1,2.46E2,7E0,8E0,9E0,7E0,2.39E2,4E0,3E0,6E0,2E0,3E0,6E0,4E0,3E0,1E0,2.38E2,1E0,3E0,1E0,5E0,2E0,1E0,3E0,3E0],"tree_param":{"num_deleted":"0","num_feature":"9","num_nodes":"27","size_leaf_vector":"1"}},{"base_weights":[-1.4778347E-5,-4.6686604E-4,2.3029029E-4,2.5061017E-4,-7.47187E-4,1.0112165E-3,-1.06220104E-4,-3.2078527E-4,1.4925322E-3,1.0390724E-3,-9.621535E-4,3.4861502E-4,3.5696938E-3,1.7534165E-3,-2.1381374E-4,-1.03224345E-4,4.714545E-5,5.965479E-4,6.400087E-5,-6.0450588E-5,4.7262263E-4,-1.0859127E-4,-4.8082203E-4,5.865858E-4,1.7997803E-5,1.5674193E-3,1.8495056E-4,-1.6982242E-4,8.023708E-4,-3.8253982E-4,-5.0798017E-6],"categories":[],"categories_nodes":[],"categories_segments":[],"categories_sizes":[],"default_left":[0,0,0,0,0,0,0,0,0,0,0,0,0,0,0,0,0,0,0,0,0,0,0,0,0,0,0,0,0,0,0],"id":27,"left_children":[1,3,5,7,9,11,13,15,17,19,21,23,25,27,29,-1,-1,-1,-1,-1,-1,-1,-1,-1,-1,-1,-1,-1,-1,-1,-1],"loss_changes":[3.0575455E-5,1.969624E-5,4.7146787E-5,2.034838E-5,2.7878763E-5,9.0299094E-5,2.5585623E-5,7.1190016E-6,2.6157353E-5,3.4312696E-5,1.5749585E-5,3.8226506E-5,1.8601188E-4,1.07295906E-4,5.8271053E-5,0E0,0E0,0E0,0E0,0E0,0E0,0E0,0E0,0E0,0E0,0E0,0E0,0E0,0E0,0E0,0E0],"parents":[2147483647,0,0,1,1,2,2,3,3,4,4,5,5,6,6,7,7,8,8,9,9,10,10,11,11,12,12,13,13,14,14],"right_children":[2,4,6,8,10,12,14,16,18,20,22,24,26,28,30,-1,-1,-1,-1,-1,-1,-1,-1,-1,-1,-1,-1,-1,-1,-1,-1],"split_conditions":[2.3866674E-2,1.3651329E-2,1.0773022E-1,8.88318E-2,2.361044E-1,1.0227645E-1,1.0530173E-1,3.684913E-1,9.360079E-2,1.9731154E-1,2.8229117E-1,2.5187047E-2,1.0313318E-1,2.3911633E-1,1.5645367E-1,-1.03224345E-4,4.714545E-5,5.965479E-4,6.400087E-5,-6.0450588E-5,4.7262263E-4,-1.0859127E-4,-4.8082203E-4,5.865858E-4,1.7997803E-5,1.5674193E-3,1.8495056E-4,-1.6982242E-4,8.023708E-4,-3.8253982E-4,-5.0798017E-6],"split_indices":[1,1,6,6,5,6,8,7,6,5,6,4,6,7,8,0,0,0,0,0,0,0,0,0,0,0,0,0,0,0,0],"split_type":[0,0,0,0,0,0,0,0,0,0,0,0,0,0,0,0,0,0,0,0,0,0,0,0,0,0,0,0,0,0,0],"sum_hessian":[2.74E2,9.6E1,1.78E2,2.7E1,6.9E1,5.3E1,1.25E2,1.9E1,8E0,7E0,6.2E1,4.3E1,1E1,6E0,1.19E2,1.1E1,8E0,1E0,7E0,5E0,2E0,6.1E1,1E0,1E0,4.2E1,1E0,9E0,4E0,2E0,6E0,1.13E2],"tree_param":{"num_deleted":"0","num_feature":"9","num_nodes":"31","size_leaf_vector":"1"}},{"base_weights":[9.390801E-6,2.1986893E-4,-6.372119E-4,2.709614E-5,1.1776254E-3,-4.2555616E-3,-4.1168038E-4,1.3123066E-4,-1.9660408E-3,6.5921037E-3,2.9481237E-4,-7.0434704E-4,-2.3846329E-5,-2.7360706E-5,-1.5404229E-3,5.493564E-4,1.0330071E-5,-5.741895E-4,-7.478306E-5,3.1199885E-4,1.4679383E-3,4.2635226E-4,-3.336603E-5,-4.0856732E-5,2.0257132E-4,-2.8213987E-4,6.874492E-5],"categories":[],"categories_nodes":[],"categories_segments":[],"categories_sizes":[],"default_left":[0,0,0,0,0,0,0,0,0,0,0,0,0,0,0,0,0,0,0,0,0,0,0,0,0,0,0],"id":28,"left_children":[1,3,5,7,9,11,13,15,17,19,21,-1,-1,23,25,-1,-1,-1,-1,-1,-1,-1,-1,-1,-1,-1,-1],"loss_changes":[3.879129E-5,3.9663413E-5,5.53717E-5,3.761779E-5,1.7013556E-4,2.000029E-5,2.9022318E-5,3.563055E-5,2.9026862E-5,7.435755E-5,5.5561068E-5,0E0,0E0,2.489425E-5,2.5352074E-5,0E0,0E0,0E0,0E0,0E0,0E0,0E0,0E0,0E0,0E0,0E0,0E0],"parents":[2147483647,0,0,1,1,2,2,3,3,4,4,5,5,6,6,7,7,8,8,9,9,10,10,13,13,14,14],"right_children":[2,4,6,8,10,12,14,16,18,20,22,-1,-1,24,26,-1,-1,-1,-1,-1,-1,-1,-1,-1,-1,-1,-1],"split_conditions":[4.4326082E-1,6.0062815E-2,4.473525E-1,5.1845312E-2,6.348539E-2,2.9146409E-2,4.298373E-2,2.5187047E-2,5.391547E-2,6.225836E-2,5.920585E-2,-7.0434704E-4,-2.3846329E-5,3.7388224E-2,7.380041E-1,5.493564E-4,1.0330071E-5,-5.741895E-4,-7.478306E-5,3.1199885E-4,1.4679383E-3,4.2635226E-4,-3.336603E-5,-4.0856732E-5,2.0257132E-4,-2.8213987E-4,6.874492E-5],"split_indices":[8,2,8,1,2,1,1,4,2,1,6,0,0,1,5,0,0,0,0,0,0,0,0,0,0,0,0],"split_type":[0,0,0,0,0,0,0,0,0,0,0,0,0,0,0,0,0,0,0,0,0,0,0,0,0,0,0],"sum_hessian":[2.83E2,2.14E2,6.9E1,1.79E2,3.5E1,3E0,6.6E1,1.71E2,8E0,4E0,3.1E1,2E0,1E0,5E1,1.6E1,1E0,1.7E2,2E0,6E0,3E0,1E0,4E0,2.7E1,4.3E1,7E0,1.2E1,4E0],"tree_param":{"num_deleted":"0","num_feature":"9","num_nodes":"27","size_leaf_vector":"1"}},{"base_weights":[3.397431E-5,2.8119926E-4,-3.214395E-4,9.850028E-6,7.3634717E-4,-8.7514846E-4,-4.0241233E-5,-1.5798886E-4,1.724442E-3,1.6207406E-3,-9.561075E-6,-5.6240143E-4,-2.3972746E-3,1.9917969E-4,-1.7960391E-4,1.9877863E-5,-1.0324383E-4,5.11572E-5,7.8039215E-4,3.434015E-4,-6.265134E-5,9.57056E-5,-6.899643E-5,-7.964194E-5,9.22275E-5,-3.7481642E-4,2.4140652E-5,-3.5872552E-5,1.9862855E-4],"categories":[],"categories_nodes":[],"categories_segments":[],"categories_sizes":[],"default_left":[0,0,0,0,0,0,0,0,0,0,0,0,0,0,0,0,0,0,0,0,0,0,0,0,0,0,0,0,0],"id":29,"left_children":[1,3,5,7,9,11,13,15,17,19,21,23,25,-1,27,-1,-1,-1,-1,-1,-1,-1,-1,-1,-1,-1,-1,-1,-1],"loss_changes":[2.355092E-5,1.9506384E-5,1.7092005E-5,2.9049963E-5,3.8936403E-5,1.6265263E-5,1.6879074E-5,1.9094932E-5,5.0130024E-5,6.324958E-5,1.3864542E-5,3.137633E-6,9.185969E-6,0E0,1.2839638E-5,0E0,0E0,0E0,0E0,0E0,0E0,0E0,0E0,0E0,0E0,0E0,0E0,0E0,0E0],"parents":[2147483647,0,0,1,1,2,2,3,3,4,4,5,5,6,6,7,7,8,8,9,9,10,10,11,11,12,12,14,14],"right_children":[2,4,6,8,10,12,14,16,18,20,22,24,26,-1,28,-1,-1,-1,-1,-1,-1,-1,-1,-1,-1,-1,-1,-1,-1],"split_conditions":[3.7239644E-1,3.3427545E-1,4.3373176E-1,3.6237237E-1,3.1293896E-1,3.3883846E-1,4.541469E-1,1.2727934E-1,1.4094672E-1,4.426108E-1,2.723468E-1,8.0182743E-1,5.99825E-1,1.9917969E-4,8.7075853E-1,1.9877863E-5,-1.0324383E-4,5.11572E-5,7.8039215E-4,3.434015E-4,-6.265134E-5,9.57056E-5,-6.899643E-5,-7.964194E-5,9.22275E-5,-3.7481642E-4,2.4140652E-5,-3.5872552E-5,1.9862855E-4],"split_indices":[7,8,5,7,7,0,5,6,6,8,0,3,7,0,5,0,0,0,0,0,0,0,0,0,0,0,0,0,0],"split_type":[0,0,0,0,0,0,0,0,0,0,0,0,0,0,0,0,0,0,0,0,0,0,0,0,0,0,0,0,0],"sum_hessian":[2.66E2,1.57E2,1.09E2,9.9E1,5.8E1,3.6E1,7.3E1,9.1E1,8E0,2.6E1,3.2E1,3.1E1,5E0,5E0,6.8E1,6.2E1,2.9E1,7E0,1E0,1.7E1,9E0,1.3E1,1.9E1,3E1,1E0,4E0,1E0,6.5E1,3E0],"tree_param":{"num_deleted":"0","num_feature":"9","num_nodes":"29","size_leaf_vector":"1"}},{"base_weights":[-1.255333E-4,4.4723833E-4,-3.2360954E-4,1.7205036E-3,-4.554723E-5,-1.0028539E-3,-7.778665E-5,3.7350415E-5,2.9412194E-3,-1.0643785E-3,3.80231E-4,-2.2507082E-4,-1.7719804E-3,6.555174E-4,-3.5377132E-4,-2.0929362E-4,5.7657147E-5,4.703694E-4,8.5963315E-5,-1.5977975E-4,1.0514972E-4,2.179987E-4,-4.5685203E-5,-9.7380675E-5,2.2849944E-4,-5.5448135E-4,-1.3980536E-4,2.908867E-4,-5.5963446E-6,7.446159E-5,-7.016858E-5],"categories":[],"categories_nodes":[],"categories_segments":[],"categories_sizes":[],"default_left":[0,0,0,0,0,0,0,0,0,0,0,0,0,0,0,0,0,0,0,0,0,0,0,0,0,0,0,0,0,0,0],"id":30,"left_children":[1,3,5,7,9,11,13,15,17,19,21,23,25,27,29,-1,-1,-1,-1,-1,-1,-1,-1,-1,-1,-1,-1,-1,-1,-1,-1],"loss_changes":[2.998272E-5,4.2744738E-5,3.264886E-5,3.892853E-5,2.209452E-5,3.0708277E-5,2.9577102E-5,7.0751644E-6,1.652586E-5,6.5609747E-6,3.6246765E-5,3.10227E-5,4.0455212E-5,4.588562E-5,2.0162253E-5,0E0,0E0,0E0,0E0,0E0,0E0,0E0,0E0,0E0,0E0,0E0,0E0,0E0,0E0,0E0,0E0],"parents":[2147483647,0,0,1,1,2,2,3,3,4,4,5,5,6,6,7,7,8,8,9,9,10,10,11,11,12,12,13,13,14,14],"right_children":[2,4,6,8,10,12,14,16,18,20,22,24,26,28,30,-1,-1,-1,-1,-1,-1,-1,-1,-1,-1,-1,-1,-1,-1,-1,-1],"split_conditions":[2.82928E-1,1.1755185E-1,5.085595E-1,2.6926133E-1,1.3631496E-1,4.621999E-1,4.2677918E-1,1.9731154E-1,3.07367E-1,3.6620656E-1,3.491138E-1,3.7304598E-1,4.6645814E-1,3.102647E-1,2.286386E-1,-2.0929362E-4,5.7657147E-5,4.703694E-4,8.5963315E-5,-1.5977975E-4,1.0514972E-4,2.179987E-4,-4.5685203E-5,-9.7380675E-5,2.2849944E-4,-5.5448135E-4,-1.3980536E-4,2.908867E-4,-5.5963446E-6,7.446159E-5,-7.016858E-5],"split_indices":[4,6,5,0,4,5,4,5,0,0,7,4,5,7,0,0,0,0,0,0,0,0,0,0,0,0,0,0,0,0,0],"split_type":[0,0,0,0,0,0,0,0,0,0,0,0,0,0,0,0,0,0,0,0,0,0,0,0,0,0,0,0,0,0,0],"sum_hessian":[2.62E2,6.7E1,1.95E2,1.8E1,4.9E1,5.1E1,1.44E2,8E0,1E1,1.4E1,3.5E1,2.6E1,2.5E1,3.9E1,1.05E2,1E0,7E0,7E0,3E0,1.3E1,1E0,1.2E1,2.3E1,2.1E1,5E0,4E0,2.1E1,1.1E1,2.8E1,1.8E1,8.7E1],"tree_param":{"num_deleted":"0","num_feature":"9","num_nodes":"31","size_leaf_vector":"1"}},{"base_weights":[-5.6751058E-5,9.921059E-4,-1.3498543E-4,1.5992202E-3,-1.0276583E-3,-1.5437639E-3,-4.0109113E-5,7.331674E-4,5.123568E-4,-1.9432614E-4,-2.3085046E-5,-9.588856E-5,-2.237692E-3,2.2445233E-4,-3.3709314E-4,1.0014635E-4,-8.537862E-5,-6.264661E-5,-3.4740122E-4,6.643762E-5,-4.2132415E-5,-2.0652228E-4,-2.6634209E-5],"categories":[],"categories_nodes":[],"categories_segments":[],"categories_sizes":[],"default_left":[0,0,0,0,0,0,0,0,0,0,0,0,0,0,0,0,0,0,0,0,0,0,0],"id":31,"left_children":[1,3,5,7,9,11,13,-1,15,-1,-1,-1,17,19,21,-1,-1,-1,-1,-1,-1,-1,-1],"loss_changes":[2.2453334E-5,2.4941783E-5,3.3887653E-5,6.51327E-5,1.8497803E-6,7.0626083E-6,1.8854016E-5,0E0,4.791501E-6,0E0,0E0,0E0,5.613838E-6,2.1296772E-5,1.8209012E-5,0E0,0E0,0E0,0E0,0E0,0E0,0E0,0E0],"parents":[2147483647,0,0,1,1,2,2,3,3,4,4,5,5,6,6,8,8,12,12,13,13,14,14],"right_children":[2,4,6,8,10,12,14,-1,16,-1,-1,-1,18,20,22,-1,-1,-1,-1,-1,-1,-1,-1],"split_conditions":[2.4088426E-1,1.3225786E-1,1.5993865E-1,9.23894E-2,3.0655697E-1,1.489509E-1,5.4520726E-1,7.331674E-4,5.180812E-2,-1.9432614E-4,-2.3085046E-5,-9.588856E-5,1.8696606E-2,4.0512532E-1,1.613505E-1,1.0014635E-4,-8.537862E-5,-6.264661E-5,-3.4740122E-4,6.643762E-5,-4.2132415E-5,-2.0652228E-4,-2.6634209E-5],"split_indices":[5,4,4,6,7,4,5,0,2,0,0,0,2,7,8,0,0,0,0,0,0,0,0],"split_type":[0,0,0,0,0,0,0,0,0,0,0,0,0,0,0,0,0,0,0,0,0,0,0],"sum_hessian":[2.71E2,1.8E1,2.53E2,1.4E1,4E0,1.5E1,2.38E2,2E0,1.2E1,2E0,2E0,8E0,7E0,1.26E2,1.12E2,1E1,2E0,2E0,5E0,8.2E1,4.4E1,9E0,1.03E2],"tree_param":{"num_deleted":"0","num_feature":"9","num_nodes":"23","size_leaf_vector":"1"}},{"base_weights":[-5.1405572E-5,-1.5245742E-4,2.176019E-3,-1.3362389E-3,-8.08207E-5,1.3831919E-3,3.9260645E-4,-1.6549057E-3,-5.8617516E-6,2.2579386E-4,-4.927055E-4,1.2129354E-3,-8.343754E-4,-2.3347916E-4,2.3734008E-5,-5.187653E-5,6.8219655E-5,-3.0725446E-4,-4.2339587E-5,2.8533203E-4,8.451518E-5,1.0389489E-4,-1.8433764E-4],"categories":[],"categories_nodes":[],"categories_segments":[],"categories_sizes":[],"default_left":[0,0,0,0,0,0,0,0,0,0,0,0,0,0,0,0,0,0,0,0,0,0,0],"id":32,"left_children":[1,3,5,7,9,-1,11,13,-1,15,17,19,21,-1,-1,-1,-1,-1,-1,-1,-1,-1,-1],"loss_changes":[6.2230225E-5,2.227979E-5,1.8235437E-4,6.0900693E-6,3.1683718E-5,0E0,1.20838595E-5,4.4205553E-6,0E0,2.8692535E-5,3.20229E-5,2.4669353E-6,6.294585E-6,0E0,0E0,0E0,0E0,0E0,0E0,0E0,0E0,0E0,0E0],"parents":[2147483647,0,0,1,1,2,2,3,3,4,4,6,6,7,7,9,9,10,10,11,11,12,12],"right_children":[2,4,6,8,10,-1,12,14,-1,16,18,20,22,-1,-1,-1,-1,-1,-1,-1,-1,-1,-1],"split_conditions":[8.350489E-1,4.044322E-2,6.348539E-2,3.4978992E-1,3.5477114E-1,1.3831919E-3,8.990312E-1,7.333344E-2,-5.8617516E-6,2.5893524E-1,3.65628E-1,8.4509474E-1,9.701484E-2,-2.3347916E-4,2.3734008E-5,-5.187653E-5,6.8219655E-5,-3.0725446E-4,-4.2339587E-5,2.8533203E-4,8.451518E-5,1.0389489E-4,-1.8433764E-4],"split_indices":[3,6,2,7,7,0,3,1,0,7,7,3,1,0,0,0,0,0,0,0,0,0,0],"split_type":[0,0,0,0,0,0,0,0,0,0,0,0,0,0,0,0,0,0,0,0,0,0,0],"sum_hessian":[2.74E2,2.63E2,1.1E1,1.4E1,2.49E2,1E0,1E1,1.1E1,3E0,1.43E2,1.06E2,6E0,4E0,1E1,1E0,4.7E1,9.6E1,7E0,9.9E1,1E0,5E0,1E0,3E0],"tree_param":{"num_deleted":"0","num_feature":"9","num_nodes":"23","size_leaf_vector":"1"}},{"base_weights":[8.4278654E-5,1.218893E-5,1.997307E-3,-1.3229408E-4,6.412218E-4,1.2954036E-3,-3.0432496E-4,4.338604E-7,-1.44485E-3,-6.9632113E-4,8.6485205E-4,7.1623086E-5,-1.3139576E-3,-7.718948E-6,2.2549249E-4,1.5949961E-5,-3.4448088E-4,4.1679396E-5,-4.3439664E-4,1.342524E-4,-8.347695E-5,-2.1016512E-4,-1.8329043E-5],"categories":[],"categories_nodes":[],"categories_segments":[],"categories_sizes":[],"default_left":[0,0,0,0,0,0,0,0,0,0,0,0,0,0,0,0,0,0,0,0,0,0,0],"id":33,"left_children":[1,3,5,7,9,-1,11,13,15,17,19,-1,21,-1,-1,-1,-1,-1,-1,-1,-1,-1,-1],"loss_changes":[3.4177254E-5,2.1897124E-5,1.7312926E-4,3.4146342E-5,1.4062396E-5,0E0,7.756898E-6,1.9577577E-5,3.6213554E-5,2.0675392E-5,1.2142647E-5,0E0,1.359585E-6,0E0,0E0,0E0,0E0,0E0,0E0,0E0,0E0,0E0,0E0],"parents":[2147483647,0,0,1,1,2,2,3,3,4,4,6,6,7,7,8,8,9,9,10,10,12,12],"right_children":[2,4,6,8,10,-1,12,14,16,18,20,-1,22,-1,-1,-1,-1,-1,-1,-1,-1,-1,-1],"split_conditions":[8.350489E-1,4.577007E-1,6.348539E-2,7.731169E-1,2.0021474E-2,1.2954036E-3,8.097088E-2,7.6910406E-1,3.652807E-1,2.8158775E-1,6.84928E-1,7.1623086E-5,1E0,-7.718948E-6,2.2549249E-4,1.5949961E-5,-3.4448088E-4,4.1679396E-5,-4.3439664E-4,1.342524E-4,-8.347695E-5,-2.1016512E-4,-1.8329043E-5],"split_indices":[3,8,2,3,2,0,1,3,8,0,8,0,3,0,0,0,0,0,0,0,0,0,0],"split_type":[0,0,0,0,0,0,0,0,0,0,0,0,0,0,0,0,0,0,0,0,0,0,0],"sum_hessian":[2.47E2,2.39E2,8E0,1.95E2,4.4E1,1E0,7E0,1.78E2,1.7E1,6E0,3.8E1,4E0,3E0,1.73E2,5E0,8E0,9E0,5E0,1E0,3.4E1,4E0,2E0,1E0],"tree_param":{"num_deleted":"0","num_feature":"9","num_nodes":"23","size_leaf_vector":"1"}},{"base_weights":[-1.0838466E-5,4.0823477E-4,-2.4634806E-4,6.6407345E-4,-1.0005097E-3,-1.2587125E-3,-1.8796649E-5,3.836461E-4,1.6242556E-3,-6.14121E-4,-4.0682638E-4,-2.4796922E-3,-8.6648966E-4,-1.2633469E-3,2.6521302E-4,7.0185E-5,-2.188798E-4,2.5667824E-4,6.239273E-5,-1.034975E-4,-1.1276143E-5,-1.4618348E-4,-6.6311617E-4,-1.4968531E-4,4.0665112E-5,4.1930045E-5,-1.8857325E-4,3.015558E-4,1.3321204E-5],"categories":[],"categories_nodes":[],"categories_segments":[],"categories_sizes":[],"default_left":[0,0,0,0,0,0,0,0,0,0,0,0,0,0,0,0,0,0,0,0,0,0,0,0,0,0,0,0,0],"id":34,"left_children":[1,3,5,7,9,11,13,15,17,19,-1,21,23,25,27,-1,-1,-1,-1,-1,-1,-1,-1,-1,-1,-1,-1,-1,-1],"loss_changes":[2.6057554E-5,3.490349E-5,3.8908016E-5,2.1187028E-5,1.0808469E-5,1.269715E-5,4.946659E-5,2.3789871E-5,7.117942E-6,1.407433E-6,0E0,1.9496307E-5,9.656864E-6,9.699015E-6,3.830978E-5,0E0,0E0,0E0,0E0,0E0,0E0,0E0,0E0,0E0,0E0,0E0,0E0,0E0,0E0],"parents":[2147483647,0,0,1,1,2,2,3,3,4,4,5,5,6,6,7,7,8,8,9,9,11,11,12,12,13,13,14,14],"right_children":[2,4,6,8,10,12,14,16,18,20,-1,22,24,26,28,-1,-1,-1,-1,-1,-1,-1,-1,-1,-1,-1,-1,-1,-1],"split_conditions":[4.6389604E-1,5.059228E-1,5.162538E-1,4.1752642E-1,3.1319362E-1,4.6900287E-1,6.178922E-2,4.07455E-1,1.4948909E-1,5.99825E-1,-4.0682638E-4,7.6910406E-1,7.4256015E-1,2.5582096E-2,5.258498E-1,7.0185E-5,-2.188798E-4,2.5667824E-4,6.239273E-5,-1.034975E-4,-1.1276143E-5,-1.4618348E-4,-6.6311617E-4,-1.4968531E-4,4.0665112E-5,4.1930045E-5,-1.8857325E-4,3.015558E-4,1.3321204E-5],"split_indices":[5,8,5,5,6,5,6,5,6,7,0,3,3,6,5,0,0,0,0,0,0,0,0,0,0,0,0,0,0],"split_type":[0,0,0,0,0,0,0,0,0,0,0,0,0,0,0,0,0,0,0,0,0,0,0,0,0,0,0,0,0],"sum_hessian":[2.62E2,9.4E1,1.68E2,8E1,1.4E1,3E1,1.38E2,6.3E1,1.7E1,1.3E1,1E0,6E0,2.4E1,2.5E1,1.13E2,5.9E1,4E0,1.2E1,5E0,9E0,4E0,5E0,1E0,1.9E1,5E0,3E0,2.2E1,7E0,1.06E2],"tree_param":{"num_deleted":"0","num_feature":"9","num_nodes":"29","size_leaf_vector":"1"}},{"base_weights":[3.339567E-5,-8.555198E-5,3.027537E-3,-1.8130342E-5,-3.412555E-3,1.2123415E-3,1.2415256E-3,-8.713412E-5,1.3462051E-3,2.1107716E-4,-7.487527E-4,1.7526194E-3,2.0881409E-5,-2.6859589E-5,7.7897545E-5,5.8227022E-5,3.1695288E-4,-9.5035E-5,1.352249E-4,3.3670778E-5,2.53496E-4],"categories":[],"categories_nodes":[],"categories_segments":[],"categories_sizes":[],"default_left":[0,0,0,0,0,0,0,0,0,0,0,0,0,0,0,0,0,0,0,0,0],"id":35,"left_children":[1,3,5,7,9,-1,11,13,15,17,-1,19,-1,-1,-1,-1,-1,-1,-1,-1,-1],"loss_changes":[9.321313E-5,5.6464753E-5,1.0464898E-4,2.3465089E-5,4.628888E-5,0E0,4.6658206E-6,2.0802598E-5,1.1109985E-5,3.2571302E-6,0E0,1.6515187E-6,0E0,0E0,0E0,0E0,0E0,0E0,0E0,0E0,0E0],"parents":[2147483647,0,0,1,1,2,2,3,3,4,4,6,6,7,7,8,8,9,9,11,11],"right_children":[2,4,6,8,10,-1,12,14,16,18,-1,20,-1,-1,-1,-1,-1,-1,-1,-1,-1],"split_conditions":[3.6457264E-1,3.5752514E-1,3.6620656E-1,8.567692E-2,5.1982928E-2,1.2123415E-3,2.4140301E-1,4.990481E-1,3.989157E-1,3.6164993E-1,-7.487527E-4,4.015062E-1,2.0881409E-5,-2.6859589E-5,7.7897545E-5,5.8227022E-5,3.1695288E-4,-9.5035E-5,1.352249E-4,3.3670778E-5,2.53496E-4],"split_indices":[0,0,0,2,1,0,6,8,8,0,0,0,0,0,0,0,0,0,0,0,0],"split_type":[0,0,0,0,0,0,0,0,0,0,0,0,0,0,0,0,0,0,0,0,0],"sum_hessian":[2.6E2,2.51E2,9E0,2.47E2,4E0,1E0,8E0,2.36E2,1.1E1,2E0,2E0,5E0,3E0,2.01E2,3.5E1,7E0,4E0,1E0,1E0,1E0,4E0],"tree_param":{"num_deleted":"0","num_feature":"9","num_nodes":"21","size_leaf_vector":"1"}},{"base_weights":[8.435458E-5,1.0577572E-5,1.8003852E-3,-2.5564796E-4,4.2418927E-5,1.1353967E-3,1.9149401E-4,1.787338E-4,-3.4857998E-4,9.3012604E-5,-6.300021E-5,5.739951E-6,1.2871649E-4,-1.9731173E-4,1.7262517E-5],"categories":[],"categories_nodes":[],"categories_segments":[],"categories_sizes":[],"default_left":[0,0,0,0,0,0,0,0,0,0,0,0,0,0,0],"id":36,"left_children":[1,3,5,-1,7,-1,9,11,13,-1,-1,-1,-1,-1,-1],"loss_changes":[3.3784116E-5,1.6652955E-5,1.2472492E-4,0E0,1.360024E-5,0E0,4.086504E-6,2.1032154E-5,3.8776445E-5,0E0,0E0,0E0,0E0,0E0,0E0],"parents":[2147483647,0,0,1,1,2,2,4,4,6,6,7,7,8,8],"right_children":[2,4,6,-1,8,-1,10,12,14,-1,-1,-1,-1,-1,-1],"split_conditions":[3.6164993E-1,1.18284255E-1,3.6620656E-1,-2.5564796E-4,4.0789825E-1,1.1353967E-3,9.905003E-2,3.786989E-1,1.0313318E-1,9.3012604E-5,-6.300021E-5,5.739951E-6,1.2871649E-4,-1.9731173E-4,1.7262517E-5],"split_indices":[0,0,0,0,7,0,2,7,6,0,0,0,0,0,0],"split_type":[0,0,0,0,0,0,0,0,0,0,0,0,0,0,0],"sum_hessian":[2.66E2,2.56E2,1E1,3E0,2.53E2,1E0,9E0,1.88E2,6.5E1,5E0,4E0,1.63E2,2.5E1,1.8E1,4.7E1],"tree_param":{"num_deleted":"0","num_feature":"9","num_nodes":"15","size_leaf_vector":"1"}},{"base_weights":[-1.038075E-5,-7.4261974E-5,1.3073537E-3,-2.6236734E-5,-8.18546E-4,1.0633355E-3,2.01415E-5,1.0454514E-4,-6.406316E-4,-3.500351E-4,5.233497E-4,6.3407683E-6,7.689089E-4,-7.12322E-6,-1.6530888E-4,1.4279857E-4,-5.376794E-5],"categories":[],"categories_nodes":[],"categories_segments":[],"categories_sizes":[],"default_left":[0,0,0,0,0,0,0,0,0,0,0,0,0,0,0,0,0],"id":37,"left_children":[1,3,5,7,-1,-1,9,11,13,-1,15,-1,-1,-1,-1,-1,-1],"loss_changes":[2.3667064E-5,8.1872124E-5,1.18132215E-4,2.1520882E-5,0E0,0E0,1.8216408E-5,7.151913E-5,1.810447E-5,0E0,6.7431138E-6,0E0,0E0,0E0,0E0,0E0,0E0],"parents":[2147483647,0,0,1,1,2,2,3,3,6,6,7,7,8,8,10,10],"right_children":[2,4,6,8,-1,-1,10,12,14,-1,16,-1,-1,-1,-1,-1,-1],"split_conditions":[3.6457264E-1,3.6164993E-1,6.348539E-2,2.3558453E-1,-8.18546E-4,1.0633355E-3,3.6620656E-1,2.3198935E-1,2.60274E-1,-3.500351E-4,5.5604374E-1,6.3407683E-6,7.689089E-4,-7.12322E-6,-1.6530888E-4,1.4279857E-4,-5.376794E-5],"split_indices":[0,0,2,6,0,0,0,6,0,0,5,0,0,0,0,0,0],"split_type":[0,0,0,0,0,0,0,0,0,0,0,0,0,0,0,0,0],"sum_hessian":[2.79E2,2.67E2,1.2E1,2.66E2,1E0,1E0,1.1E1,2.2E2,4.6E1,1E0,1E1,2.19E2,1E0,2.5E1,2.1E1,6E0,4E0],"tree_param":{"num_deleted":"0","num_feature":"9","num_nodes":"17","size_leaf_vector":"1"}},{"base_weights":[1.2086341E-4,4.5479177E-5,2.046152E-3,2.2391781E-4,-5.193507E-4,9.958477E-4,5.30106E-4,2.4217787E-5,1.6540922E-3,-7.0184347E-4,1.3008888E-3,1.8775757E-4,-5.249621E-4,3.119846E-5,-1.01145095E-4,3.7668392E-4,3.991696E-5,-7.045575E-5,-3.1836712E-4,2.614843E-4,-1.8386823E-5,-1.551488E-4,-5.721249E-6],"categories":[],"categories_nodes":[],"categories_segments":[],"categories_sizes":[],"default_left":[0,0,0,0,0,0,0,0,0,0,0,0,0,0,0,0,0,0,0,0,0,0,0],"id":38,"left_children":[1,3,5,7,9,-1,11,13,15,17,19,-1,21,-1,-1,-1,-1,-1,-1,-1,-1,-1,-1],"loss_changes":[3.8513226E-5,2.6018672E-5,8.3758656E-5,5.593869E-5,2.1508211E-5,0E0,9.78828E-6,3.1666634E-5,4.129469E-5,1.37211955E-5,6.8830095E-6,0E0,1.618045E-6,0E0,0E0,0E0,0E0,0E0,0E0,0E0,0E0,0E0,0E0],"parents":[2147483647,0,0,1,1,2,2,3,3,4,4,6,6,7,7,8,8,9,9,10,10,12,12],"right_children":[2,4,6,8,10,-1,12,14,16,18,20,-1,22,-1,-1,-1,-1,-1,-1,-1,-1,-1,-1],"split_conditions":[8.350489E-1,2.9431188E-1,6.306424E-2,7.3394746E-1,7.1392834E-2,9.958477E-4,3.537174E-1,7.171302E-1,2.8905773E-1,8.09619E-1,3.3883846E-1,1.8775757E-4,2.2185388E-1,3.119846E-5,-1.01145095E-4,3.7668392E-4,3.991696E-5,-7.045575E-5,-3.1836712E-4,2.614843E-4,-1.8386823E-5,-1.551488E-4,-5.721249E-6],"split_indices":[3,0,1,3,1,0,4,3,0,3,0,0,0,0,0,0,0,0,0,0,0,0,0],"split_type":[0,0,0,0,0,0,0,0,0,0,0,0,0,0,0,0,0,0,0,0,0,0,0],"sum_hessian":[2.65E2,2.56E2,9E0,1.95E2,6.1E1,1E0,8E0,1.72E2,2.3E1,5.6E1,5E0,4E0,4E0,1.36E2,3.6E1,1.1E1,1.2E1,5.3E1,3E0,3E0,2E0,1E0,3E0],"tree_param":{"num_deleted":"0","num_feature":"9","num_nodes":"23","size_leaf_vector":"1"}},{"base_weights":[-1.9678058E-5,-7.9442636E-4,1.3837586E-4,-3.5333366E-4,-1.4223078E-3,-6.307142E-5,8.212097E-4,-6.2130025E-4,8.9638616E-4,-6.91099E-4,-2.3681636E-3,5.2100525E-4,-3.7397828E-4,1.6727371E-3,-5.2171166E-4,-1.2131306E-4,8.971974E-5,1.883998E-5,2.4677895E-4,-1.6003563E-5,-1.4482604E-4,-3.6549443E-4,-9.225406E-5,-2.2544448E-4,9.289886E-5,2.3065402E-5,-8.95015E-5,9.676953E-5,3.6797737E-4,-3.1745448E-4,2.193452E-5],"categories":[],"categories_nodes":[],"categories_segments":[],"categories_sizes":[],"default_left":[0,0,0,0,0,0,0,0,0,0,0,0,0,0,0,0,0,0,0,0,0,0,0,0,0,0,0,0,0,0,0],"id":39,"left_children":[1,3,5,7,9,11,13,15,17,19,21,23,25,27,29,-1,-1,-1,-1,-1,-1,-1,-1,-1,-1,-1,-1,-1,-1,-1,-1],"loss_changes":[3.0355577E-5,1.1129516E-5,2.8388124E-5,9.263888E-6,1.0120872E-5,2.9249797E-5,5.4618795E-5,1.0446251E-5,3.6298024E-6,2.6520229E-6,3.7808713E-6,2.8422706E-5,1.9447682E-5,3.0162846E-5,2.654903E-5,0E0,0E0,0E0,0E0,0E0,0E0,0E0,0E0,0E0,0E0,0E0,0E0,0E0,0E0,0E0,0E0],"parents":[2147483647,0,0,1,1,2,2,3,3,4,4,5,5,6,6,7,7,8,8,9,9,10,10,11,11,12,12,13,13,14,14],"right_children":[2,4,6,8,10,12,14,16,18,20,22,24,26,28,30,-1,-1,-1,-1,-1,-1,-1,-1,-1,-1,-1,-1,-1,-1,-1,-1],"split_conditions":[1.984248E-1,1.4636603E-1,7.557877E-1,1.4458326E-1,7.0052195E-1,5.2699256E-1,4.2446584E-1,4.6437657E-1,7.729116E-1,2.7856117E-2,7.585551E-1,1.7974995E-1,6.79603E-1,4.5229387E-2,4.4325563E-1,-1.2131306E-4,8.971974E-5,1.883998E-5,2.4677895E-4,-1.6003563E-5,-1.4482604E-4,-3.6549443E-4,-9.225406E-5,-2.2544448E-4,9.289886E-5,2.3065402E-5,-8.95015E-5,9.676953E-5,3.6797737E-4,-3.1745448E-4,2.193452E-5],"split_indices":[4,4,3,4,3,5,7,7,3,1,3,7,3,1,7,0,0,0,0,0,0,0,0,0,0,0,0,0,0,0,0],"split_type":[0,0,0,0,0,0,0,0,0,0,0,0,0,0,0,0,0,0,0,0,0,0,0,0,0,0,0,0,0,0,0],"sum_hessian":[2.46E2,4.1E1,2.05E2,2.5E1,1.6E1,1.59E2,4.6E1,2.1E1,4E0,1E1,6E0,5.5E1,1.04E2,2.8E1,1.8E1,1.7E1,4E0,3E0,1E0,5E0,5E0,4E0,2E0,4E0,5.1E1,3.9E1,6.5E1,1.7E1,1.1E1,4E0,1.4E1],"tree_param":{"num_deleted":"0","num_feature":"9","num_nodes":"31","size_leaf_vector":"1"}},{"base_weights":[9.0682595E-5,2.237823E-5,2.0842017E-3,8.763449E-5,-7.2151975E-4,9.092886E-4,5.5388425E-4,-1.3872063E-4,4.8700318E-4,1.7362207E-4,6.932667E-6,2.3277402E-5,-9.763715E-5,7.11509E-5,-4.0772886E-4],"categories":[],"categories_nodes":[],"categories_segments":[],"categories_sizes":[],"default_left":[0,0,0,0,0,0,0,0,0,0,0,0,0,0,0],"id":40,"left_children":[1,3,5,7,-1,-1,9,11,13,-1,-1,-1,-1,-1,-1],"loss_changes":[3.699053E-5,9.880785E-5,6.598698E-5,2.3752136E-5,0E0,0E0,3.1761729E-6,3.4257224E-5,2.7637472E-5,0E0,0E0,0E0,0E0,0E0,0E0],"parents":[2147483647,0,0,1,1,2,2,3,3,6,6,7,7,8,8],"right_children":[2,4,6,8,-1,-1,10,12,14,-1,-1,-1,-1,-1,-1],"split_conditions":[3.6457264E-1,3.5857928E-1,3.6620656E-1,7.2820485E-1,-7.2151975E-4,9.092886E-4,8.4509474E-1,2.6881957E-1,4.3820825E-1,1.7362207E-4,6.932667E-6,2.3277402E-5,-9.763715E-5,7.11509E-5,-4.0772886E-4],"split_indices":[0,0,0,3,0,0,3,0,6,0,0,0,0,0,0],"split_type":[0,0,0,0,0,0,0,0,0,0,0,0,0,0,0],"sum_hessian":[2.71E2,2.63E2,8E0,2.61E2,2E0,1E0,7E0,1.67E2,9.4E1,2E0,5E0,1.11E2,5.6E1,9.3E1,1E0],"tree_param":{"num_deleted":"0","num_feature":"9","num_nodes":"15","size_leaf_vector":"1"}},{"base_weights":[-1.08302316E-4,1.581541E-3,-1.4779349E-4,-6.5428253E-7,4.0238097E-4,8.12492E-4,-2.11462E-4,1.5889751E-3,-4.1283993E-4,-3.5531417E-4,2.7624913E-4,3.0959697E-4,7.8165765E-5,-1.2427657E-4,1.8941502E-4,-3.197479E-5,-1.9174677E-4,9.275519E-5,-7.0528054E-5],"categories":[],"categories_nodes":[],"categories_segments":[],"categories_sizes":[],"default_left":[0,0,0,0,0,0,0,0,0,0,0,0,0,0,0,0,0,0,0],"id":41,"left_children":[1,3,5,-1,-1,7,9,11,13,15,17,-1,-1,-1,-1,-1,-1,-1,-1],"loss_changes":[1.7517821E-5,1.5138309E-5,1.5701356E-5,0E0,0E0,1.5879186E-5,1.686599E-5,6.770435E-6,9.011559E-6,2.1722195E-5,2.1199532E-5,0E0,0E0,0E0,0E0,0E0,0E0,0E0,0E0],"parents":[2147483647,0,0,1,1,2,2,5,5,6,6,7,7,8,8,9,9,10,10],"right_children":[2,4,6,-1,-1,8,10,12,14,16,18,-1,-1,-1,-1,-1,-1,-1,-1],"split_conditions":[3.3067144E-2,2.689572E-1,1.7138024E-1,-6.5428253E-7,4.0238097E-4,8.222926E-1,4.6534657E-1,3.225461E-2,3.2811936E-2,7.3376995E-1,5.2906954E-1,3.0959697E-4,7.8165765E-5,-1.2427657E-4,1.8941502E-4,-3.197479E-5,-1.9174677E-4,9.275519E-5,-7.0528054E-5],"split_indices":[4,0,8,0,0,4,8,1,1,4,5,0,0,0,0,0,0,0,0],"split_type":[0,0,0,0,0,0,0,0,0,0,0,0,0,0,0,0,0,0,0],"sum_hessian":[2.58E2,5E0,2.53E2,3E0,2E0,1.5E1,2.38E2,9E0,6E0,1.84E2,5.4E1,4E0,5E0,5E0,1E0,1.7E2,1.4E1,3.5E1,1.9E1],"tree_param":{"num_deleted":"0","num_feature":"9","num_nodes":"19","size_leaf_vector":"1"}},{"base_weights":[-2.7425072E-5,2.6644328E-5,-1.119181E-3,-5.9484586E-4,1.0322548E-4,-4.288194E-3,2.603422E-4,5.28521E-4,-9.1087725E-4,4.5919733E-6,1.1633061E-3,7.9264966E-5,-7.786108E-4,5.888832E-4,-1.7114298E-4,-2.7144006E-6,2.4295217E-4,4.7960322E-5,-1.6372727E-4,6.3009305E-5,-2.219268E-5,2.5123301E-5,2.676949E-4,1.4928904E-4,-1.4738324E-5],"categories":[],"categories_nodes":[],"categories_segments":[],"categories_sizes":[],"default_left":[0,0,0,0,0,0,0,0,0,0,0,0,0,0,0,0,0,0,0,0,0,0,0,0,0],"id":42,"left_children":[1,3,5,7,9,11,13,15,17,19,21,-1,-1,23,-1,-1,-1,-1,-1,-1,-1,-1,-1,-1,-1],"loss_changes":[1.6263231E-5,1.257874E-5,5.794884E-5,1.0776974E-5,2.4566134E-5,4.009931E-5,6.0788984E-6,5.374008E-6,1.1719982E-5,1.9146773E-5,1.7839824E-5,0E0,0E0,3.8623903E-6,0E0,0E0,0E0,0E0,0E0,0E0,0E0,0E0,0E0,0E0,0E0],"parents":[2147483647,0,0,1,1,2,2,3,3,4,4,5,5,6,6,7,7,8,8,9,9,10,10,13,13],"right_children":[2,4,6,8,10,12,14,16,18,20,22,-1,-1,24,-1,-1,-1,-1,-1,-1,-1,-1,-1,-1,-1],"split_conditions":[8.118745E-1,6.365384E-1,8.414061E-1,4.068737E-1,6.181698E-2,4.1424043E-2,1.4499879E-1,3.776873E-1,2.1764293E-1,2.9855132E-1,3.6830682E-1,7.9264966E-5,-7.786108E-4,4.900554E-1,-1.7114298E-4,-2.7144006E-6,2.4295217E-4,4.7960322E-5,-1.6372727E-4,6.3009305E-5,-2.219268E-5,2.5123301E-5,2.676949E-4,1.4928904E-4,-1.4738324E-5],"split_indices":[3,3,3,4,2,1,1,4,7,7,7,0,0,7,0,0,0,0,0,0,0,0,0,0,0],"split_type":[0,0,0,0,0,0,0,0,0,0,0,0,0,0,0,0,0,0,0,0,0,0,0,0,0],"sum_hessian":[2.74E2,2.62E2,1.2E1,2.8E1,2.34E2,3E0,9E0,6E0,2.2E1,2.15E2,1.9E1,1E0,2E0,8E0,1E0,5E0,1E0,5E0,1.7E1,5.7E1,1.58E2,1E1,9E0,4E0,4E0],"tree_param":{"num_deleted":"0","num_feature":"9","num_nodes":"25","size_leaf_vector":"1"}},{"base_weights":[-5.4598804E-5,-1.4135009E-3,-2.417562E-7,-2.49994E-4,-1.1070394E-5,-4.4159268E-4,1.3468025E-4,-2.5675455E-4,-3.0293164E-4,1.3525618E-3,4.6464007E-5,-1.3083096E-4,-1.0526418E-5,2.0139056E-4,5.5518512E-6,-1.143766E-4,2.4130171E-5],"categories":[],"categories_nodes":[],"categories_segments":[],"categories_sizes":[],"default_left":[0,0,0,0,0,0,0,0,0,0,0,0,0,0,0,0,0],"id":43,"left_children":[1,3,5,-1,-1,7,9,11,-1,13,15,-1,-1,-1,-1,-1,-1],"loss_changes":[1.9204792E-5,7.2017447E-6,1.500601E-5,0E0,0E0,2.0597276E-5,2.067248E-5,7.3137044E-6,0E0,3.9119113E-6,2.4804624E-5,0E0,0E0,0E0,0E0,0E0,0E0],"parents":[2147483647,0,0,1,1,2,2,5,5,6,6,7,7,9,9,10,10],"right_children":[2,4,6,-1,-1,8,10,12,-1,14,16,-1,-1,-1,-1,-1,-1],"split_conditions":[6.057777E-1,2.999215E-1,2.0021474E-2,-2.49994E-4,-1.1070394E-5,1.9845683E-2,2.2128828E-2,7.0339197E-1,-3.0293164E-4,4.2545798E-1,7.069956E-2,-1.3083096E-4,-1.0526418E-5,2.0139056E-4,5.5518512E-6,-1.143766E-4,2.4130171E-5],"split_indices":[3,7,2,0,0,2,2,3,0,4,6,0,0,0,0,0,0],"split_type":[0,0,0,0,0,0,0,0,0,0,0,0,0,0,0,0,0],"sum_hessian":[2.59E2,9E0,2.5E2,6E0,3E0,5.8E1,1.92E2,5.4E1,4E0,1.2E1,1.8E2,9E0,4.5E1,1E1,2E0,2.3E1,1.57E2],"tree_param":{"num_deleted":"0","num_feature":"9","num_nodes":"17","size_leaf_vector":"1"}},{"base_weights":[1.7587581E-5,-2.6732543E-4,3.565123E-4,-2.0040057E-4,-6.2437105E-4,7.1786024E-4,2.6522824E-4,1.0509959E-5,-7.8345626E-4,4.0697843E-5,1.0754267E-3,-3.083136E-5,1.6030026E-4,-1.6062605E-4,4.648774E-5,4.4282257E-5,-5.734815E-5,4.609883E-4,7.414403E-5],"categories":[],"categories_nodes":[],"categories_segments":[],"categories_sizes":[],"default_left":[0,0,0,0,0,0,0,0,0,0,0,0,0,0,0,0,0,0,0],"id":44,"left_children":[1,3,5,7,-1,-1,9,11,13,15,17,-1,-1,-1,-1,-1,-1,-1,-1],"loss_changes":[2.5588215E-5,4.3841297E-5,5.70271E-5,1.7593315E-5,0E0,0E0,2.1785934E-5,3.3944834E-5,2.151911E-5,1.4575124E-5,3.0532934E-5,0E0,0E0,0E0,0E0,0E0,0E0,0E0,0E0],"parents":[2147483647,0,0,1,1,2,2,3,3,6,6,7,7,8,8,9,9,10,10],"right_children":[2,4,6,8,-1,-1,10,12,14,16,18,-1,-1,-1,-1,-1,-1,-1,-1],"split_conditions":[3.643551E-1,3.632507E-1,1.0530173E-1,3.720654E-1,-6.2437105E-4,7.1786024E-4,6.0062815E-2,3.360754E-1,2.9386154E-1,3.0031407E-2,6.2860474E-2,-3.083136E-5,1.6030026E-4,-1.6062605E-4,4.648774E-5,4.4282257E-5,-5.734815E-5,4.609883E-4,7.414403E-5],"split_indices":[7,7,8,8,0,0,2,8,0,2,2,0,0,0,0,0,0,0,0],"split_type":[0,0,0,0,0,0,0,0,0,0,0,0,0,0,0,0,0,0,0],"sum_hessian":[2.63E2,1.43E2,1.2E2,1.42E2,1E0,1E0,1.19E2,1.05E2,3.7E1,9.4E1,2.5E1,8.8E1,1.7E1,2.6E1,1.1E1,5.8E1,3.6E1,3E0,2.2E1],"tree_param":{"num_deleted":"0","num_feature":"9","num_nodes":"19","size_leaf_vector":"1"}},{"base_weights":[5.722581E-5,-1.260982E-5,1.4549084E-3,8.6837856E-4,-1.05487874E-4,8.9678704E-4,3.9867035E-4,4.9551163E-4,4.3635038E-4,-6.739026E-4,5.0098428E-5,-3.124152E-4,8.82405E-4,1.1663897E-4,-3.3658453E-5,-2.773033E-4,-5.3811997E-5,2.7721695E-4,-2.6050277E-6,1.4329255E-4,-1.9178555E-5],"categories":[],"categories_nodes":[],"categories_segments":[],"categories_sizes":[],"default_left":[0,0,0,0,0,0,0,0,0,0,0,0,0,0,0,0,0,0,0,0,0],"id":45,"left_children":[1,3,5,7,9,-1,11,13,-1,15,17,-1,19,-1,-1,-1,-1,-1,-1,-1,-1],"loss_changes":[2.6665344E-5,2.1447797E-5,7.421453E-5,2.224577E-5,2.099346E-5,0E0,1.8772831E-5,7.650701E-6,0E0,1.8333038E-5,2.822418E-5,0E0,2.9723396E-6,0E0,0E0,0E0,0E0,0E0,0E0,0E0,0E0],"parents":[2147483647,0,0,1,1,2,2,3,3,4,4,6,6,7,7,9,9,10,10,12,12],"right_children":[2,4,6,8,10,-1,12,14,-1,16,18,-1,20,-1,-1,-1,-1,-1,-1,-1,-1],"split_conditions":[3.6164993E-1,4.9312983E-2,1.0313318E-1,2.9476452E-1,9.527385E-2,8.9678704E-4,3.7033595E-2,4.3972784E-1,4.3635038E-4,3.564187E-1,9.649086E-2,-3.124152E-4,5.2398115E-1,1.1663897E-4,-3.3658453E-5,-2.773033E-4,-5.3811997E-5,2.7721695E-4,-2.6050277E-6,1.4329255E-4,-1.9178555E-5],"split_indices":[0,6,6,0,6,0,4,4,0,5,6,0,7,0,0,0,0,0,0,0,0],"split_type":[0,0,0,0,0,0,0,0,0,0,0,0,0,0,0,0,0,0,0,0,0],"sum_hessian":[2.72E2,2.6E2,1.2E1,2.4E1,2.36E2,1E0,1.1E1,2.2E1,2E0,5E1,1.86E2,1E0,1E1,1.4E1,8E0,6E0,4.4E1,5E0,1.81E2,8E0,2E0],"tree_param":{"num_deleted":"0","num_feature":"9","num_nodes":"21","size_leaf_vector":"1"}},{"base_weights":[7.559641E-5,1.931664E-4,-6.14462E-4,1.6600457E-5,6.0492306E-4,-7.698907E-4,-3.2656384E-4,2.6471174E-4,-4.0505838E-4,2.4159948E-4,1.3684559E-3,-4.8322874E-4,5.851185E-5,6.1466795E-5,-1.1753688E-4,-1.12087735E-4,3.3630033E-5,9.135974E-5,-5.749572E-5,4.199527E-4,1.1577152E-4,2.906082E-5,-3.856906E-4],"categories":[],"categories_nodes":[],"categories_segments":[],"categories_sizes":[],"default_left":[0,0,0,0,0,0,0,0,0,0,0,0,0,0,0,0,0,0,0,0,0,0,0],"id":46,"left_children":[1,3,5,7,9,-1,11,13,15,17,19,-1,21,-1,-1,-1,-1,-1,-1,-1,-1,-1,-1],"loss_changes":[2.283514E-5,1.7438484E-5,6.235881E-5,1.778772E-5,1.9642865E-5,0E0,5.3830045E-5,2.841594E-5,2.0408848E-5,1.6930338E-5,1.7346803E-5,0E0,2.0224805E-5,0E0,0E0,0E0,0E0,0E0,0E0,0E0,0E0,0E0,0E0],"parents":[2147483647,0,0,1,1,2,2,3,3,4,4,6,6,7,7,8,8,9,9,10,10,12,12],"right_children":[2,4,6,8,10,-1,12,14,16,18,20,-1,22,-1,-1,-1,-1,-1,-1,-1,-1,-1,-1],"split_conditions":[7.603738E-1,3.989157E-1,1.5645367E-1,7.200028E-1,2.8320804E-1,-7.698907E-4,2.620031E-2,6.225836E-2,2.9020205E-1,7.0770645E-1,4.1709113E-1,-4.8322874E-4,8.3826363E-1,6.1466795E-5,-1.1753688E-4,-1.12087735E-4,3.3630033E-5,9.135974E-5,-5.749572E-5,4.199527E-4,1.1577152E-4,2.906082E-5,-3.856906E-4],"split_indices":[3,8,8,3,0,0,1,1,0,3,8,0,4,0,0,0,0,0,0,0,0,0,0],"split_type":[0,0,0,0,0,0,0,0,0,0,0,0,0,0,0,0,0,0,0,0,0,0,0],"sum_hessian":[2.79E2,2.39E2,4E1,1.68E2,7.1E1,1E0,3.9E1,1.06E2,6.2E1,4.9E1,2.2E1,3E0,3.6E1,9E1,1.6E1,3.6E1,2.6E1,2.9E1,2E1,3E0,1.9E1,3.5E1,1E0],"tree_param":{"num_deleted":"0","num_feature":"9","num_nodes":"23","size_leaf_vector":"1"}},{"base_weights":[5.7555303E-6,-1.416543E-4,3.7605077E-4,1.181029E-4,-5.048649E-4,-4.959276E-4,7.1535166E-4,9.969223E-4,-3.968771E-5,-1.1242867E-3,-2.9372866E-4,4.239958E-4,-2.201357E-4,6.685633E-4,5.4309686E-4,2.2830141E-5,4.8384035E-4,2.0744586E-4,-1.5938625E-5,-4.3711538E-5,-2.2873923E-4,1.4733645E-4,-7.017428E-5,-8.487792E-5,2.528975E-4,-1.7801207E-5,1.4759756E-4],"categories":[],"categories_nodes":[],"categories_segments":[],"categories_sizes":[],"default_left":[0,0,0,0,0,0,0,0,0,0,0,0,0,0,0,0,0,0,0,0,0,0,0,0,0,0,0],"id":47,"left_children":[1,3,5,7,9,11,13,15,17,19,21,23,-1,-1,25,-1,-1,-1,-1,-1,-1,-1,-1,-1,-1,-1,-1],"loss_changes":[1.5337113E-5,1.9023286E-5,2.4023806E-5,1.6402562E-5,1.0655485E-5,2.6935551E-5,4.261343E-5,4.0711813E-5,1.472424E-5,1.047948E-5,2.4760222E-5,2.5323392E-5,0E0,0E0,2.4299483E-5,0E0,0E0,0E0,0E0,0E0,0E0,0E0,0E0,0E0,0E0,0E0,0E0],"parents":[2147483647,0,0,1,1,2,2,3,3,4,4,5,5,6,6,7,7,8,8,9,9,10,10,11,11,14,14],"right_children":[2,4,6,8,10,12,14,16,18,20,22,24,-1,-1,26,-1,-1,-1,-1,-1,-1,-1,-1,-1,-1,-1,-1],"split_conditions":[5.9096664E-1,3.920053E-1,2.5893524E-1,1.75216E-2,4.1952857E-1,2.2138095E-1,1.0530173E-1,1.6495889E-2,1.2714659E-1,2.0317394E-2,4.3048352E-1,8.432345E-1,-2.201357E-4,6.685633E-4,2.9800504E-1,2.2830141E-5,4.8384035E-4,2.0744586E-4,-1.5938625E-5,-4.3711538E-5,-2.2873923E-4,1.4733645E-4,-7.017428E-5,-8.487792E-5,2.528975E-4,-1.7801207E-5,1.4759756E-4],"split_indices":[5,4,7,1,4,7,8,1,8,1,4,5,0,0,8,0,0,0,0,0,0,0,0,0,0,0,0],"split_type":[0,0,0,0,0,0,0,0,0,0,0,0,0,0,0,0,0,0,0,0,0,0,0,0,0,0,0],"sum_hessian":[2.79E2,2E2,7.9E1,1.17E2,8.3E1,2.2E1,5.7E1,1.7E1,1E2,2E1,6.3E1,1.3E1,9E0,1E0,5.6E1,1.4E1,3E0,4E0,9.6E1,1E1,1E1,9E0,5.4E1,8E0,5E0,2.7E1,2.9E1],"tree_param":{"num_deleted":"0","num_feature":"9","num_nodes":"27","size_leaf_vector":"1"}},{"base_weights":[4.8546335E-5,7.1693166E-6,1.4492967E-3,1.1331369E-4,-4.5501147E-4,8.286578E-4,-2.0884995E-4,7.309426E-6,9.875443E-4,-1.2640047E-4,-1.7896765E-3,-1.4485026E-4,3.9228774E-4,9.75139E-6,-1.5076136E-4,4.2188552E-4,6.290348E-5,-6.673787E-5,7.050267E-5,-2.8752568E-4,9.487962E-6,-1.9287107E-5,1.0227942E-4],"categories":[],"categories_nodes":[],"categories_segments":[],"categories_sizes":[],"default_left":[0,0,0,0,0,0,0,0,0,0,0,0,0,0,0,0,0,0,0,0,0,0,0],"id":48,"left_children":[1,3,5,7,9,-1,11,13,15,17,19,-1,21,-1,-1,-1,-1,-1,-1,-1,-1,-1,-1],"loss_changes":[1.6160135E-5,1.3395304E-5,6.8735426E-5,2.0566005E-5,2.2141649E-5,0E0,4.3706495E-6,1.6621621E-5,2.5936753E-5,1.1728269E-5,9.033687E-6,0E0,1.2475438E-6,0E0,0E0,0E0,0E0,0E0,0E0,0E0,0E0,0E0,0E0],"parents":[2147483647,0,0,1,1,2,2,3,3,4,4,6,6,7,7,8,8,9,9,10,10,12,12],"right_children":[2,4,6,8,10,-1,12,14,16,18,20,-1,22,-1,-1,-1,-1,-1,-1,-1,-1,-1,-1],"split_conditions":[8.350489E-1,5.3651784E-2,3.6620656E-1,4.1622393E-2,7.573258E-1,8.286578E-4,7.707884E-2,3.8798515E-2,4.3027654E-2,8.267159E-2,4.5629418E-1,-1.4485026E-4,5.213454E-1,9.75139E-6,-1.5076136E-4,4.2188552E-4,6.290348E-5,-6.673787E-5,7.050267E-5,-2.8752568E-4,9.487962E-6,-1.9287107E-5,1.0227942E-4],"split_indices":[3,2,0,2,3,0,1,1,2,1,7,0,7,0,0,0,0,0,0,0,0,0,0],"split_type":[0,0,0,0,0,0,0,0,0,0,0,0,0,0,0,0,0,0,0,0,0,0,0],"sum_hessian":[2.78E2,2.71E2,7E0,2.21E2,5E1,1E0,6E0,1.98E2,2.3E1,4.1E1,9E0,2E0,4E0,1.88E2,1E1,3E0,2E1,2.6E1,1.5E1,7E0,2E0,2E0,2E0],"tree_param":{"num_deleted":"0","num_feature":"9","num_nodes":"23","size_leaf_vector":"1"}},{"base_weights":[1.1017408E-4,-1.1077046E-4,7.558965E-4,1.3789521E-4,-5.9253233E-4,2.6564794E-3,4.0077668E-4,2.4949442E-4,-9.54366E-4,-9.44807E-4,4.2131453E-4,3.5105902E-3,9.294284E-4,-2.3303794E-5,1.4997675E-3,-2.6929195E-4,3.623182E-5,4.982629E-5,-1.5675832E-4,-1.9946255E-4,-7.519371E-6,1.0718599E-4,-1.1833425E-4,1.4856695E-4,7.9216796E-4,1.7034641E-4,-4.5748315E-5,2.7362415E-5,-2.5099458E-4,6.7709904E-4,3.771191E-5],"categories":[],"categories_nodes":[],"categories_segments":[],"categories_sizes":[],"default_left":[0,0,0,0,0,0,0,0,0,0,0,0,0,0,0,0,0,0,0,0,0,0,0,0,0,0,0,0,0,0,0],"id":49,"left_children":[1,3,5,7,9,11,13,15,17,19,21,23,25,27,29,-1,-1,-1,-1,-1,-1,-1,-1,-1,-1,-1,-1,-1,-1,-1,-1],"loss_changes":[3.9745668E-5,2.4999616E-5,4.68557E-5,1.7059687E-5,2.5755895E-5,1.29631735E-5,2.8464641E-5,1.1342253E-5,5.3975273E-6,2.9314517E-5,1.166815E-5,3.7418395E-5,3.1443242E-6,2.1429936E-5,7.681157E-5,0E0,0E0,0E0,0E0,0E0,0E0,0E0,0E0,0E0,0E0,0E0,0E0,0E0,0E0,0E0,0E0],"parents":[2147483647,0,0,1,1,2,2,3,3,4,4,5,5,6,6,7,7,8,8,9,9,10,10,11,11,12,12,13,13,14,14],"right_children":[2,4,6,8,10,12,14,16,18,20,22,24,26,28,30,-1,-1,-1,-1,-1,-1,-1,-1,-1,-1,-1,-1,-1,-1,-1,-1],"split_conditions":[7.38869E-1,3.735327E-1,7.4440634E-1,4.0081796E-1,4.250028E-2,4.1549692E-1,6.0062815E-2,9.809742E-2,3.2553542E-1,4.669187E-1,8.386075E-1,3.0829132E-1,7.405112E-1,4.77692E-2,6.348539E-2,-2.6929195E-4,3.623182E-5,4.982629E-5,-1.5675832E-4,-1.9946255E-4,-7.519371E-6,1.0718599E-4,-1.1833425E-4,1.4856695E-4,7.9216796E-4,1.7034641E-4,-4.5748315E-5,2.7362415E-5,-2.5099458E-4,6.7709904E-4,3.771191E-5],"split_indices":[3,8,3,7,2,8,2,7,5,8,5,8,3,2,2,0,0,0,0,0,0,0,0,0,0,0,0,0,0,0,0],"split_type":[0,0,0,0,0,0,0,0,0,0,0,0,0,0,0,0,0,0,0,0,0,0,0,0,0,0,0,0,0,0,0],"sum_hessian":[2.77E2,2.07E2,7E1,1.37E2,7E1,1E1,6E1,1.25E2,1.2E1,5.2E1,1.8E1,6E0,4E0,4.4E1,1.6E1,1E0,1.24E2,2E0,1E1,3E1,2.2E1,1.4E1,4E0,4E0,2E0,3E0,1E0,4E1,4E0,3E0,1.3E1],"tree_param":{"num_deleted":"0","num_feature":"9","num_nodes":"31","size_leaf_vector":"1"}},{"base_weights":[-4.4077664E-5,9.534276E-5,-7.528526E-4,1.4041921E-5,2.2887103E-3,-1.7749923E-3,-4.0001763E-4,6.929378E-5,-7.565607E-4,5.6959776E-4,-1.3095835E-4,-2.9768905E-4,-7.891777E-5,1.085632E-4,-1.2299223E-3,-4.0107654E-5,3.9021215E-5,7.8003235E-5,-5.7533307E-5,-2.2920097E-4,-3.2661417E-5],"categories":[],"categories_nodes":[],"categories_segments":[],"categories_sizes":[],"default_left":[0,0,0,0,0,0,0,0,0,0,0,0,0,0,0,0,0,0,0,0,0],"id":50,"left_children":[1,3,5,7,9,11,13,15,-1,-1,-1,-1,-1,17,19,-1,-1,-1,-1,-1,-1],"loss_changes":[2.6456108E-5,3.991213E-5,1.5158426E-5,7.204186E-5,6.303072E-5,5.7755533E-6,1.4484029E-5,1.991224E-5,0E0,0E0,0E0,0E0,0E0,6.5319264E-6,6.814824E-6,0E0,0E0,0E0,0E0,0E0,0E0],"parents":[2147483647,0,0,1,1,2,2,3,3,4,4,5,5,6,6,7,7,13,13,14,14],"right_children":[2,4,6,8,10,12,14,16,-1,-1,-1,-1,-1,18,20,-1,-1,-1,-1,-1,-1],"split_conditions":[6.6621765E-2,6.09407E-2,7.639535E-2,8.118745E-1,5.0334334E-1,2.1755777E-1,1.0976304E-1,4.6645814E-1,-7.565607E-4,5.6959776E-4,-1.3095835E-4,-2.9768905E-4,-7.891777E-5,5.250144E-1,2.3025574E-1,-4.0107654E-5,3.9021215E-5,7.8003235E-5,-5.7533307E-5,-2.2920097E-4,-3.2661417E-5],"split_indices":[2,2,2,3,4,6,2,5,0,0,0,0,0,5,2,0,0,0,0,0,0],"split_type":[0,0,0,0,0,0,0,0,0,0,0,0,0,0,0,0,0,0,0,0,0],"sum_hessian":[2.66E2,2.23E2,4.3E1,2.16E2,7E0,1E1,3.3E1,2.15E2,1E0,4E0,3E0,6E0,4E0,2.1E1,1.2E1,8.2E1,1.33E2,1.1E1,1E1,7E0,5E0],"tree_param":{"num_deleted":"0","num_feature":"9","num_nodes":"21","size_leaf_vector":"1"}},{"base_weights":[9.883476E-5,1.3771608E-4,-2.0594052E-3,-2.0955925E-4,2.9417904E-4,-3.6588426E-5,-3.0847127E-4,6.560873E-4,-6.387694E-4,1.8834919E-5,7.993804E-4,-5.754936E-6,2.530248E-4,-2.249096E-4,-2.5680143E-5,1.3931294E-5,-7.0854335E-4,3.3170293E-4,6.908117E-5],"categories":[],"categories_nodes":[],"categories_segments":[],"categories_sizes":[],"default_left":[0,0,0,0,0,0,0,0,0,0,0,0,0,0,0,0,0,0,0],"id":51,"left_children":[1,3,5,7,9,-1,-1,11,13,15,17,-1,-1,-1,-1,-1,-1,-1,-1],"loss_changes":[2.369596E-5,1.5003972E-5,2.5826412E-6,3.23719E-5,2.641475E-5,0E0,0E0,2.7291604E-5,2.8324865E-5,6.3752785E-5,2.958556E-5,0E0,0E0,0E0,0E0,0E0,0E0,0E0,0E0],"parents":[2147483647,0,0,1,1,2,2,3,3,4,4,7,7,8,8,9,9,10,10],"right_children":[2,4,6,8,10,-1,-1,12,14,16,18,-1,-1,-1,-1,-1,-1,-1,-1],"split_conditions":[6.84928E-1,3.0714974E-1,2.2575246E-2,3.3667147E-1,3.7526473E-1,-3.6588426E-5,-3.0847127E-4,3.1071654E-1,1.22115344E-1,8.213045E-1,3.8567057E-1,-5.754936E-6,2.530248E-4,-2.249096E-4,-2.5680143E-5,1.3931294E-5,-7.0854335E-4,3.3170293E-4,6.908117E-5],"split_indices":[8,4,1,7,7,0,0,7,6,3,7,0,0,0,0,0,0,0,0],"split_type":[0,0,0,0,0,0,0,0,0,0,0,0,0,0,0,0,0,0,0],"sum_hessian":[2.78E2,2.74E2,4E0,8.5E1,1.89E2,1E0,3E0,2.8E1,5.7E1,1.23E2,6.6E1,1.9E1,9E0,1.5E1,4.2E1,1.22E2,1E0,7E0,5.9E1],"tree_param":{"num_deleted":"0","num_feature":"9","num_nodes":"19","size_leaf_vector":"1"}},{"base_weights":[-3.647091E-5,1.0535827E-4,-4.9906195E-4,-1.5796923E-4,4.913651E-4,-2.1020754E-3,-2.3252297E-4,-2.1243804E-5,-1.4436968E-3,-1.9543568E-4,6.920416E-4,-1.4008196E-4,-4.519547E-3,-1.5308659E-3,-1.5803249E-5,3.7754152E-4,-9.402615E-6,5.7927878E-6,-3.1911995E-4,1.8669888E-4,-7.311479E-5,1.6080315E-4,2.257962E-5,6.29381E-5,-1.19480326E-4,-1.645126E-4,-6.552484E-4,-2.3145539E-4,3.2806664E-5,1.0177639E-4,-6.032091E-5],"categories":[],"categories_nodes":[],"categories_segments":[],"categories_sizes":[],"default_left":[0,0,0,0,0,0,0,0,0,0,0,0,0,0,0,0,0,0,0,0,0,0,0,0,0,0,0,0,0,0,0],"id":52,"left_children":[1,3,5,7,9,11,13,15,17,19,21,23,25,27,29,-1,-1,-1,-1,-1,-1,-1,-1,-1,-1,-1,-1,-1,-1,-1,-1],"loss_changes":[1.7898203E-5,2.132168E-5,2.6856214E-5,2.1943288E-5,1.1850354E-5,4.2054464E-5,1.5732894E-5,1.8261137E-5,1.9243618E-5,1.3529407E-5,1.9279021E-5,3.523577E-6,1.5942278E-6,4.6588084E-6,1.8785799E-5,0E0,0E0,0E0,0E0,0E0,0E0,0E0,0E0,0E0,0E0,0E0,0E0,0E0,0E0,0E0,0E0],"parents":[2147483647,0,0,1,1,2,2,3,3,4,4,5,5,6,6,7,7,8,8,9,9,10,10,11,11,12,12,13,13,14,14],"right_children":[2,4,6,8,10,12,14,16,18,20,22,24,26,28,30,-1,-1,-1,-1,-1,-1,-1,-1,-1,-1,-1,-1,-1,-1,-1,-1],"split_conditions":[4.8829846E-2,1.3852817E-1,5.4441776E-2,7.284144E-1,3.1335658E-1,2.2290811E-1,2.0473751E-1,2.5187047E-2,1.9750868E-1,2.0207381E-1,4.4326082E-1,2.1407264E-1,5.0401784E-2,3.8450795E-1,4.0496552E-1,3.7754152E-4,-9.402615E-6,5.7927878E-6,-3.1911995E-4,1.8669888E-4,-7.311479E-5,1.6080315E-4,2.257962E-5,6.29381E-5,-1.19480326E-4,-1.645126E-4,-6.552484E-4,-2.3145539E-4,3.2806664E-5,1.0177639E-4,-6.032091E-5],"split_indices":[2,6,2,4,8,0,4,4,8,4,8,0,2,0,4,0,0,0,0,0,0,0,0,0,0,0,0,0,0,0,0],"split_type":[0,0,0,0,0,0,0,0,0,0,0,0,0,0,0,0,0,0,0,0,0,0,0,0,0,0,0,0,0,0,0],"sum_hessian":[2.71E2,2.08E2,6.3E1,1.24E2,8.4E1,8E0,5.5E1,1.13E2,1.1E1,1.9E1,6.5E1,5E0,3E0,7E0,4.8E1,1E0,1.12E2,5E0,6E0,3E0,1.6E1,3E1,3.5E1,3E0,2E0,1E0,2E0,6E0,1E0,1.7E1,3.1E1],"tree_param":{"num_deleted":"0","num_feature":"9","num_nodes":"31","size_leaf_vector":"1"}},{"base_weights":[-1.1309601E-4,-5.5407207E-5,-2.6421687E-3,-9.540007E-4,1.3939691E-5,-6.219863E-4,-1.2106006E-3,-1.1104404E-3,3.1796306E-5,7.700916E-4,-6.713881E-5,-1.2585226E-5,-1.8579318E-4,-7.147901E-5,-1.7235248E-4,-4.204635E-5,1.2781429E-4,-2.0616474E-4,7.0998544E-7],"categories":[],"categories_nodes":[],"categories_segments":[],"categories_sizes":[],"default_left":[0,0,0,0,0,0,0,0,0,0,0,0,0,0,0,0,0,0,0],"id":53,"left_children":[1,3,5,7,9,-1,11,13,-1,15,17,-1,-1,-1,-1,-1,-1,-1,-1],"loss_changes":[3.924638E-5,1.6526687E-5,1.3461522E-5,3.858333E-6,1.5194695E-5,0E0,1.2612991E-6,1.5369151E-6,0E0,6.593382E-6,2.5376125E-5,0E0,0E0,0E0,0E0,0E0,0E0,0E0,0E0],"parents":[2147483647,0,0,1,1,2,2,3,3,4,4,6,6,7,7,9,9,10,10],"right_children":[2,4,6,8,10,-1,12,14,-1,16,18,-1,-1,-1,-1,-1,-1,-1,-1],"split_conditions":[8.350489E-1,6.287456E-1,5.3576205E-2,2.8518778E-1,6.5881044E-1,-6.219863E-4,6.306424E-2,2.4890819E-1,3.1796306E-5,2.097536E-1,6.6483843E-1,-1.2585226E-5,-1.8579318E-4,-7.147901E-5,-1.7235248E-4,-4.204635E-5,1.2781429E-4,-2.0616474E-4,7.0998544E-7],"split_indices":[3,3,1,0,3,0,1,7,0,0,3,0,0,0,0,0,0,0,0],"split_type":[0,0,0,0,0,0,0,0,0,0,0,0,0,0,0,0,0,0,0],"sum_hessian":[2.69E2,2.64E2,5E0,1.8E1,2.46E2,1E0,4E0,1.6E1,2E0,2.3E1,2.23E2,1E0,3E0,6E0,1E1,4E0,1.9E1,9E0,2.14E2],"tree_param":{"num_deleted":"0","num_feature":"9","num_nodes":"19","size_leaf_vector":"1"}},{"base_weights":[-5.771285E-5,-1.107765E-3,-2.8700035E-7,-1.4032905E-3,5.630776E-5,2.530517E-5,-2.7615225E-4,6.887614E-6,-2.1581976E-4,4.703528E-4,-1.0519012E-4,1.0486107E-4,-7.6734534E-5,5.982898E-4,-1.9494186E-5],"categories":[],"categories_nodes":[],"categories_segments":[],"categories_sizes":[],"default_left":[0,0,0,0,0,0,0,0,0,0,0,0,0,0,0],"id":54,"left_children":[1,3,5,7,-1,9,-1,-1,-1,11,13,-1,-1,-1,-1],"loss_changes":[1.6280721E-5,7.041008E-6,1.43620055E-5,5.285854E-6,0E0,1.4859014E-5,0E0,0E0,0E0,2.2677159E-5,4.688627E-5,0E0,0E0,0E0,0E0],"parents":[2147483647,0,0,1,1,2,2,3,3,5,5,9,9,10,10],"right_children":[2,4,6,8,-1,10,-1,-1,-1,12,14,-1,-1,-1,-1],"split_conditions":[4.044322E-2,3.891898E-1,9.352321E-1,2.1894848E-1,5.630776E-5,2.8779706E-1,-2.7615225E-4,6.887614E-6,-2.1581976E-4,2.1379891E-1,1.0530173E-1,1.0486107E-4,-7.6734534E-5,5.982898E-4,-1.9494186E-5],"split_indices":[6,8,6,0,0,7,0,0,0,6,8,0,0,0,0],"split_type":[0,0,0,0,0,0,0,0,0,0,0,0,0,0,0],"sum_hessian":[2.69E2,1.3E1,2.56E2,1.1E1,2E0,2.54E2,2E0,2E0,9E0,5.7E1,1.97E2,4.3E1,1.4E1,1E0,1.96E2],"tree_param":{"num_deleted":"0","num_feature":"9","num_nodes":"15","size_leaf_vector":"1"}},{"base_weights":[-1.979335E-4,-3.8752204E-4,2.6774398E-4,7.3659973E-4,-5.364535E-4,1.0933094E-3,-1.1906874E-5,5.0967006E-4,4.0506537E-4,-4.696233E-4,-2.0351005E-3,2.9027767E-3,2.9663515E-4,-7.2550174E-4,3.9093912E-4,2.9079827E-5,1.4466612E-4,-9.864497E-5,-2.1714646E-5,2.710183E-5,-4.7917452E-4,4.8270714E-4,9.332345E-5,-7.518799E-5,1.0159325E-4,9.5921256E-5,-1.2682701E-4,1.8572673E-4,8.509777E-6],"categories":[],"categories_nodes":[],"categories_segments":[],"categories_sizes":[],"default_left":[0,0,0,0,0,0,0,0,0,0,0,0,0,0,0,0,0,0,0,0,0,0,0,0,0,0,0,0,0],"id":55,"left_children":[1,3,5,7,9,11,13,-1,15,17,19,21,23,25,27,-1,-1,-1,-1,-1,-1,-1,-1,-1,-1,-1,-1,-1,-1],"loss_changes":[2.4029563E-5,3.2706655E-5,1.8251752E-5,2.3373696E-5,1.617075E-5,2.7970053E-5,1.7531758E-5,0E0,2.5829238E-6,1.501507E-5,2.819141E-5,8.908941E-6,7.1908644E-6,9.671797E-6,1.3446201E-5,0E0,0E0,0E0,0E0,0E0,0E0,0E0,0E0,0E0,0E0,0E0,0E0,0E0,0E0],"parents":[2147483647,0,0,1,1,2,2,3,3,4,4,5,5,6,6,8,8,9,9,10,10,11,11,12,12,13,13,14,14],"right_children":[2,4,6,8,10,12,14,-1,16,18,20,22,24,26,28,-1,-1,-1,-1,-1,-1,-1,-1,-1,-1,-1,-1,-1,-1],"split_conditions":[1.7725532E-1,1.4049922E-2,2.1755777E-1,3.0127585E-1,8.118745E-1,2.9021153E-1,3.038299E-2,5.0967006E-4,5.939601E-1,7.0339197E-1,1.4871632E-1,3.8926564E-2,3.1491473E-1,1.3171844E-2,3.4946543E-1,2.9079827E-5,1.4466612E-4,-9.864497E-5,-2.1714646E-5,2.710183E-5,-4.7917452E-4,4.8270714E-4,9.332345E-5,-7.518799E-5,1.0159325E-4,9.5921256E-5,-1.2682701E-4,1.8572673E-4,8.509777E-6],"split_indices":[6,2,6,7,3,7,2,0,5,3,6,2,4,2,5,0,0,0,0,0,0,0,0,0,0,0,0,0,0],"split_type":[0,0,0,0,0,0,0,0,0,0,0,0,0,0,0,0,0,0,0,0,0,0,0,0,0,0,0,0,0],"sum_hessian":[2.7E2,1.92E2,7.8E1,2.2E1,1.7E2,1.9E1,5.9E1,1E0,2.1E1,1.64E2,6E0,5E0,1.4E1,2.1E1,3.8E1,1.8E1,3E0,8E1,8.4E1,3E0,3E0,3E0,2E0,5E0,9E0,3E0,1.8E1,8E0,3E1],"tree_param":{"num_deleted":"0","num_feature":"9","num_nodes":"29","size_leaf_vector":"1"}},{"base_weights":[-1.0576139E-5,-1.0407445E-3,3.158902E-5,6.104856E-5,-1.5752831E-4,2.5514874E-3,3.1572447E-6,6.9166505E-5,4.1664642E-4,-4.5821417E-4,1.6942229E-4,1.564275E-4,-6.9931484E-5,-3.067135E-5,5.8204194E-5],"categories":[],"categories_nodes":[],"categories_segments":[],"categories_sizes":[],"default_left":[0,0,0,0,0,0,0,0,0,0,0,0,0,0,0],"id":56,"left_children":[1,3,5,-1,-1,7,9,-1,-1,11,13,-1,-1,-1,-1],"loss_changes":[1.2151861E-5,3.9489505E-6,1.92645E-5,0E0,0E0,2.6110374E-6,2.0559188E-5,0E0,0E0,1.1806277E-5,2.3522065E-5,0E0,0E0,0E0,0E0],"parents":[2147483647,0,0,1,1,2,2,5,5,6,6,9,9,10,10],"right_children":[2,4,6,-1,-1,8,10,-1,-1,12,14,-1,-1,-1,-1],"split_conditions":[2.0053698E-1,1.2714659E-1,2.0670313E-1,6.104856E-5,-1.5752831E-4,6.0526285E-2,8.6936E-2,6.9166505E-5,4.1664642E-4,2.2138095E-1,3.419423E-1,1.564275E-4,-6.9931484E-5,-3.067135E-5,5.8204194E-5],"split_indices":[0,8,0,0,0,1,6,0,0,7,8,0,0,0,0],"split_type":[0,0,0,0,0,0,0,0,0,0,0,0,0,0,0],"sum_hessian":[2.78E2,1E1,2.68E2,1E0,9E0,2E0,2.66E2,1E0,1E0,7E1,1.96E2,3E0,6.7E1,8.1E1,1.15E2],"tree_param":{"num_deleted":"0","num_feature":"9","num_nodes":"15","size_leaf_vector":"1"}},{"base_weights":[2.962449E-5,4.7618285E-4,-2.6450015E-4,3.7734618E-4,6.763372E-4,-1.3181268E-3,-1.19618686E-4,7.808147E-4,-1.8141423E-4,6.0008133E-5,-1.9588051E-3,-3.498317E-4,3.017614E-4,2.3979953E-4,5.108284E-5,-2.4112256E-4,4.8095517E-6,1.302732E-4,-6.749986E-5,-3.9630337E-4,-1.0321194E-5,