{"learner":{"attributes":{"scikit_learn":"{\"_estimator_type\": \"regressor\"}"},"feature_names":[],"feature_types":[],"gradient_booster":{"model":{"gbtree_model_param":{"num_parallel_tree":"1","num_trees":"1461"},"iteration_indptr":[0,1,2,3,4,5,6,7,8,9,10,11,12,13,14,15,16,17,18,19,20,21,22,23,24,25,26,27,28,29,30,31,32,33,34,35,36,37,38,39,40,41,42,43,44,45,46,47,48,49,50,51,52,53,54,55,56,57,58,59,60,61,62,63,64,65,66,67,68,69,70,71,72,73,74,75,76,77,78,79,80,81,82,83,84,85,86,87,88,89,90,91,92,93,94,95,96,97,98,99,100,101,102,103,104,105,106,107,108,109,110,111,112,113,114,115,116,117,118,119,120,121,122,123,124,125,126,127,128,129,130,131,132,133,134,135,136,137,138,139,140,141,142,143,144,145,146,147,148,149,150,151,152,153,154,155,156,157,158,159,160,161,162,163,164,165,166,167,168,169,170,171,172,173,174,175,176,177,178,179,180,181,182,183,184,185,186,187,188,189,190,191,192,193,194,195,196,197,198,199,200,201,202,203,204,205,206,207,208,209,210,211,212,213,214,215,216,217,218,219,220,221,222,223,224,225,226,227,228,229,230,231,232,233,234,235,236,237,238,239,240,241,242,243,244,245,246,247,248,249,250,251,252,253,254,255,256,257,258,259,260,261,262,263,264,265,266,267,268,269,270,271,272,273,274,275,276,277,278,279,280,281,282,283,284,285,286,287,288,289,290,291,292,293,294,295,296,297,298,299,300,301,302,303,304,305,306,307,308,309,310,311,312,313,314,315,316,317,318,319,320,321,322,323,324,325,326,327,328,329,330,331,332,333,334,335,336,337,338,339,340,341,342,343,344,345,346,347,348,349,350,351,352,353,354,355,356,357,358,359,360,361,362,363,364,365,366,367,368,369,370,371,372,373,374,375,376,377,378,379,380,381,382,383,384,385,386,387,388,389,390,391,392,393,394,395,396,397,398,399,400,401,402,403,404,405,406,407,408,409,410,411,412,413,414,415,416,417,418,419,420,421,422,423,424,425,426,427,428,429,430,431,432,433,434,435,436,437,438,439,440,441,442,443,444,445,446,447,448,449,450,451,452,453,454,455,456,457,458,459,460,461,462,463,464,465,466,467,468,469,470,471,472,473,474,475,476,477,478,479,480,481,482,483,484,485,486,487,488,489,490,491,492,493,494,495,496,497,498,499,500,501,502,503,504,505,506,507,508,509,510,511,512,513,514,515,516,517,518,519,520,521,522,523,524,525,526,527,528,529,530,531,532,533,534,535,536,537,538,539,540,541,542,543,544,545,546,547,548,549,550,551,552,553,554,555,556,557,558,559,560,561,562,563,564,565,566,567,568,569,570,571,572,573,574,575,576,577,578,579,580,581,582,583,584,585,586,587,588,589,590,591,592,593,594,595,596,597,598,599,600,601,602,603,604,605,606,607,608,609,610,611,612,613,614,615,616,617,618,619,620,621,622,623,624,625,626,627,628,629,630,631,632,633,634,635,636,637,638,639,640,641,642,643,644,645,646,647,648,649,650,651,652,653,654,655,656,657,658,659,660,661,662,663,664,665,666,667,668,669,670,671,672,673,674,675,676,677,678,679,680,681,682,683,684,685,686,687,688,689,690,691,692,693,694,695,696,697,698,699,700,701,702,703,704,705,706,707,708,709,710,711,712,713,714,715,716,717,718,719,720,721,722,723,724,725,726,727,728,729,730,731,732,733,734,735,736,737,738,739,740,741,742,743,744,745,746,747,748,749,750,751,752,753,754,755,756,757,758,759,760,761,762,763,764,765,766,767,768,769,770,771,772,773,774,775,776,777,778,779,780,781,782,783,784,785,786,787,788,789,790,791,792,793,794,795,796,797,798,799,800,801,802,803,804,805,806,807,808,809,810,811,812,813,814,815,816,817,818,819,820,821,822,823,824,825,826,827,828,829,830,831,832,833,834,835,836,837,838,839,840,841,842,843,844,845,846,847,848,849,850,851,852,853,854,855,856,857,858,859,860,861,862,863,864,865,866,867,868,869,870,871,872,873,874,875,876,877,878,879,880,881,882,883,884,885,886,887,888,889,890,891,892,893,894,895,896,897,898,899,900,901,902,903,904,905,906,907,908,909,910,911,912,913,914,915,916,917,918,919,920,921,922,923,924,925,926,927,928,929,930,931,932,933,934,935,936,937,938,939,940,941,942,943,944,945,946,947,948,949,950,951,952,953,954,955,956,957,958,959,960,961,962,963,964,965,966,967,968,969,970,971,972,973,974,975,976,977,978,979,980,981,982,983,984,985,986,987,988,989,990,991,992,993,994,995,996,997,998,999,1000,1001,1002,1003,1004,1005,1006,1007,1008,1009,1010,1011,1012,1013,1014,1015,1016,1017,1018,1019,1020,1021,1022,1023,1024,1025,1026,1027,1028,1029,1030,1031,1032,1033,1034,1035,1036,1037,1038,1039,1040,1041,1042,1043,1044,1045,1046,1047,1048,1049,1050,1051,1052,1053,1054,1055,1056,1057,1058,1059,1060,1061,1062,1063,1064,1065,1066,1067,1068,1069,1070,1071,1072,1073,1074,1075,1076,1077,1078,1079,1080,1081,1082,1083,1084,1085,1086,1087,1088,1089,1090,1091,1092,1093,1094,1095,1096,1097,1098,1099,1100,1101,1102,1103,1104,1105,1106,1107,1108,1109,1110,1111,1112,1113,1114,1115,1116,1117,1118,1119,1120,1121,1122,1123,1124,1125,1126,1127,1128,1129,1130,1131,1132,1133,1134,1135,1136,1137,1138,1139,1140,1141,1142,1143,1144,1145,1146,1147,1148,1149,1150,1151,1152,1153,1154,1155,1156,1157,1158,1159,1160,1161,1162,1163,1164,1165,1166,1167,1168,1169,1170,1171,1172,1173,1174,1175,1176,1177,1178,1179,1180,1181,1182,1183,1184,1185,1186,1187,1188,1189,1190,1191,1192,1193,1194,1195,1196,1197,1198,1199,1200,1201,1202,1203,1204,1205,1206,1207,1208,1209,1210,1211,1212,1213,1214,1215,1216,1217,1218,1219,1220,1221,1222,1223,1224,1225,1226,1227,1228,1229,1230,1231,1232,1233,1234,1235,1236,1237,1238,1239,1240,1241,1242,1243,1244,1245,1246,1247,1248,1249,1250,1251,1252,1253,1254,1255,1256,1257,1258,1259,1260,1261,1262,1263,1264,1265,1266,1267,1268,1269,1270,1271,1272,1273,1274,1275,1276,1277,1278,1279,1280,1281,1282,1283,1284,1285,1286,1287,1288,1289,1290,1291,1292,1293,1294,1295,1296,1297,1298,1299,1300,1301,1302,1303,1304,1305,1306,1307,1308,1309,1310,1311,1312,1313,1314,1315,1316,1317,1318,1319,1320,1321,1322,1323,1324,1325,1326,1327,1328,1329,1330,1331,1332,1333,1334,1335,1336,1337,1338,1339,1340,1341,1342,1343,1344,1345,1346,1347,1348,1349,1350,1351,1352,1353,1354,1355,1356,1357,1358,1359,1360,1361,1362,1363,1364,1365,1366,1367,1368,1369,1370,1371,1372,1373,1374,1375,1376,1377,1378,1379,1380,1381,1382,1383,1384,1385,1386,1387,1388,1389,1390,1391,1392,1393,1394,1395,1396,1397,1398,1399,1400,1401,1402,1403,1404,1405,1406,1407,1408,1409,1410,1411,1412,1413,1414,1415,1416,1417,1418,1419,1420,1421,1422,1423,1424,1425,1426,1427,1428,1429,1430,1431,1432,1433,1434,1435,1436,1437,1438,1439,1440,1441,1442,1443,1444,1445,1446,1447,1448,1449,1450,1451,1452,1453,1454,1455,1456,1457,1458,1459,1460,1461],"tree_info":[0,0,0,0,0,0,0,0,0,0,0,0,0,0,0,0,0,0,0,0,0,0,0,0,0,0,0,0,0,0,0,0,0,0,0,0,0,0,0,0,0,0,0,0,0,0,0,0,0,0,0,0,0,0,0,0,0,0,0,0,0,0,0,0,0,0,0,0,0,0,0,0,0,0,0,0,0,0,0,0,0,0,0,0,0,0,0,0,0,0,0,0,0,0,0,0,0,0,0,0,0,0,0,0,0,0,0,0,0,0,0,0,0,0,0,0,0,0,0,0,0,0,0,0,0,0,0,0,0,0,0,0,0,0,0,0,0,0,0,0,0,0,0,0,0,0,0,0,0,0,0,0,0,0,0,0,0,0,0,0,0,0,0,0,0,0,0,0,0,0,0,0,0,0,0,0,0,0,0,0,0,0,0,0,0,0,0,0,0,0,0,0,0,0,0,0,0,0,0,0,0,0,0,0,0,0,0,0,0,0,0,0,0,0,0,0,0,0,0,0,0,0,0,0,0,0,0,0,0,0,0,0,0,0,0,0,0,0,0,0,0,0,0,0,0,0,0,0,0,0,0,0,0,0,0,0,0,0,0,0,0,0,0,0,0,0,0,0,0,0,0,0,0,0,0,0,0,0,0,0,0,0,0,0,0,0,0,0,0,0,0,0,0,0,0,0,0,0,0,0,0,0,0,0,0,0,0,0,0,0,0,0,0,0,0,0,0,0,0,0,0,0,0,0,0,0,0,0,0,0,0,0,0,0,0,0,0,0,0,0,0,0,0,0,0,0,0,0,0,0,0,0,0,0,0,0,0,0,0,0,0,0,0,0,0,0,0,0,0,0,0,0,0,0,0,0,0,0,0,0,0,0,0,0,0,0,0,0,0,0,0,0,0,0,0,0,0,0,0,0,0,0,0,0,0,0,0,0,0,0,0,0,0,0,0,0,0,0,0,0,0,0,0,0,0,0,0,0,0,0,0,0,0,0,0,0,0,0,0,0,0,0,0,0,0,0,0,0,0,0,0,0,0,0,0,0,0,0,0,0,0,0,0,0,0,0,0,0,0,0,0,0,0,0,0,0,0,0,0,0,0,0,0,0,0,0,0,0,0,0,0,0,0,0,0,0,0,0,0,0,0,0,0,0,0,0,0,0,0,0,0,0,0,0,0,0,0,0,0,0,0,0,0,0,0,0,0,0,0,0,0,0,0,0,0,0,0,0,0,0,0,0,0,0,0,0,0,0,0,0,0,0,0,0,0,0,0,0,0,0,0,0,0,0,0,0,0,0,0,0,0,0,0,0,0,0,0,0,0,0,0,0,0,0,0,0,0,0,0,0,0,0,0,0,0,0,0,0,0,0,0,0,0,0,0,0,0,0,0,0,0,0,0,0,0,0,0,0,0,0,0,0,0,0,0,0,0,0,0,0,0,0,0,0,0,0,0,0,0,0,0,0,0,0,0,0,0,0,0,0,0,0,0,0,0,0,0,0,0,0,0,0,0,0,0,0,0,0,0,0,0,0,0,0,0,0,0,0,0,0,0,0,0,0,0,0,0,0,0,0,0,0,0,0,0,0,0,0,0,0,0,0,0,0,0,0,0,0,0,0,0,0,0,0,0,0,0,0,0,0,0,0,0,0,0,0,0,0,0,0,0,0,0,0,0,0,0,0,0,0,0,0,0,0,0,0,0,0,0,0,0,0,0,0,0,0,0,0,0,0,0,0,0,0,0,0,0,0,0,0,0,0,0,0,0,0,0,0,0,0,0,0,0,0,0,0,0,0,0,0,0,0,0,0,0,0,0,0,0,0,0,0,0,0,0,0,0,0,0,0,0,0,0,0,0,0,0,0,0,0,0,0,0,0,0,0,0,0,0,0,0,0,0,0,0,0,0,0,0,0,0,0,0,0,0,0,0,0,0,0,0,0,0,0,0,0,0,0,0,0,0,0,0,0,0,0,0,0,0,0,0,0,0,0,0,0,0,0,0,0,0,0,0,0,0,0,0,0,0,0,0,0,0,0,0,0,0,0,0,0,0,0,0,0,0,0,0,0,0,0,0,0,0,0,0,0,0,0,0,0,0,0,0,0,0,0,0,0,0,0,0,0,0,0,0,0,0,0,0,0,0,0,0,0,0,0,0,0,0,0,0,0,0,0,0,0,0,0,0,0,0,0,0,0,0,0,0,0,0,0,0,0,0,0,0,0,0,0,0,0,0,0,0,0,0,0,0,0,0,0,0,0,0,0,0,0,0,0,0,0,0,0,0,0,0,0,0,0,0,0,0,0,0,0,0,0,0,0,0,0,0,0,0,0,0,0,0,0,0,0,0,0,0,0,0,0,0,0,0,0,0,0,0,0,0,0,0,0,0,0,0,0,0,0,0,0,0,0,0,0,0,0,0,0,0,0,0,0,0,0,0,0,0,0,0,0,0,0,0,0,0,0,0,0,0,0,0,0,0,0,0,0,0,0,0,0,0,0,0,0,0,0,0,0,0,0,0,0,0,0,0,0,0,0,0,0,0,0,0,0,0,0,0,0,0,0,0,0,0,0,0,0,0,0,0,0,0,0,0,0,0,0,0,0,0,0,0,0,0,0,0,0,0,0,0,0,0,0,0,0,0,0,0,0,0,0,0,0,0,0,0,0,0,0,0,0,0,0,0,0,0,0,0,0,0,0,0,0,0,0,0,0,0,0,0,0,0,0,0,0,0,0,0,0,0,0,0,0,0,0,0,0,0,0,0,0,0,0,0,0,0,0,0,0,0,0,0,0,0,0,0,0,0,0,0,0,0,0,0,0,0,0,0,0,0,0,0,0,0,0,0,0,0,0,0,0,0,0,0,0,0,0,0,0,0,0,0,0,0,0,0,0,0,0,0,0,0,0,0,0,0,0,0,0,0,0,0,0,0,0,0,0,0,0,0,0,0,0,0,0,0,0,0,0,0,0,0,0,0,0,0,0,0,0,0,0,0,0,0,0,0,0,0,0,0,0,0,0,0,0,0,0,0,0,0,0,0,0,0,0,0,0,0,0,0,0,0,0,0,0,0,0,0,0,0,0,0,0,0,0,0,0,0,0,0,0,0,0,0,0,0,0,0,0,0,0,0,0,0,0,0,0,0,0,0,0,0,0,0,0,0,0,0,0,0,0,0,0,0,0,0,0,0,0,0,0,0,0,0,0,0,0,0,0,0,0,0,0,0,0,0,0,0,0,0,0,0,0,0,0,0,0,0,0,0,0,0,0,0,0,0,0,0,0,0,0,0,0,0,0,0,0,0,0,0,0,0,0,0,0,0],"trees":[{"base_weights":[2.2875342E-4,-3.4231678E-4,2.0761864E-2,2.2429202E-3,-2.9095935E-3,3.3547323E-2,-3.6067928E-3,2.6622794E-3,-6.6747586E-4,3.6116666E-4,-6.1448705E-3,1.3276491E-3,3.7560367E-4,-1.7596428E-4,3.3243497E-5,-3.6506352E-3,3.6422927E-3,2.6948089E-3,-9.433533E-3,-9.001658E-3,3.544275E-4,-4.780526E-3,3.2104962E-4,1.8139099E-3,6.4017517E-3,2.1824006E-4,8.503834E-3,-3.8093133E-3,-1.6120486E-2,-1.2972155E-2,-4.995806E-3,-3.6731088E-3,3.552828E-3,-9.845948E-3,-9.059623E-4,6.945675E-3,4.2882637E-4,1.2555524E-2,4.392431E-3,2.8146608E-3,-1.1345657E-2,1.7995674E-2,3.150497E-3,-4.0864208E-4,2.9869261E-5,-5.5950513E-4,-1.2594805E-4,-3.4270731E-3,-1.8946791E-2,2.140135E-3,-8.155977E-3,-8.497559E-3,9.868643E-4,6.1623836E-3,-2.89876E-3,-5.055063E-4,-1.916609E-3,-2.4591251E-3,2.070923E-3,-2.2094527E-3,1.170736E-2,-4.3676347E-3,3.1443425E-3,3.2202008E-3,1.6346756E-2,7.770377E-3,1.3944583E-3,6.329012E-3,-3.4839995E-4,-1.3151733E-2,4.9618993E-5,9.565944E-5,6.395684E-4,-6.087484E-3,6.223354E-3,2.7851483E-3,-3.079374E-4,9.2515437E-4,-7.933494E-3,-2.495234E-2,-3.7778933E-3,5.4303417E-3,-7.347128E-3,-1.2008803E-2,-1.6845652E-3,-1.0457527E-2,-9.76002E-5,3.0564042E-3,-1.8278156E-4,-6.7301255E-5,7.199495E-3,1.7183626E-3,-2.0946843E-4,7.743261E-5,-1.795934E-4,-1.1697511E-4,1.1398867E-4,7.869042E-5,8.198399E-6,8.1170096E-5,-1.47629E-4,1.12592206E-4,4.4918776E-4,-8.419051E-5,-5.185769E-4,4.4099055E-4,3.520452E-5,-5.3748285E-5,3.649655E-4,6.1224424E-4,1.3982253E-4,1.5792779E-4,4.3354742E-4,2.5555206E-4,-5.729906E-5,4.1642843E-4,7.160329E-5,-1.3756481E-4,8.696267E-5,-1.6602084E-4,-4.7780975E-4,4.9115355E-5,-2.923279E-4,7.867065E-5,3.27735E-4,1.7550148E-4,-8.4663494E-5,1.8341112E-4,-6.8623434E-5,-1.0267565E-4,-3.0358348E-4,-1.9862513E-4,-8.980352E-4,-2.7556744E-4,1.2577616E-4,2.8125677E-4,-9.938901E-5,-3.2352612E-4,-2.8934635E-5,2.802712E-5,-4.615355E-4,1.9042197E-4,-4.068524E-4,-9.50663E-5,-3.8255547E-4,1.7817113E-4,1.2995271E-5,2.529727E-4,1.2884173E-5,1.0395273E-5,7.203902E-5],"categories":[],"categories_nodes":[],"categories_segments":[],"categories_sizes":[],"default_left":[0,0,0,0,0,0,0,0,0,0,0,0,0,0,0,0,0,0,0,0,0,0,0,0,0,0,0,0,0,0,0,0,0,0,0,0,0,0,0,0,0,0,0,0,0,0,0,0,0,0,0,0,0,0,0,0,0,0,0,0,0,0,0,0,0,0,0,0,0,0,0,0,0,0,0,0,0,0,0,0,0,0,0,0,0,0,0,0,0,0,0,0,0,0,0,0,0,0,0,0,0,0,0,0,0,0,0,0,0,0,0,0,0,0,0,0,0,0,0,0,0,0,0,0,0,0,0,0,0,0,0,0,0,0,0,0,0,0,0,0,0,0,0,0,0,0,0,0,0,0,0],"id":0,"left_children":[1,3,5,7,9,11,13,15,-1,17,19,-1,-1,-1,-1,21,23,25,27,29,31,33,-1,35,37,39,41,43,45,47,49,51,53,55,57,59,61,63,65,67,69,71,73,-1,75,-1,-1,77,79,81,83,85,87,89,91,-1,93,95,97,99,101,103,105,107,109,111,113,115,117,119,-1,-1,-1,121,123,125,-1,127,129,131,133,135,137,139,141,143,-1,145,-1,-1,147,149,-1,-1,-1,-1,-1,-1,-1,-1,-1,-1,-1,-1,-1,-1,-1,-1,-1,-1,-1,-1,-1,-1,-1,-1,-1,-1,-1,-1,-1,-1,-1,-1,-1,-1,-1,-1,-1,-1,-1,-1,-1,-1,-1,-1,-1,-1,-1,-1,-1,-1,-1,-1,-1,-1,-1,-1,-1,-1,-1],"loss_changes":[3.9000888E-3,2.15692E-3,2.9250784E-3,1.6258035E-3,1.7270555E-3,5.54482E-4,4.094196E-5,1.0031752E-3,0E0,1.8997223E-3,1.5256933E-3,0E0,0E0,0E0,0E0,3.882692E-4,6.8969105E-4,9.620363E-4,5.403345E-4,8.4179174E-4,3.4797343E-4,4.032322E-4,0E0,6.011949E-4,6.2492024E-4,1.4731218E-3,9.5956505E-4,3.4468144E-4,4.8277667E-5,1.5318631E-3,6.939788E-4,2.7816763E-4,2.7039996E-4,3.9504643E-4,6.5199296E-5,8.1055576E-4,8.994243E-4,4.0746084E-4,4.2462524E-4,4.4684924E-4,2.3004354E-4,1.504866E-4,4.3530256E-4,0E0,2.3970986E-4,0E0,0E0,2.4269529E-4,1.4543915E-3,3.52048E-4,5.033681E-4,3.212795E-5,1.1455907E-4,1.094593E-4,9.553718E-5,0E0,9.3820505E-5,7.800314E-5,2.9036746E-6,9.169204E-5,1.8022221E-4,4.7123834E-4,9.4194396E-4,2.1990242E-4,2.1772622E-4,2.607986E-4,5.1869295E-4,4.9088534E-4,2.7846443E-4,3.6335434E-5,0E0,0E0,0E0,1.0713149E-4,1.4138856E-4,1.1729069E-4,0E0,1.1569522E-4,1.3702025E-5,5.2894047E-4,2.5773433E-4,2.5710202E-4,4.436179E-5,4.1841937E-4,8.345034E-4,9.478332E-6,0E0,3.7719903E-5,0E0,0E0,4.5098015E-5,1.5005553E-6,0E0,0E0,0E0,0E0,0E0,0E0,0E0,0E0,0E0,0E0,0E0,0E0,0E0,0E0,0E0,0E0,0E0,0E0,0E0,0E0,0E0,0E0,0E0,0E0,0E0,0E0,0E0,0E0,0E0,0E0,0E0,0E0,0E0,0E0,0E0,0E0,0E0,0E0,0E0,0E0,0E0,0E0,0E0,0E0,0E0,0E0,0E0,0E0,0E0,0E0,0E0,0E0,0E0,0E0,0E0,0E0,0E0,0E0,0E0],"parents":[2147483647,0,0,1,1,2,2,3,3,4,4,5,5,6,6,7,7,9,9,10,10,15,15,16,16,17,17,18,18,19,19,20,20,21,21,23,23,24,24,25,25,26,26,27,27,28,28,29,29,30,30,31,31,32,32,33,33,34,34,35,35,36,36,37,37,38,38,39,39,40,40,41,41,42,42,44,44,47,47,48,48,49,49,50,50,51,51,52,52,53,53,54,54,56,56,57,57,58,58,59,59,60,60,61,61,62,62,63,63,64,64,65,65,66,66,67,67,68,68,69,69,73,73,74,74,75,75,77,77,78,78,79,79,80,80,81,81,82,82,83,83,84,84,85,85,87,87,90,90,91,91],"right_children":[2,4,6,8,10,12,14,16,-1,18,20,-1,-1,-1,-1,22,24,26,28,30,32,34,-1,36,38,40,42,44,46,48,50,52,54,56,58,60,62,64,66,68,70,72,74,-1,76,-1,-1,78,80,82,84,86,88,90,92,-1,94,96,98,100,102,104,106,108,110,112,114,116,118,120,-1,-1,-1,122,124,126,-1,128,130,132,134,136,138,140,142,144,-1,146,-1,-1,148,150,-1,-1,-1,-1,-1,-1,-1,-1,-1,-1,-1,-1,-1,-1,-1,-1,-1,-1,-1,-1,-1,-1,-1,-1,-1,-1,-1,-1,-1,-1,-1,-1,-1,-1,-1,-1,-1,-1,-1,-1,-1,-1,-1,-1,-1,-1,-1,-1,-1,-1,-1,-1,-1,-1,-1,-1,-1,-1,-1],"split_conditions":[3.395327E-1,1.7633948E-1,3.8100344E-1,3.645598E-1,4.648349E-1,3.7792662E-1,1.3834004E-1,1.3844363E-1,-6.6747586E-4,6.0987204E-1,3.896618E-1,1.3276491E-3,3.7560367E-4,-1.7596428E-4,3.3243497E-5,1.6910371E-1,1.535374E-1,2.2437376E-1,7.980904E-1,5.294168E-1,3.8961154E-1,4.6934265E-1,3.2104962E-4,2.5295642E-1,3.216261E-1,5.037153E-1,2.3410563E-1,6.2087965E-1,5.658234E-1,3.3666652E-1,4.333393E-1,4.7377387E-1,6.9876343E-1,1.412061E-1,1.0637899E-1,1.8205813E-1,4.8884192E-1,2.8324246E-1,5.2967685E-1,1.06285945E-1,4.441883E-1,6.40836E-2,2.5707018E-1,-4.0864208E-4,2.4612322E-1,-5.5950513E-4,-1.2594805E-4,7.7578086E-1,4.708142E-1,2.5295642E-1,8.292293E-1,4.9717334E-1,7.4927354E-1,3.9147782E-1,2.2334607E-1,-5.055063E-4,3.8723633E-1,1.5971379E-1,1.1632044E-1,9.872557E-2,1.1411583E-1,4.6711126E-1,5.406989E-1,1.6004147E-1,2.2671098E-1,5.389982E-1,7.882613E-2,5.8353746E-1,5.3826404E-1,1.811336E-1,4.9618993E-5,9.565944E-5,6.395684E-4,1.4186485E-1,1.11452445E-1,1.918296E-1,-3.079374E-4,2.1240519E-1,8.199803E-1,4.5208427E-1,1.0948531E-1,2.377319E-1,9.997961E-2,6.174815E-2,8.9623255E-1,1.8031962E-1,-9.76002E-5,2.0743538E-1,-1.8278156E-4,-6.7301255E-5,8.3627254E-1,1.0039573E-1,-2.0946843E-4,7.743261E-5,-1.795934E-4,-1.1697511E-4,1.1398867E-4,7.869042E-5,8.198399E-6,8.1170096E-5,-1.47629E-4,1.12592206E-4,4.4918776E-4,-8.419051E-5,-5.185769E-4,4.4099055E-4,3.520452E-5,-5.3748285E-5,3.649655E-4,6.1224424E-4,1.3982253E-4,1.5792779E-4,4.3354742E-4,2.5555206E-4,-5.729906E-5,4.1642843E-4,7.160329E-5,-1.3756481E-4,8.696267E-5,-1.6602084E-4,-4.7780975E-4,4.9115355E-5,-2.923279E-4,7.867065E-5,3.27735E-4,1.7550148E-4,-8.4663494E-5,1.8341112E-4,-6.8623434E-5,-1.0267565E-4,-3.0358348E-4,-1.9862513E-4,-8.980352E-4,-2.7556744E-4,1.2577616E-4,2.8125677E-4,-9.938901E-5,-3.2352612E-4,-2.8934635E-5,2.802712E-5,-4.615355E-4,1.9042197E-4,-4.068524E-4,-9.50663E-5,-3.8255547E-4,1.7817113E-4,1.2995271E-5,2.529727E-4,1.2884173E-5,1.0395273E-5,7.203902E-5],"split_indices":[6,6,6,1,5,1,1,7,0,8,7,0,0,0,0,6,6,6,9,9,8,5,0,7,4,7,6,8,7,8,8,7,8,6,7,7,9,8,9,1,1,1,6,0,6,0,0,5,8,7,4,5,7,9,6,0,4,6,1,6,6,8,9,6,1,7,1,9,9,6,0,0,0,1,1,1,0,6,4,4,1,6,1,1,5,6,0,1,0,0,9,1,0,0,0,0,0,0,0,0,0,0,0,0,0,0,0,0,0,0,0,0,0,0,0,0,0,0,0,0,0,0,0,0,0,0,0,0,0,0,0,0,0,0,0,0,0,0,0,0,0,0,0,0,0,0,0,0,0,0,0],"split_type":[0,0,0,0,0,0,0,0,0,0,0,0,0,0,0,0,0,0,0,0,0,0,0,0,0,0,0,0,0,0,0,0,0,0,0,0,0,0,0,0,0,0,0,0,0,0,0,0,0,0,0,0,0,0,0,0,0,0,0,0,0,0,0,0,0,0,0,0,0,0,0,0,0,0,0,0,0,0,0,0,0,0,0,0,0,0,0,0,0,0,0,0,0,0,0,0,0,0,0,0,0,0,0,0,0,0,0,0,0,0,0,0,0,0,0,0,0,0,0,0,0,0,0,0,0,0,0,0,0,0,0,0,0,0,0,0,0,0,0,0,0,0,0,0,0,0,0,0,0,0,0],"sum_hessian":[3.31E2,3.23E2,8E0,1.61E2,1.62E2,5E0,3E0,1.59E2,2E0,8.1E1,8.1E1,3E0,2E0,2E0,1E0,2.1E1,1.38E2,6.6E1,1.5E1,5.6E1,2.5E1,2E1,1E0,8.4E1,5.4E1,4.7E1,1.9E1,9E0,6E0,2.7E1,2.9E1,1.1E1,1.4E1,8E0,1.2E1,1.7E1,6.7E1,1.2E1,4.2E1,3.9E1,8E0,6E0,1.3E1,2E0,7E0,5E0,1E0,1.1E1,1.6E1,9E0,2E1,5E0,6E0,1E1,4E0,4E0,4E0,8E0,4E0,6E0,1.1E1,2.4E1,4.3E1,4E0,8E0,1.9E1,2.3E1,1.8E1,2.1E1,7E0,1E0,1E0,5E0,3E0,1E1,6E0,1E0,6E0,5E0,1.1E1,5E0,7E0,2E0,1.2E1,8E0,3E0,2E0,5E0,1E0,1E0,9E0,2E0,2E0,2E0,2E0,7E0,1E0,3E0,1E0,2E0,4E0,3E0,8E0,2.2E1,2E0,6E0,3.7E1,3E0,1E0,6E0,2E0,1.4E1,5E0,7E0,1.6E1,6E0,1.2E1,9E0,1.2E1,2E0,5E0,1E0,2E0,6E0,4E0,4E0,2E0,2E0,4E0,2E0,3E0,2E0,9E0,3E0,2E0,5E0,2E0,1E0,1E0,2E0,1E1,5E0,3E0,1E0,2E0,2E0,3E0,8E0,1E0,1E0,1E0],"tree_param":{"num_deleted":"0","num_feature":"10","num_nodes":"151","size_leaf_vector":"1"}},{"base_weights":[8.9439636E-5,1.9421732E-3,-1.7228437E-3,-3.8710612E-4,4.5848163E-3,1.2989542E-2,-2.389374E-3,1.3368999E-3,-9.670932E-3,3.4061058E-3,1.5209463E-2,-1.0060273E-5,1.4935067E-2,-1.4233661E-2,-1.5803707E-3,-2.36805E-3,4.353483E-3,-1.4286782E-2,-3.660264E-4,6.9703665E-3,-9.6832396E-4,7.044299E-5,1.9177984E-2,5.892849E-4,2.466012E-4,-9.5329876E-4,-6.1067933E-4,-6.816526E-3,-5.444536E-4,-5.23352E-3,1.7199747E-3,2.2849638E-3,1.5256165E-2,-6.9673257E-3,-7.5234246E-4,2.0104277E-4,-2.9537021E-3,4.800589E-3,2.6383104E-2,3.8067077E-4,-4.9522077E-4,9.0453126E-5,6.9983274E-4,2.9140516E-4,-2.3492095E-4,-4.2166673E-3,-6.6239096E-4,2.8055E-3,-2.1423628E-3,5.1499024E-4,-1.1028848E-2,-1.5801459E-3,6.1887223E-3,9.480052E-3,-5.229992E-4,5.822381E-4,-3.899953E-5,-3.3778444E-4,2.3345859E-4,-5.1196916E-3,9.13119E-5,1.7245783E-2,1.0326103E-3,-2.8471946E-5,1.1440174E-3,-1.5416386E-3,7.740911E-3,-9.902691E-3,-1.4487402E-4,4.781949E-6,1.8008716E-2,3.0692397E-3,-3.7774253E-3,-2.7541813E-4,2.1275776E-3,-1.3628263E-2,-9.827366E-5,3.9271316E-3,-5.906186E-3,1.0382339E-2,4.4792402E-4,1.1559304E-2,8.227614E-5,-2.6664995E-3,1.0299102E-2,-2.649197E-5,-2.0065412E-4,7.864725E-4,6.4511006E-3,-2.5358642E-3,5.546891E-3,-3.7441708E-3,8.898336E-3,1.17643075E-2,-1.5450522E-3,-1.13576595E-2,5.104323E-5,4.494198E-3,-1.6791585E-3,4.455179E-3,-2.3917696E-3,1.6054141E-4,7.100049E-4,6.2585715E-3,-2.5873403E-3,-4.213963E-3,4.352193E-4,1.4899431E-4,-1.9748973E-4,-1.4325393E-4,-5.0951354E-4,1.8016619E-4,-4.634126E-5,2.0615471E-5,-2.3491422E-4,3.7848722E-4,9.6359436E-5,3.3792974E-5,-3.4281395E-6,9.334019E-5,3.9256224E-4,-8.561945E-5,8.9566456E-5,-1.9821893E-4,7.6482036E-5,5.6676865E-5,3.833904E-4,3.434542E-5,3.095168E-4,6.4373795E-5,-2.3372906E-4,4.1438267E-4,4.116749E-5,-1.7785285E-4,3.8480375E-5,2.2947426E-5,3.442565E-4,7.8663536E-5,4.3097176E-4,2.0480353E-5,-9.46005E-5,-4.1603463E-4,-1.1896517E-4,1.7458413E-4,2.5588224E-5,-1.0671256E-4,1.4089899E-4,3.254085E-5,2.836521E-4,-1.7109611E-4,2.0472945E-4,4.6472586E-4,1.2370932E-4,-1.30579E-4,1.4995183E-4,-9.070756E-5,-2.693965E-4],"categories":[],"categories_nodes":[],"categories_segments":[],"categories_sizes":[],"default_left":[0,0,0,0,0,0,0,0,0,0,0,0,0,0,0,0,0,0,0,0,0,0,0,0,0,0,0,0,0,0,0,0,0,0,0,0,0,0,0,0,0,0,0,0,0,0,0,0,0,0,0,0,0,0,0,0,0,0,0,0,0,0,0,0,0,0,0,0,0,0,0,0,0,0,0,0,0,0,0,0,0,0,0,0,0,0,0,0,0,0,0,0,0,0,0,0,0,0,0,0,0,0,0,0,0,0,0,0,0,0,0,0,0,0,0,0,0,0,0,0,0,0,0,0,0,0,0,0,0,0,0,0,0,0,0,0,0,0,0,0,0,0,0,0,0,0,0,0,0,0,0,0,0,0,0,0,0],"id":1,"left_children":[1,3,5,7,9,11,13,15,17,19,21,-1,23,25,27,29,31,33,35,37,39,-1,41,-1,-1,43,-1,45,47,49,51,53,55,57,-1,-1,59,61,63,65,-1,-1,-1,-1,-1,67,-1,69,71,73,75,77,79,81,83,-1,-1,-1,-1,85,-1,87,89,-1,-1,91,93,95,97,99,101,103,105,-1,107,109,-1,111,113,115,117,119,121,123,125,-1,-1,-1,127,129,131,133,135,137,139,141,-1,143,145,147,149,-1,-1,151,153,155,-1,-1,-1,-1,-1,-1,-1,-1,-1,-1,-1,-1,-1,-1,-1,-1,-1,-1,-1,-1,-1,-1,-1,-1,-1,-1,-1,-1,-1,-1,-1,-1,-1,-1,-1,-1,-1,-1,-1,-1,-1,-1,-1,-1,-1,-1,-1,-1,-1,-1,-1],"loss_changes":[1.2020372E-3,1.09129E-3,1.8059679E-3,1.5334394E-3,9.876357E-4,2.1176576E-4,1.644785E-3,9.155888E-4,6.3902163E-4,1.1917116E-3,3.707026E-4,0E0,3.4447527E-5,6.919075E-4,8.858612E-4,4.424237E-4,9.799986E-4,5.122237E-4,1.2184996E-4,1.6424409E-3,6.9127267E-4,0E0,2.0339666E-4,0E0,0E0,3.2427593E-4,0E0,8.8804343E-4,7.4471364E-4,7.385987E-4,2.4573758E-4,7.92896E-4,3.6232558E-4,4.3607655E-4,0E0,0E0,7.752668E-5,1.8110275E-3,1.0560006E-3,4.7883944E-4,0E0,0E0,0E0,0E0,0E0,5.5422087E-4,0E0,1.9160106E-3,8.125956E-4,1.9493383E-4,1.8561457E-4,2.6144143E-4,1.6387246E-4,2.1399278E-4,7.001807E-4,0E0,0E0,0E0,0E0,1.4617486E-5,0E0,5.549926E-4,5.134482E-4,0E0,0E0,6.5416517E-4,2.7970425E-4,1.8542947E-4,1.1431132E-4,4.266144E-4,2.696712E-4,4.3112945E-4,6.037933E-4,0E0,2.5993655E-4,9.721075E-5,0E0,5.40286E-5,6.129732E-5,7.1489194E-6,1.4648762E-6,1.980085E-5,2.9999988E-5,4.6135864E-4,5.07526E-5,0E0,0E0,0E0,7.636314E-5,4.054529E-4,4.2521805E-4,2.13436E-4,6.859648E-5,4.646834E-5,1.1157603E-5,6.5092114E-5,0E0,9.886855E-6,1.3572718E-4,2.0341232E-4,7.1052444E-4,0E0,0E0,2.4041359E-4,1.1708059E-4,3.87877E-4,0E0,0E0,0E0,0E0,0E0,0E0,0E0,0E0,0E0,0E0,0E0,0E0,0E0,0E0,0E0,0E0,0E0,0E0,0E0,0E0,0E0,0E0,0E0,0E0,0E0,0E0,0E0,0E0,0E0,0E0,0E0,0E0,0E0,0E0,0E0,0E0,0E0,0E0,0E0,0E0,0E0,0E0,0E0,0E0,0E0,0E0,0E0,0E0,0E0,0E0,0E0],"parents":[2147483647,0,0,1,1,2,2,3,3,4,4,5,5,6,6,7,7,8,8,9,9,10,10,12,12,13,13,14,14,15,15,16,16,17,17,18,18,19,19,20,20,22,22,25,25,27,27,28,28,29,29,30,30,31,31,32,32,33,33,36,36,37,37,38,38,39,39,45,45,47,47,48,48,49,49,50,50,51,51,52,52,53,53,54,54,59,59,61,61,62,62,65,65,66,66,67,67,68,68,69,69,70,70,71,71,72,72,74,74,75,75,77,77,78,78,79,79,80,80,81,81,82,82,83,83,84,84,88,88,89,89,90,90,91,91,92,92,93,93,94,94,95,95,97,97,98,98,99,99,100,100,103,103,104,104,105,105],"right_children":[2,4,6,8,10,12,14,16,18,20,22,-1,24,26,28,30,32,34,36,38,40,-1,42,-1,-1,44,-1,46,48,50,52,54,56,58,-1,-1,60,62,64,66,-1,-1,-1,-1,-1,68,-1,70,72,74,76,78,80,82,84,-1,-1,-1,-1,86,-1,88,90,-1,-1,92,94,96,98,100,102,104,106,-1,108,110,-1,112,114,116,118,120,122,124,126,-1,-1,-1,128,130,132,134,136,138,140,142,-1,144,146,148,150,-1,-1,152,154,156,-1,-1,-1,-1,-1,-1,-1,-1,-1,-1,-1,-1,-1,-1,-1,-1,-1,-1,-1,-1,-1,-1,-1,-1,-1,-1,-1,-1,-1,-1,-1,-1,-1,-1,-1,-1,-1,-1,-1,-1,-1,-1,-1,-1,-1,-1,-1,-1,-1,-1,-1],"split_conditions":[4.4303593E-1,3.5233858E-1,1.1723717E-1,3.3666652E-1,6.384006E-1,3.558585E-1,1.68159E-1,3.5891345E-1,3.4724537E-1,3.155606E-1,2.7004983E-3,-1.0060273E-5,6.428388E-1,2.55871E-1,4.756394E-1,5.172723E-1,5.820313E-1,4.7268447E-1,1.68159E-1,1.8341279E-1,3.9318117E-1,7.044299E-5,3.6292213E-1,5.892849E-4,2.466012E-4,1.18858315E-1,-6.1067933E-4,4.708142E-1,5.3148425E-1,4.0749723E-1,4.2001095E-1,2.0339559E-1,5.090992E-1,3.5109857E-1,-7.5234246E-4,2.0104277E-4,3.3031413E-1,3.7962657E-1,2.206171E-1,7.648637E-1,-4.9522077E-4,9.0453126E-5,6.9983274E-4,2.9140516E-4,-2.3492095E-4,1.0323257E-1,-6.6239096E-4,5.3683645E-1,7.848484E-2,1.7628312E-1,2.6895088E-1,1.9621174E-1,2.0939423E-1,5.732259E-1,2.2013463E-1,5.822381E-4,-3.899953E-5,-3.3778444E-4,2.3345859E-4,1.10054076E-1,9.13119E-5,3.470435E-1,4.2025006E-1,-2.8471946E-5,1.1440174E-3,6.4636064E-1,5.2948606E-1,4.6214664E-1,3.48128E-1,3.8064972E-1,2.9808974E-1,4.6005479E-1,7.11946E-1,-2.7541813E-4,4.458477E-1,2.8991535E-1,-9.827366E-5,8.9032406E-1,1.19368315E-1,2.9673207E-1,2.1186687E-1,4.9314078E-2,3.9280823E-1,2.942944E-1,1.8546897E-1,-2.649197E-5,-2.0065412E-4,7.864725E-4,3.7542078E-1,1.01413585E-1,4.470342E-1,4.4264546E-1,3.4165022E-1,3.4312817E-1,1.63275E-1,9.755927E-2,5.104323E-5,5.038871E-1,2.2671098E-1,3.3176664E-1,7.8931E-1,1.6054141E-4,7.100049E-4,5.49212E-1,8.059058E-1,8.09537E-1,4.352193E-4,1.4899431E-4,-1.9748973E-4,-1.4325393E-4,-5.0951354E-4,1.8016619E-4,-4.634126E-5,2.0615471E-5,-2.3491422E-4,3.7848722E-4,9.6359436E-5,3.3792974E-5,-3.4281395E-6,9.334019E-5,3.9256224E-4,-8.561945E-5,8.9566456E-5,-1.9821893E-4,7.6482036E-5,5.6676865E-5,3.833904E-4,3.434542E-5,3.095168E-4,6.4373795E-5,-2.3372906E-4,4.1438267E-4,4.116749E-5,-1.7785285E-4,3.8480375E-5,2.2947426E-5,3.442565E-4,7.8663536E-5,4.3097176E-4,2.0480353E-5,-9.46005E-5,-4.1603463E-4,-1.1896517E-4,1.7458413E-4,2.5588224E-5,-1.0671256E-4,1.4089899E-4,3.254085E-5,2.836521E-4,-1.7109611E-4,2.0472945E-4,4.6472586E-4,1.2370932E-4,-1.30579E-4,1.4995183E-4,-9.070756E-5,-2.693965E-4],"split_indices":[8,8,4,8,7,0,4,0,8,7,4,0,8,0,8,4,9,7,4,1,1,0,8,0,0,1,0,8,8,4,9,8,0,7,0,0,0,8,0,4,0,0,0,0,0,1,0,0,2,9,8,8,1,7,2,0,0,0,0,1,0,4,8,0,0,9,7,8,4,0,4,4,1,0,9,9,0,4,1,0,1,1,0,8,1,0,0,0,0,1,4,0,0,7,0,1,0,0,1,7,4,0,0,8,4,9,0,0,0,0,0,0,0,0,0,0,0,0,0,0,0,0,0,0,0,0,0,0,0,0,0,0,0,0,0,0,0,0,0,0,0,0,0,0,0,0,0,0,0,0,0,0,0,0,0,0,0],"split_type":[0,0,0,0,0,0,0,0,0,0,0,0,0,0,0,0,0,0,0,0,0,0,0,0,0,0,0,0,0,0,0,0,0,0,0,0,0,0,0,0,0,0,0,0,0,0,0,0,0,0,0,0,0,0,0,0,0,0,0,0,0,0,0,0,0,0,0,0,0,0,0,0,0,0,0,0,0,0,0,0,0,0,0,0,0,0,0,0,0,0,0,0,0,0,0,0,0,0,0,0,0,0,0,0,0,0,0,0,0,0,0,0,0,0,0,0,0,0,0,0,0,0,0,0,0,0,0,0,0,0,0,0,0,0,0,0,0,0,0,0,0,0,0,0,0,0,0,0,0,0,0,0,0,0,0,0,0],"sum_hessian":[3.56E2,1.76E2,1.8E2,9.4E1,8.2E1,7E0,1.73E2,8E1,1.4E1,7.5E1,7E0,1E0,6E0,1E1,1.63E2,3.6E1,4.4E1,9E0,5E0,4.1E1,3.4E1,2E0,5E0,3E0,3E0,3E0,7E0,2.6E1,1.37E2,2.1E1,1.5E1,3.8E1,6E0,6E0,3E0,1E0,4E0,3.8E1,3E0,3.2E1,2E0,1E0,4E0,1E0,2E0,2.3E1,3E0,4.4E1,9.3E1,1.1E1,1E1,9E0,6E0,1E1,2.8E1,5E0,1E0,5E0,1E0,3E0,1E0,8E0,3E1,1E0,2E0,2.6E1,6E0,9E0,1.4E1,3.8E1,6E0,2.2E1,7.1E1,1E0,1E1,7E0,3E0,4E0,5E0,3E0,3E0,8E0,2E0,2.4E1,4E0,1E0,2E0,4E0,4E0,1.7E1,1.3E1,2.2E1,4E0,4E0,2E0,8E0,1E0,3E0,1.1E1,1.3E1,2.5E1,2E0,4E0,1.4E1,8E0,7E1,1E0,8E0,2E0,2E0,5E0,3E0,1E0,1E0,4E0,2E0,1E0,1E0,2E0,1E0,7E0,1E0,1E0,1.4E1,1E1,1E0,3E0,2E0,2E0,9E0,8E0,4E0,9E0,1.6E1,6E0,1E0,3E0,1E0,3E0,1E0,1E0,6E0,2E0,2E0,1E0,9E0,2E0,8E0,5E0,1.9E1,6E0,2E0,1.2E1,7E0,1E0,5.4E1,1.6E1],"tree_param":{"num_deleted":"0","num_feature":"10","num_nodes":"157","size_leaf_vector":"1"}},{"base_weights":[2.4532594E-4,7.772046E-3,-2.6157434E-4,1.31703485E-2,-2.0886855E-3,-5.9116055E-4,1.0739803E-2,1.7607493E-2,9.956161E-3,5.565595E-3,-9.325229E-3,-1.18282886E-4,-7.985782E-3,2.4666367E-2,-2.6556333E-3,6.3312746E-4,1.4154012E-4,1.9510861E-3,5.2136206E-4,-1.0529702E-3,3.3033802E-4,-8.6671E-5,-4.1039052E-4,-6.5363565E-4,5.8369185E-3,-2.7369494E-3,-1.97769E-2,1.3430602E-3,-8.8400004E-4,-5.037411E-3,4.4943332E-5,3.7134504E-3,-1.0970908E-4,2.7742486E-5,-7.825619E-5,5.9023843E-4,-3.2814804E-3,1.0569439E-2,1.0255121E-3,-6.1983E-3,1.3174553E-2,-2.4531828E-2,6.3927524E-5,-1.6003205E-4,1.1762428E-4,-1.8294492E-4,-4.7792804E-5,1.3716296E-4,2.2580476E-5,2.7620594E-3,-1.501414E-3,8.83501E-5,-7.036254E-3,1.2670789E-2,-6.5865717E-4,-8.45393E-4,5.9141233E-3,-3.6602034E-4,-1.4887338E-3,5.36179E-4,9.583843E-5,-2.2177174E-4,-8.698269E-4,-3.1863517E-4,5.221106E-3,-6.2847417E-3,4.1937942E-4,2.5930232E-3,-5.396144E-3,-8.7932125E-3,5.5566826E-3,2.8692244E-3,5.1131495E-4,1.4002737E-5,-4.5600227E-5,-2.7718728E-3,2.0207574E-3,2.501484E-4,3.0650995E-6,2.5950593E-4,-2.8378438E-4,-1.4479923E-4,5.092926E-5,2.13163E-4,-1.7355784E-4,-3.2688666E-5,-3.559053E-4,3.489915E-5,-3.6595738E-4,-2.5734998E-4,1.11350826E-4,1.5649124E-5,-2.595584E-4,-3.8467266E-4,-6.901235E-5,2.6661819E-5,2.4657208E-4,3.0845628E-4,-8.328718E-5,-1.6892853E-4,1.3792283E-5,1.4734888E-4,-1.3312949E-4],"categories":[],"categories_nodes":[],"categories_segments":[],"categories_sizes":[],"default_left":[0,0,0,0,0,0,0,0,0,0,0,0,0,0,0,0,0,0,0,0,0,0,0,0,0,0,0,0,0,0,0,0,0,0,0,0,0,0,0,0,0,0,0,0,0,0,0,0,0,0,0,0,0,0,0,0,0,0,0,0,0,0,0,0,0,0,0,0,0,0,0,0,0,0,0,0,0,0,0,0,0,0,0,0,0,0,0,0,0,0,0,0,0,0,0,0,0,0,0,0,0,0,0],"id":2,"left_children":[1,3,5,7,9,11,13,15,17,19,21,23,25,27,29,-1,-1,31,-1,33,-1,-1,-1,35,37,39,41,-1,43,45,-1,47,-1,-1,-1,49,51,53,55,57,59,61,-1,-1,-1,-1,-1,-1,-1,63,65,67,69,71,73,75,77,-1,79,-1,-1,-1,-1,81,83,85,87,89,91,93,95,97,-1,-1,-1,99,101,-1,-1,-1,-1,-1,-1,-1,-1,-1,-1,-1,-1,-1,-1,-1,-1,-1,-1,-1,-1,-1,-1,-1,-1,-1,-1],"loss_changes":[1.3908009E-3,1.2518263E-3,1.2464075E-3,3.862451E-5,5.504152E-4,1.1634735E-3,1.9310288E-3,5.6665507E-5,5.269706E-4,1.6850936E-4,8.121625E-5,1.004889E-3,1.1836636E-3,2.2508383E-3,6.5112166E-5,0E0,0E0,6.964299E-5,0E0,1.0153366E-5,0E0,0E0,0E0,9.465934E-4,5.811829E-4,9.077892E-4,6.7028985E-4,0E0,7.478614E-5,1.1296434E-6,0E0,5.623355E-6,0E0,0E0,0E0,8.990579E-4,1.177346E-3,3.1506992E-4,1.3304554E-4,3.0416768E-4,5.9395097E-5,4.5959372E-5,0E0,0E0,0E0,0E0,0E0,0E0,0E0,7.3649397E-4,9.306019E-4,7.008356E-4,1.0223726E-3,3.1175E-4,3.1478448E-6,6.6338675E-5,4.364348E-5,0E0,6.393099E-4,0E0,0E0,0E0,0E0,3.6112886E-4,8.6647517E-4,7.278471E-4,5.9425615E-4,3.5895436E-4,2.600773E-4,8.1111E-4,5.4587494E-5,1.73459E-4,0E0,0E0,0E0,5.8560443E-5,9.914666E-5,0E0,0E0,0E0,0E0,0E0,0E0,0E0,0E0,0E0,0E0,0E0,0E0,0E0,0E0,0E0,0E0,0E0,0E0,0E0,0E0,0E0,0E0,0E0,0E0,0E0,0E0],"parents":[2147483647,0,0,1,1,2,2,3,3,4,4,5,5,6,6,7,7,8,8,9,9,10,10,11,11,12,12,13,13,14,14,17,17,19,19,23,23,24,24,25,25,26,26,28,28,29,29,31,31,35,35,36,36,37,37,38,38,39,39,40,40,41,41,49,49,50,50,51,51,52,52,53,53,54,54,55,55,56,56,58,58,63,63,64,64,65,65,66,66,67,67,68,68,69,69,70,70,71,71,75,75,76,76],"right_children":[2,4,6,8,10,12,14,16,18,20,22,24,26,28,30,-1,-1,32,-1,34,-1,-1,-1,36,38,40,42,-1,44,46,-1,48,-1,-1,-1,50,52,54,56,58,60,62,-1,-1,-1,-1,-1,-1,-1,64,66,68,70,72,74,76,78,-1,80,-1,-1,-1,-1,82,84,86,88,90,92,94,96,98,-1,-1,-1,100,102,-1,-1,-1,-1,-1,-1,-1,-1,-1,-1,-1,-1,-1,-1,-1,-1,-1,-1,-1,-1,-1,-1,-1,-1,-1,-1],"split_conditions":[7.8329645E-2,5.1879025E-1,3.6003083E-1,3.890772E-1,6.4878887E-1,2.912508E-1,3.8100344E-1,4.441883E-1,7.7019054E-1,2.0322432E-1,2.1912262E-1,2.2526832E-1,4.2382023E-1,4.752234E-1,6.54686E-1,6.3312746E-4,1.4154012E-4,1.867922E-1,5.2136206E-4,1.9721241E-1,3.3033802E-4,-8.6671E-5,-4.1039052E-4,1.9833241E-1,4.889548E-1,3.2076973E-1,7.11946E-1,1.3430602E-3,1.3834004E-1,2.2317651E-1,4.4943332E-5,1.5411206E-1,-1.0970908E-4,2.7742486E-5,-7.825619E-5,4.4303593E-1,4.507168E-1,2.794419E-1,3.422525E-1,2.2437376E-1,3.7792662E-1,1.1103031E-1,6.3927524E-5,-1.6003205E-4,1.1762428E-4,-1.8294492E-4,-4.7792804E-5,1.3716296E-4,2.2580476E-5,1.5137519E-1,4.970799E-1,5.614211E-1,3.1388614E-1,2.3060134E-1,2.808913E-1,5.589867E-1,2.821254E-1,-3.6602034E-4,3.6411887E-1,5.36179E-4,9.583843E-5,-2.2177174E-4,-8.698269E-4,3.9188826E-1,8.405657E-1,4.6465635E-1,5.689473E-1,1.9985278E-1,9.0744995E-2,1.7596906E-1,1.19368315E-1,2.2632992E-1,5.1131495E-4,1.4002737E-5,-4.5600227E-5,2.824029E-1,2.6463166E-1,2.501484E-4,3.0650995E-6,2.5950593E-4,-2.8378438E-4,-1.4479923E-4,5.092926E-5,2.13163E-4,-1.7355784E-4,-3.2688666E-5,-3.559053E-4,3.489915E-5,-3.6595738E-4,-2.5734998E-4,1.11350826E-4,1.5649124E-5,-2.595584E-4,-3.8467266E-4,-6.901235E-5,2.6661819E-5,2.4657208E-4,3.0845628E-4,-8.328718E-5,-1.6892853E-4,1.3792283E-5,1.4734888E-4,-1.3312949E-4],"split_indices":[5,3,6,8,8,1,6,1,9,1,1,1,8,3,9,0,0,6,0,1,0,0,0,6,9,6,1,0,1,1,0,2,0,0,0,8,5,1,2,6,1,5,0,0,0,0,0,0,0,6,8,8,6,1,1,8,1,0,5,0,0,0,0,5,5,8,3,6,2,2,1,1,0,0,0,2,2,0,0,0,0,0,0,0,0,0,0,0,0,0,0,0,0,0,0,0,0,0,0,0,0,0,0],"split_type":[0,0,0,0,0,0,0,0,0,0,0,0,0,0,0,0,0,0,0,0,0,0,0,0,0,0,0,0,0,0,0,0,0,0,0,0,0,0,0,0,0,0,0,0,0,0,0,0,0,0,0,0,0,0,0,0,0,0,0,0,0,0,0,0,0,0,0,0,0,0,0,0,0,0,0,0,0,0,0,0,0,0,0,0,0,0,0,0,0,0,0,0,0,0,0,0,0,0,0,0,0,0,0],"sum_hessian":[3.63E2,2.2E1,3.41E2,1.4E1,8E0,3.32E2,9E0,4E0,1E1,4E0,4E0,3.13E2,1.9E1,4E0,5E0,3E0,1E0,5E0,5E0,2E0,2E0,2E0,2E0,2.88E2,2.5E1,1.4E1,5E0,2E0,2E0,3E0,2E0,4E0,1E0,1E0,1E0,1.96E2,9.2E1,1.2E1,1.3E1,1.2E1,2E0,4E0,1E0,1E0,1E0,2E0,1E0,3E0,1E0,9.6E1,1E2,4.9E1,4.3E1,1E1,2E0,1E1,3E0,5E0,7E0,1E0,1E0,1E0,3E0,4.3E1,5.3E1,2.8E1,7.2E1,3.4E1,1.5E1,3.8E1,5E0,3E0,7E0,1E0,1E0,6E0,4E0,2E0,1E0,3E0,4E0,1.3E1,3E1,4.7E1,6E0,1.4E1,1.4E1,6.9E1,3E0,2E0,3.2E1,5E0,1E1,2.5E1,1.3E1,2E0,3E0,1E0,2E0,3E0,3E0,3E0,1E0],"tree_param":{"num_deleted":"0","num_feature":"10","num_nodes":"103","size_leaf_vector":"1"}},{"base_weights":[9.5024705E-5,-3.1572927E-4,2.4176754E-2,1.3607933E-2,-5.1487464E-4,1.3144246E-3,5.4407017E-3,5.612819E-4,1.6406007E-4,-2.8242043E-4,-1.1798369E-2,-1.0768407E-4,3.037934E-4,-1.1226481E-4,-1.9472584E-2,-1.8704915E-3,-7.807392E-4,-1.2938832E-2,4.0312436E-5,-7.5998454E-4,-1.7416572E-4,2.39497E-3,-1.7629785E-4,-5.6806364E-4,-1.7303246E-4,2.4663904E-3,-7.621712E-4,9.43059E-5,2.0587016E-5,6.896571E-3,7.8315585E-4,-1.533083E-3,3.0563283E-3,-6.3102616E-6,3.6686283E-4,4.6032505E-6,3.203255E-4,-3.341142E-4,-3.3263565E-5,-3.4364788E-5,2.8314392E-4],"categories":[],"categories_nodes":[],"categories_segments":[],"categories_sizes":[],"default_left":[0,0,0,0,0,0,0,0,0,0,0,0,0,0,0,0,0,0,0,0,0,0,0,0,0,0,0,0,0,0,0,0,0,0,0,0,0,0,0,0,0],"id":3,"left_children":[1,3,5,7,9,-1,11,-1,-1,13,15,-1,-1,17,19,21,-1,23,25,-1,-1,27,-1,-1,-1,29,31,-1,-1,33,35,37,39,-1,-1,-1,-1,-1,-1,-1,-1],"loss_changes":[3.5389583E-3,9.830436E-4,1.6787546E-3,7.708167E-5,9.094355E-4,0E0,1.7496034E-4,0E0,0E0,1.1145514E-3,8.309264E-4,0E0,0E0,6.65916E-4,5.113741E-5,9.087547E-5,0E0,4.9148977E-5,6.5798097E-4,0E0,0E0,1.0112581E-6,0E0,0E0,0E0,6.2098954E-4,7.523921E-4,0E0,0E0,7.486261E-4,3.6446803E-4,9.2078984E-4,1.0392077E-3,0E0,0E0,0E0,0E0,0E0,0E0,0E0,0E0],"parents":[2147483647,0,0,1,1,2,2,3,3,4,4,6,6,9,9,10,10,13,13,14,14,15,15,17,17,18,18,21,21,25,25,26,26,29,29,30,30,31,31,32,32],"right_children":[2,4,6,8,10,-1,12,-1,-1,14,16,-1,-1,18,20,22,-1,24,26,-1,-1,28,-1,-1,-1,30,32,-1,-1,34,36,38,40,-1,-1,-1,-1,-1,-1,-1,-1],"split_conditions":[3.5541573E-1,1.273753E-2,3.8100344E-1,8.452689E-3,9.924584E-1,1.3144246E-3,3.687048E-1,5.612819E-4,1.6406007E-4,3.3010322E-1,3.134867E-1,-1.0768407E-4,3.037934E-4,1.9519037E-2,4.5635656E-1,9.9932396E-1,-7.807392E-4,3.5383904E-1,8.5358284E-2,-7.5998454E-4,-1.7416572E-4,8.908131E-2,-1.7629785E-4,-5.6806364E-4,-1.7303246E-4,4.4248E-1,2.514397E-1,9.43059E-5,2.0587016E-5,4.0876496E-1,5.781755E-1,8.732097E-2,5.047602E-1,-6.3102616E-6,3.6686283E-4,4.6032505E-6,3.203255E-4,-3.341142E-4,-3.3263565E-5,-3.4364788E-5,2.8314392E-4],"split_indices":[6,4,6,4,5,0,0,0,0,6,0,0,0,7,0,5,0,0,2,0,0,0,0,0,0,3,2,0,0,3,7,4,3,0,0,0,0,0,0,0,0],"split_type":[0,0,0,0,0,0,0,0,0,0,0,0,0,0,0,0,0,0,0,0,0,0,0,0,0,0,0,0,0,0,0,0,0,0,0,0,0,0,0,0,0],"sum_hessian":[3.56E2,3.51E2,5E0,4E0,3.47E2,2E0,3E0,2E0,2E0,3.41E2,6E0,1E0,2E0,3.39E2,2E0,4E0,2E0,3E0,3.36E2,1E0,1E0,2E0,2E0,1E0,2E0,8.3E1,2.53E2,1E0,1E0,2.2E1,6.1E1,2.11E2,4.2E1,9E0,1.3E1,5.8E1,3E0,1E1,2.01E2,2.5E1,1.7E1],"tree_param":{"num_deleted":"0","num_feature":"10","num_nodes":"41","size_leaf_vector":"1"}},{"base_weights":[-3.44583E-4,-1.101541E-3,2.536452E-3,1.6668687E-3,-1.993611E-3,1.839881E-3,1.8640859E-2,-2.7380706E-4,1.0197047E-2,-1.5841543E-3,-7.451352E-4,5.5251047E-3,-1.9461282E-4,2.8585799E-5,8.656645E-4,1.7548064E-3,-8.196392E-3,-7.962678E-4,1.5171439E-2,-5.5243187E-3,-1.0906661E-4,7.040215E-3,-6.9863285E-4,-3.948103E-4,8.89735E-4,-3.7562937E-4,2.942191E-3,-3.5580578E-3,-5.3037045E-4,4.586011E-5,-8.830347E-5,7.176794E-4,2.493603E-4,-4.2848606E-3,-6.77558E-4,8.722496E-3,-7.091112E-4,1.2068831E-4,7.7622347E-3,-4.5390923E-5,1.5834263E-5,1.1478821E-2,-4.2331775E-4,1.464007E-3,1.0546305E-2,-1.1027757E-2,2.0147513E-3,-5.4131076E-3,8.080232E-3,7.821495E-5,1.0873789E-2,1.0486919E-2,-1.1771892E-3,2.2219672E-5,-1.6429942E-5,3.264163E-5,8.080066E-3,-9.124855E-5,5.045149E-4,2.2830195E-3,-4.00825E-3,2.645322E-3,-5.277226E-3,9.279787E-5,3.6257124E-4,-5.084051E-5,-4.3635524E-4,-1.1983501E-3,5.627303E-3,-1.0899632E-2,-3.0425407E-3,4.490184E-4,-5.727904E-4,-1.02611964E-4,1.0636413E-4,3.7330384E-3,1.4411632E-2,1.9812484E-5,3.9454273E-4,-2.1799818E-4,-5.6574834E-3,4.599038E-3,8.7461425E-3,5.221156E-3,-1.8858902E-4,-4.8639008E-4,-7.5433287E-4,-9.354702E-6,2.2987026E-4,-3.2217623E-4,9.201871E-5,-5.7106194E-5,9.008681E-6,4.8529462E-5,2.2142682E-4,-1.323866E-4,-9.100491E-4,-1.19858036E-4,3.572892E-4,-1.05962106E-4,7.848387E-5,1.6778112E-4,-1.2893655E-5,5.273899E-4,9.749236E-5,-1.406618E-4,2.5130523E-5,-4.7620718E-4,-1.0201743E-4,6.130413E-5,1.8383784E-4,2.9898202E-4,1.09416746E-4,4.334192E-5,3.0668077E-4,-6.8681446E-5,1.6776408E-4,3.0246482E-4,-9.763595E-5],"categories":[],"categories_nodes":[],"categories_segments":[],"categories_sizes":[],"default_left":[0,0,0,0,0,0,0,0,0,0,0,0,0,0,0,0,0,0,0,0,0,0,0,0,0,0,0,0,0,0,0,0,0,0,0,0,0,0,0,0,0,0,0,0,0,0,0,0,0,0,0,0,0,0,0,0,0,0,0,0,0,0,0,0,0,0,0,0,0,0,0,0,0,0,0,0,0,0,0,0,0,0,0,0,0,0,0,0,0,0,0,0,0,0,0,0,0,0,0,0,0,0,0,0,0,0,0,0,0,0,0,0,0,0,0,0,0,0,0],"id":4,"left_children":[1,3,5,7,9,11,13,15,17,19,-1,21,23,-1,-1,25,27,29,31,33,35,37,39,-1,41,-1,43,45,-1,-1,-1,-1,-1,47,-1,49,51,53,55,-1,-1,57,59,61,63,65,67,69,71,73,75,77,79,-1,-1,-1,81,-1,-1,83,85,87,89,-1,-1,-1,-1,91,93,95,97,-1,99,-1,-1,101,103,-1,-1,105,107,109,111,113,115,-1,117,-1,-1,-1,-1,-1,-1,-1,-1,-1,-1,-1,-1,-1,-1,-1,-1,-1,-1,-1,-1,-1,-1,-1,-1,-1,-1,-1,-1,-1,-1,-1,-1],"loss_changes":[7.8570924E-4,7.071634E-4,8.070426E-4,1.1615937E-3,1.8473768E-3,5.4839754E-4,4.244491E-4,9.4655104E-4,7.229863E-4,1.2373722E-3,0E0,2.5008945E-4,6.4338883E-4,0E0,0E0,7.879481E-4,4.07824E-4,2.5868765E-5,3.0746986E-4,1.0351024E-3,8.328809E-4,1.0397984E-4,5.8642418E-6,0E0,6.305404E-4,0E0,4.791324E-4,3.9686306E-4,0E0,0E0,0E0,0E0,0E0,8.110376E-4,0E0,1.8511334E-4,7.827156E-4,1.4495253E-6,3.2464275E-5,0E0,0E0,3.5287935E-4,4.0693436E-4,3.165737E-4,9.408279E-6,7.7075936E-5,7.6388445E-5,6.301522E-4,2.6588514E-4,4.2691634E-5,1.4830363E-4,1.01861486E-4,6.090057E-4,0E0,0E0,0E0,1.5115365E-6,0E0,0E0,1.752708E-4,6.4452493E-4,4.4246306E-4,2.6366318E-4,0E0,0E0,0E0,0E0,3.979494E-6,5.4763295E-6,1.6624032E-3,4.1273152E-4,0E0,3.301488E-5,0E0,0E0,2.7149217E-5,6.783637E-5,0E0,0E0,4.985814E-4,5.220595E-4,4.393085E-6,1.2923614E-5,1.7275961E-4,1.6029866E-4,0E0,3.8095337E-4,0E0,0E0,0E0,0E0,0E0,0E0,0E0,0E0,0E0,0E0,0E0,0E0,0E0,0E0,0E0,0E0,0E0,0E0,0E0,0E0,0E0,0E0,0E0,0E0,0E0,0E0,0E0,0E0,0E0,0E0,0E0,0E0],"parents":[2147483647,0,0,1,1,2,2,3,3,4,4,5,5,6,6,7,7,8,8,9,9,11,11,12,12,15,15,16,16,17,17,18,18,19,19,20,20,21,21,22,22,24,24,26,26,27,27,33,33,35,35,36,36,37,37,38,38,41,41,42,42,43,43,44,44,45,45,46,46,47,47,48,48,49,49,50,50,51,51,52,52,56,56,59,59,60,60,61,61,62,62,67,67,68,68,69,69,70,70,72,72,75,75,76,76,79,79,80,80,81,81,82,82,83,83,84,84,86,86],"right_children":[2,4,6,8,10,12,14,16,18,20,-1,22,24,-1,-1,26,28,30,32,34,36,38,40,-1,42,-1,44,46,-1,-1,-1,-1,-1,48,-1,50,52,54,56,-1,-1,58,60,62,64,66,68,70,72,74,76,78,80,-1,-1,-1,82,-1,-1,84,86,88,90,-1,-1,-1,-1,92,94,96,98,-1,100,-1,-1,102,104,-1,-1,106,108,110,112,114,116,-1,118,-1,-1,-1,-1,-1,-1,-1,-1,-1,-1,-1,-1,-1,-1,-1,-1,-1,-1,-1,-1,-1,-1,-1,-1,-1,-1,-1,-1,-1,-1,-1,-1],"split_conditions":[4.9935636E-1,3.3151445E-1,3.6941144E-1,3.1230617E-1,3.9318117E-1,1.7633948E-1,5.573692E-1,2.788597E-1,3.3994213E-1,4.8565865E-1,-7.451352E-4,7.6458E-1,4.3301904E-1,2.8585799E-5,8.656645E-4,6.0502313E-2,8.059058E-1,2.8189772E-1,3.18978E-1,3.5695794E-1,1.1723717E-1,9.9694416E-2,1.322331E-1,-3.948103E-4,5.205355E-1,-3.7562937E-4,3.2196957E-1,3.9946166E-1,-5.3037045E-4,4.586011E-5,-8.830347E-5,7.176794E-4,2.493603E-4,3.1587052E-1,-6.77558E-4,7.087222E-1,5.177521E-1,5.0124925E-1,4.053852E-2,-4.5390923E-5,1.5834263E-5,5.1048625E-1,2.3157537E-1,4.421766E-1,8.908131E-2,2.0648102E-1,4.335488E-1,3.7713507E-1,3.6462936E-1,4.713738E-1,4.3768E-1,8.708122E-2,5.0238824E-1,2.2219672E-5,-1.6429942E-5,3.264163E-5,3.3256024E-1,-9.124855E-5,5.045149E-4,6.7018306E-1,2.4653012E-1,3.5008192E-1,1.4055683E-1,9.279787E-5,3.6257124E-4,-5.084051E-5,-4.3635524E-4,4.034904E-1,3.6546314E-1,1.8031962E-1,5.213586E-1,4.490184E-4,3.687048E-1,-1.02611964E-4,1.0636413E-4,1.918296E-1,4.6410924E-1,1.9812484E-5,3.9454273E-4,3.4316924E-1,4.110858E-1,5.1542664E-1,6.2087965E-1,2.1618283E-1,5.6151634E-1,-4.8639008E-4,2.546831E-1,-9.354702E-6,2.2987026E-4,-3.2217623E-4,9.201871E-5,-5.7106194E-5,9.008681E-6,4.8529462E-5,2.2142682E-4,-1.323866E-4,-9.100491E-4,-1.19858036E-4,3.572892E-4,-1.05962106E-4,7.848387E-5,1.6778112E-4,-1.2893655E-5,5.273899E-4,9.749236E-5,-1.406618E-4,2.5130523E-5,-4.7620718E-4,-1.0201743E-4,6.130413E-5,1.8383784E-4,2.9898202E-4,1.09416746E-4,4.334192E-5,3.0668077E-4,-6.8681446E-5,1.6776408E-4,3.0246482E-4,-9.763595E-5],"split_indices":[0,8,6,8,1,6,0,8,0,9,0,4,9,0,0,0,4,0,8,1,4,1,6,0,9,0,1,4,0,0,0,0,0,6,0,9,9,0,4,0,0,0,6,0,0,0,3,8,0,0,3,1,3,0,0,0,4,0,0,9,6,0,1,0,0,0,0,0,0,6,8,0,0,0,0,1,0,0,0,4,0,0,8,1,0,0,4,0,0,0,0,0,0,0,0,0,0,0,0,0,0,0,0,0,0,0,0,0,0,0,0,0,0,0,0,0,0,0,0],"split_type":[0,0,0,0,0,0,0,0,0,0,0,0,0,0,0,0,0,0,0,0,0,0,0,0,0,0,0,0,0,0,0,0,0,0,0,0,0,0,0,0,0,0,0,0,0,0,0,0,0,0,0,0,0,0,0,0,0,0,0,0,0,0,0,0,0,0,0,0,0,0,0,0,0,0,0,0,0,0,0,0,0,0,0,0,0,0,0,0,0,0,0,0,0,0,0,0,0,0,0,0,0,0,0,0,0,0,0,0,0,0,0,0,0,0,0,0,0,0,0],"sum_hessian":[3.58E2,2.84E2,7.4E1,6.9E1,2.15E2,7.2E1,2E0,5.7E1,1.2E1,2.12E2,3E0,2.5E1,4.7E1,1E0,1E0,4.6E1,1.1E1,4E0,8E0,5.7E1,1.55E2,2E1,5E0,3E0,4.4E1,3E0,4.3E1,8E0,3E0,2E0,2E0,3E0,5E0,5.4E1,3E0,9E0,1.46E2,2E0,1.8E1,3E0,2E0,4E0,4E1,3.7E1,6E0,3E0,5E0,5E1,4E0,2E0,7E0,5E0,1.41E2,1E0,1E0,1E0,1.7E1,1E0,3E0,2.3E1,1.7E1,3.2E1,5E0,1E0,5E0,1E0,2E0,3E0,2E0,1.4E1,3.6E1,2E0,2E0,1E0,1E0,3E0,4E0,1E0,4E0,1.17E2,2.4E1,4E0,1.3E1,1E1,1.3E1,3E0,1.4E1,2E1,1.2E1,3E0,2E0,2E0,1E0,1E0,1E0,1.1E1,3E0,3.5E1,1E0,1E0,1E0,2E0,1E0,3E0,1E0,2.2E1,9.5E1,4E0,2E1,2E0,2E0,1.1E1,2E0,6E0,4E0,1E1,3E0,2E0,1.2E1],"tree_param":{"num_deleted":"0","num_feature":"10","num_nodes":"119","size_leaf_vector":"1"}},{"base_weights":[1.221732E-4,4.5634064E-4,-1.64127E-2,1.1874118E-2,1.16180076E-4,5.744214E-5,-7.693344E-4,2.693775E-3,1.7545383E-2,-8.38728E-4,3.705536E-3,-2.3692402E-3,2.1935835E-4,6.182955E-4,1.3765618E-4,-5.7037146E-4,-7.7600393E-4,1.2509525E-3,7.2173136E-3,-1.2687474E-5,-1.00971105E-4,-1.0319001E-2,-1.4760556E-4,4.7610045E-4,5.7184946E-4,4.508364E-4,3.4167604E-3,4.159661E-4,-1.3952174E-2,1.5433587E-2,-5.850383E-4,-7.014825E-3,1.5550473E-3,6.7757233E-3,1.0868786E-3,-5.7904287E-3,-1.8428266E-2,2.974096E-3,9.931886E-4,-6.839894E-3,-3.8594106E-5,2.624643E-3,-4.5785095E-4,2.9138834E-3,-6.177725E-3,1.5613522E-3,3.0677114E-4,1.4026018E-4,8.84106E-5,-2.6825702E-4,7.3544245E-5,-6.482246E-4,-1.4754175E-4,-1.15326926E-4,2.738548E-4,2.7022828E-4,-3.2093798E-4,1.0159841E-4,-4.8737813E-5,1.4652043E-4,-2.0609508E-5,1.3365169E-4,-2.3356178E-4,-3.8623315E-4,-8.25959E-5,-2.2821892E-5,8.179424E-5,-2.0419859E-5,7.162716E-5],"categories":[],"categories_nodes":[],"categories_segments":[],"categories_sizes":[],"default_left":[0,0,0,0,0,0,0,0,0,0,0,0,0,0,0,0,0,0,0,0,0,0,0,0,0,0,0,0,0,0,0,0,0,0,0,0,0,0,0,0,0,0,0,0,0,0,0,0,0,0,0,0,0,0,0,0,0,0,0,0,0,0,0,0,0,0,0,0,0],"id":5,"left_children":[1,3,5,7,9,-1,-1,11,13,15,17,19,-1,-1,-1,21,-1,23,25,-1,-1,27,29,-1,31,-1,33,-1,35,37,39,41,43,45,47,49,51,53,-1,55,57,59,-1,61,63,65,-1,-1,67,-1,-1,-1,-1,-1,-1,-1,-1,-1,-1,-1,-1,-1,-1,-1,-1,-1,-1,-1,-1],"loss_changes":[1.9524363E-3,1.3424421E-3,1.0173606E-3,4.7337846E-4,1.158177E-3,0E0,0E0,1.21689875E-4,5.8790436E-5,1.6646079E-3,6.0298806E-4,3.410054E-6,0E0,0E0,0E0,1.0906446E-3,0E0,3.8966874E-4,7.1005244E-4,0E0,0E0,1.1136631E-3,1.7470387E-3,0E0,3.2419487E-4,0E0,1.4915533E-4,0E0,2.5861966E-4,1.2700729E-3,8.508006E-4,3.8947252E-4,4.1728877E-4,1.02507474E-4,4.24304E-5,1.2435291E-4,5.90391E-5,2.1475134E-4,0E0,1.0618257E-3,1.103293E-3,2.214237E-5,0E0,4.5706195E-4,9.605587E-5,1.0890033E-5,0E0,0E0,1.8630788E-5,0E0,0E0,0E0,0E0,0E0,0E0,0E0,0E0,0E0,0E0,0E0,0E0,0E0,0E0,0E0,0E0,0E0,0E0,0E0,0E0],"parents":[2147483647,0,0,1,1,2,2,3,3,4,4,7,7,8,8,9,9,10,10,11,11,15,15,17,17,18,18,21,21,22,22,24,24,26,26,28,28,29,29,30,30,31,31,32,32,33,33,34,34,35,35,36,36,37,37,39,39,40,40,41,41,43,43,44,44,45,45,48,48],"right_children":[2,4,6,8,10,-1,-1,12,14,16,18,20,-1,-1,-1,22,-1,24,26,-1,-1,28,30,-1,32,-1,34,-1,36,38,40,42,44,46,48,50,52,54,-1,56,58,60,-1,62,64,66,-1,-1,68,-1,-1,-1,-1,-1,-1,-1,-1,-1,-1,-1,-1,-1,-1,-1,-1,-1,-1,-1,-1],"split_conditions":[9.7526234E-1,1.6049895E-2,3.053619E-1,4.989172E-1,7.751385E-1,5.744214E-5,-7.693344E-4,4.053852E-2,3.8062698E-1,7.74658E-1,4.528023E-1,3.558585E-1,2.1935835E-4,6.182955E-4,1.3765618E-4,1.9501778E-1,-7.7600393E-4,2.0207603E-1,5.205355E-1,-1.2687474E-5,-1.00971105E-4,5.1028337E-2,3.0184335E-1,4.7610045E-4,7.2448105E-2,4.508364E-4,5.0124925E-1,4.159661E-4,4.1595444E-1,2.3320441E-1,9.739633E-2,3.239637E-2,5.236814E-1,7.334671E-2,5.1100713E-1,2.9086655E-1,3.9303422E-1,2.8710964E-1,9.931886E-4,8.452689E-3,3.5857195E-1,3.9428118E-1,-4.5785095E-4,9.4379073E-1,5.33066E-1,4.77499E-1,3.0677114E-4,1.4026018E-4,2.808913E-1,-2.6825702E-4,7.3544245E-5,-6.482246E-4,-1.4754175E-4,-1.15326926E-4,2.738548E-4,2.7022828E-4,-3.2093798E-4,1.0159841E-4,-4.8737813E-5,1.4652043E-4,-2.0609508E-5,1.3365169E-4,-2.3356178E-4,-3.8623315E-4,-8.25959E-5,-2.2821892E-5,8.179424E-5,-2.0419859E-5,7.162716E-5],"split_indices":[5,5,0,3,5,0,0,4,1,5,0,0,0,0,0,0,0,9,9,0,0,4,3,0,2,0,0,0,4,0,5,1,3,1,3,2,2,3,0,4,4,0,0,5,3,0,0,0,1,0,0,0,0,0,0,0,0,0,0,0,0,0,0,0,0,0,0,0,0],"split_type":[0,0,0,0,0,0,0,0,0,0,0,0,0,0,0,0,0,0,0,0,0,0,0,0,0,0,0,0,0,0,0,0,0,0,0,0,0,0,0,0,0,0,0,0,0,0,0,0,0,0,0,0,0,0,0,0,0,0,0,0,0,0,0,0,0,0,0,0,0],"sum_hessian":[3.51E2,3.45E2,6E0,9E0,3.36E2,2E0,4E0,4E0,5E0,2.66E2,7E1,2E0,2E0,4E0,1E0,2.64E2,2E0,4.2E1,2.8E1,1E0,1E0,1E1,2.54E2,1E0,4.1E1,9E0,1.9E1,1E0,9E0,6E0,2.48E2,4E0,3.7E1,7E0,1.2E1,4E0,5E0,4E0,2E0,1.9E1,2.29E2,2E0,2E0,3.2E1,5E0,3E0,4E0,2E0,1E1,3E0,1E0,4E0,1E0,2E0,2E0,3E0,1.6E1,7.2E1,1.57E2,1E0,1E0,2.9E1,3E0,1E0,4E0,1E0,2E0,8E0,2E0],"tree_param":{"num_deleted":"0","num_feature":"10","num_nodes":"69","size_leaf_vector":"1"}},{"base_weights":[5.135408E-4,-4.777289E-3,1.2602254E-3,-2.6531E-3,-1.1521803E-2,-3.7629452E-5,6.538796E-3,-7.0608696E-3,3.4007996E-3,-8.5665577E-4,-5.9131416E-4,1.4306055E-3,-3.1994993E-3,9.060606E-3,1.4239767E-3,-4.2682394E-4,-4.6555027E-3,5.1620104E-3,-1.1540245E-3,-2.1224358E-4,2.2473815E-3,2.2806533E-4,5.8335843E-3,-4.5120846E-3,3.7105111E-3,6.445815E-3,1.8714046E-2,1.3779245E-2,-1.4007485E-3,9.0440284E-5,-5.3429194E-3,8.239954E-4,6.0344585E-3,-7.52446E-5,1.3731775E-5,1.2589383E-4,-4.5090474E-5,6.3328765E-4,-5.6104467E-4,1.7343719E-2,3.4176363E-3,6.3110655E-3,-5.6995843E-3,1.0942762E-3,7.677632E-3,1.2322038E-3,8.349577E-3,6.353473E-4,1.703143E-4,4.9727544E-4,1.3545495E-4,7.8764354E-4,-2.9605583E-4,-2.789365E-3,-8.708357E-3,-1.05370615E-4,1.4489981E-4,8.187999E-3,2.6740264E-3,1.8844464E-3,-2.5962626E-3,8.969717E-5,7.6475024E-4,-2.4480117E-3,4.9233125E-3,-5.505436E-5,1.2765796E-2,-1.5631128E-2,-4.711061E-3,5.6427433E-3,-2.1204147E-3,3.0212908E-4,9.601682E-6,4.532347E-4,-6.3378103E-3,-3.8649023E-3,9.635662E-3,-6.1025014E-3,4.8429663E-3,-3.5964653E-3,9.360783E-6,-3.162383E-4,-4.4929093E-5,2.9340305E-4,6.7859764E-5,1.1100193E-4,-8.20393E-6,1.3466509E-3,5.7336694E-4,-1.9296527E-2,6.1617023E-4,-1.7484701E-4,1.183071E-3,1.0871144E-2,2.4728843E-3,4.913514E-4,7.951728E-5,-1.1079559E-3,-7.9774973E-4,-7.9384E-3,-1.8522906E-3,2.09524E-4,4.6643327E-5,-4.2888424E-3,4.725706E-5,4.213921E-5,-7.833313E-3,-2.226611E-4,3.7251742E-5,1.2707851E-2,6.016516E-3,-3.1291755E-4,8.406776E-4,7.7212946E-3,1.6371981E-3,3.5145178E-5,-1.4149425E-4,1.2551167E-4,-4.029157E-5,-5.7764384E-5,-7.174578E-4,-1.5161742E-4,1.16667004E-4,1.3969418E-4,-4.268059E-5,3.735146E-4,9.632899E-5,-1.3716276E-4,1.4589791E-4,1.9488853E-5,-7.264037E-5,-1.0530378E-5,-2.9765113E-4,-1.6931485E-4,5.4538414E-5,-1.8801182E-4,7.688572E-6,-3.0703578E-4,1.602088E-5,4.6782437E-4,8.6729815E-5,6.22438E-5,3.1221937E-4,9.454111E-5,-5.4211625E-5,2.3628729E-5,2.9686102E-4,-9.935649E-5,1.02575104E-4],"categories":[],"categories_nodes":[],"categories_segments":[],"categories_sizes":[],"default_left":[0,0,0,0,0,0,0,0,0,0,0,0,0,0,0,0,0,0,0,0,0,0,0,0,0,0,0,0,0,0,0,0,0,0,0,0,0,0,0,0,0,0,0,0,0,0,0,0,0,0,0,0,0,0,0,0,0,0,0,0,0,0,0,0,0,0,0,0,0,0,0,0,0,0,0,0,0,0,0,0,0,0,0,0,0,0,0,0,0,0,0,0,0,0,0,0,0,0,0,0,0,0,0,0,0,0,0,0,0,0,0,0,0,0,0,0,0,0,0,0,0,0,0,0,0,0,0,0,0,0,0,0,0,0,0,0,0,0,0,0,0,0,0,0,0,0,0,0,0],"id":6,"left_children":[1,3,5,7,9,11,13,15,17,19,-1,21,23,25,27,-1,29,31,33,-1,35,37,39,41,43,45,47,49,51,-1,53,55,57,-1,-1,-1,-1,59,-1,61,63,65,67,69,71,73,75,-1,-1,-1,-1,77,-1,79,81,-1,-1,83,85,87,89,-1,-1,91,93,-1,95,97,99,101,103,-1,-1,-1,105,107,109,111,113,115,-1,-1,-1,-1,-1,-1,-1,117,-1,119,121,-1,123,125,127,-1,-1,129,-1,131,133,-1,-1,135,-1,-1,137,-1,-1,139,141,-1,143,145,147,-1,-1,-1,-1,-1,-1,-1,-1,-1,-1,-1,-1,-1,-1,-1,-1,-1,-1,-1,-1,-1,-1,-1,-1,-1,-1,-1,-1,-1,-1,-1,-1,-1,-1],"loss_changes":[1.3729216E-3,5.854763E-4,2.0828948E-3,9.312752E-4,7.272364E-4,1.1419574E-3,7.610142E-4,2.402229E-4,1.2628717E-4,1.0461726E-4,0E0,8.881892E-4,7.2420057E-4,8.890419E-4,7.522063E-4,0E0,9.741628E-5,3.66593E-5,1.0500314E-5,0E0,3.025909E-5,9.6885546E-4,9.418095E-4,8.8423444E-4,1.2652452E-4,3.1725224E-4,1.7586164E-5,1.6961712E-6,3.1675852E-4,0E0,1.0461663E-4,6.0727965E-5,4.3236505E-5,0E0,0E0,0E0,0E0,5.3422153E-4,0E0,5.059248E-4,2.8583707E-4,3.849087E-4,5.154145E-4,1.4356221E-4,6.242789E-5,1.0693375E-3,4.1425345E-4,0E0,0E0,0E0,0E0,4.486806E-4,0E0,2.5927955E-5,3.7806225E-5,0E0,0E0,1.0442949E-5,1.2565124E-5,7.955292E-4,1.996884E-3,0E0,0E0,8.320565E-5,3.3748522E-4,0E0,6.861333E-5,6.486197E-4,5.019641E-4,5.65307E-6,5.3149866E-5,0E0,0E0,0E0,9.046201E-5,5.484369E-5,1.6815448E-4,1.6160405E-4,7.963128E-5,3.595488E-5,0E0,0E0,0E0,0E0,0E0,0E0,0E0,6.298174E-4,0E0,2.8866786E-4,5.370023E-4,0E0,3.790205E-5,9.26631E-6,2.8794655E-4,0E0,0E0,7.377662E-6,0E0,2.6767887E-4,3.8861032E-4,0E0,0E0,3.0217183E-5,0E0,0E0,9.317079E-5,0E0,0E0,1.7144845E-4,1.6396338E-4,0E0,2.1103413E-5,4.7637295E-5,5.46542E-5,0E0,0E0,0E0,0E0,0E0,0E0,0E0,0E0,0E0,0E0,0E0,0E0,0E0,0E0,0E0,0E0,0E0,0E0,0E0,0E0,0E0,0E0,0E0,0E0,0E0,0E0,0E0,0E0,0E0,0E0,0E0,0E0,0E0,0E0],"parents":[2147483647,0,0,1,1,2,2,3,3,4,4,5,5,6,6,7,7,8,8,9,9,11,11,12,12,13,13,14,14,16,16,17,17,18,18,20,20,21,21,22,22,23,23,24,24,25,25,26,26,27,27,28,28,30,30,31,31,32,32,37,37,39,39,40,40,41,41,42,42,43,43,44,44,45,45,46,46,51,51,53,53,54,54,57,57,58,58,59,59,60,60,63,63,64,64,66,66,67,67,68,68,69,69,70,70,74,74,75,75,76,76,77,77,78,78,79,79,87,87,89,89,90,90,92,92,93,93,94,94,97,97,99,99,100,100,103,103,106,106,109,109,110,110,112,112,113,113,114,114],"right_children":[2,4,6,8,10,12,14,16,18,20,-1,22,24,26,28,-1,30,32,34,-1,36,38,40,42,44,46,48,50,52,-1,54,56,58,-1,-1,-1,-1,60,-1,62,64,66,68,70,72,74,76,-1,-1,-1,-1,78,-1,80,82,-1,-1,84,86,88,90,-1,-1,92,94,-1,96,98,100,102,104,-1,-1,-1,106,108,110,112,114,116,-1,-1,-1,-1,-1,-1,-1,118,-1,120,122,-1,124,126,128,-1,-1,130,-1,132,134,-1,-1,136,-1,-1,138,-1,-1,140,142,-1,144,146,148,-1,-1,-1,-1,-1,-1,-1,-1,-1,-1,-1,-1,-1,-1,-1,-1,-1,-1,-1,-1,-1,-1,-1,-1,-1,-1,-1,-1,-1,-1,-1,-1,-1,-1],"split_conditions":[3.679006E-1,8.401528E-1,1.8982497E-1,4.7503063E-1,2.2438204E-1,1.307108E-1,6.153235E-1,3.1170714E-1,7.870198E-1,2.2526832E-1,-5.9131416E-4,1.11866675E-1,7.2873497E-1,7.7884823E-1,8.624442E-3,-4.2682394E-4,2.0191187E-1,1.4186485E-1,5.442896E-1,-2.1224358E-4,9.6484E-1,1.4480068E-1,9.5387906E-2,2.8991535E-1,5.002935E-1,4.4122133E-1,5.2967685E-1,4.6410924E-1,8.165769E-1,9.0440284E-5,2.4448381E-1,2.73241E-1,2.2206004E-1,-7.52446E-5,1.3731775E-5,1.2589383E-4,-4.5090474E-5,4.96778E-1,-5.6104467E-4,4.6447915E-1,3.5762733E-1,2.238921E-1,3.3914933E-1,3.6462936E-1,5.2816826E-1,1.444185E-1,1.0944459E-1,6.353473E-4,1.703143E-4,4.9727544E-4,1.3545495E-4,6.54686E-1,-2.9605583E-4,3.5584706E-1,2.786928E-1,-1.05370615E-4,1.4489981E-4,3.4483606E-1,3.1235713E-1,5.0149065E-1,4.8565865E-1,8.969717E-5,7.6475024E-4,4.572133E-1,4.0119088E-1,-5.505436E-5,4.3332806E-1,1.4477333E-1,1.3714457E-1,1.673213E-1,1.4177424E-1,3.0212908E-4,9.601682E-6,4.532347E-4,1.5411206E-1,3.7611997E-1,3.4549013E-1,2.427047E-1,6.7846566E-1,1.7628312E-1,9.360783E-6,-3.162383E-4,-4.4929093E-5,2.9340305E-4,6.7859764E-5,1.1100193E-4,-8.20393E-6,4.610703E-1,5.7336694E-4,3.909939E-1,5.369546E-1,-1.7484701E-4,1.2087834E-1,1.116901E-1,1.2028398E-1,4.913514E-4,7.951728E-5,3.053619E-1,-7.9774973E-4,3.8338584E-1,5.871691E-1,2.09524E-4,4.6643327E-5,4.8243695E-1,4.725706E-5,4.213921E-5,2.514397E-1,-2.226611E-4,3.7251742E-5,7.0115554E-1,2.5154752E-1,-3.1291755E-4,3.2408115E-1,6.633545E-1,1.6049895E-2,3.5145178E-5,-1.4149425E-4,1.2551167E-4,-4.029157E-5,-5.7764384E-5,-7.174578E-4,-1.5161742E-4,1.16667004E-4,1.3969418E-4,-4.268059E-5,3.735146E-4,9.632899E-5,-1.3716276E-4,1.4589791E-4,1.9488853E-5,-7.264037E-5,-1.0530378E-5,-2.9765113E-4,-1.6931485E-4,5.4538414E-5,-1.8801182E-4,7.688572E-6,-3.0703578E-4,1.602088E-5,4.6782437E-4,8.6729815E-5,6.22438E-5,3.1221937E-4,9.454111E-5,-5.4211625E-5,2.3628729E-5,2.9686102E-4,-9.935649E-5,1.02575104E-4],"split_indices":[3,5,1,4,0,1,9,3,4,1,0,1,9,5,5,0,0,1,9,0,4,2,2,9,0,3,9,0,9,0,1,0,2,0,0,0,0,4,0,9,5,9,9,0,0,2,2,0,0,0,0,9,0,3,0,0,0,0,0,5,9,0,0,0,5,0,0,1,2,1,2,0,0,0,2,0,4,1,9,9,0,0,0,0,0,0,0,3,0,3,4,0,1,2,2,0,0,0,0,9,9,0,0,0,0,0,2,0,0,0,1,0,0,9,5,0,0,0,0,0,0,0,0,0,0,0,0,0,0,0,0,0,0,0,0,0,0,0,0,0,0,0,0,0,0,0,0,0,0],"split_type":[0,0,0,0,0,0,0,0,0,0,0,0,0,0,0,0,0,0,0,0,0,0,0,0,0,0,0,0,0,0,0,0,0,0,0,0,0,0,0,0,0,0,0,0,0,0,0,0,0,0,0,0,0,0,0,0,0,0,0,0,0,0,0,0,0,0,0,0,0,0,0,0,0,0,0,0,0,0,0,0,0,0,0,0,0,0,0,0,0,0,0,0,0,0,0,0,0,0,0,0,0,0,0,0,0,0,0,0,0,0,0,0,0,0,0,0,0,0,0,0,0,0,0,0,0,0,0,0,0,0,0,0,0,0,0,0,0,0,0,0,0,0,0,0,0,0,0,0,0],"sum_hessian":[3.45E2,4.2E1,3.03E2,3.3E1,9E0,2.44E2,5.9E1,1.9E1,1.4E1,4E0,5E0,1.67E2,7.7E1,3.9E1,2E1,4E0,1.5E1,1E1,4E0,1E0,3E0,1.32E2,3.5E1,6.5E1,1.2E1,3.2E1,7E0,3E0,1.7E1,1E0,1.4E1,2E0,8E0,2E0,2E0,2E0,1E0,1.3E2,2E0,5E0,3E1,6E0,5.9E1,8E0,4E0,9E0,2.3E1,6E0,1E0,2E0,1E0,1.4E1,3E0,9E0,5E0,1E0,1E0,4E0,4E0,9.4E1,3.6E1,2E0,3E0,6E0,2.4E1,3E0,3E0,4E0,5.5E1,3E0,5E0,3E0,1E0,3E0,6E0,2E0,2.1E1,5E0,9E0,7E0,2E0,4E0,1E0,3E0,1E0,3E0,1E0,9.2E1,2E0,5E0,3.1E1,3E0,3E0,6E0,1.8E1,2E0,1E0,2E0,2E0,2.5E1,3E1,2E0,1E0,3E0,2E0,1E0,5E0,1E0,1E0,1E1,1.1E1,3E0,2E0,4E0,5E0,1E0,6E0,4.6E1,4.6E1,1E0,4E0,1.1E1,2E1,1E0,2E0,5E0,1E0,4E0,1.4E1,1E0,1E0,4E0,2.1E1,1.5E1,1.5E1,2E0,1E0,4E0,1E0,8E0,2E0,6E0,5E0,1E0,1E0,1E0,3E0,1E0,4E0],"tree_param":{"num_deleted":"0","num_feature":"10","num_nodes":"149","size_leaf_vector":"1"}},{"base_weights":[-1.1252821E-4,7.0481477E-3,-5.461986E-4,6.044233E-4,4.1822726E-3,-1.8842462E-2,-2.380316E-4,9.1553675E-3,-1.2090498E-3,-3.9985687E-5,-7.0714304E-4,-4.9872883E-3,2.5954613E-4,-1.03772356E-4,1.0893684E-2,2.6769424E-4,-3.2034388E-3,-8.829976E-3,-1.8559081E-3,5.3349556E-4,-9.418399E-3,1.8180182E-3,4.2302272E-4,8.2770566E-5,-6.5305303E-3,3.163875E-3,-1.2092096E-2,-8.385424E-3,8.7962556E-4,-2.939626E-3,1.2899493E-3,1.1105885E-4,-1.1463842E-2,1.0765149E-4,-2.0436451E-5,3.2395303E-5,-2.6358728E-4,-9.616194E-5,1.9902286E-4,-2.0979878E-3,-1.3881118E-2,8.838224E-5,-1.1167918E-2,3.2511817E-3,-6.4549493E-3,-1.4805435E-3,-1.169144E-2,3.7354946E-3,-8.6069755E-5,-4.2625054E-4,2.5343043E-5,-1.158337E-4,1.51877975E-5,-1.0368565E-4,-4.7022777E-4,7.919349E-5,-4.860584E-4,-1.9572623E-4,4.65946E-3,-2.4567425E-4,-4.4369437E-5,-1.2876518E-2,-7.3745043E-4,-1.4577916E-2,1.361445E-4,8.443667E-3,9.159561E-5,-5.390981E-4,1.0410597E-2,1.6281972E-5,2.5691692E-4,-5.321752E-4,-8.55447E-5,1.00825695E-4,-7.7778306E-5,-7.543053E-4,-6.159177E-5,7.6166284E-4,1.8060519E-4,-5.342236E-5,3.3362972E-4,1.362251E-5,-4.4215546E-4,4.114677E-4,9.1101065E-5],"categories":[],"categories_nodes":[],"categories_segments":[],"categories_sizes":[],"default_left":[0,0,0,0,0,0,0,0,0,0,0,0,0,0,0,0,0,0,0,0,0,0,0,0,0,0,0,0,0,0,0,0,0,0,0,0,0,0,0,0,0,0,0,0,0,0,0,0,0,0,0,0,0,0,0,0,0,0,0,0,0,0,0,0,0,0,0,0,0,0,0,0,0,0,0,0,0,0,0,0,0,0,0,0,0],"id":7,"left_children":[1,3,5,-1,7,9,11,13,15,-1,-1,17,19,-1,21,-1,23,25,27,29,31,33,-1,-1,35,37,39,41,43,45,47,-1,49,-1,-1,-1,-1,-1,-1,51,53,-1,55,57,59,61,63,65,67,-1,-1,-1,-1,-1,-1,-1,-1,-1,69,-1,-1,71,73,75,-1,77,79,81,83,-1,-1,-1,-1,-1,-1,-1,-1,-1,-1,-1,-1,-1,-1,-1,-1],"loss_changes":[1.196313E-3,6.681479E-4,2.0422193E-3,0E0,5.2048895E-4,3.173442E-4,8.47293E-4,2.5090016E-4,2.1786151E-4,0E0,0E0,3.927317E-4,8.666866E-4,0E0,1.6654166E-4,0E0,1.9032095E-4,6.251384E-4,3.6461026E-4,8.366322E-4,2.7711882E-4,1.3561414E-5,0E0,0E0,8.580217E-5,9.421886E-5,1.8543389E-4,2.1699403E-4,2.8190156E-4,7.1055867E-4,8.7861717E-4,0E0,1.933364E-4,0E0,0E0,0E0,0E0,0E0,0E0,1.3482289E-5,3.977469E-5,0E0,3.1256845E-4,1.8688139E-4,1.4209814E-5,4.1391767E-4,4.3033448E-4,1.6119002E-3,8.0450065E-4,0E0,0E0,0E0,0E0,0E0,0E0,0E0,0E0,0E0,1.499366E-4,0E0,0E0,7.0672715E-5,3.240704E-4,7.5233134E-4,0E0,1.628017E-3,1.0012825E-3,2.0830098E-3,9.331177E-5,0E0,0E0,0E0,0E0,0E0,0E0,0E0,0E0,0E0,0E0,0E0,0E0,0E0,0E0,0E0,0E0],"parents":[2147483647,0,0,1,1,2,2,4,4,5,5,6,6,7,7,8,8,11,11,12,12,14,14,16,16,17,17,18,18,19,19,20,20,21,21,24,24,25,25,26,26,27,27,28,28,29,29,30,30,32,32,39,39,40,40,42,42,43,43,44,44,45,45,46,46,47,47,48,48,58,58,61,61,62,62,63,63,65,65,66,66,67,67,68,68],"right_children":[2,4,6,-1,8,10,12,14,16,-1,-1,18,20,-1,22,-1,24,26,28,30,32,34,-1,-1,36,38,40,42,44,46,48,-1,50,-1,-1,-1,-1,-1,-1,52,54,-1,56,58,60,62,64,66,68,-1,-1,-1,-1,-1,-1,-1,-1,-1,70,-1,-1,72,74,76,-1,78,80,82,84,-1,-1,-1,-1,-1,-1,-1,-1,-1,-1,-1,-1,-1,-1,-1,-1],"split_conditions":[7.8329645E-2,3.890772E-1,9.739633E-2,6.044233E-4,4.4778726E-1,2.0648102E-1,2.7697513E-1,2.0806131E-1,8.155613E-2,-3.9985687E-5,-7.0714304E-4,2.3954599E-1,9.6484E-1,-1.03772356E-4,3.558585E-1,2.6769424E-4,1.273753E-2,2.1646783E-1,1.0247393E-1,1.5561415E-1,8.11427E-2,2.3320441E-1,4.2302272E-4,8.2770566E-5,3.3851716E-1,1.735021E-1,1.735021E-1,2.1061003E-1,8.664258E-1,1.4675689E-1,4.279555E-1,1.1105885E-4,4.548927E-1,1.0765149E-4,-2.0436451E-5,3.2395303E-5,-2.6358728E-4,-9.616194E-5,1.9902286E-4,1.3451234E-1,1.6183926E-1,8.838224E-5,3.6369732E-1,1.4905761E-1,3.8276437E-1,1.9519037E-2,1.581774E-1,3.1592393E-1,6.3191134E-1,-4.2625054E-4,2.5343043E-5,-1.158337E-4,1.51877975E-5,-1.0368565E-4,-4.7022777E-4,7.919349E-5,-4.860584E-4,-1.9572623E-4,3.5690463E-1,-2.4567425E-4,-4.4369437E-5,3.5383904E-1,8.536597E-2,1.5464713E-1,1.361445E-4,3.3346072E-1,4.040121E-1,2.4196924E-1,8.21487E-1,1.6281972E-5,2.5691692E-4,-5.321752E-4,-8.55447E-5,1.00825695E-4,-7.7778306E-5,-7.543053E-4,-6.159177E-5,7.6166284E-4,1.8060519E-4,-5.342236E-5,3.3362972E-4,1.362251E-5,-4.4215546E-4,4.114677E-4,9.1101065E-5],"split_indices":[5,8,5,0,7,0,0,7,2,0,0,2,4,0,0,0,4,8,0,7,2,0,0,0,3,0,0,3,4,7,8,0,0,0,0,0,0,0,0,0,7,0,4,4,2,7,2,7,3,0,0,0,0,0,0,0,0,0,8,0,0,0,7,7,0,4,8,2,7,0,0,0,0,0,0,0,0,0,0,0,0,0,0,0,0],"split_type":[0,0,0,0,0,0,0,0,0,0,0,0,0,0,0,0,0,0,0,0,0,0,0,0,0,0,0,0,0,0,0,0,0,0,0,0,0,0,0,0,0,0,0,0,0,0,0,0,0,0,0,0,0,0,0,0,0,0,0,0,0,0,0,0,0,0,0,0,0,0,0,0,0,0,0,0,0,0,0,0,0,0,0,0,0],"sum_hessian":[3.83E2,2.1E1,3.62E2,3E0,1.8E1,5E0,3.57E2,9E0,9E0,1E0,4E0,3.3E1,3.24E2,1E0,8E0,1E0,8E0,1.4E1,1.9E1,3.16E2,8E0,2E0,6E0,3E0,5E0,3E0,1.1E1,5E0,1.4E1,5.6E1,2.6E2,1E0,7E0,1E0,1E0,1E0,4E0,1E0,2E0,2E0,9E0,1E0,4E0,1.1E1,3E0,4.9E1,7E0,9.3E1,1.67E2,6E0,1E0,1E0,1E0,1E0,8E0,1E0,3E0,1E0,1E1,2E0,1E0,2E0,4.7E1,6E0,1E0,4E1,5.3E1,1.61E2,6E0,5E0,5E0,1E0,1E0,1.4E1,3.3E1,3E0,3E0,5E0,3.5E1,4.6E1,7E0,1.51E2,1E1,4E0,2E0],"tree_param":{"num_deleted":"0","num_feature":"10","num_nodes":"85","size_leaf_vector":"1"}},{"base_weights":[8.771236E-5,-1.0604918E-2,3.3256432E-4,-3.6766652E-3,-6.69264E-4,2.354882E-6,1.0478785E-2,-2.7471353E-4,9.2728005E-4,1.3603846E-4,-7.225103E-4,-6.5520015E-3,1.7684331E-2,1.00797006E-4,-8.647642E-4,9.344028E-3,-1.15500785E-4,3.426408E-5,-3.0223513E-4,2.3499198E-2,5.994664E-3,-4.3659933E-5,2.1749559E-6,1.5803229E-3,4.1456294E-4,1.2866814E-3,-1.7263498E-3,2.2857822E-4,8.25142E-4,-1.7160927E-4,3.7003245E-4,1.2975709E-4,-9.3552706E-5,7.280246E-3,6.86782E-4,-1.2325679E-3,-1.37008745E-2,2.1790846E-3,1.8066984E-2,-3.056286E-3,1.7049117E-3,-5.440888E-4,-7.3467093E-3,5.4417138E-5,-1.7121652E-2,-1.3082879E-4,2.3160904E-4,1.2549582E-4,6.595187E-4,-1.999092E-4,1.14727976E-4,3.2114974E-4,3.6447374E-5,-1.4683849E-4,2.5915562E-5,1.4883808E-4,-3.4331324E-4,-1.612303E-4,-6.0385984E-4],"categories":[],"categories_nodes":[],"categories_segments":[],"categories_sizes":[],"default_left":[0,0,0,0,0,0,0,0,0,0,0,0,0,0,0,0,0,0,0,0,0,0,0,0,0,0,0,0,0,0,0,0,0,0,0,0,0,0,0,0,0,0,0,0,0,0,0,0,0,0,0,0,0,0,0,0,0,0,0],"id":8,"left_children":[1,3,5,7,-1,9,11,-1,13,15,-1,17,19,-1,21,23,25,-1,-1,27,29,-1,-1,31,-1,33,35,-1,-1,-1,-1,-1,-1,37,39,41,43,45,47,49,51,53,55,-1,57,-1,-1,-1,-1,-1,-1,-1,-1,-1,-1,-1,-1,-1,-1],"loss_changes":[9.355746E-4,4.951421E-4,1.1692573E-3,1.4368125E-4,0E0,1.0269913E-3,1.4657449E-3,0E0,1.8670566E-5,7.83945E-4,0E0,9.850216E-5,4.0292135E-4,0E0,1.4930813E-6,2.3234938E-4,7.475936E-4,0E0,0E0,3.7488062E-6,3.1544393E-4,0E0,0E0,5.6507062E-5,0E0,6.3140993E-4,8.9368445E-4,0E0,0E0,0E0,0E0,0E0,0E0,8.410287E-4,6.225811E-4,6.232121E-4,3.452613E-4,4.1054148E-4,9.973999E-5,7.6521334E-4,5.917694E-4,7.4374035E-4,6.598187E-4,0E0,1.1104625E-5,0E0,0E0,0E0,0E0,0E0,0E0,0E0,0E0,0E0,0E0,0E0,0E0,0E0,0E0],"parents":[2147483647,0,0,1,1,2,2,3,3,5,5,6,6,8,8,9,9,11,11,12,12,14,14,15,15,16,16,19,19,20,20,23,23,25,25,26,26,33,33,34,34,35,35,36,36,37,37,38,38,39,39,40,40,41,41,42,42,44,44],"right_children":[2,4,6,8,-1,10,12,-1,14,16,-1,18,20,-1,22,24,26,-1,-1,28,30,-1,-1,32,-1,34,36,-1,-1,-1,-1,-1,-1,38,40,42,44,46,48,50,52,54,56,-1,58,-1,-1,-1,-1,-1,-1,-1,-1,-1,-1,-1,-1,-1,-1],"split_conditions":[2.8710964E-1,2.7304024E-1,3.395327E-1,2.9086655E-1,-6.69264E-4,3.3010322E-1,3.8464984E-1,-2.7471353E-4,7.3402876E-1,1.6049895E-2,-7.225103E-4,2.3168497E-1,5.1361275E-1,1.00797006E-4,3.8644108E-1,7.62573E-1,1.7633948E-1,3.426408E-5,-3.0223513E-4,3.955162E-1,1.3593999E-1,-4.3659933E-5,2.1749559E-6,1.603992E-1,4.1456294E-4,2.8991535E-1,8.9623255E-1,2.2857822E-4,8.25142E-4,-1.7160927E-4,3.7003245E-4,1.2975709E-4,-9.3552706E-5,1.5718138E-1,3.5286698E-1,8.165769E-1,3.987525E-1,5.0027823E-1,6.685553E-2,2.0097396E-1,3.6461926E-1,4.3301904E-1,4.1140687E-1,5.4417138E-5,4.8191312E-1,-1.3082879E-4,2.3160904E-4,1.2549582E-4,6.595187E-4,-1.999092E-4,1.14727976E-4,3.2114974E-4,3.6447374E-5,-1.4683849E-4,2.5915562E-5,1.4883808E-4,-3.4331324E-4,-1.612303E-4,-6.0385984E-4],"split_indices":[3,6,6,2,0,6,3,0,4,5,0,2,8,0,2,9,6,0,0,3,2,0,0,6,0,9,5,0,0,0,0,0,0,6,8,9,3,5,2,2,8,9,3,0,3,0,0,0,0,0,0,0,0,0,0,0,0,0,0],"split_type":[0,0,0,0,0,0,0,0,0,0,0,0,0,0,0,0,0,0,0,0,0,0,0,0,0,0,0,0,0,0,0,0,0,0,0,0,0,0,0,0,0,0,0,0,0,0,0,0,0,0,0,0,0,0,0,0,0,0,0],"sum_hessian":[3.55E2,7E0,3.48E2,5E0,2E0,3.38E2,1E1,2E0,3E0,3.37E2,1E0,3E0,7E0,1E0,2E0,8E0,3.29E2,1E0,2E0,4E0,3E0,1E0,1E0,3E0,5E0,1.76E2,1.53E2,1E0,3E0,1E0,2E0,2E0,1E0,1.5E1,1.61E2,1.48E2,5E0,1.1E1,4E0,3.4E1,1.27E2,1.34E2,1.4E1,1E0,4E0,5E0,6E0,1E0,3E0,2.3E1,1.1E1,7E0,1.2E2,3.3E1,1.01E2,3E0,1.1E1,1E0,3E0],"tree_param":{"num_deleted":"0","num_feature":"10","num_nodes":"59","size_leaf_vector":"1"}},{"base_weights":[1.636533E-4,-2.088322E-4,9.06501E-3,2.5838485E-4,-9.540121E-3,-2.5437248E-4,1.0985961E-2,8.069874E-4,-5.976082E-3,5.877561E-3,-1.2162473E-2,1.3302958E-2,-1.171678E-3,3.9984324E-4,1.0375483E-2,-8.756812E-3,3.6801802E-4,2.967782E-4,-1.48163845E-5,-1.7966662E-2,-3.7916177E-3,1.4514307E-2,1.9020648E-5,-1.2961202E-4,7.3403586E-5,-3.121029E-3,1.1472636E-3,2.0631088E-2,-3.3186357E-3,-1.0798097E-2,-1.1734876E-3,-1.5848773E-4,-2.1477764E-2,-2.6156328E-4,1.5431924E-3,8.077748E-5,1.5565732E-2,-1.9550605E-3,-6.631788E-4,2.9241522E-3,-3.6094917E-4,1.0582973E-3,9.029111E-3,-2.537046E-4,3.939794E-3,-5.795817E-3,-1.7830849E-2,4.3019555E-3,-4.5655036E-4,-1.0793829E-4,-7.8109984E-4,9.444646E-5,-4.2961772E-5,1.4038934E-4,5.24949E-4,2.0592902E-3,-4.2229076E-3,6.710651E-3,4.1288557E-4,-8.058648E-3,5.793006E-4,1.6250489E-6,3.6014564E-4,1.32004425E-5,1.7580167E-4,2.1464415E-4,-7.5429752E-3,-1.9067008E-2,-1.6652702E-4,1.8813353E-4,-3.230719E-5,-2.3009519E-4,1.1723495E-4,-2.0390532E-4,5.5898974E-5,-3.913805E-6,2.8986085E-4,4.0954732E-5,-2.2653822E-4,-6.924314E-5,-4.363239E-4,2.342167E-4,2.1176245E-7,-3.9139975E-4,-5.0868734E-5,-1.7198359E-4,-6.6296157E-4],"categories":[],"categories_nodes":[],"categories_segments":[],"categories_sizes":[],"default_left":[0,0,0,0,0,0,0,0,0,0,0,0,0,0,0,0,0,0,0,0,0,0,0,0,0,0,0,0,0,0,0,0,0,0,0,0,0,0,0,0,0,0,0,0,0,0,0,0,0,0,0,0,0,0,0,0,0,0,0,0,0,0,0,0,0,0,0,0,0,0,0,0,0,0,0,0,0,0,0,0,0,0,0,0,0,0,0],"id":9,"left_children":[1,3,5,7,9,-1,11,13,15,17,19,21,23,25,27,29,-1,-1,-1,31,33,35,-1,-1,-1,37,39,41,43,45,47,-1,49,-1,51,-1,53,55,-1,57,59,-1,61,-1,63,65,67,69,-1,-1,-1,-1,-1,-1,-1,71,73,75,77,79,81,-1,-1,-1,-1,-1,83,85,-1,-1,-1,-1,-1,-1,-1,-1,-1,-1,-1,-1,-1,-1,-1,-1,-1,-1,-1],"loss_changes":[1.1557309E-3,1.462977E-3,5.4506806E-4,1.0993008E-3,7.1837485E-4,0E0,3.817866E-4,1.1450999E-3,1.3647845E-3,6.90147E-5,6.1208196E-4,1.6070274E-4,3.9265735E-5,7.509469E-4,1.7537648E-3,3.4336234E-4,0E0,0E0,0E0,2.590313E-4,1.7644418E-4,8.67357E-5,0E0,0E0,0E0,9.863949E-4,6.308381E-4,7.1311253E-4,2.3220309E-4,5.298918E-4,4.91843E-4,0E0,2.3750728E-4,0E0,2.0246338E-5,0E0,1.3273442E-5,4.45685E-4,0E0,1.0241913E-3,9.311016E-4,0E0,9.961988E-5,0E0,1.420753E-5,3.1285078E-4,9.955373E-6,4.7923575E-5,0E0,0E0,0E0,0E0,0E0,0E0,0E0,2.9394994E-4,4.0960778E-4,6.92373E-4,4.3835817E-4,4.3121894E-4,4.4410877E-4,0E0,0E0,0E0,0E0,0E0,2.879639E-4,2.5068875E-5,0E0,0E0,0E0,0E0,0E0,0E0,0E0,0E0,0E0,0E0,0E0,0E0,0E0,0E0,0E0,0E0,0E0,0E0,0E0],"parents":[2147483647,0,0,1,1,2,2,3,3,4,4,6,6,7,7,8,8,9,9,10,10,11,11,12,12,13,13,14,14,15,15,19,19,20,20,21,21,25,25,26,26,27,27,28,28,29,29,30,30,32,32,34,34,36,36,37,37,39,39,40,40,42,42,44,44,45,45,46,46,47,47,55,55,56,56,57,57,58,58,59,59,60,60,66,66,67,67],"right_children":[2,4,6,8,10,-1,12,14,16,18,20,22,24,26,28,30,-1,-1,-1,32,34,36,-1,-1,-1,38,40,42,44,46,48,-1,50,-1,52,-1,54,56,-1,58,60,-1,62,-1,64,66,68,70,-1,-1,-1,-1,-1,-1,-1,72,74,76,78,80,82,-1,-1,-1,-1,-1,84,86,-1,-1,-1,-1,-1,-1,-1,-1,-1,-1,-1,-1,-1,-1,-1,-1,-1,-1,-1],"split_conditions":[6.3191134E-1,9.4379073E-1,1.4165072E-1,2.834713E-1,1.9441088E-1,-2.5437248E-4,8.21487E-1,2.514397E-1,4.1686222E-1,1.23819634E-1,9.726639E-1,8.382307E-1,2.427047E-1,1.6272572E-1,5.871691E-1,3.8062698E-1,3.6801802E-4,2.967782E-4,-1.48163845E-5,2.238921E-1,9.7526234E-1,3.3456415E-1,1.9020648E-5,-1.2961202E-4,7.3403586E-5,5.5627996E-1,3.293046E-1,2.567708E-1,2.427047E-1,4.4771856E-1,3.7587634E-1,-1.5848773E-4,1.1685023E-1,-2.6156328E-4,1.4477333E-1,8.077748E-5,2.7424327E-1,8.708122E-2,-6.631788E-4,3.9542353E-1,3.498319E-1,1.0582973E-3,2.612434E-1,-2.537046E-4,2.4888596E-1,2.2557533E-1,6.645147E-1,3.455781E-1,-4.5655036E-4,-1.0793829E-4,-7.8109984E-4,9.444646E-5,-4.2961772E-5,1.4038934E-4,5.24949E-4,3.5487583E-1,1.6114259E-1,7.638146E-2,5.539865E-1,1.3346279E-1,2.8471004E-2,1.6250489E-6,3.6014564E-4,1.32004425E-5,1.7580167E-4,2.1464415E-4,2.7182668E-1,2.857473E-1,-1.6652702E-4,1.8813353E-4,-3.230719E-5,-2.3009519E-4,1.1723495E-4,-2.0390532E-4,5.5898974E-5,-3.913805E-6,2.8986085E-4,4.0954732E-5,-2.2653822E-4,-6.924314E-5,-4.363239E-4,2.342167E-4,2.1176245E-7,-3.9139975E-4,-5.0868734E-5,-1.7198359E-4,-6.6296157E-4],"split_indices":[3,5,4,1,9,0,7,2,1,1,4,4,1,7,9,1,0,0,0,9,5,4,0,0,0,3,7,2,1,3,2,0,1,0,1,0,7,1,0,5,7,0,2,0,1,2,7,2,0,0,0,0,0,0,0,4,2,1,3,1,5,0,0,0,0,0,2,1,0,0,0,0,0,0,0,0,0,0,0,0,0,0,0,0,0,0,0],"split_type":[0,0,0,0,0,0,0,0,0,0,0,0,0,0,0,0,0,0,0,0,0,0,0,0,0,0,0,0,0,0,0,0,0,0,0,0,0,0,0,0,0,0,0,0,0,0,0,0,0,0,0,0,0,0,0,0,0,0,0,0,0,0,0,0,0,0,0,0,0,0,0,0,0,0,0,0,0,0,0,0,0,0,0,0,0,0,0],"sum_hessian":[3.47E2,3.34E2,1.3E1,3.19E2,1.5E1,1E0,1.2E1,2.94E2,2.5E1,2E0,1.3E1,1E1,2E0,2.83E2,1.1E1,2.2E1,3E0,1E0,1E0,7E0,6E0,9E0,1E0,1E0,1E0,4.9E1,2.34E2,6E0,5E0,1.7E1,5E0,2E0,5E0,3E0,3E0,1E0,8E0,4.7E1,2E0,1.07E2,1.27E2,2E0,4E0,3E0,2E0,1.1E1,6E0,4E0,1E0,1E0,4E0,2E0,1E0,1E0,7E0,1.7E1,3E1,4.2E1,6.5E1,1.3E1,1.14E2,1E0,3E0,1E0,1E0,1E0,1E1,5E0,1E0,3E0,1E0,2E0,1.5E1,2.2E1,8E0,1.1E1,3.1E1,5.9E1,6E0,7E0,6E0,8E0,1.06E2,5E0,5E0,1E0,4E0],"tree_param":{"num_deleted":"0","num_feature":"10","num_nodes":"87","size_leaf_vector":"1"}},{"base_weights":[-3.174385E-5,7.622311E-3,-5.7331775E-4,1.3043805E-2,1.5656236E-3,-9.780053E-3,-6.4942906E-5,1.4859906E-2,5.6966264E-3,-2.333191E-3,4.4901695E-4,-2.8833873E-3,-1.922052E-2,4.6873065E-3,-6.5012963E-4,1.00109784E-4,1.593484E-2,3.129106E-5,2.2205654E-4,1.9116573E-3,-2.9354036E-4,-6.4363917E-3,4.943469E-3,-1.8194466E-4,-6.565081E-4,1.8385712E-2,4.549154E-4,-9.9813E-4,1.1132647E-2,6.147241E-3,5.8119855E-4,-1.133773E-4,3.4119552E-3,-1.5040468E-3,-1.0992725E-2,1.9141458E-4,2.9079481E-5,-1.02686754E-4,2.1929612E-2,2.991011E-3,-7.218359E-3,6.017321E-4,-3.8412022E-3,3.7634943E-3,5.6162867E-4,2.5908544E-4,3.5813646E-5,1.7699065E-4,-5.549145E-4,-1.7268596E-4,9.251594E-5,-5.409771E-5,-4.3268997E-4,7.6332653E-4,1.6473426E-4,6.0709817E-3,-3.6087004E-4,1.6324033E-4,-1.01228105E-2,2.8298653E-4,3.5995393E-4,8.215447E-4,-6.1493474E-3,1.7707855E-4,-5.324948E-5,-5.5806875E-5,2.918619E-5,-9.099766E-5,7.24714E-3,-2.5388575E-3,3.4250834E-4,-3.5784184E-4,-7.663027E-5,-4.462838E-3,8.4313034E-4,-1.0307036E-2,2.7119364E-3,-5.1574847E-3,-1.7020205E-2,2.5254078E-4,2.2446839E-5,9.71088E-5,-1.1179866E-4,1.4291119E-4,-2.9745876E-4,6.095864E-5,-6.655423E-5,7.709756E-6,-4.1590087E-4,-1.6841733E-4,1.3429305E-4,-2.6051552E-4,4.2802108E-6,9.790797E-5,-7.2937337E-4],"categories":[],"categories_nodes":[],"categories_segments":[],"categories_sizes":[],"default_left":[0,0,0,0,0,0,0,0,0,0,0,0,0,0,0,0,0,0,0,0,0,0,0,0,0,0,0,0,0,0,0,0,0,0,0,0,0,0,0,0,0,0,0,0,0,0,0,0,0,0,0,0,0,0,0,0,0,0,0,0,0,0,0,0,0,0,0,0,0,0,0,0,0,0,0,0,0,0,0,0,0,0,0,0,0,0,0,0,0,0,0,0,0,0,0],"id":10,"left_children":[1,3,5,7,9,11,13,15,17,19,-1,21,23,25,27,-1,29,-1,-1,31,-1,33,35,-1,-1,37,39,41,43,45,-1,-1,47,49,51,-1,-1,-1,53,55,57,59,61,63,-1,-1,-1,-1,65,-1,-1,-1,-1,-1,-1,67,69,-1,71,73,-1,75,77,-1,-1,-1,-1,-1,79,81,-1,-1,-1,83,85,87,89,91,93,-1,-1,-1,-1,-1,-1,-1,-1,-1,-1,-1,-1,-1,-1,-1,-1],"loss_changes":[1.4427669E-3,7.3481316E-4,1.5205184E-3,7.5467164E-5,6.163714E-4,1.0514116E-3,8.623619E-4,6.3598156E-5,1.6733771E-5,3.081137E-4,0E0,3.3771555E-4,7.025199E-6,1.9628545E-3,1.1428249E-3,0E0,6.352365E-5,0E0,0E0,6.9402566E-5,0E0,1.6325369E-4,1.1367047E-5,0E0,0E0,6.8269833E-4,5.470144E-4,1.2258642E-3,3.1287735E-4,2.0396146E-5,0E0,0E0,5.3581025E-5,1.0125812E-4,7.1487244E-5,0E0,0E0,0E0,1.0467786E-4,2.1898845E-4,3.0220006E-4,5.8426737E-4,1.0489946E-3,5.7352547E-5,0E0,0E0,0E0,0E0,6.8316303E-6,0E0,0E0,0E0,0E0,0E0,0E0,1.3597688E-4,2.9241235E-4,0E0,2.2617227E-5,4.5302295E-4,0E0,7.221856E-4,6.130745E-4,0E0,0E0,0E0,0E0,0E0,3.695418E-5,6.396085E-5,0E0,0E0,0E0,8.1934995E-4,4.7639955E-4,1.453915E-4,3.6617473E-4,9.656176E-4,6.507512E-4,0E0,0E0,0E0,0E0,0E0,0E0,0E0,0E0,0E0,0E0,0E0,0E0,0E0,0E0,0E0,0E0],"parents":[2147483647,0,0,1,1,2,2,3,3,4,4,5,5,6,6,7,7,8,8,9,9,11,11,12,12,13,13,14,14,16,16,19,19,21,21,22,22,25,25,26,26,27,27,28,28,29,29,32,32,33,33,34,34,38,38,39,39,40,40,41,41,42,42,43,43,48,48,55,55,56,56,58,58,59,59,61,61,62,62,68,68,69,69,73,73,74,74,75,75,76,76,77,77,78,78],"right_children":[2,4,6,8,10,12,14,16,18,20,-1,22,24,26,28,-1,30,-1,-1,32,-1,34,36,-1,-1,38,40,42,44,46,-1,-1,48,50,52,-1,-1,-1,54,56,58,60,62,64,-1,-1,-1,-1,66,-1,-1,-1,-1,-1,-1,68,70,-1,72,74,-1,76,78,-1,-1,-1,-1,-1,80,82,-1,-1,-1,84,86,88,90,92,94,-1,-1,-1,-1,-1,-1,-1,-1,-1,-1,-1,-1,-1,-1,-1,-1],"split_conditions":[6.521895E-2,4.6410924E-1,1.2070011E-1,4.0315818E-2,2.4653012E-1,3.6292213E-1,3.216261E-1,2.3320441E-1,5.232865E-2,1.9929034E-1,4.4901695E-4,6.715442E-1,1.9501778E-1,3.7962657E-1,6.3370913E-1,1.00109784E-4,1.3906388E-1,3.129106E-5,2.2205654E-4,4.8243695E-1,-2.9354036E-4,4.2384994E-1,5.354605E-1,-1.8194466E-4,-6.565081E-4,5.404542E-2,5.770384E-1,1.9488896E-1,2.1329604E-1,2.55871E-1,5.8119855E-4,-1.133773E-4,1.6049895E-2,7.7549264E-2,4.57516E-2,1.9141458E-4,2.9079481E-5,-1.02686754E-4,4.3332806E-1,2.7212238E-1,1.2481782E-1,1.9159183E-1,4.335428E-1,7.054475E-1,5.6162867E-4,2.5908544E-4,3.5813646E-5,1.7699065E-4,5.544196E-1,-1.7268596E-4,9.251594E-5,-5.409771E-5,-4.3268997E-4,7.6332653E-4,1.6473426E-4,2.514775E-1,3.1537265E-1,1.6324033E-4,4.6985748E-1,1.0840824E-1,3.5995393E-4,3.385013E-1,4.15951E-1,1.7707855E-4,-5.324948E-5,-5.5806875E-5,2.918619E-5,-9.099766E-5,4.8388025E-1,2.6833666E-2,3.4250834E-4,-3.5784184E-4,-7.663027E-5,8.017085E-2,5.0006694E-1,2.8870076E-1,3.0122626E-1,1.9652578E-1,8.908131E-2,2.5254078E-4,2.2446839E-5,9.71088E-5,-1.1179866E-4,1.4291119E-4,-2.9745876E-4,6.095864E-5,-6.655423E-5,7.709756E-6,-4.1590087E-4,-1.6841733E-4,1.3429305E-4,-2.6051552E-4,4.2802108E-6,9.790797E-5,-7.2937337E-4],"split_indices":[5,0,5,5,6,8,4,0,5,6,0,7,0,8,0,0,6,0,0,0,0,0,0,0,0,2,8,6,6,0,0,0,5,4,2,0,0,0,0,4,6,6,5,0,0,0,0,0,0,0,0,0,0,0,0,7,4,0,0,7,0,4,2,0,0,0,0,0,7,2,0,0,0,7,7,5,8,2,0,0,0,0,0,0,0,0,0,0,0,0,0,0,0,0,0],"split_type":[0,0,0,0,0,0,0,0,0,0,0,0,0,0,0,0,0,0,0,0,0,0,0,0,0,0,0,0,0,0,0,0,0,0,0,0,0,0,0,0,0,0,0,0,0,0,0,0,0,0,0,0,0,0,0,0,0,0,0,0,0,0,0,0,0,0,0,0,0,0,0,0,0,0,0,0,0,0,0,0,0,0,0,0,0,0,0,0,0,0,0,0,0,0,0],"sum_hessian":[3.46E2,2.2E1,3.24E2,1.1E1,1.1E1,1.6E1,3.08E2,8E0,3E0,9E0,2E0,1E1,6E0,3.3E1,2.75E2,1E0,7E0,1E0,2E0,6E0,3E0,7E0,3E0,1E0,5E0,7E0,2.6E1,2.68E2,7E0,2E0,5E0,1E0,5E0,4E0,3E0,2E0,1E0,1E0,6E0,2E1,6E0,1.72E2,9.6E1,4E0,3E0,1E0,1E0,3E0,2E0,2E0,2E0,1E0,2E0,5E0,1E0,1E1,1E1,1E0,5E0,1.68E2,4E0,3.2E1,6.4E1,3E0,1E0,1E0,1E0,1E0,9E0,9E0,1E0,4E0,1E0,1.7E1,1.51E2,4E0,2.8E1,6E1,4E0,8E0,1E0,1E0,8E0,6E0,1.1E1,1.11E2,4E1,1E0,3E0,4E0,2.4E1,3.8E1,2.2E1,1E0,3E0],"tree_param":{"num_deleted":"0","num_feature":"10","num_nodes":"95","size_leaf_vector":"1"}},{"base_weights":[-8.976379E-4,1.5417759E-3,-2.6861483E-3,7.9655874E-4,1.3790755E-2,3.6426884E-4,-4.0104245E-3,-7.943426E-3,1.2799386E-3,5.721234E-4,4.1955914E-3,6.8787076E-3,-1.6866191E-3,-8.119295E-3,-2.0566746E-3,-1.8954937E-6,-6.773307E-4,-4.5791822E-3,2.1067976E-3,2.1936868E-4,-6.068852E-5,8.67109E-3,-3.778645E-3,6.1642285E-4,-9.222874E-3,-1.0133368E-2,5.125043E-3,6.5295905E-4,-5.7048867E-3,1.4015239E-4,-1.7551805E-3,-7.0180073E-3,2.558299E-4,-2.8406836E-3,2.750596E-3,3.20199E-3,4.934639E-4,-3.4337142E-4,1.6210001E-4,-4.56187E-3,5.518777E-3,-8.7679154E-4,-1.1907481E-2,2.0542575E-4,-1.2206997E-2,-3.9295577E-3,1.2898383E-2,2.406994E-3,-5.8737053E-3,-8.277054E-3,1.8439809E-3,3.0790692E-5,-2.6753552E-3,-4.1010225E-4,-9.175075E-3,2.5939497E-3,-2.1462473E-3,4.4894097E-3,-5.047324E-3,6.361197E-3,9.5661136E-4,-2.6191337E-4,7.626617E-3,-9.631046E-3,6.228178E-3,1.0402031E-2,9.895003E-4,-1.0317059E-4,9.867328E-5,-4.460507E-4,7.050485E-5,3.7263657E-3,-2.2083156E-4,-6.3074883E-3,-1.4006538E-2,5.371545E-5,-2.0337569E-4,4.8578848E-4,9.6342344E-5,-9.310427E-3,3.3950538E-3,1.8372221E-3,-9.50492E-3,-5.9630596E-3,-1.6020026E-2,-1.61102E-4,3.7239713E-3,-1.15958544E-4,-3.6777597E-5,8.111618E-5,-2.2376892E-3,-5.3232638E-5,-3.1680593E-4,-2.3576105E-5,1.2632938E-4,-2.0932216E-6,-9.012544E-5,1.7252682E-4,2.8367896E-5,-1.052229E-2,-9.945551E-4,1.2064647E-2,3.4841741E-3,-2.9768567E-3,3.4469822E-3,1.1038074E-4,3.8516097E-4,-1.1310782E-2,2.9824875E-4,8.253948E-3,-9.4768955E-5,1.193938E-2,-5.4914475E-5,-2.1311076E-4,3.1864555E-3,6.3994583E-3,-1.5413748E-4,-3.2183615E-4,-2.1265412E-3,-2.0037089E-2,-1.0213122E-2,-3.5896932E-4,-5.7073077E-5,7.5111515E-3,6.277392E-4,1.2005616E-4,-2.2126935E-5,-2.5208849E-3,-5.6303E-4,-8.061123E-3,2.7482412E-5,-1.9556843E-2,8.3166575E-5,5.429709E-3,9.3229197E-4,-1.6293205E-5,-9.1054535E-5,-3.928147E-4,-5.5673107E-5,-7.698305E-5,3.2613643E-5,7.335059E-5,4.8186403E-4,-1.2664092E-4,1.4798876E-4,-2.0049918E-4,1.0489392E-4,-2.0820084E-5,1.4622489E-4,-5.185683E-4,-2.5184298E-4,-6.1920124E-5,7.622789E-5,6.8137466E-5,2.8951562E-4,7.136454E-5,4.117311E-4,-1.30307E-4,1.421886E-4,2.3485815E-4,4.1948002E-5,2.1077018E-5,-1.6412362E-4,-7.419481E-4,-1.9124981E-4,-1.6722981E-4,-5.532344E-4,6.1898327E-6,2.866129E-4,-3.699941E-4,6.431213E-5,-2.1340167E-4,1.2329106E-4,-1.2660555E-4,-4.8338505E-4,1.5279517E-4,-1.2082983E-4,-8.0482214E-4,-3.345758E-4,1.2978376E-5,2.031904E-4,4.8970618E-5,-2.3400476E-5],"categories":[],"categories_nodes":[],"categories_segments":[],"categories_sizes":[],"default_left":[0,0,0,0,0,0,0,0,0,0,0,0,0,0,0,0,0,0,0,0,0,0,0,0,0,0,0,0,0,0,0,0,0,0,0,0,0,0,0,0,0,0,0,0,0,0,0,0,0,0,0,0,0,0,0,0,0,0,0,0,0,0,0,0,0,0,0,0,0,0,0,0,0,0,0,0,0,0,0,0,0,0,0,0,0,0,0,0,0,0,0,0,0,0,0,0,0,0,0,0,0,0,0,0,0,0,0,0,0,0,0,0,0,0,0,0,0,0,0,0,0,0,0,0,0,0,0,0,0,0,0,0,0,0,0,0,0,0,0,0,0,0,0,0,0,0,0,0,0,0,0,0,0,0,0,0,0,0,0,0,0,0,0,0,0,0,0,0,0,0,0,0,0,0,0,0,0,0,0,0,0,0,0],"id":11,"left_children":[1,3,5,7,9,11,13,15,17,-1,19,21,23,25,27,29,-1,31,33,-1,-1,35,37,39,41,43,45,47,49,-1,51,53,55,57,59,61,-1,-1,-1,63,65,67,69,71,73,75,77,79,81,83,85,-1,87,89,91,93,95,97,99,101,103,-1,105,107,109,111,113,-1,-1,-1,-1,115,-1,117,119,-1,-1,-1,-1,121,123,125,127,129,131,-1,133,-1,-1,-1,135,-1,-1,-1,-1,-1,-1,-1,-1,137,139,141,143,145,147,-1,-1,149,151,153,-1,155,-1,-1,157,159,-1,-1,161,163,165,-1,-1,167,169,-1,-1,171,-1,173,175,177,-1,179,181,-1,-1,-1,-1,-1,-1,-1,-1,-1,-1,-1,-1,-1,-1,-1,-1,-1,-1,-1,-1,-1,-1,-1,-1,-1,-1,-1,-1,-1,-1,-1,-1,-1,-1,-1,-1,-1,-1,-1,-1,-1,-1,-1,-1,-1,-1,-1,-1],"loss_changes":[1.6271467E-3,1.4312626E-3,8.6997356E-4,6.43877E-4,2.788608E-4,8.9338707E-4,1.1874572E-3,8.4082526E-4,7.0243474E-4,0E0,7.793522E-5,3.383977E-4,8.908571E-4,1.3323373E-3,1.0219129E-3,5.381176E-5,0E0,2.1404692E-4,4.091463E-4,0E0,0E0,4.6807306E-4,2.3908964E-4,1.0406089E-3,2.5843107E-4,9.029377E-4,5.4337643E-4,7.010178E-4,8.696085E-4,0E0,1.5080615E-5,1.6728172E-4,4.4881668E-5,2.6528272E-4,7.1937946E-4,5.160846E-4,0E0,0E0,0E0,1.153917E-3,4.5417697E-4,4.7182868E-5,2.897886E-4,2.2601137E-4,2.832287E-4,6.519148E-5,4.484481E-5,5.873301E-4,3.8146303E-4,4.9573905E-4,1.7400006E-4,0E0,1.6295926E-6,2.7214955E-5,3.2908516E-5,2.0981219E-5,5.406926E-6,8.2576735E-6,2.5580023E-4,5.6509604E-4,7.547415E-4,0E0,8.7515684E-5,2.3687375E-4,1.5479597E-4,2.0681333E-4,2.22993E-4,0E0,0E0,0E0,0E0,1.679066E-4,0E0,1.3562164E-4,3.9014453E-4,0E0,0E0,0E0,0E0,3.7581107E-5,5.078591E-4,2.683436E-5,4.6474545E-4,3.3957226E-4,5.1185687E-4,0E0,4.255664E-5,0E0,0E0,0E0,1.7090597E-6,0E0,0E0,0E0,0E0,0E0,0E0,0E0,0E0,5.5904326E-5,2.5217047E-5,3.1746377E-4,2.3956539E-4,6.3853053E-4,2.1968753E-4,0E0,0E0,7.451943E-5,1.8592162E-5,1.0053918E-5,0E0,5.2927644E-5,0E0,0E0,1.09563705E-4,1.4384001E-5,0E0,0E0,5.361015E-5,2.6131188E-4,5.4521335E-4,0E0,0E0,1.893366E-4,4.956232E-4,0E0,0E0,1.8455005E-4,0E0,5.188808E-4,1.6266476E-4,4.2789616E-5,0E0,2.5262852E-5,6.103249E-6,0E0,0E0,0E0,0E0,0E0,0E0,0E0,0E0,0E0,0E0,0E0,0E0,0E0,0E0,0E0,0E0,0E0,0E0,0E0,0E0,0E0,0E0,0E0,0E0,0E0,0E0,0E0,0E0,0E0,0E0,0E0,0E0,0E0,0E0,0E0,0E0,0E0,0E0,0E0,0E0,0E0,0E0,0E0,0E0,0E0,0E0,0E0,0E0],"parents":[2147483647,0,0,1,1,2,2,3,3,4,4,5,5,6,6,7,7,8,8,10,10,11,11,12,12,13,13,14,14,15,15,17,17,18,18,21,21,22,22,23,23,24,24,25,25,26,26,27,27,28,28,30,30,31,31,32,32,33,33,34,34,35,35,39,39,40,40,41,41,42,42,43,43,44,44,45,45,46,46,47,47,48,48,49,49,50,50,52,52,53,53,54,54,55,55,56,56,57,57,58,58,59,59,60,60,62,62,63,63,64,64,65,65,66,66,71,71,73,73,74,74,79,79,80,80,81,81,82,82,83,83,84,84,86,86,90,90,99,99,100,100,101,101,102,102,103,103,104,104,107,107,108,108,109,109,111,111,114,114,115,115,118,118,119,119,120,120,123,123,124,124,127,127,129,129,130,130,131,131,133,133,134,134],"right_children":[2,4,6,8,10,12,14,16,18,-1,20,22,24,26,28,30,-1,32,34,-1,-1,36,38,40,42,44,46,48,50,-1,52,54,56,58,60,62,-1,-1,-1,64,66,68,70,72,74,76,78,80,82,84,86,-1,88,90,92,94,96,98,100,102,104,-1,106,108,110,112,114,-1,-1,-1,-1,116,-1,118,120,-1,-1,-1,-1,122,124,126,128,130,132,-1,134,-1,-1,-1,136,-1,-1,-1,-1,-1,-1,-1,-1,138,140,142,144,146,148,-1,-1,150,152,154,-1,156,-1,-1,158,160,-1,-1,162,164,166,-1,-1,168,170,-1,-1,172,-1,174,176,178,-1,180,182,-1,-1,-1,-1,-1,-1,-1,-1,-1,-1,-1,-1,-1,-1,-1,-1,-1,-1,-1,-1,-1,-1,-1,-1,-1,-1,-1,-1,-1,-1,-1,-1,-1,-1,-1,-1,-1,-1,-1,-1,-1,-1,-1,-1,-1,-1,-1,-1],"split_conditions":[1.6334632E-1,1.602302E-1,3.5857195E-1,3.687028E-1,5.4455733E-1,3.2752097E-1,4.8884192E-1,1.7781559E-1,4.57516E-2,5.721234E-4,1.0504995E-1,5.162465E-1,1.9087926E-1,5.1973003E-1,4.8718435E-1,1.02002844E-1,-6.773307E-4,6.277708E-1,1.3844363E-1,2.1936868E-4,-6.068852E-5,4.3799952E-1,1.8656194E-1,6.034655E-1,4.2222404E-1,2.5555086E-1,2.7435827E-1,2.2206004E-1,3.9605772E-1,1.4015239E-4,3.3851716E-1,4.3121052E-1,4.0584076E-2,3.9709833E-1,2.797105E-1,1.8010949E-1,4.934639E-4,-3.4337142E-4,1.6210001E-4,5.156003E-1,1.922002E-1,3.2872528E-1,7.244992E-1,3.4288773E-1,3.610865E-1,3.987525E-1,4.8129854E-1,2.9619583E-1,6.242835E-1,6.3009924E-1,4.8420104E-1,3.0790692E-5,1.120765E-1,3.3590636E-1,2.8551114E-1,2.923867E-2,4.0797718E-2,7.7105716E-2,4.8223475E-1,4.6083885E-1,3.7962657E-1,-2.6191337E-4,1.3016546E-1,3.3590636E-1,2.3986454E-1,5.585625E-1,2.1885876E-1,-1.0317059E-4,9.867328E-5,-4.460507E-4,7.050485E-5,1.8656194E-1,-2.2083156E-4,3.192936E-1,2.353565E-1,5.371545E-5,-2.0337569E-4,4.8578848E-4,9.6342344E-5,2.2057612E-1,4.573262E-1,3.455781E-1,7.9706085E-1,5.6201565E-1,1.746896E-1,-1.61102E-4,6.1312497E-1,-1.15958544E-4,-3.6777597E-5,8.111618E-5,9.056466E-3,-5.3232638E-5,-3.1680593E-4,-2.3576105E-5,1.2632938E-4,-2.0932216E-6,-9.012544E-5,1.7252682E-4,2.8367896E-5,1.3402867E-1,1.2760393E-1,1.1313172E-1,3.909939E-1,2.0097396E-1,4.8565865E-1,1.1038074E-4,3.8516097E-4,1.7936048E-1,8.003881E-2,1.7563142E-1,-9.4768955E-5,6.635034E-2,-5.4914475E-5,-2.1311076E-4,1.6957283E-1,1.0380684E-1,-1.5413748E-4,-3.2183615E-4,2.5140125E-1,4.3799952E-1,1.5411206E-1,-3.5896932E-4,-5.7073077E-5,1.7325029E-1,4.7201225E-1,1.2005616E-4,-2.2126935E-5,2.7759793E-1,-5.6303E-4,5.420394E-1,9.823739E-2,1.7884985E-1,8.3166575E-5,1.3016546E-1,6.9801944E-1,-1.6293205E-5,-9.1054535E-5,-3.928147E-4,-5.5673107E-5,-7.698305E-5,3.2613643E-5,7.335059E-5,4.8186403E-4,-1.2664092E-4,1.4798876E-4,-2.0049918E-4,1.0489392E-4,-2.0820084E-5,1.4622489E-4,-5.185683E-4,-2.5184298E-4,-6.1920124E-5,7.622789E-5,6.8137466E-5,2.8951562E-4,7.136454E-5,4.117311E-4,-1.30307E-4,1.421886E-4,2.3485815E-4,4.1948002E-5,2.1077018E-5,-1.6412362E-4,-7.419481E-4,-1.9124981E-4,-1.6722981E-4,-5.532344E-4,6.1898327E-6,2.866129E-4,-3.699941E-4,6.431213E-5,-2.1340167E-4,1.2329106E-4,-1.2660555E-4,-4.8338505E-4,1.5279517E-4,-1.2082983E-4,-8.0482214E-4,-3.345758E-4,1.2978376E-5,2.031904E-4,4.8970618E-5,-2.3400476E-5],"split_indices":[6,6,4,3,9,8,9,2,2,0,2,3,2,7,3,2,0,9,7,0,0,3,2,9,7,9,6,2,7,0,3,3,2,9,7,6,0,0,0,3,4,4,3,8,3,3,2,8,9,8,8,0,2,4,8,2,2,2,4,9,8,0,2,4,6,3,4,0,0,0,0,2,0,3,7,0,0,0,0,6,8,2,4,8,2,0,7,0,0,0,2,0,0,0,0,0,0,0,0,2,2,6,3,2,9,0,0,4,2,6,0,2,0,0,6,2,0,0,6,3,2,0,0,6,8,0,0,2,0,3,7,6,0,2,4,0,0,0,0,0,0,0,0,0,0,0,0,0,0,0,0,0,0,0,0,0,0,0,0,0,0,0,0,0,0,0,0,0,0,0,0,0,0,0,0,0,0,0,0,0,0,0,0],"split_type":[0,0,0,0,0,0,0,0,0,0,0,0,0,0,0,0,0,0,0,0,0,0,0,0,0,0,0,0,0,0,0,0,0,0,0,0,0,0,0,0,0,0,0,0,0,0,0,0,0,0,0,0,0,0,0,0,0,0,0,0,0,0,0,0,0,0,0,0,0,0,0,0,0,0,0,0,0,0,0,0,0,0,0,0,0,0,0,0,0,0,0,0,0,0,0,0,0,0,0,0,0,0,0,0,0,0,0,0,0,0,0,0,0,0,0,0,0,0,0,0,0,0,0,0,0,0,0,0,0,0,0,0,0,0,0,0,0,0,0,0,0,0,0,0,0,0,0,0,0,0,0,0,0,0,0,0,0,0,0,0,0,0,0,0,0,0,0,0,0,0,0,0,0,0,0,0,0,0,0,0,0,0,0],"sum_hessian":[3.71E2,1.57E2,2.14E2,1.49E2,8E0,6.5E1,1.49E2,7E0,1.42E2,5E0,3E0,1.5E1,5E1,4.7E1,1.02E2,5E0,2E0,1.7E1,1.25E2,2E0,1E0,1.3E1,2E0,3.9E1,1.1E1,4.1E1,6E0,5.9E1,4.3E1,1E0,4E0,1.1E1,6E0,1.4E1,1.11E2,8E0,5E0,1E0,1E0,1.9E1,2E1,3E0,8E0,7E0,3.4E1,3E0,3E0,4.7E1,1.2E1,3.2E1,1.1E1,1E0,3E0,3E0,8E0,3E0,3E0,3E0,1.1E1,3.6E1,7.5E1,2E0,6E0,1.3E1,6E0,9E0,1.1E1,2E0,1E0,7E0,1E0,5E0,2E0,9E0,2.5E1,1E0,2E0,2E0,1E0,3E0,4.4E1,4E0,8E0,2.6E1,6E0,2E0,9E0,1E0,2E0,1E0,2E0,1E0,7E0,1E0,2E0,1E0,2E0,2E0,1E0,4E0,7E0,1.1E1,2.5E1,2.9E1,4.6E1,4E0,2E0,1.1E1,2E0,5E0,1E0,8E0,1E0,2E0,9E0,4E0,1E0,4E0,5E0,8E0,1.7E1,2E0,1E0,1.7E1,2.7E1,2E0,2E0,5E0,3E0,1.9E1,7E0,5E0,1E0,5E0,4E0,1E0,1E0,3E0,1E0,4E0,3E0,3E0,8E0,3E0,2.2E1,1.9E1,1E1,1E1,3.6E1,3E0,8E0,1E0,1E0,1E0,4E0,1E0,7E0,1E0,8E0,3E0,1E0,3E0,2E0,6E0,2E0,1.1E1,6E0,3E0,1.4E1,2E0,2.5E1,3E0,2E0,1.3E1,6E0,3E0,4E0,2E0,3E0,1E0,4E0,3E0,1E0],"tree_param":{"num_deleted":"0","num_feature":"10","num_nodes":"183","size_leaf_vector":"1"}},{"base_weights":[-3.529271E-5,-3.132129E-4,1.2336568E-2,1.9765035E-3,-1.6876918E-3,-5.054283E-5,1.4550468E-2,3.5330567E-3,-5.689168E-3,-9.275248E-5,-3.8755047E-3,1.6276605E-2,6.70599E-5,2.6153305E-3,1.6925327E-2,3.0936938E-4,-1.1213608E-2,-2.0784165E-3,2.6527608E-3,-1.5796786E-2,-3.0282778E-3,5.9691374E-4,6.937741E-5,-3.8698276E-3,3.5634693E-3,2.4374995E-2,-1.1325619E-3,-1.6839079E-4,1.9508089E-3,1.5068345E-3,-1.390838E-2,-3.0811857E-3,3.5264513E-3,3.6665234E-3,-5.162266E-4,-6.132075E-4,1.7393411E-5,-4.2286958E-3,4.314835E-3,-6.3884626E-3,2.3969197E-4,8.092289E-3,2.6584594E-3,9.614633E-4,3.377941E-4,3.7056816E-5,-9.138874E-5,4.318179E-3,-1.280197E-3,1.196441E-4,-4.7357345E-5,-1.54614085E-2,1.1014587E-6,-1.0372241E-3,-8.791358E-3,6.5762345E-3,-6.193709E-4,4.417192E-4,2.5564833E-3,-1.9228023E-3,-8.195339E-3,5.849802E-3,-2.2554735E-4,-9.268503E-3,5.3411596E-3,3.7978804E-3,6.0613186E-4,-4.032294E-3,3.686573E-3,-3.35842E-5,1.7915707E-4,-1.4141985E-4,2.2882337E-3,-1.9725593E-4,-1.7235624E-2,-3.1462188E-3,3.5092165E-3,-1.0288441E-2,5.195438E-5,2.7342487E-5,2.3625838E-4,3.364408E-5,-5.4945882E-5,9.149337E-3,1.7671331E-3,-6.1629754E-3,6.5488805E-4,-6.090798E-3,-5.327537E-4,7.2181583E-3,-1.4714983E-4,-3.3609153E-4,3.029832E-5,2.1495204E-4,4.1277217E-5,3.056959E-4,5.4046555E-5,-2.3823022E-4,2.4183838E-4,2.355102E-4,9.823453E-6,9.480174E-5,1.4970749E-5,-5.894197E-4,-1.6102845E-4,-1.20911805E-4,1.4934882E-4,2.64521E-4,-1.85673E-4,-4.9950165E-4,-1.1745222E-4,4.8470352E-4,2.9824619E-6,-3.5908862E-4,1.0582102E-4,2.4133267E-4,-2.943925E-4,-1.6928629E-4,9.140829E-5,7.341232E-5,-2.2251355E-4,-3.968634E-5,2.6187135E-4],"categories":[],"categories_nodes":[],"categories_segments":[],"categories_sizes":[],"default_left":[0,0,0,0,0,0,0,0,0,0,0,0,0,0,0,0,0,0,0,0,0,0,0,0,0,0,0,0,0,0,0,0,0,0,0,0,0,0,0,0,0,0,0,0,0,0,0,0,0,0,0,0,0,0,0,0,0,0,0,0,0,0,0,0,0,0,0,0,0,0,0,0,0,0,0,0,0,0,0,0,0,0,0,0,0,0,0,0,0,0,0,0,0,0,0,0,0,0,0,0,0,0,0,0,0,0,0,0,0,0,0,0,0,0,0,0,0,0,0,0,0,0,0],"id":12,"left_children":[1,3,5,7,9,-1,11,13,15,17,19,21,-1,23,25,27,29,31,33,35,37,-1,-1,39,41,43,45,-1,47,49,51,53,55,57,-1,-1,-1,59,61,63,-1,65,67,-1,-1,-1,-1,69,71,-1,-1,73,-1,75,77,79,81,-1,83,85,87,89,-1,91,93,95,-1,97,99,-1,-1,-1,101,-1,103,105,107,109,-1,-1,-1,-1,-1,111,113,115,117,119,-1,121,-1,-1,-1,-1,-1,-1,-1,-1,-1,-1,-1,-1,-1,-1,-1,-1,-1,-1,-1,-1,-1,-1,-1,-1,-1,-1,-1,-1,-1,-1,-1,-1,-1],"loss_changes":[1.2519995E-3,1.1237271E-3,2.6948063E-4,1.6189914E-3,7.777832E-4,0E0,1.16348034E-4,1.3322635E-3,7.65656E-4,7.1423023E-4,9.01566E-4,1.6160856E-4,0E0,6.6556595E-4,9.6928305E-4,1.2007564E-4,4.32302E-4,4.380152E-4,1.1070818E-3,3.415118E-4,8.0276385E-4,0E0,0E0,4.4860097E-4,3.596592E-4,7.530488E-5,1.5167979E-5,0E0,8.2017985E-5,2.5564046E-5,2.1706847E-4,7.495208E-4,1.5579944E-4,5.6154805E-4,0E0,0E0,0E0,6.8853435E-4,2.6808298E-4,4.54886E-4,0E0,6.2759E-4,5.582948E-4,0E0,0E0,0E0,0E0,4.722944E-5,6.6172994E-5,0E0,0E0,4.2095082E-5,0E0,4.808733E-4,2.8180133E-4,2.616641E-5,1.2824898E-5,0E0,2.3883133E-4,5.5052876E-4,3.972234E-4,2.0481725E-4,0E0,1.3666914E-4,8.093681E-6,1.2956372E-4,0E0,4.920691E-4,8.5521553E-4,0E0,0E0,0E0,2.3037264E-6,0E0,9.200769E-6,1.8625279E-4,7.5770065E-4,4.7157856E-4,0E0,0E0,0E0,0E0,0E0,2.7055448E-4,9.386815E-4,8.6182164E-4,4.3449478E-4,1.9041612E-4,0E0,1.0041869E-4,0E0,0E0,0E0,0E0,0E0,0E0,0E0,0E0,0E0,0E0,0E0,0E0,0E0,0E0,0E0,0E0,0E0,0E0,0E0,0E0,0E0,0E0,0E0,0E0,0E0,0E0,0E0,0E0,0E0,0E0,0E0,0E0,0E0],"parents":[2147483647,0,0,1,1,2,2,3,3,4,4,6,6,7,7,8,8,9,9,10,10,11,11,13,13,14,14,15,15,16,16,17,17,18,18,19,19,20,20,23,23,24,24,25,25,26,26,28,28,29,29,30,30,31,31,32,32,33,33,37,37,38,38,39,39,41,41,42,42,47,47,48,48,51,51,53,53,54,54,55,55,56,56,58,58,59,59,60,60,61,61,63,63,64,64,65,65,67,67,68,68,72,72,74,74,75,75,76,76,77,77,83,83,84,84,85,85,86,86,87,87,89,89],"right_children":[2,4,6,8,10,-1,12,14,16,18,20,22,-1,24,26,28,30,32,34,36,38,-1,-1,40,42,44,46,-1,48,50,52,54,56,58,-1,-1,-1,60,62,64,-1,66,68,-1,-1,-1,-1,70,72,-1,-1,74,-1,76,78,80,82,-1,84,86,88,90,-1,92,94,96,-1,98,100,-1,-1,-1,102,-1,104,106,108,110,-1,-1,-1,-1,-1,112,114,116,118,120,-1,122,-1,-1,-1,-1,-1,-1,-1,-1,-1,-1,-1,-1,-1,-1,-1,-1,-1,-1,-1,-1,-1,-1,-1,-1,-1,-1,-1,-1,-1,-1,-1,-1,-1],"split_conditions":[6.3370913E-1,3.7178454E-1,4.2222404E-1,2.821254E-1,1.7633948E-1,-5.054283E-5,8.0268735E-1,3.1587052E-1,5.5759525E-1,1.4586636E-1,1.7913659E-1,3.52948E-1,6.70599E-5,3.3851716E-1,3.9496154E-1,3.0384707E-1,7.7549264E-2,4.8243695E-1,8.822084E-1,1.3261059E-1,8.321106E-1,5.9691374E-4,6.937741E-5,2.759146E-1,3.7489533E-1,2.6699567E-1,3.1235713E-1,-1.6839079E-4,7.3402876E-1,1.0247393E-1,8.199803E-1,1.2240178E-1,5.6367594E-1,4.1803833E-2,-5.162266E-4,-6.132075E-4,1.7393411E-5,4.581989E-1,3.8979152E-1,2.6211566E-1,2.3969197E-4,5.389982E-1,1.2070011E-1,9.614633E-4,3.377941E-4,3.7056816E-5,-9.138874E-5,3.373612E-1,3.5695794E-1,1.196441E-4,-4.7357345E-5,1.811336E-1,1.1014587E-6,5.352986E-1,2.427047E-1,9.9268675E-2,2.6690528E-1,4.417192E-4,1.6214007E-1,3.385013E-1,5.409875E-1,9.726639E-1,-2.2554735E-4,3.100015E-1,2.3320441E-1,2.393818E-1,6.0613186E-4,4.683254E-1,4.470342E-1,-3.35842E-5,1.7915707E-4,-1.4141985E-4,8.908131E-2,-1.9725593E-4,7.11946E-1,5.781755E-1,4.9718606E-1,7.644867E-1,5.195438E-5,2.7342487E-5,2.3625838E-4,3.364408E-5,-5.4945882E-5,4.356633E-1,2.8460586E-1,4.975427E-3,1.7318726E-1,4.069081E-1,-5.327537E-4,5.8492836E-2,-1.4714983E-4,-3.3609153E-4,3.029832E-5,2.1495204E-4,4.1277217E-5,3.056959E-4,5.4046555E-5,-2.3823022E-4,2.4183838E-4,2.355102E-4,9.823453E-6,9.480174E-5,1.4970749E-5,-5.894197E-4,-1.6102845E-4,-1.20911805E-4,1.4934882E-4,2.64521E-4,-1.85673E-4,-4.9950165E-4,-1.1745222E-4,4.8470352E-4,2.9824619E-6,-3.5908862E-4,1.0582102E-4,2.4133267E-4,-2.943925E-4,-1.6928629E-4,9.140829E-5,7.341232E-5,-2.2251355E-4,-3.968634E-5,2.6187135E-4],"split_indices":[0,0,7,1,6,0,4,6,7,6,6,6,0,3,6,1,4,0,4,1,5,0,0,1,3,0,0,0,4,0,4,1,3,1,0,0,0,5,1,6,0,7,5,0,0,0,0,5,1,0,0,6,0,4,1,1,7,0,4,4,0,4,0,0,0,0,0,3,4,0,0,0,0,0,1,7,3,5,0,0,0,0,0,0,4,5,7,3,0,1,0,0,0,0,0,0,0,0,0,0,0,0,0,0,0,0,0,0,0,0,0,0,0,0,0,0,0,0,0,0,0,0,0],"split_type":[0,0,0,0,0,0,0,0,0,0,0,0,0,0,0,0,0,0,0,0,0,0,0,0,0,0,0,0,0,0,0,0,0,0,0,0,0,0,0,0,0,0,0,0,0,0,0,0,0,0,0,0,0,0,0,0,0,0,0,0,0,0,0,0,0,0,0,0,0,0,0,0,0,0,0,0,0,0,0,0,0,0,0,0,0,0,0,0,0,0,0,0,0,0,0,0,0,0,0,0,0,0,0,0,0,0,0,0,0,0,0,0,0,0,0,0,0,0,0,0,0,0,0],"sum_hessian":[3.62E2,3.55E2,7E0,1.33E2,2.22E2,1E0,6E0,1.11E2,2.2E1,1.29E2,9.3E1,5E0,1E0,1.05E2,6E0,1.1E1,1.1E1,7.5E1,5.4E1,5E0,8.8E1,4E0,1E0,1.3E1,9.2E1,4E0,2E0,2E0,9E0,2E0,9E0,6.4E1,1.1E1,5.2E1,2E0,4E0,1E0,7.6E1,1.2E1,1.1E1,2E0,1.4E1,7.8E1,2E0,2E0,1E0,1E0,5E0,4E0,1E0,1E0,8E0,1E0,4.8E1,1.6E1,6E0,5E0,4E0,4.8E1,4.9E1,2.7E1,1.1E1,1E0,9E0,2E0,1.1E1,3E0,1E1,6.8E1,1E0,4E0,2E0,2E0,2E0,6E0,3.3E1,1.5E1,1.4E1,2E0,1E0,5E0,2E0,3E0,4E0,4.4E1,1.8E1,3.1E1,2.3E1,4E0,1E1,1E0,8E0,1E0,1E0,1E0,2E0,9E0,8E0,2E0,3.2E1,3.6E1,1E0,1E0,5E0,1E0,3.1E1,2E0,1E1,5E0,7E0,7E0,2E0,2E0,4E0,4E1,3E0,1.5E1,8E0,2.3E1,2E0,2.1E1,1E0,9E0],"tree_param":{"num_deleted":"0","num_feature":"10","num_nodes":"123","size_leaf_vector":"1"}},{"base_weights":[-2.4671905E-4,1.3016155E-3,-1.6022663E-3,7.4842223E-4,9.690629E-3,-1.0152301E-2,-3.934063E-4,3.8829432E-3,-1.2936437E-3,4.447986E-4,4.561133E-3,-4.42606E-3,-1.4216635E-2,-1.05434535E-2,3.3415164E-4,7.3679094E-4,2.843151E-3,-7.365204E-4,-1.3644789E-2,5.7802867E-5,2.9311157E-4,-7.774697E-3,2.2691689E-4,2.302961E-5,-1.6997864E-2,-1.8938288E-2,-3.0409356E-3,7.6899736E-4,-7.6979073E-3,1.6502077E-3,1.8833572E-2,-2.6218349E-3,3.8294785E-3,-1.2488785E-4,-4.985866E-4,2.549177E-5,-2.8610218E-4,-1.9776862E-2,-2.9949176E-3,-6.727248E-4,-1.6874819E-4,1.5360628E-4,-5.1487377E-3,-5.9488515E-4,4.1928673E-3,-5.006457E-4,-1.1916135E-2,5.768813E-3,-4.977129E-3,-8.992735E-5,8.6305843E-4,-3.9903056E-3,9.286965E-3,7.381902E-3,-7.3748613E-3,-7.135918E-4,8.125401E-6,-1.30171675E-5,-1.3065677E-4,-2.6854634E-4,-1.4254556E-3,7.036948E-3,-1.20559E-3,1.0807209E-2,2.5612218E-3,-2.043054E-3,6.598755E-5,-1.032319E-4,-4.2475725E-4,7.3596924E-3,-5.2483985E-3,-7.17104E-4,-3.0786775E-3,-1.6627104E-3,-1.0141798E-2,2.0562652E-4,4.1187266E-4,9.651499E-3,9.932858E-5,-5.1041006E-4,-7.491485E-4,-7.543011E-5,2.1968102E-5,-3.2089435E-4,1.0908991E-2,-7.4687693E-4,-3.0958373E-4,4.2026545E-4,1.6593457E-4,5.6528384E-3,1.0984617E-3,2.8924655E-5,-1.2693524E-4,1.5901582E-4,4.350332E-4,-4.28375E-5,-1.8839732E-4,-3.1045772E-4,-3.0317713E-5,-1.7311744E-4,6.3861924E-5,6.510949E-5,-3.8464024E-4,-1.994939E-5,2.9813826E-5,9.592219E-5,3.9665564E-4,-1.3670235E-4,1.0729182E-4,3.6375277E-5,-4.8136466E-5,3.884088E-6,4.8611328E-4,-3.5739147E-5,3.515105E-4,-2.1055511E-4,2.409773E-4,-9.541706E-5,8.137826E-5],"categories":[],"categories_nodes":[],"categories_segments":[],"categories_sizes":[],"default_left":[0,0,0,0,0,0,0,0,0,0,0,0,0,0,0,0,0,0,0,0,0,0,0,0,0,0,0,0,0,0,0,0,0,0,0,0,0,0,0,0,0,0,0,0,0,0,0,0,0,0,0,0,0,0,0,0,0,0,0,0,0,0,0,0,0,0,0,0,0,0,0,0,0,0,0,0,0,0,0,0,0,0,0,0,0,0,0,0,0,0,0,0,0,0,0,0,0,0,0,0,0,0,0,0,0,0,0,0,0,0,0,0,0,0,0,0,0,0,0],"id":13,"left_children":[1,3,5,7,9,11,13,15,17,-1,19,21,23,25,27,-1,29,31,33,-1,-1,35,-1,-1,37,39,41,43,45,47,49,51,53,-1,-1,-1,-1,55,57,-1,-1,-1,59,61,63,65,67,69,71,-1,-1,73,75,77,79,-1,-1,-1,-1,-1,81,83,85,87,89,91,-1,-1,-1,93,95,-1,97,99,101,103,-1,105,107,-1,109,-1,-1,-1,111,113,-1,-1,-1,115,117,-1,-1,-1,-1,-1,-1,-1,-1,-1,-1,-1,-1,-1,-1,-1,-1,-1,-1,-1,-1,-1,-1,-1,-1,-1,-1,-1,-1],"loss_changes":[7.324821E-4,7.491888E-4,1.9184639E-3,9.907614E-4,1.52889E-4,4.7236378E-4,1.2146217E-3,1.1494454E-3,6.367748E-4,0E0,5.950271E-5,4.7954894E-4,5.5229175E-4,6.352161E-4,5.4379646E-4,0E0,1.0943852E-3,7.9339964E-4,1.4896155E-5,0E0,0E0,9.747647E-5,0E0,0E0,3.6882586E-4,3.221503E-5,1.4046245E-4,6.889485E-4,2.369117E-4,1.5572537E-3,7.817296E-4,1.0963526E-3,1.1291096E-3,0E0,0E0,0E0,0E0,4.6278653E-4,6.803026E-6,0E0,0E0,0E0,6.059288E-5,5.025282E-4,4.2559532E-4,2.0033947E-5,1.643278E-5,6.520734E-4,6.5958285E-4,0E0,0E0,8.279101E-4,2.2565556E-4,3.4613977E-4,3.8619616E-4,0E0,0E0,0E0,0E0,0E0,9.504057E-6,6.3824304E-4,3.776161E-4,3.6715763E-5,1.5207088E-4,2.0619522E-5,0E0,0E0,0E0,3.944378E-4,4.664893E-6,0E0,2.8739666E-4,6.1468064E-4,3.9177726E-4,2.3893904E-6,0E0,2.5561312E-4,9.977035E-5,0E0,8.84273E-6,0E0,0E0,0E0,3.2215886E-4,4.2554768E-4,0E0,0E0,0E0,3.0292603E-4,1.5516032E-4,0E0,0E0,0E0,0E0,0E0,0E0,0E0,0E0,0E0,0E0,0E0,0E0,0E0,0E0,0E0,0E0,0E0,0E0,0E0,0E0,0E0,0E0,0E0,0E0,0E0,0E0,0E0,0E0],"parents":[2147483647,0,0,1,1,2,2,3,3,4,4,5,5,6,6,7,7,8,8,10,10,11,11,12,12,13,13,14,14,16,16,17,17,18,18,21,21,24,24,25,25,26,26,27,27,28,28,29,29,30,30,31,31,32,32,37,37,38,38,42,42,43,43,44,44,45,45,46,46,47,47,48,48,51,51,52,52,53,53,54,54,60,60,61,61,62,62,63,63,64,64,65,65,69,69,70,70,72,72,73,73,74,74,75,75,77,77,78,78,80,80,84,84,85,85,89,89,90,90],"right_children":[2,4,6,8,10,12,14,16,18,-1,20,22,24,26,28,-1,30,32,34,-1,-1,36,-1,-1,38,40,42,44,46,48,50,52,54,-1,-1,-1,-1,56,58,-1,-1,-1,60,62,64,66,68,70,72,-1,-1,74,76,78,80,-1,-1,-1,-1,-1,82,84,86,88,90,92,-1,-1,-1,94,96,-1,98,100,102,104,-1,106,108,-1,110,-1,-1,-1,112,114,-1,-1,-1,116,118,-1,-1,-1,-1,-1,-1,-1,-1,-1,-1,-1,-1,-1,-1,-1,-1,-1,-1,-1,-1,-1,-1,-1,-1,-1,-1,-1,-1],"split_conditions":[4.4851357E-1,7.2919506E-1,4.756394E-1,2.6947993E-1,7.5377005E-1,4.5754805E-1,4.0453827E-1,3.3346072E-1,3.5541573E-1,4.447986E-4,7.8497136E-1,4.8223475E-1,1.5096948E-1,4.0119088E-1,9.2738485E-1,7.3679094E-4,3.2535636E-1,1.9087926E-1,2.171275E-1,5.7802867E-5,2.9311157E-4,1.7432645E-1,2.2691689E-4,2.302961E-5,3.8855815E-1,7.5377005E-1,3.0321023E-1,6.2953395E-1,1.3674445E-1,1.9833241E-1,1.2605661E-1,6.105888E-1,4.562747E-1,-1.2488785E-4,-4.985866E-4,2.549177E-5,-2.8610218E-4,8.578744E-1,1.0203022E-1,-6.727248E-4,-1.6874819E-4,1.5360628E-4,1.7935586E-1,1.2645473E-1,6.976063E-1,2.9689074E-1,8.127953E-1,6.162758E-1,4.367149E-2,-8.992735E-5,8.6305843E-4,5.1353174E-1,1.5300463E-1,5.918508E-1,7.644867E-1,-7.135918E-4,8.125401E-6,-1.30171675E-5,-1.3065677E-4,-2.6854634E-4,9.170312E-2,2.03263E-1,5.016916E-1,1.4161196E-1,6.3648957E-1,1.19442634E-1,6.598755E-5,-1.032319E-4,-4.2475725E-4,2.3651017E-1,4.3069545E-2,-7.17104E-4,2.0434794E-1,3.5858133E-1,9.236434E-2,9.59935E-2,4.1187266E-4,1.602302E-1,2.0957273E-1,-5.1041006E-4,2.1077235E-1,-7.543011E-5,2.1968102E-5,-3.2089435E-4,7.62573E-1,7.4325025E-1,-3.0958373E-4,4.2026545E-4,1.6593457E-4,7.848484E-2,6.54686E-1,2.8924655E-5,-1.2693524E-4,1.5901582E-4,4.350332E-4,-4.28375E-5,-1.8839732E-4,-3.1045772E-4,-3.0317713E-5,-1.7311744E-4,6.3861924E-5,6.510949E-5,-3.8464024E-4,-1.994939E-5,2.9813826E-5,9.592219E-5,3.9665564E-4,-1.3670235E-4,1.0729182E-4,3.6375277E-5,-4.8136466E-5,3.884088E-6,4.8611328E-4,-3.5739147E-5,3.515105E-4,-2.1055511E-4,2.409773E-4,-9.541706E-5,8.137826E-5],"split_indices":[8,7,8,7,7,8,9,4,6,0,9,4,6,5,5,0,6,2,2,0,0,4,0,0,7,7,9,4,6,6,2,9,9,0,0,0,0,9,2,0,0,0,6,4,5,2,4,9,2,0,0,7,6,7,5,0,0,0,0,0,2,7,5,6,9,2,0,0,0,7,2,0,6,7,6,2,0,6,6,0,2,0,0,0,9,7,0,0,0,2,9,0,0,0,0,0,0,0,0,0,0,0,0,0,0,0,0,0,0,0,0,0,0,0,0,0,0,0,0],"split_type":[0,0,0,0,0,0,0,0,0,0,0,0,0,0,0,0,0,0,0,0,0,0,0,0,0,0,0,0,0,0,0,0,0,0,0,0,0,0,0,0,0,0,0,0,0,0,0,0,0,0,0,0,0,0,0,0,0,0,0,0,0,0,0,0,0,0,0,0,0,0,0,0,0,0,0,0,0,0,0,0,0,0,0,0,0,0,0,0,0,0,0,0,0,0,0,0,0,0,0,0,0,0,0,0,0,0,0,0,0,0,0,0,0,0,0,0,0,0,0],"sum_hessian":[3.47E2,1.62E2,1.85E2,1.53E2,9E0,2.2E1,1.63E2,6E1,9.3E1,4E0,5E0,1E1,1.2E1,1E1,1.53E2,2E0,5.8E1,9E1,3E0,4E0,1E0,8E0,2E0,2E0,1E1,4E0,6E0,1.46E2,7E0,5.5E1,3E0,6.4E1,2.6E1,1E0,2E0,1E0,7E0,8E0,2E0,3E0,1E0,1E0,5E0,1.05E2,4.1E1,3E0,4E0,3.4E1,2.1E1,1E0,2E0,5.8E1,6E0,2E1,6E0,7E0,1E0,1E0,1E0,2E0,3E0,7E0,9.8E1,7E0,3.4E1,2E0,1E0,1E0,3E0,3E1,4E0,1E0,2E1,4.3E1,1.5E1,2E0,4E0,1.5E1,5E0,2E0,4E0,2E0,1E0,1E0,6E0,9.4E1,4E0,4E0,3E0,1E1,2.4E1,1E0,1E0,2.3E1,7E0,1E0,3E0,4E0,1.6E1,2.1E1,2.2E1,2E0,1.3E1,1E0,1E0,5E0,1E1,2E0,3E0,1E0,3E0,2E0,4E0,9.2E1,2E0,1E0,9E0,6E0,1.8E1],"tree_param":{"num_deleted":"0","num_feature":"10","num_nodes":"119","size_leaf_vector":"1"}},{"base_weights":[-1.4556138E-4,-4.4368394E-4,8.5866535E-3,-1.8401959E-4,-1.155379E-2,1.1151253E-2,-2.824228E-3,1.1331651E-2,-5.627273E-4,1.8269326E-4,-1.8261267E-2,4.1684485E-3,1.5111715E-2,4.528687E-5,-1.8077239E-4,2.239654E-2,1.8093515E-3,-9.128839E-4,4.9803765E-3,-7.60962E-4,-3.053187E-4,2.3079268E-4,-2.689783E-4,5.5242266E-4,6.883951E-5,2.65488E-4,9.28312E-4,-1.5999564E-4,1.7701004E-4,-4.0012933E-3,-3.698797E-4,1.0477864E-2,-4.575588E-3,2.538273E-5,-3.8286315E-5,4.8191533E-3,-5.934184E-3,2.7978994E-4,-2.4131474E-3,5.1032554E-4,7.2385096E-3,5.151255E-3,-3.6593314E-4,6.25522E-4,2.1785041E-4,-1.3032517E-2,-1.8837664E-3,3.86335E-3,-2.1672274E-4,-8.830318E-3,6.3515815E-4,8.592317E-3,3.887445E-5,2.5334954E-4,5.0761664E-5,-8.142164E-6,3.2101805E-5,-6.469248E-4,-1.6334499E-4,1.3803004E-5,-6.325569E-4,6.3026215E-5,5.4643734E-4,-9.426852E-5,1.1044921E-5,2.4851051E-6,-4.250333E-4,-1.6577469E-4,1.0109222E-4,3.0523996E-4,3.084862E-5],"categories":[],"categories_nodes":[],"categories_segments":[],"categories_sizes":[],"default_left":[0,0,0,0,0,0,0,0,0,0,0,0,0,0,0,0,0,0,0,0,0,0,0,0,0,0,0,0,0,0,0,0,0,0,0,0,0,0,0,0,0,0,0,0,0,0,0,0,0,0,0,0,0,0,0,0,0,0,0,0,0,0,0,0,0,0,0,0,0,0,0],"id":14,"left_children":[1,3,5,7,9,11,13,15,17,-1,19,21,23,-1,-1,25,27,29,31,-1,-1,-1,33,-1,-1,-1,-1,-1,-1,35,37,39,41,-1,-1,43,45,47,49,-1,51,53,-1,55,-1,57,59,61,63,65,67,69,-1,-1,-1,-1,-1,-1,-1,-1,-1,-1,-1,-1,-1,-1,-1,-1,-1,-1,-1],"loss_changes":[9.4619364E-4,1.0104734E-3,3.8266584E-4,1.5065855E-3,1.0308183E-3,2.135589E-4,4.397992E-5,1.1184721E-3,6.5282534E-4,0E0,6.212504E-5,6.956619E-5,1.3087771E-4,0E0,0E0,2.262895E-4,2.0533123E-4,5.2678114E-4,1.0986184E-3,0E0,0E0,0E0,3.909001E-6,0E0,0E0,0E0,0E0,0E0,0E0,8.298987E-4,3.577589E-4,1.1522265E-4,5.9324416E-4,0E0,0E0,7.094376E-5,1.096747E-3,3.655903E-4,1.2771059E-3,0E0,7.1095536E-5,2.6922564E-5,0E0,1.5870892E-6,0E0,6.9502764E-4,1.0857981E-3,5.919734E-4,2.788421E-4,8.352761E-4,6.777242E-4,4.887965E-5,0E0,0E0,0E0,0E0,0E0,0E0,0E0,0E0,0E0,0E0,0E0,0E0,0E0,0E0,0E0,0E0,0E0,0E0,0E0],"parents":[2147483647,0,0,1,1,2,2,3,3,4,4,5,5,6,6,7,7,8,8,10,10,11,11,12,12,15,15,16,16,17,17,18,18,22,22,29,29,30,30,31,31,32,32,35,35,36,36,37,37,38,38,40,40,41,41,43,43,45,45,46,46,47,47,48,48,49,49,50,50,51,51],"right_children":[2,4,6,8,10,12,14,16,18,-1,20,22,24,-1,-1,26,28,30,32,-1,-1,-1,34,-1,-1,-1,-1,-1,-1,36,38,40,42,-1,-1,44,46,48,50,-1,52,54,-1,56,-1,58,60,62,64,66,68,70,-1,-1,-1,-1,-1,-1,-1,-1,-1,-1,-1,-1,-1,-1,-1,-1,-1,-1,-1],