{"learner":{"attributes":{"scikit_learn":"{\"_estimator_type\": \"regressor\"}"},"feature_names":[],"feature_types":[],"gradient_booster":{"model":{"gbtree_model_param":{"num_parallel_tree":"1","num_trees":"418"},"iteration_indptr":[0,1,2,3,4,5,6,7,8,9,10,11,12,13,14,15,16,17,18,19,20,21,22,23,24,25,26,27,28,29,30,31,32,33,34,35,36,37,38,39,40,41,42,43,44,45,46,47,48,49,50,51,52,53,54,55,56,57,58,59,60,61,62,63,64,65,66,67,68,69,70,71,72,73,74,75,76,77,78,79,80,81,82,83,84,85,86,87,88,89,90,91,92,93,94,95,96,97,98,99,100,101,102,103,104,105,106,107,108,109,110,111,112,113,114,115,116,117,118,119,120,121,122,123,124,125,126,127,128,129,130,131,132,133,134,135,136,137,138,139,140,141,142,143,144,145,146,147,148,149,150,151,152,153,154,155,156,157,158,159,160,161,162,163,164,165,166,167,168,169,170,171,172,173,174,175,176,177,178,179,180,181,182,183,184,185,186,187,188,189,190,191,192,193,194,195,196,197,198,199,200,201,202,203,204,205,206,207,208,209,210,211,212,213,214,215,216,217,218,219,220,221,222,223,224,225,226,227,228,229,230,231,232,233,234,235,236,237,238,239,240,241,242,243,244,245,246,247,248,249,250,251,252,253,254,255,256,257,258,259,260,261,262,263,264,265,266,267,268,269,270,271,272,273,274,275,276,277,278,279,280,281,282,283,284,285,286,287,288,289,290,291,292,293,294,295,296,297,298,299,300,301,302,303,304,305,306,307,308,309,310,311,312,313,314,315,316,317,318,319,320,321,322,323,324,325,326,327,328,329,330,331,332,333,334,335,336,337,338,339,340,341,342,343,344,345,346,347,348,349,350,351,352,353,354,355,356,357,358,359,360,361,362,363,364,365,366,367,368,369,370,371,372,373,374,375,376,377,378,379,380,381,382,383,384,385,386,387,388,389,390,391,392,393,394,395,396,397,398,399,400,401,402,403,404,405,406,407,408,409,410,411,412,413,414,415,416,417,418],"tree_info":[0,0,0,0,0,0,0,0,0,0,0,0,0,0,0,0,0,0,0,0,0,0,0,0,0,0,0,0,0,0,0,0,0,0,0,0,0,0,0,0,0,0,0,0,0,0,0,0,0,0,0,0,0,0,0,0,0,0,0,0,0,0,0,0,0,0,0,0,0,0,0,0,0,0,0,0,0,0,0,0,0,0,0,0,0,0,0,0,0,0,0,0,0,0,0,0,0,0,0,0,0,0,0,0,0,0,0,0,0,0,0,0,0,0,0,0,0,0,0,0,0,0,0,0,0,0,0,0,0,0,0,0,0,0,0,0,0,0,0,0,0,0,0,0,0,0,0,0,0,0,0,0,0,0,0,0,0,0,0,0,0,0,0,0,0,0,0,0,0,0,0,0,0,0,0,0,0,0,0,0,0,0,0,0,0,0,0,0,0,0,0,0,0,0,0,0,0,0,0,0,0,0,0,0,0,0,0,0,0,0,0,0,0,0,0,0,0,0,0,0,0,0,0,0,0,0,0,0,0,0,0,0,0,0,0,0,0,0,0,0,0,0,0,0,0,0,0,0,0,0,0,0,0,0,0,0,0,0,0,0,0,0,0,0,0,0,0,0,0,0,0,0,0,0,0,0,0,0,0,0,0,0,0,0,0,0,0,0,0,0,0,0,0,0,0,0,0,0,0,0,0,0,0,0,0,0,0,0,0,0,0,0,0,0,0,0,0,0,0,0,0,0,0,0,0,0,0,0,0,0,0,0,0,0,0,0,0,0,0,0,0,0,0,0,0,0,0,0,0,0,0,0,0,0,0,0,0,0,0,0,0,0,0,0,0,0,0,0,0,0,0,0,0,0,0,0,0,0,0,0,0,0,0,0,0,0,0,0,0,0,0,0,0,0,0,0,0,0,0,0,0,0,0,0,0,0,0,0,0,0,0,0,0,0,0,0,0,0],"trees":[{"base_weights":[-3.8364284E-5,3.409844E-4,-2.3418745E-2,8.6380227E-4,-1.2576131E-3,-4.2892693E-4,-4.730173E-3,-1.3312738E-3,1.4492841E-3,1.6998909E-3,-2.022949E-3,1.678557E-4,-6.2279165E-4,4.354229E-4,8.6241314E-5,4.4723653E-4,4.3394404E-5,-6.859656E-4,-1.9970885E-4],"categories":[],"categories_nodes":[],"categories_segments":[],"categories_sizes":[],"default_left":[0,0,0,0,0,0,0,0,0,0,0,0,0,0,0,0,0,0,0],"id":0,"left_children":[1,3,5,7,9,-1,-1,11,13,15,17,-1,-1,-1,-1,-1,-1,-1,-1],"loss_changes":[1.6665478E-3,1.5570477E-4,4.4640142E-4,1.818542E-4,1.07559055E-4,0E0,0E0,2.2079145E-4,1.432764E-4,1.7994254E-5,5.861465E-5,0E0,0E0,0E0,0E0,0E0,0E0,0E0,0E0],"parents":[2147483647,0,0,1,1,2,2,3,3,4,4,7,7,8,8,9,9,10,10],"right_children":[2,4,6,8,10,-1,-1,12,14,16,18,-1,-1,-1,-1,-1,-1,-1,-1],"split_conditions":[9.824779E-1,2.3259263E-1,5.3674724E-2,7.364337E-2,5.7489026E-1,-4.2892693E-4,-4.730173E-3,7.5217235E-1,1.2767996E-1,5.3277445E-1,2.3170012E-1,1.678557E-4,-6.2279165E-4,4.354229E-4,8.6241314E-5,4.4723653E-4,4.3394404E-5,-6.859656E-4,-1.9970885E-4],"split_indices":[4,7,1,1,8,0,0,4,2,8,5,0,0,0,0,0,0,0,0],"split_type":[0,0,0,0,0,0,0,0,0,0,0,0,0,0,0,0,0,0,0],"sum_hessian":[1.86E2,1.84E2,2E0,1.39E2,4.5E1,1E0,1E0,2.9E1,1.1E2,9E0,3.6E1,1.6E1,1.3E1,3.9E1,7.1E1,4E0,5E0,6E0,3E1],"tree_param":{"num_deleted":"0","num_feature":"10","num_nodes":"19","size_leaf_vector":"1"}},{"base_weights":[3.8194456E-4,9.5832464E-4,-2.3755708E-3,4.4072035E-4,4.611279E-3,-6.024671E-3,-3.684068E-4,1.8266697E-3,-1.5370086E-4,1.190213E-2,1.38752E-3,-2.9751782E-3,-2.0827581E-3,7.03805E-4,-4.3691304E-3,1.8266767E-4,1.0572721E-3,3.2620774E-5,-3.178307E-4,2.0402512E-3,1.4340019E-4,-5.1387836E-4,4.2601587E-4,-1.2790741E-3,-6.653504E-5,2.2078477E-6,9.6209213E-4,-7.85934E-4,-2.8352172E-4],"categories":[],"categories_nodes":[],"categories_segments":[],"categories_sizes":[],"default_left":[0,0,0,0,0,0,0,0,0,0,0,0,0,0,0,0,0,0,0,0,0,0,0,0,0,0,0,0,0],"id":1,"left_children":[1,3,5,7,9,11,13,15,17,19,21,23,-1,25,27,-1,-1,-1,-1,-1,-1,-1,-1,-1,-1,-1,-1,-1,-1],"loss_changes":[3.1220505E-4,3.0427487E-4,2.468081E-4,1.18089556E-4,4.5356454E-4,2.5629514E-4,1.0173635E-4,1.2569837E-4,7.6789824E-5,1.16879935E-4,1.21063786E-4,1.406739E-4,0E0,7.6419834E-5,1.6461563E-6,0E0,0E0,0E0,0E0,0E0,0E0,0E0,0E0,0E0,0E0,0E0,0E0,0E0,0E0],"parents":[2147483647,0,0,1,1,2,2,3,3,4,4,5,5,6,6,7,7,8,8,9,9,10,10,11,11,13,13,14,14],"right_children":[2,4,6,8,10,12,14,16,18,20,22,24,-1,26,28,-1,-1,-1,-1,-1,-1,-1,-1,-1,-1,-1,-1,-1,-1],"split_conditions":[8.590912E-1,7.170987E-1,5.764211E-1,9.411521E-2,7.207273E-1,6.5861875E-1,7.140746E-1,9.312625E-2,2.8154576E-1,2.5173792E-1,2.5194272E-1,4.8649582E-1,-2.0827581E-3,7.81057E-1,9.3219227E-1,1.8266767E-4,1.0572721E-3,3.2620774E-5,-3.178307E-4,2.0402512E-3,1.4340019E-4,-5.1387836E-4,4.2601587E-4,-1.2790741E-3,-6.653504E-5,2.2078477E-6,9.6209213E-4,-7.85934E-4,-2.8352172E-4],"split_indices":[5,0,9,1,8,8,9,1,7,7,5,0,0,8,4,0,0,0,0,0,0,0,0,0,0,0,0,0,0],"split_type":[0,0,0,0,0,0,0,0,0,0,0,0,0,0,0,0,0,0,0,0,0,0,0,0,0,0,0,0,0],"sum_hessian":[1.94E2,1.61E2,3.3E1,1.42E2,1.9E1,1.1E1,2.2E1,4.2E1,1E2,5E0,1.4E1,9E0,2E0,1.8E1,4E0,3.9E1,3E0,8.5E1,1.5E1,4E0,1E0,3E0,1.1E1,2E0,7E0,1.7E1,1E0,2E0,2E0],"tree_param":{"num_deleted":"0","num_feature":"10","num_nodes":"29","size_leaf_vector":"1"}},{"base_weights":[-5.2159576E-4,-2.273822E-4,-2.104075E-2,6.942715E-5,-3.0653828E-3,-4.362004E-3,-2.7322854E-4,-9.064991E-4,4.0103102E-4,-2.8848986E-4,-9.496719E-3,-4.1973788E-5,-4.8445762E-4,2.5172517E-4,-1.2604138E-5,1.305556E-4,-2.0999774E-4,-1.584791E-4,-1.6102939E-3],"categories":[],"categories_nodes":[],"categories_segments":[],"categories_sizes":[],"default_left":[0,0,0,0,0,0,0,0,0,0,0,0,0,0,0,0,0,0,0],"id":2,"left_children":[1,3,5,7,9,-1,-1,11,13,15,17,-1,-1,-1,-1,-1,-1,-1,-1],"loss_changes":[1.2810996E-3,1.7794764E-4,4.4304843E-4,6.249875E-5,3.5444286E-4,0E0,0E0,7.181309E-5,9.219414E-5,2.1429589E-5,6.2296574E-5,0E0,0E0,0E0,0E0,0E0,0E0,0E0,0E0],"parents":[2147483647,0,0,1,1,2,2,3,3,4,4,7,7,8,8,9,9,10,10],"right_children":[2,4,6,8,10,-1,-1,12,14,16,18,-1,-1,-1,-1,-1,-1,-1,-1],"split_conditions":[9.935599E-1,8.881152E-1,2.6107273E-1,4.7355565E-1,5.969861E-1,-4.362004E-3,-2.7322854E-4,2.2882922E-1,5.144582E-1,5.1536083E-1,5.512338E-2,-4.1973788E-5,-4.8445762E-4,2.5172517E-4,-1.2604138E-5,1.305556E-4,-2.0999774E-4,-1.584791E-4,-1.6102939E-3],"split_indices":[5,5,1,5,3,0,0,7,3,3,7,0,0,0,0,0,0,0,0],"split_type":[0,0,0,0,0,0,0,0,0,0,0,0,0,0,0,0,0,0,0],"sum_hessian":[2.12E2,2.1E2,2E0,1.91E2,1.9E1,1E0,1E0,4.8E1,1.43E2,1.4E1,5E0,3.9E1,9E0,3.8E1,1.05E2,7E0,7E0,1E0,4E0],"tree_param":{"num_deleted":"0","num_feature":"10","num_nodes":"19","size_leaf_vector":"1"}},{"base_weights":[-3.707164E-4,-8.871459E-5,-2.0081274E-2,2.3469557E-3,-3.9917932E-4,-3.8217116E-4,-4.041691E-3,4.507109E-3,-6.1568996E-4,-2.0295176E-4,-4.7889305E-3,1.0120607E-4,1.2082113E-3,2.1213865E-4,-3.7791498E-4,-5.4146065E-5,3.9181352E-4,-4.2152958E-4,-1.0324807E-3],"categories":[],"categories_nodes":[],"categories_segments":[],"categories_sizes":[],"default_left":[0,0,0,0,0,0,0,0,0,0,0,0,0,0,0,0,0,0,0],"id":3,"left_children":[1,3,5,7,9,-1,-1,11,13,15,17,-1,-1,-1,-1,-1,-1,-1,-1],"loss_changes":[1.1821606E-3,1.604929E-4,3.1844026E-4,1.5636942E-4,1.6096942E-4,0E0,0E0,1.9314868E-4,4.807713E-5,8.709751E-5,1.4224628E-5,0E0,0E0,0E0,0E0,0E0,0E0,0E0,0E0],"parents":[2147483647,0,0,1,1,2,2,3,3,4,4,7,7,8,8,9,9,10,10],"right_children":[2,4,6,8,10,-1,-1,12,14,16,18,-1,-1,-1,-1,-1,-1,-1,-1],"split_conditions":[9.824779E-1,3.0769423E-1,6.783682E-1,7.450161E-1,7.759018E-1,-3.8217116E-4,-4.041691E-3,6.773988E-1,1.93555E-1,2.9713312E-1,6.2184423E-1,1.0120607E-4,1.2082113E-3,2.1213865E-4,-3.7791498E-4,-5.4146065E-5,3.9181352E-4,-4.2152958E-4,-1.0324807E-3],"split_indices":[4,4,0,8,3,0,0,8,7,6,4,0,0,0,0,0,0,0,0],"split_type":[0,0,0,0,0,0,0,0,0,0,0,0,0,0,0,0,0,0,0],"sum_hessian":[2.12E2,2.1E2,2E0,2.3E1,1.87E2,1E0,1E0,1.3E1,1E1,1.8E2,7E0,7E0,6E0,5E0,5E0,1.71E2,9E0,5E0,2E0],"tree_param":{"num_deleted":"0","num_feature":"10","num_nodes":"19","size_leaf_vector":"1"}},{"base_weights":[-2.3029315E-4,3.150584E-5,-1.8130394E-2,-8.122387E-4,1.1280237E-3,-2.4918857E-4,-3.7448986E-3,-3.7433777E-4,-4.286651E-3,2.5215498E-4,2.6332468E-3,-1.31859815E-5,-4.109035E-4,-2.01682E-4,-1.2738286E-3,4.7742523E-4,-1.3521674E-5,1.13009235E-4,5.1845727E-4],"categories":[],"categories_nodes":[],"categories_segments":[],"categories_sizes":[],"default_left":[0,0,0,0,0,0,0,0,0,0,0,0,0,0,0,0,0,0,0],"id":4,"left_children":[1,3,5,7,9,-1,-1,11,13,15,17,-1,-1,-1,-1,-1,-1,-1,-1],"loss_changes":[9.753066E-4,1.915035E-4,3.2000942E-4,1.7640479E-4,1.1799E-4,0E0,0E0,7.215845E-5,1.5423608E-4,6.016655E-5,5.244756E-5,0E0,0E0,0E0,0E0,0E0,0E0,0E0,0E0],"parents":[2147483647,0,0,1,1,2,2,3,3,4,4,7,7,8,8,9,9,10,10],"right_children":[2,4,6,8,10,-1,-1,12,14,16,18,-1,-1,-1,-1,-1,-1,-1,-1],"split_conditions":[9.935599E-1,7.128422E-1,6.6437906E-1,6.1456496E-1,2.6048267E-1,-2.4918857E-4,-3.7448986E-3,7.495813E-1,8.7722397E-1,7.20108E-1,6.976876E-1,-1.31859815E-5,-4.109035E-4,-2.01682E-4,-1.2738286E-3,4.7742523E-4,-1.3521674E-5,1.13009235E-4,5.1845727E-4],"split_indices":[5,8,0,3,1,0,0,9,5,8,9,0,0,0,0,0,0,0,0],"split_type":[0,0,0,0,0,0,0,0,0,0,0,0,0,0,0,0,0,0,0],"sum_hessian":[2.07E2,2.05E2,2E0,1.16E2,8.9E1,1E0,1E0,1.04E2,1.2E1,5.7E1,3.2E1,9.4E1,1E1,8E0,4E0,5E0,5.2E1,1.1E1,2.1E1],"tree_param":{"num_deleted":"0","num_feature":"10","num_nodes":"19","size_leaf_vector":"1"}},{"base_weights":[-1.22244255E-5,3.535543E-4,-2.396107E-3,-9.03995E-4,8.597564E-4,-5.3193973E-4,-3.4613854E-3,-5.430181E-4,-1.3917569E-3,-3.0209168E-4,1.9900168E-3,-1.120977E-3,3.934838E-4,-7.479004E-4,-1.8104144E-3,4.2257983E-5,-4.6963213E-4,6.914364E-5,-3.5557986E-4,1.236587E-3,2.255503E-4,-2.565483E-4,1.3535353E-4,-3.5364088E-4,5.675246E-5],"categories":[],"categories_nodes":[],"categories_segments":[],"categories_sizes":[],"default_left":[0,0,0,0,0,0,0,0,0,0,0,0,0,0,0,0,0,0,0,0,0,0,0,0,0],"id":5,"left_children":[1,3,5,7,9,11,13,15,-1,17,19,21,-1,-1,23,-1,-1,-1,-1,-1,-1,-1,-1,-1,-1],"loss_changes":[1.7698579E-4,1.1281425E-4,5.1776893E-5,1.52671E-4,1.6606323E-4,2.3809736E-5,3.655821E-5,1.11189394E-4,0E0,1.0431999E-4,1.739992E-4,1.4393497E-5,0E0,0E0,1.4056892E-5,0E0,0E0,0E0,0E0,0E0,0E0,0E0,0E0,0E0,0E0],"parents":[2147483647,0,0,1,1,2,2,3,3,4,4,5,5,6,6,7,7,9,9,10,10,11,11,14,14],"right_children":[2,4,6,8,10,12,14,16,-1,18,20,22,-1,-1,24,-1,-1,-1,-1,-1,-1,-1,-1,-1,-1],"split_conditions":[2.6380152E-1,7.991969E-2,4.9999908E-1,6.9147646E-1,6.747706E-1,6.445044E-1,6.648394E-1,7.017549E-2,-1.3917569E-3,5.3734815E-1,6.775053E-1,8.029115E-1,3.934838E-4,-7.479004E-4,3.301195E-1,4.2257983E-5,-4.6963213E-4,6.914364E-5,-3.5557986E-4,1.236587E-3,2.255503E-4,-2.565483E-4,1.3535353E-4,-3.5364088E-4,5.675246E-5],"split_indices":[7,2,3,0,0,0,0,2,0,3,0,5,0,0,7,0,0,0,0,0,0,0,0,0,0],"split_type":[0,0,0,0,0,0,0,0,0,0,0,0,0,0,0,0,0,0,0,0,0,0,0,0,0],"sum_hessian":[2.01E2,1.75E2,2.6E1,5E1,1.25E2,1E1,1.6E1,4.9E1,1E0,6.2E1,6.3E1,9E0,1E0,7E0,9E0,3.8E1,1.1E1,4.6E1,1.6E1,3E0,6E1,7E0,2E0,7E0,2E0],"tree_param":{"num_deleted":"0","num_feature":"10","num_nodes":"25","size_leaf_vector":"1"}},{"base_weights":[3.3509906E-4,5.600998E-4,-1.5451652E-2,-3.2589657E-3,7.0857716E-4,8.249737E-5,-3.4864636E-3,2.5311362E-3,-5.6108558E-3,9.050717E-5,1.611966E-3,5.662916E-4,-8.687692E-6,-9.0673583E-4,-2.052796E-4,2.4095322E-4,-2.3693612E-5,1.399102E-3,1.9019401E-4],"categories":[],"categories_nodes":[],"categories_segments":[],"categories_sizes":[],"default_left":[0,0,0,0,0,0,0,0,0,0,0,0,0,0,0,0,0,0,0],"id":6,"left_children":[1,3,5,7,9,-1,-1,11,13,15,17,-1,-1,-1,-1,-1,-1,-1,-1],"loss_changes":[7.5813296E-4,1.2082157E-4,4.1146966E-4,1.231433E-4,1.1264233E-4,0E0,0E0,1.0522335E-5,5.604248E-6,4.7500638E-5,1.933541E-4,0E0,0E0,0E0,0E0,0E0,0E0,0E0,0E0],"parents":[2147483647,0,0,1,1,2,2,3,3,4,4,7,7,8,8,9,9,10,10],"right_children":[2,4,6,8,10,-1,-1,12,14,16,18,-1,-1,-1,-1,-1,-1,-1,-1],"split_conditions":[9.824779E-1,4.0069965E-1,6.133928E-1,2.4192771E-2,5.746991E-1,8.249737E-5,-3.4864636E-3,5.889389E-1,7.0820343E-1,5.841868E-1,5.776975E-1,5.662916E-4,-8.687692E-6,-9.0673583E-4,-2.052796E-4,2.4095322E-4,-2.3693612E-5,1.399102E-3,1.9019401E-4],"split_indices":[4,9,0,9,3,0,0,0,0,9,3,0,0,0,0,0,0,0,0],"split_type":[0,0,0,0,0,0,0,0,0,0,0,0,0,0,0,0,0,0,0],"sum_hessian":[2.1E2,2.08E2,2E0,7E0,2.01E2,1E0,1E0,2E0,5E0,1.2E2,8.1E1,1E0,1E0,4E0,1E0,1.6E1,1.04E2,2E0,7.9E1],"tree_param":{"num_deleted":"0","num_feature":"10","num_nodes":"19","size_leaf_vector":"1"}},{"base_weights":[-2.5104894E-4,2.2277818E-3,-4.92527E-4,5.513992E-3,2.869162E-4,1.6253848E-4,-1.489997E-3,9.3745755E-4,2.1975817E-5,-2.3109978E-4,2.7197183E-3,-7.296785E-5,3.9074197E-3,-6.9138774E-4,-3.7314643E-3,6.1971875E-4,-2.7427473E-5,2.9622923E-4,-5.051221E-5,2.102145E-3,-3.120679E-5,-1.9010679E-4,1.6502201E-4,-6.4708886E-4,6.6711975E-4],"categories":[],"categories_nodes":[],"categories_segments":[],"categories_sizes":[],"default_left":[0,0,0,0,0,0,0,0,0,0,0,0,0,0,0,0,0,0,0,0,0,0,0,0,0],"id":7,"left_children":[1,3,5,7,9,11,13,-1,-1,-1,15,17,19,21,23,-1,-1,-1,-1,-1,-1,-1,-1,-1,-1],"loss_changes":[1.2799687E-4,1.19601704E-4,1.2700337E-4,3.1680844E-5,6.311951E-5,1.0435441E-4,1.3525446E-4,0E0,0E0,0E0,2.6944934E-5,6.4121334E-5,3.0314378E-4,6.4937296E-5,1.3163468E-4,0E0,0E0,0E0,0E0,0E0,0E0,0E0,0E0,0E0,0E0],"parents":[2147483647,0,0,1,1,2,2,3,3,4,4,5,5,6,6,10,10,11,11,12,12,13,13,14,14],"right_children":[2,4,6,8,10,12,14,-1,-1,-1,16,18,20,22,24,-1,-1,-1,-1,-1,-1,-1,-1,-1,-1],"split_conditions":[2.2264493E-1,1.8272194E-1,1.2734227E-1,1.2767996E-1,3.2080013E-1,6.9036067E-1,1.4144056E-1,9.3745755E-4,2.1975817E-5,-2.3109978E-4,7.698308E-1,4.7757287E-2,7.213407E-1,2.6705533E-1,7.9939663E-1,6.1971875E-4,-2.7427473E-5,2.9622923E-4,-5.051221E-5,2.102145E-3,-3.120679E-5,-1.9010679E-4,1.6502201E-4,-6.4708886E-4,6.6711975E-4],"split_indices":[4,7,7,2,2,3,6,0,0,0,0,2,0,2,3,0,0,0,0,0,0,0,0,0,0],"split_type":[0,0,0,0,0,0,0,0,0,0,0,0,0,0,0,0,0,0,0,0,0,0,0,0,0],"sum_hessian":[2.11E2,1.8E1,1.93E2,6E0,1.2E1,1.17E2,7.6E1,5E0,1E0,7E0,5E0,1.11E2,6E0,5.7E1,1.9E1,3E0,2E0,1.2E1,9.9E1,1E0,5E0,4.3E1,1.4E1,1.8E1,1E0],"tree_param":{"num_deleted":"0","num_feature":"10","num_nodes":"25","size_leaf_vector":"1"}},{"base_weights":[3.4824593E-4,9.350466E-4,-4.184643E-4,1.7888704E-4,2.7015093E-3,3.1391525E-4,-1.8224743E-3,-1.0324778E-3,9.990374E-4,5.8174874E-3,3.4716722E-4,-1.6122077E-4,1.8865921E-3,1.6242001E-3,-3.0919348E-3,-2.1997005E-4,4.1586944E-4,9.6054666E-4,9.280321E-5,-1.7132134E-4,1.0253665E-3,2.3196162E-4,-4.4011054E-4,-1.3312623E-4,1.9669914E-4,9.745227E-4,-1.7312045E-6,4.41127E-5,6.1268604E-4,-1.3593868E-3,-3.0314707E-4],"categories":[],"categories_nodes":[],"categories_segments":[],"categories_sizes":[],"default_left":[0,0,0,0,0,0,0,0,0,0,0,0,0,0,0,0,0,0,0,0,0,0,0,0,0,0,0,0,0,0,0],"id":8,"left_children":[1,3,5,7,9,11,13,15,17,19,21,23,25,27,29,-1,-1,-1,-1,-1,-1,-1,-1,-1,-1,-1,-1,-1,-1,-1,-1],"loss_changes":[9.3071925E-5,1.5579685E-4,9.3116236E-5,8.349211E-5,2.5474312E-4,4.5138284E-5,1.4065986E-4,6.5370936E-5,9.758973E-5,1.3010553E-4,9.126308E-5,5.3771637E-5,1.2629115E-4,2.9099941E-5,1.266122E-4,0E0,0E0,0E0,0E0,0E0,0E0,0E0,0E0,0E0,0E0,0E0,0E0,0E0,0E0,0E0,0E0],"parents":[2147483647,0,0,1,1,2,2,3,3,4,4,5,5,6,6,7,7,8,8,9,9,10,10,11,11,12,12,13,13,14,14],"right_children":[2,4,6,8,10,12,14,16,18,20,22,24,26,28,30,-1,-1,-1,-1,-1,-1,-1,-1,-1,-1,-1,-1,-1,-1,-1,-1],"split_conditions":[6.6310775E-1,1.438981E-1,1.4144056E-1,5.487941E-1,2.5931588E-1,9.354369E-1,4.6192566E-1,8.457862E-1,5.499982E-1,3.3055846E-2,7.577787E-1,9.5329635E-2,8.9876395E-1,1.4548711E-1,6.796436E-1,-2.1997005E-4,4.1586944E-4,9.6054666E-4,9.280321E-5,-1.7132134E-4,1.0253665E-3,2.3196162E-4,-4.4011054E-4,-1.3312623E-4,1.9669914E-4,9.745227E-4,-1.7312045E-6,4.41127E-5,6.1268604E-4,-1.3593868E-3,-3.0314707E-4],"split_indices":[4,6,6,3,2,5,3,8,3,7,9,6,4,7,8,0,0,0,0,0,0,0,0,0,0,0,0,0,0,0,0],"split_type":[0,0,0,0,0,0,0,0,0,0,0,0,0,0,0,0,0,0,0,0,0,0,0,0,0,0,0,0,0,0,0],"sum_hessian":[2.05E2,1.16E2,8.9E1,8.2E1,3.4E1,5.9E1,3E1,3.3E1,4.9E1,1.4E1,2E1,4.6E1,1.3E1,8E0,2.2E1,3E1,3E0,2E0,4.7E1,2E0,1.2E1,1.5E1,5E0,3.1E1,1.5E1,3E0,1E1,6E0,2E0,2E0,2E1],"tree_param":{"num_deleted":"0","num_feature":"10","num_nodes":"31","size_leaf_vector":"1"}},{"base_weights":[-2.2475241E-4,2.997324E-6,-3.160665E-3,2.0340216E-4,-4.0054326E-3,4.2208812E-5,2.9394682E-3,-4.5450265E-3,2.2860873E-5,-2.8254275E-5,3.199672E-4,1.8318342E-4,9.5052994E-4,-1.21398676E-4,-7.281791E-4],"categories":[],"categories_nodes":[],"categories_segments":[],"categories_sizes":[],"default_left":[0,0,0,0,0,0,0,0,0,0,0,0,0,0,0],"id":9,"left_children":[1,3,-1,5,7,9,11,13,-1,-1,-1,-1,-1,-1,-1],"loss_changes":[9.1674866E-4,1.5183676E-4,0E0,7.9262354E-5,2.0915162E-5,8.612244E-5,5.1706236E-5,8.190793E-6,0E0,0E0,0E0,0E0,0E0,0E0,0E0],"parents":[2147483647,0,0,1,1,3,3,4,4,5,5,6,6,7,7],"right_children":[2,4,-1,6,8,10,12,14,-1,-1,-1,-1,-1,-1,-1],"split_conditions":[9.824779E-1,7.849394E-1,-3.160665E-3,9.444033E-1,7.3667467E-1,6.849392E-1,6.9538724E-1,4.030812E-1,2.2860873E-5,-2.8254275E-5,3.199672E-4,1.8318342E-4,9.5052994E-4,-1.21398676E-4,-7.281791E-4],"split_indices":[4,3,0,5,6,3,9,1,0,0,0,0,0,0,0],"split_type":[0,0,0,0,0,0,0,0,0,0,0,0,0,0,0],"sum_hessian":[1.88E2,1.87E2,1E0,1.79E2,8E0,1.7E2,9E0,7E0,1E0,1.54E2,1.6E1,7E0,2E0,1E0,6E0],"tree_param":{"num_deleted":"0","num_feature":"10","num_nodes":"15","size_leaf_vector":"1"}},{"base_weights":[1.9439931E-4,-2.594015E-4,1.5609898E-3,7.999435E-6,-3.0985808E-3,7.5036283E-3,4.1908055E-4,1.9633712E-3,-1.9221971E-4,-3.8666555E-3,1.1023032E-4,1.3503663E-3,2.3799344E-4,-2.7524994E-3,1.5953268E-3,-1.812651E-4,5.172098E-4,-1.7717133E-5,-4.5687286E-4,-2.9743684E-4,-7.4367167E-4,-4.894895E-4,2.6671335E-4,4.789035E-4,1.7443645E-5],"categories":[],"categories_nodes":[],"categories_segments":[],"categories_sizes":[],"default_left":[0,0,0,0,0,0,0,0,0,0,0,0,0,0,0,0,0,0,0,0,0,0,0,0,0],"id":10,"left_children":[1,3,5,7,9,11,13,15,17,19,-1,-1,-1,21,23,-1,-1,-1,-1,-1,-1,-1,-1,-1,-1],"loss_changes":[1.2443689E-4,1.1466386E-4,3.3615308E-4,5.47963E-5,4.1335647E-5,6.468571E-5,1.6480517E-4,6.9122805E-5,2.6158456E-5,1.3990459E-5,0E0,0E0,0E0,3.787258E-5,7.8307545E-5,0E0,0E0,0E0,0E0,0E0,0E0,0E0,0E0,0E0,0E0],"parents":[2147483647,0,0,1,1,2,2,3,3,4,4,5,5,6,6,7,7,8,8,9,9,13,13,14,14],"right_children":[2,4,6,8,10,12,14,16,18,20,-1,-1,-1,22,24,-1,-1,-1,-1,-1,-1,-1,-1,-1,-1],"split_conditions":[1.593849E-1,1.4144056E-1,9.0642475E-2,1.8475996E-1,8.367237E-1,6.7867583E-1,6.7387176E-1,7.9988636E-2,7.590415E-1,1.4626671E-1,1.1023032E-4,1.3503663E-3,2.3799344E-4,9.6881026E-1,5.357312E-1,-1.812651E-4,5.172098E-4,-1.7717133E-5,-4.5687286E-4,-2.9743684E-4,-7.4367167E-4,-4.894895E-4,2.6671335E-4,4.789035E-4,1.7443645E-5],"split_indices":[6,6,2,4,5,0,8,6,0,6,0,0,0,2,4,0,0,0,0,0,0,0,0,0,0],"split_type":[0,0,0,0,0,0,0,0,0,0,0,0,0,0,0,0,0,0,0,0,0,0,0,0,0],"sum_hessian":[1.99E2,1.5E2,4.9E1,1.38E2,1.2E1,7E0,4.2E1,1.2E1,1.26E2,1E1,2E0,5E0,2E0,1.1E1,3.1E1,4E0,8E0,1.24E2,2E0,5E0,5E0,1E1,1E0,1.4E1,1.7E1],"tree_param":{"num_deleted":"0","num_feature":"10","num_nodes":"25","size_leaf_vector":"1"}},{"base_weights":[3.875009E-4,-1.2617251E-4,1.1176675E-3,-2.748188E-3,5.574384E-5,4.2416453E-3,6.97441E-4,-5.309208E-5,-4.461032E-4,2.309693E-4,-2.0531553E-3,-8.165593E-5,6.377203E-3,9.418083E-4,-5.8712525E-4,3.6297075E-4,-3.3588888E-6,-9.2019595E-4,3.77429E-4,1.0489397E-3,1.3124442E-4,9.394474E-5,8.913807E-4],"categories":[],"categories_nodes":[],"categories_segments":[],"categories_sizes":[],"default_left":[0,0,0,0,0,0,0,0,0,0,0,0,0,0,0,0,0,0,0,0,0,0,0],"id":11,"left_children":[1,3,5,7,9,11,13,-1,-1,15,17,-1,19,21,-1,-1,-1,-1,-1,-1,-1,-1,-1],"loss_changes":[7.815499E-5,5.8822654E-5,1.0994065E-4,4.4259177E-6,4.334002E-5,1.06002E-4,9.211042E-5,0E0,0E0,6.147876E-5,1.9137035E-4,0E0,2.298149E-5,1.1076246E-4,0E0,0E0,0E0,0E0,0E0,0E0,0E0,0E0,0E0],"parents":[2147483647,0,0,1,1,2,2,3,3,4,4,5,5,6,6,9,9,10,10,12,12,13,13],"right_children":[2,4,6,8,10,12,14,-1,-1,16,18,-1,20,22,-1,-1,-1,-1,-1,-1,-1,-1,-1],"split_conditions":[5.7592714E-1,2.7343147E-2,5.810471E-1,1.6140392E-1,2.5449067E-1,7.9988636E-2,9.131207E-1,-5.309208E-5,-4.461032E-4,5.4689455E-1,6.504489E-1,-8.165593E-5,7.450161E-1,9.5033014E-1,-5.8712525E-4,3.6297075E-4,-3.3588888E-6,-9.2019595E-4,3.77429E-4,1.0489397E-3,1.3124442E-4,9.394474E-5,8.913807E-4],"split_indices":[3,6,3,2,6,6,7,0,0,9,9,0,8,5,0,0,0,0,0,0,0,0,0],"split_type":[0,0,0,0,0,0,0,0,0,0,0,0,0,0,0,0,0,0,0,0,0,0,0],"sum_hessian":[2.07E2,1.22E2,8.5E1,7E0,1.15E2,9E0,7.6E1,1E0,6E0,1.07E2,8E0,3E0,6E0,7.3E1,3E0,1E1,9.7E1,4E0,4E0,5E0,1E0,7E1,3E0],"tree_param":{"num_deleted":"0","num_feature":"10","num_nodes":"23","size_leaf_vector":"1"}},{"base_weights":[2.4045392E-5,1.889592E-4,-1.1417993E-2,-1.4216126E-3,4.2685194E-4,4.867604E-4,-3.00212E-3,-7.678302E-6,-5.460328E-3,-4.7048324E-4,8.0909085E-4,-4.182681E-4,1.9361303E-4,-1.4293058E-4,-1.2604512E-3,-1.151733E-5,-3.6211728E-4,6.499398E-5,4.2424005E-4],"categories":[],"categories_nodes":[],"categories_segments":[],"categories_sizes":[],"default_left":[0,0,0,0,0,0,0,0,0,0,0,0,0,0,0,0,0,0,0],"id":12,"left_children":[1,3,5,7,9,-1,-1,11,13,15,17,-1,-1,-1,-1,-1,-1,-1,-1],"loss_changes":[3.9841706E-4,8.0300626E-5,4.6655332E-4,1.5414097E-4,6.2806015E-5,0E0,0E0,8.284424E-5,8.9710185E-5,4.282911E-5,9.629033E-5,0E0,0E0,0E0,0E0,0E0,0E0,0E0,0E0],"parents":[2147483647,0,0,1,1,2,2,3,3,4,4,7,7,8,8,9,9,10,10],"right_children":[2,4,6,8,10,-1,-1,12,14,16,18,-1,-1,-1,-1,-1,-1,-1,-1],"split_conditions":[9.8642206E-1,5.944041E-2,6.2828034E-1,8.979301E-2,6.977195E-2,4.867604E-4,-3.00212E-3,6.7886454E-1,1.1819621E-1,7.00719E-1,7.2000617E-1,-4.182681E-4,1.9361303E-4,-1.4293058E-4,-1.2604512E-3,-1.151733E-5,-3.6211728E-4,6.499398E-5,4.2424005E-4],"split_indices":[5,1,0,7,6,0,0,5,6,0,0,0,0,0,0,0,0,0,0],"split_type":[0,0,0,0,0,0,0,0,0,0,0,0,0,0,0,0,0,0,0],"sum_hessian":[2.09E2,2.07E2,2E0,2.6E1,1.81E2,1E0,1E0,2E1,6E0,5.4E1,1.27E2,6E0,1.4E1,3E0,3E0,4.6E1,8E0,1.09E2,1.8E1],"tree_param":{"num_deleted":"0","num_feature":"10","num_nodes":"19","size_leaf_vector":"1"}},{"base_weights":[2.0725005E-5,2.2837364E-4,-1.991279E-3,-3.6920825E-5,1.7077614E-3,-4.2428446E-4,-2.870002E-3,3.6738833E-4,-8.149066E-4,1.8096549E-3,8.582805E-4,1.8305863E-3,-2.1433241E-3,-4.56522E-4,-1.8150464E-5,7.702323E-6,5.4134015E-4,-1.7548428E-4,8.874611E-4,-9.768981E-5,5.1618094E-4,4.928146E-5,3.2561173E-4,1.7694007E-5,-5.4232706E-4],"categories":[],"categories_nodes":[],"categories_segments":[],"categories_sizes":[],"default_left":[0,0,0,0,0,0,0,0,0,0,0,0,0,0,0,0,0,0,0,0,0,0,0,0,0],"id":13,"left_children":[1,3,5,7,9,11,13,15,17,-1,19,21,23,-1,-1,-1,-1,-1,-1,-1,-1,-1,-1,-1,-1],"loss_changes":[8.484831E-5,7.2278155E-5,2.4944427E-5,4.968323E-5,2.4188595E-4,3.493324E-5,7.474082E-6,1.0850375E-4,1.4792298E-4,0E0,1.1160271E-4,1.567314E-6,1.798211E-5,0E0,0E0,0E0,0E0,0E0,0E0,0E0,0E0,0E0,0E0,0E0,0E0],"parents":[2147483647,0,0,1,1,2,2,3,3,4,4,5,5,6,6,7,7,8,8,10,10,11,11,12,12],"right_children":[2,4,6,8,10,12,14,16,18,-1,20,22,24,-1,-1,-1,-1,-1,-1,-1,-1,-1,-1,-1,-1],"split_conditions":[3.1518364E-1,7.2000617E-1,5.688563E-1,6.775053E-1,7.213407E-1,4.7680028E-2,8.367261E-1,6.744565E-1,9.5033014E-1,1.8096549E-3,2.0827217E-1,2.6705533E-1,7.115512E-1,-4.56522E-4,-1.8150464E-5,7.702323E-6,5.4134015E-4,-1.7548428E-4,8.874611E-4,-9.768981E-5,5.1618094E-4,4.928146E-5,3.2561173E-4,1.7694007E-5,-5.4232706E-4],"split_indices":[7,0,8,0,0,6,0,0,5,0,7,2,4,0,0,0,0,0,0,0,0,0,0,0,0],"split_type":[0,0,0,0,0,0,0,0,0,0,0,0,0,0,0,0,0,0,0,0,0,0,0,0,0],"sum_hessian":[2.01E2,1.83E2,1.8E1,1.56E2,2.7E1,7E0,1.1E1,1.03E2,5.3E1,1E0,2.6E1,3E0,4E0,1E1,1E0,9.5E1,8E0,5.1E1,2E0,1.7E1,9E0,1E0,2E0,2E0,2E0],"tree_param":{"num_deleted":"0","num_feature":"10","num_nodes":"25","size_leaf_vector":"1"}},{"base_weights":[2.5163312E-4,1.7333945E-3,1.12864755E-5,1.838709E-5,3.0437892E-3,-5.737139E-4,6.152403E-4,-5.5542024E-4,5.4912054E-4,1.3354634E-3,5.293474E-3,2.8386948E-4,-1.6173931E-3,8.635175E-3,5.5069617E-5,5.06444E-4,-1.7277693E-4,3.1192132E-4,-2.1660903E-4,8.6797593E-4,1.1706812E-4,1.1210034E-4,-3.6837696E-4,3.141503E-5,-3.9808243E-4,1.8685983E-4,1.7621658E-3,-1.8299898E-4,1.2259284E-4],"categories":[],"categories_nodes":[],"categories_segments":[],"categories_sizes":[],"default_left":[0,0,0,0,0,0,0,0,0,0,0,0,0,0,0,0,0,0,0,0,0,0,0,0,0,0,0,0,0],"id":14,"left_children":[1,3,5,7,9,11,13,15,-1,17,19,21,23,25,27,-1,-1,-1,-1,-1,-1,-1,-1,-1,-1,-1,-1,-1,-1],"loss_changes":[7.6549746E-5,6.736414E-5,6.606923E-5,3.196502E-5,5.826507E-5,8.548812E-5,4.1283746E-4,3.6379854E-5,0E0,2.7504811E-5,1.4694393E-5,7.286023E-5,8.665957E-5,1.3331693E-4,8.9294495E-5,0E0,0E0,0E0,0E0,0E0,0E0,0E0,0E0,0E0,0E0,0E0,0E0,0E0,0E0],"parents":[2147483647,0,0,1,1,2,2,3,3,4,4,5,5,6,6,7,7,9,9,10,10,11,11,12,12,13,13,14,14],"right_children":[2,4,6,8,10,12,14,16,-1,18,20,22,24,26,28,-1,-1,-1,-1,-1,-1,-1,-1,-1,-1,-1,-1,-1,-1],"split_conditions":[4.746989E-1,9.9464394E-2,7.147994E-1,4.6829942E-1,1.4548711E-1,6.893151E-1,7.1866536E-1,2.4192771E-2,5.4912054E-4,1.391949E-1,3.3554432E-1,6.6272205E-1,8.442532E-2,4.5895655E-2,5.692758E-1,5.06444E-4,-1.7277693E-4,3.1192132E-4,-2.1660903E-4,8.6797593E-4,1.1706812E-4,1.1210034E-4,-3.6837696E-4,3.141503E-5,-3.9808243E-4,1.8685983E-4,1.7621658E-3,-1.8299898E-4,1.2259284E-4],"split_indices":[3,6,8,3,7,8,8,9,0,7,7,3,6,7,3,0,0,0,0,0,0,0,0,0,0,0,0,0,0],"split_type":[0,0,0,0,0,0,0,0,0,0,0,0,0,0,0,0,0,0,0,0,0,0,0,0,0,0,0,0,0],"sum_hessian":[2.14E2,2.9E1,1.85E2,1.3E1,1.6E1,9.4E1,9.1E1,1.2E1,1E0,1E1,6E0,5.2E1,4.2E1,5E0,8.6E1,1E0,1.1E1,8E0,2E0,5E0,1E0,4.5E1,7E0,1.6E1,2.6E1,2E0,3E0,3.2E1,5.4E1],"tree_param":{"num_deleted":"0","num_feature":"10","num_nodes":"29","size_leaf_vector":"1"}},{"base_weights":[-8.8388864E-5,1.2924457E-4,-2.0970788E-3,-4.8258863E-4,7.3968805E-4,-2.9203058E-3,3.1050207E-4,-6.364586E-4,1.0040771E-3,5.0959643E-3,2.1227796E-4,-1.7650914E-3,-5.857566E-4,4.276046E-4,-7.92015E-4,-4.3600434E-5,-5.48571E-4,1.4014755E-4,1.3286631E-3,-1.2130679E-4,9.06585E-5,9.5652525E-5,-3.1554757E-4,-2.7497878E-4,-7.909961E-6],"categories":[],"categories_nodes":[],"categories_segments":[],"categories_sizes":[],"default_left":[0,0,0,0,0,0,0,0,0,0,0,0,0,0,0,0,0,0,0,0,0,0,0,0,0],"id":15,"left_children":[1,3,5,7,9,11,13,15,-1,17,19,21,-1,-1,23,-1,-1,-1,-1,-1,-1,-1,-1,-1,-1],"loss_changes":[8.9451285E-5,6.9452544E-5,4.0546467E-5,1.0908996E-4,2.1258985E-4,1.1468204E-5,1.9512141E-5,9.5701376E-5,0E0,1.5499964E-4,3.5832258E-5,9.738627E-6,0E0,0E0,3.88633E-6,0E0,0E0,0E0,0E0,0E0,0E0,0E0,0E0,0E0,0E0],"parents":[2147483647,0,0,1,1,2,2,3,3,4,4,5,5,6,6,7,7,9,9,10,10,11,11,14,14],"right_children":[2,4,6,8,10,12,14,16,-1,18,20,22,-1,-1,24,-1,-1,-1,-1,-1,-1,-1,-1,-1,-1],"split_conditions":[8.754326E-1,7.114173E-1,9.34753E-1,7.478481E-1,7.207273E-1,7.005996E-1,5.724446E-1,7.057333E-1,1.0040771E-3,4.5895655E-2,5.164207E-1,1.10018015E-1,-5.857566E-4,4.276046E-4,1.7285497E-1,-4.3600434E-5,-5.48571E-4,1.4014755E-4,1.3286631E-3,-1.2130679E-4,9.06585E-5,9.5652525E-5,-3.1554757E-4,-2.7497878E-4,-7.909961E-6],"split_indices":[9,8,8,0,8,0,5,8,0,7,5,5,0,0,1,0,0,0,0,0,0,0,0,0,0],"split_type":[0,0,0,0,0,0,0,0,0,0,0,0,0,0,0,0,0,0,0,0,0,0,0,0,0],"sum_hessian":[2.03E2,1.84E2,1.9E1,9.2E1,9.2E1,1.4E1,5E0,9.1E1,1E0,9E0,8.3E1,8E0,6E0,1E0,4E0,8.3E1,8E0,5E0,4E0,2.3E1,6E1,1E0,7E0,1E0,3E0],"tree_param":{"num_deleted":"0","num_feature":"10","num_nodes":"25","size_leaf_vector":"1"}},{"base_weights":[-2.2565167E-4,-7.17014E-5,-1.1234854E-2,7.615551E-4,-5.023957E-4,3.8748034E-4,-2.8624947E-3,1.733325E-3,-5.680593E-4,5.130489E-4,-1.0371811E-3,8.800946E-5,3.955698E-4,-3.513899E-4,3.6704238E-5,-1.1458429E-6,2.3797233E-4,-7.700886E-5,-3.4634693E-4],"categories":[],"categories_nodes":[],"categories_segments":[],"categories_sizes":[],"default_left":[0,0,0,0,0,0,0,0,0,0,0,0,0,0,0,0,0,0,0],"id":16,"left_children":[1,3,5,7,9,-1,-1,11,13,15,17,-1,-1,-1,-1,-1,-1,-1,-1],"loss_changes":[3.6867606E-4,7.790042E-5,3.9502434E-4,9.6598495E-5,7.8187564E-5,0E0,0E0,4.5205088E-5,4.835581E-5,2.8849445E-5,6.2447645E-5,0E0,0E0,0E0,0E0,0E0,0E0,0E0,0E0],"parents":[2147483647,0,0,1,1,2,2,3,3,4,4,7,7,8,8,9,9,10,10],"right_children":[2,4,6,8,10,-1,-1,12,14,16,18,-1,-1,-1,-1,-1,-1,-1,-1],"split_conditions":[9.824779E-1,4.6363446E-1,6.133928E-1,7.3091924E-1,5.3734815E-1,3.8748034E-4,-2.8624947E-3,6.721835E-1,2.5194272E-1,7.2090614E-1,8.280908E-1,8.800946E-5,3.955698E-4,-3.513899E-4,3.6704238E-5,-1.1458429E-6,2.3797233E-4,-7.700886E-5,-3.4634693E-4],"split_indices":[4,4,0,8,3,0,0,8,5,8,5,0,0,0,0,0,0,0,0],"split_type":[0,0,0,0,0,0,0,0,0,0,0,0,0,0,0,0,0,0,0],"sum_hessian":[2.17E2,2.15E2,2E0,7.3E1,1.42E2,1E0,1E0,4.2E1,3.1E1,4.9E1,9.3E1,2E1,2.2E1,9E0,2.2E1,3.4E1,1.5E1,6.8E1,2.5E1],"tree_param":{"num_deleted":"0","num_feature":"10","num_nodes":"19","size_leaf_vector":"1"}},{"base_weights":[-1.2649165E-4,2.0785323E-5,-1.0393716E-2,-2.3288574E-4,1.4391083E-3,3.6258076E-4,-2.6522942E-3,-1.407087E-4,-2.8672053E-3,1.4554545E-3,8.461675E-4,-4.5222925E-5,2.869512E-4,1.4178318E-4,-5.6202465E-4,4.4113863E-4,-5.1216057E-6],"categories":[],"categories_nodes":[],"categories_segments":[],"categories_sizes":[],"default_left":[0,0,0,0,0,0,0,0,0,0,0,0,0,0,0,0,0],"id":17,"left_children":[1,3,5,7,9,-1,-1,11,13,-1,15,-1,-1,-1,-1,-1,-1],"loss_changes":[3.207867E-4,7.5890515E-5,3.4038382E-4,4.3062017E-5,1.5234452E-4,0E0,0E0,6.154247E-5,2.5760964E-5,0E0,5.9031714E-5,0E0,0E0,0E0,0E0,0E0,0E0],"parents":[2147483647,0,0,1,1,2,2,3,3,4,4,7,7,8,8,10,10],"right_children":[2,4,6,8,10,-1,-1,12,14,-1,16,-1,-1,-1,-1,-1,-1],"split_conditions":[9.935599E-1,7.111934E-1,6.2828034E-1,9.131207E-1,1.6808283E-1,3.6258076E-4,-2.6522942E-3,9.0751094E-1,3.0110542E-2,1.4554545E-3,3.0769423E-1,-4.5222925E-5,2.869512E-4,1.4178318E-4,-5.6202465E-4,4.4113863E-4,-5.1216057E-6],"split_indices":[5,0,0,7,1,0,0,5,6,0,4,0,0,0,0,0,0],"split_type":[0,0,0,0,0,0,0,0,0,0,0,0,0,0,0,0,0],"sum_hessian":[2.11E2,2.09E2,2E0,1.78E2,3.1E1,1E0,1E0,1.73E2,5E0,1E0,3E1,1.61E2,1.2E1,1E0,4E0,8E0,2.2E1],"tree_param":{"num_deleted":"0","num_feature":"10","num_nodes":"17","size_leaf_vector":"1"}},{"base_weights":[-1.7762896E-4,-1.364462E-5,-2.4575293E-3,1.5588193E-3,-2.4325371E-4,1.263603E-4,4.2505353E-3,1.4001829E-5,-2.0680658E-3,4.3930535E-4,-1.770607E-4,7.440374E-4,-1.6699794E-4,-3.05654E-5,1.3563412E-4,-3.3549388E-4,1.8168881E-4],"categories":[],"categories_nodes":[],"categories_segments":[],"categories_sizes":[],"default_left":[0,0,0,0,0,0,0,0,0,0,0,0,0,0,0,0,0],"id":18,"left_children":[1,3,-1,5,7,9,11,13,15,-1,-1,-1,-1,-1,-1,-1,-1],"loss_changes":[5.536028E-4,7.367275E-5,0E0,9.971299E-5,8.35898E-5,7.229186E-5,4.530727E-5,3.1910025E-5,1.8554012E-5,0E0,0E0,0E0,0E0,0E0,0E0,0E0,0E0],"parents":[2147483647,0,0,1,1,3,3,4,4,5,5,6,6,7,7,8,8],"right_children":[2,4,-1,6,8,10,12,14,16,-1,-1,-1,-1,-1,-1,-1,-1],"split_conditions":[9.8886883E-1,3.0769423E-1,-2.4575293E-3,1.0377533E-1,6.5783006E-1,1.8030342E-1,8.8894653E-1,7.6058894E-1,1E0,4.3930535E-4,-1.770607E-4,7.440374E-4,-1.6699794E-4,-3.05654E-5,1.3563412E-4,-3.3549388E-4,1.8168881E-4],"split_indices":[5,4,0,4,3,7,9,8,2,0,0,0,0,0,0,0,0],"split_type":[0,0,0,0,0,0,0,0,0,0,0,0,0,0,0,0,0],"sum_hessian":[2.03E2,2.02E2,1E0,2.5E1,1.77E2,1.7E1,8E0,1.56E2,2.1E1,5E0,1.2E1,7E0,1E0,1.26E2,3E1,2E1,1E0],"tree_param":{"num_deleted":"0","num_feature":"10","num_nodes":"17","size_leaf_vector":"1"}},{"base_weights":[-1.7851056E-4,-1.5386682E-5,-2.2770665E-3,4.7923822E-4,-1.0868176E-3,-9.038095E-5,2.090233E-3,-4.4295313E-3,-7.0239755E-4,-1.8614678E-4,6.318886E-5,8.740456E-4,1.5425318E-4,-1.2014458E-4,-8.857078E-4,-2.2665012E-5,-3.897015E-4],"categories":[],"categories_nodes":[],"categories_segments":[],"categories_sizes":[],"default_left":[0,0,0,0,0,0,0,0,0,0,0,0,0,0,0,0,0],"id":19,"left_children":[1,3,-1,5,7,9,11,13,15,-1,-1,-1,-1,-1,-1,-1,-1],"loss_changes":[4.7476677E-4,1.00682606E-4,0E0,1.1948387E-4,7.398905E-5,5.998963E-5,1.3026883E-4,2.9763061E-5,5.8403384E-5,0E0,0E0,0E0,0E0,0E0,0E0,0E0,0E0],"parents":[2147483647,0,0,1,1,3,3,4,4,5,5,6,6,7,7,8,8],"right_children":[2,4,-1,6,8,10,12,14,16,-1,-1,-1,-1,-1,-1,-1,-1],"split_conditions":[9.824779E-1,7.450161E-1,-2.2770665E-3,7.1527684E-1,6.586192E-2,4.7685188E-1,7.1866536E-1,1.2831222E-1,2.0467456E-1,-1.8614678E-4,6.318886E-5,8.740456E-4,1.5425318E-4,-1.2014458E-4,-8.857078E-4,-2.2665012E-5,-3.897015E-4],"split_indices":[4,8,0,8,7,5,8,6,6,0,0,0,0,0,0,0,0],"split_type":[0,0,0,0,0,0,0,0,0,0,0,0,0,0,0,0,0],"sum_hessian":[1.89E2,1.88E2,1E0,1.29E2,5.9E1,9.6E1,3.3E1,5E0,5.4E1,2.9E1,6.7E1,6E0,2.7E1,2E0,3E0,4.3E1,1.1E1],"tree_param":{"num_deleted":"0","num_feature":"10","num_nodes":"17","size_leaf_vector":"1"}},{"base_weights":[-2.2281849E-4,-8.4425104E-5,-2.1098556E-3,-9.818283E-4,3.747183E-4,-6.6441763E-4,-8.889754E-4,4.0207313E-5,1.2142535E-3,-1.5887279E-4,1.6924247E-4,-8.110892E-6,4.5711905E-4,8.396784E-4,9.989501E-5],"categories":[],"categories_nodes":[],"categories_segments":[],"categories_sizes":[],"default_left":[0,0,0,0,0,0,0,0,0,0,0,0,0,0,0],"id":20,"left_children":[1,3,-1,5,7,9,-1,11,13,-1,-1,-1,-1,-1,-1],"loss_changes":[4.0395092E-4,8.5247484E-5,0E0,1.0865336E-4,3.8425398E-5,5.2047224E-5,0E0,2.9198896E-5,8.990509E-5,0E0,0E0,0E0,0E0,0E0,0E0],"parents":[2147483647,0,0,1,1,3,3,4,4,5,5,7,7,8,8],"right_children":[2,4,-1,6,8,10,-1,12,14,-1,-1,-1,-1,-1,-1],"split_conditions":[9.935599E-1,1.0976056E-1,-2.1098556E-3,2.0467456E-1,7.008965E-1,1.5554933E-1,-8.889754E-4,9.729731E-1,1.6808283E-1,-1.5887279E-4,1.6924247E-4,-8.110892E-6,4.5711905E-4,8.396784E-4,9.989501E-5],"split_indices":[5,1,0,6,0,6,0,4,1,0,0,0,0,0,0],"split_type":[0,0,0,0,0,0,0,0,0,0,0,0,0,0,0],"sum_hessian":[2.06E2,2.05E2,1E0,6.9E1,1.36E2,6.6E1,3E0,9.8E1,3.8E1,5.4E1,1.2E1,9.6E1,2E0,3E0,3.5E1],"tree_param":{"num_deleted":"0","num_feature":"10","num_nodes":"15","size_leaf_vector":"1"}},{"base_weights":[-1.5925172E-4,5.2003347E-4,-1.6057392E-3,1.4355541E-4,2.327448E-3,-5.5833464E-4,-6.786929E-3,2.7484508E-4,-2.5897229E-3,4.2430856E-3,9.2972023E-4,1.8444124E-3,-1.2652004E-3,-5.1517633E-4,-1.0882234E-2,2.0853977E-5,4.186142E-4,-4.461961E-5,-4.5311556E-4,3.5794248E-4,7.637489E-4,-4.766596E-5,8.278673E-4,1.2173979E-4,5.3872576E-4,-6.1924173E-4,-1.0620309E-4,-2.1153543E-4,8.543293E-5,-2.647978E-4,-1.8119474E-3],"categories":[],"categories_nodes":[],"categories_segments":[],"categories_sizes":[],"default_left":[0,0,0,0,0,0,0,0,0,0,0,0,0,0,0,0,0,0,0,0,0,0,0,0,0,0,0,0,0,0,0],"id":21,"left_children":[1,3,5,7,9,11,13,15,17,19,21,23,25,27,29,-1,-1,-1,-1,-1,-1,-1,-1,-1,-1,-1,-1,-1,-1,-1,-1],"loss_changes":[1.8457705E-4,8.676373E-5,3.2181875E-4,3.910885E-5,5.4961005E-5,8.8952955E-5,2.5124114E-4,3.4837325E-5,4.7262765E-6,2.8836803E-6,8.4487234E-5,1.9183408E-5,6.0940816E-5,5.911835E-6,5.703076E-5,0E0,0E0,0E0,0E0,0E0,0E0,0E0,0E0,0E0,0E0,0E0,0E0,0E0,0E0,0E0,0E0],"parents":[2147483647,0,0,1,1,2,2,3,3,4,4,5,5,6,6,7,7,8,8,9,9,10,10,11,11,12,12,13,13,14,14],"right_children":[2,4,6,8,10,12,14,16,18,20,22,24,26,28,30,-1,-1,-1,-1,-1,-1,-1,-1,-1,-1,-1,-1,-1,-1,-1,-1],"split_conditions":[1.3595366E-1,2.6705533E-1,8.2011086E-1,2.4854891E-1,3.2845926E-1,5.4580506E-2,5.006738E-1,9.7620517E-1,6.18415E-1,6.932852E-1,1.0334157E-1,1.8644609E-1,6.586192E-2,6.3817966E-1,4.8649582E-1,2.0853977E-5,4.186142E-4,-4.461961E-5,-4.5311556E-4,3.5794248E-4,7.637489E-4,-4.766596E-5,8.278673E-4,1.2173979E-4,5.3872576E-4,-6.1924173E-4,-1.0620309E-4,-2.1153543E-4,8.543293E-5,-2.647978E-4,-1.8119474E-3],"split_indices":[6,2,5,1,2,7,3,5,0,5,6,1,7,0,0,0,0,0,0,0,0,0,0,0,0,0,0,0,0,0,0],"split_type":[0,0,0,0,0,0,0,0,0,0,0,0,0,0,0,0,0,0,0,0,0,0,0,0,0,0,0,0,0,0,0],"sum_hessian":[1.86E2,1.27E2,5.9E1,1.06E2,2.1E1,5E1,9E0,1.02E2,4E0,8E0,1.3E1,1.1E1,3.9E1,4E0,5E0,9.8E1,4E0,1E0,3E0,4E0,4E0,1.1E1,2E0,8E0,3E0,5E0,3.4E1,2E0,2E0,1E0,4E0],"tree_param":{"num_deleted":"0","num_feature":"10","num_nodes":"31","size_leaf_vector":"1"}},{"base_weights":[2.924182E-5,3.0818634E-4,-1.177795E-3,1.6752476E-4,8.4478455E-4,-5.2134343E-4,-1.8218673E-3,6.9818365E-5,5.709152E-4,-1.518805E-3,1.1545824E-3,2.0939634E-4,-1.4352453E-5,-1.5409247E-4,-5.1213085E-4,3.3185532E-4,-1.8892014E-4],"categories":[],"categories_nodes":[],"categories_segments":[],"categories_sizes":[],"default_left":[0,0,0,0,0,0,0,0,0,0,0,0,0,0,0,0,0],"id":22,"left_children":[1,3,5,7,-1,9,-1,11,-1,13,15,-1,-1,-1,-1,-1,-1],"loss_changes":[6.635546E-5,1.2155644E-4,2.662277E-4,5.67902E-5,0E0,6.1933766E-5,0E0,3.512528E-5,0E0,1.7600054E-5,4.066813E-5,0E0,0E0,0E0,0E0,0E0,0E0],"parents":[2147483647,0,0,1,1,2,2,3,3,5,5,7,7,9,9,10,10],"right_children":[2,4,6,8,-1,10,-1,12,-1,14,16,-1,-1,-1,-1,-1,-1],"split_conditions":[7.6069045E-1,9.7859734E-1,9.552764E-1,8.550499E-1,8.4478455E-4,8.115144E-1,-1.8218673E-3,4.8979826E-2,5.709152E-4,1.280962E-1,2.3259263E-1,2.0939634E-4,-1.4352453E-5,-1.5409247E-4,-5.1213085E-4,3.3185532E-4,-1.8892014E-4],"split_indices":[9,4,4,8,0,8,0,7,0,6,7,0,0,0,0,0,0],"split_type":[0,0,0,0,0,0,0,0,0,0,0,0,0,0,0,0,0],"sum_hessian":[1.95E2,1.59E2,3.6E1,1.56E2,3E0,3.5E1,1E0,1.53E2,3E0,2.2E1,1.3E1,1.6E1,1.37E2,1.9E1,3E0,9E0,4E0],"tree_param":{"num_deleted":"0","num_feature":"10","num_nodes":"17","size_leaf_vector":"1"}},{"base_weights":[2.1005695E-4,1.01238926E-4,4.3466575E-3,4.102907E-4,-1.083415E-3,-7.5934017E-6,8.0176286E-4,1.8034348E-3,1.9929685E-4,-3.6912523E-3,-3.1610407E-4,1.0096808E-4,8.951952E-4,-7.021703E-4,4.004881E-5,-8.029753E-5,-8.955125E-4,-9.197846E-5,4.245877E-4],"categories":[],"categories_nodes":[],"categories_segments":[],"categories_sizes":[],"default_left":[0,0,0,0,0,0,0,0,0,0,0,0,0,0,0,0,0,0,0],"id":23,"left_children":[1,3,5,7,9,-1,-1,11,13,15,17,-1,-1,-1,-1,-1,-1,-1,-1],"loss_changes":[8.778675E-5,7.0739436E-5,2.4748493E-5,4.4614135E-5,7.887407E-5,0E0,0E0,9.160054E-5,5.028445E-5,6.476477E-5,3.3642897E-5,0E0,0E0,0E0,0E0,0E0,0E0,0E0,0E0],"parents":[2147483647,0,0,1,1,2,2,3,3,4,4,7,7,8,8,9,9,10,10],"right_children":[2,4,6,8,10,-1,-1,12,14,16,18,-1,-1,-1,-1,-1,-1,-1,-1],"split_conditions":[9.855806E-1,8.085356E-1,5.873191E-1,7.586733E-2,8.508284E-1,-7.5934017E-6,8.0176286E-4,1.477564E-1,7.76378E-2,6.682625E-1,6.921378E-1,1.0096808E-4,8.951952E-4,-7.021703E-4,4.004881E-5,-8.029753E-5,-8.955125E-4,-9.197846E-5,4.245877E-4],"split_indices":[5,4,0,1,4,0,0,7,1,0,0,0,0,0,0,0,0,0,0],"split_type":[0,0,0,0,0,0,0,0,0,0,0,0,0,0,0,0,0,0,0],"sum_hessian":[1.95E2,1.91E2,4E0,1.52E2,3.9E1,1E0,3E0,1.9E1,1.33E2,8E0,3.1E1,1.6E1,3E0,1E0,1.32E2,4E0,4E0,2.9E1,2E0],"tree_param":{"num_deleted":"0","num_feature":"10","num_nodes":"19","size_leaf_vector":"1"}},{"base_weights":[1.1885437E-4,5.1990613E-5,6.8266777E-4,-1.655372E-4,1.0123244E-3,-6.0984505E-5,-6.51634E-4,-2.9804689E-4,3.04143E-3,-2.4197168E-5,2.296935E-4,3.11636E-4,-1.7955541E-4,9.300066E-4,1.8637931E-4],"categories":[],"categories_nodes":[],"categories_segments":[],"categories_sizes":[],"default_left":[0,0,0,0,0,0,0,0,0,0,0,0,0,0,0],"id":24,"left_children":[1,3,-1,5,7,9,-1,11,13,-1,-1,-1,-1,-1,-1],"loss_changes":[6.244891E-5,4.2991935E-5,0E0,7.475618E-5,1.01943995E-4,2.8081138E-5,0E0,5.629068E-5,7.945612E-5,0E0,0E0,0E0,0E0,0E0,0E0],"parents":[2147483647,0,0,1,1,3,3,4,4,5,5,7,7,8,8],"right_children":[2,4,-1,6,8,10,-1,12,14,-1,-1,-1,-1,-1,-1],"split_conditions":[9.813187E-1,6.956323E-1,6.8266777E-4,6.9147646E-1,7.1351665E-1,2.9713312E-1,-6.51634E-4,2.5863934E-1,8.1480646E-1,-2.4197168E-5,2.296935E-4,3.11636E-4,-1.7955541E-4,9.300066E-4,1.8637931E-4],"split_indices":[4,0,0,0,5,6,0,4,5,0,0,0,0,0,0],"split_type":[0,0,0,0,0,0,0,0,0,0,0,0,0,0,0],"sum_hessian":[2.06E2,2.04E2,2E0,1.67E2,3.7E1,1.64E2,3E0,2.3E1,1.4E1,1.55E2,9E0,6E0,1.7E1,4E0,1E1],"tree_param":{"num_deleted":"0","num_feature":"10","num_nodes":"15","size_leaf_vector":"1"}},{"base_weights":[3.316229E-5,-1.4307575E-4,3.0902808E-3,-8.612194E-5,-5.409744E-4,-1.3399335E-4,4.0811286E-3,-2.847705E-4,1.8168599E-3,8.0325257E-4,2.4754815E-3,-7.695511E-5,1.0303597E-4,6.753965E-4,5.774039E-5,-1.3217033E-4,4.891428E-4],"categories":[],"categories_nodes":[],"categories_segments":[],"categories_sizes":[],"default_left":[0,0,0,0,0,0,0,0,0,0,0,0,0,0,0,0,0],"id":25,"left_children":[1,3,5,7,-1,-1,9,11,13,-1,15,-1,-1,-1,-1,-1,-1],"loss_changes":[1.0873703E-4,3.8195856E-5,4.734948E-5,7.196404E-5,0E0,0E0,6.521266E-6,4.0950315E-5,6.948275E-5,0E0,2.0314721E-5,0E0,0E0,0E0,0E0,0E0,0E0],"parents":[2147483647,0,0,1,1,2,2,3,3,6,6,7,7,8,8,10,10],"right_children":[2,4,6,8,-1,-1,10,12,14,-1,16,-1,-1,-1,-1,-1,-1],"split_conditions":[9.511844E-1,9.9157155E-1,6.0372275E-1,4.6504152E-1,-5.409744E-4,-1.3399335E-4,6.5539825E-1,8.1176794E-1,5.419096E-1,8.0325257E-4,6.570618E-1,-7.695511E-5,1.0303597E-4,6.753965E-4,5.774039E-5,-1.3217033E-4,4.891428E-4],"split_indices":[4,1,9,1,0,0,0,4,2,0,0,0,0,0,0,0,0],"split_type":[0,0,0,0,0,0,0,0,0,0,0,0,0,0,0,0,0],"sum_hessian":[2E2,1.9E2,1E1,1.88E2,2E0,2E0,8E0,1.71E2,1.7E1,3E0,5E0,1.38E2,3.3E1,5E0,1.2E1,1E0,4E0],"tree_param":{"num_deleted":"0","num_feature":"10","num_nodes":"17","size_leaf_vector":"1"}},{"base_weights":[1.8396419E-4,3.1480606E-4,-1.9793534E-3,1.8072824E-4,2.3667784E-3,8.3352614E-5,-2.2624845E-3,-1.3073912E-3,3.189106E-4,3.2096135E-3,-1.2315981E-3,-3.2624134E-3,-1.2250375E-3,-1.186216E-4,-6.464207E-4,1.7666012E-4,8.416258E-6,5.615781E-4,-1.7019793E-4,-1.709303E-5,-2.542254E-4,-8.834318E-5,-5.5474736E-4,9.6224554E-5,-2.4197619E-4],"categories":[],"categories_nodes":[],"categories_segments":[],"categories_sizes":[],"default_left":[0,0,0,0,0,0,0,0,0,0,0,0,0,0,0,0,0,0,0,0,0,0,0,0,0],"id":26,"left_children":[1,3,5,7,9,-1,11,13,15,17,19,21,23,-1,-1,-1,-1,-1,-1,-1,-1,-1,-1,-1,-1],"loss_changes":[5.949803E-5,5.3771677E-5,9.937332E-6,3.8664468E-5,4.034701E-5,0E0,7.414528E-6,2.11827E-5,3.9474548E-5,3.126033E-5,1.4693896E-6,4.577556E-6,6.6411794E-6,0E0,0E0,0E0,0E0,0E0,0E0,0E0,0E0,0E0,0E0,0E0,0E0],"parents":[2147483647,0,0,1,1,2,2,3,3,4,4,6,6,7,7,8,8,9,9,10,10,11,11,12,12],"right_children":[2,4,6,8,10,-1,12,14,16,18,20,22,24,-1,-1,-1,-1,-1,-1,-1,-1,-1,-1,-1,-1],"split_conditions":[7.3855454E-1,8.480427E-1,7.4683666E-1,5.262939E-2,9.2557436E-1,8.3352614E-5,2.0827217E-1,1.0369566E-1,9.411521E-2,7.2778326E-1,6.775292E-1,1.8475996E-1,3.8566726E-1,-1.186216E-4,-6.464207E-4,1.7666012E-4,8.416258E-6,5.615781E-4,-1.7019793E-4,-1.709303E-5,-2.542254E-4,-8.834318E-5,-5.5474736E-4,9.6224554E-5,-2.4197619E-4],"split_indices":[3,8,0,2,8,0,7,7,1,0,0,4,5,0,0,0,0,0,0,0,0,0,0,0,0],"split_type":[0,0,0,0,0,0,0,0,0,0,0,0,0,0,0,0,0,0,0,0,0,0,0,0,0],"sum_hessian":[2.07E2,1.96E2,1.1E1,1.85E2,1.1E1,1E0,1E1,1.5E1,1.7E2,9E0,2E0,4E0,6E0,1.4E1,1E0,3.8E1,1.32E2,8E0,1E0,1E0,1E0,1E0,3E0,1E0,5E0],"tree_param":{"num_deleted":"0","num_feature":"10","num_nodes":"25","size_leaf_vector":"1"}},{"base_weights":[9.27689E-6,3.9991457E-4,-9.6116634E-4,2.6736406E-4,3.1452805E-3,-5.675761E-4,-1.8336254E-3,3.5169345E-4,-2.8564173E-3,1.5009112E-4,6.3347945E-4,3.1055504E-4,-1.48533E-3,1.2968239E-4,-3.3891724E-6,-5.235894E-4,-5.3632742E-5,-6.4856904E-5,9.792166E-5,-1.5971225E-5,6.462162E-4,-7.72881E-4,-1.5091636E-4],"categories":[],"categories_nodes":[],"categories_segments":[],"categories_sizes":[],"default_left":[0,0,0,0,0,0,0,0,0,0,0,0,0,0,0,0,0,0,0,0,0,0,0],"id":27,"left_children":[1,3,5,7,9,11,-1,13,15,17,-1,19,21,-1,-1,-1,-1,-1,-1,-1,-1,-1,-1],"loss_changes":[8.1889106E-5,5.5199616E-5,2.7412735E-4,3.9991715E-5,2.3842476E-5,4.9621685E-5,0E0,2.8892604E-5,5.76007E-6,1.2115511E-6,0E0,5.5350196E-5,4.6462126E-5,0E0,0E0,0E0,0E0,0E0,0E0,0E0,0E0,0E0,0E0],"parents":[2147483647,0,0,1,1,2,2,3,3,4,4,5,5,7,7,8,8,9,9,11,11,12,12],"right_children":[2,4,6,8,10,12,-1,14,16,18,-1,20,22,-1,-1,-1,-1,-1,-1,-1,-1,-1,-1],"split_conditions":[6.866829E-1,9.6654284E-1,9.412284E-1,4.2478848E-1,9.444033E-1,1.1836535E-1,-1.8336254E-3,6.39519E-1,5.646399E-1,6.535575E-1,6.3347945E-4,8.7722397E-1,7.041238E-1,1.2968239E-4,-3.3891724E-6,-5.235894E-4,-5.3632742E-5,-6.4856904E-5,9.792166E-5,-1.5971225E-5,6.462162E-4,-7.72881E-4,-1.5091636E-4],"split_indices":[0,4,4,6,5,6,0,9,0,0,0,5,8,0,0,0,0,0,0,0,0,0,0],"split_type":[0,0,0,0,0,0,0,0,0,0,0,0,0,0,0,0,0,0,0,0,0,0,0],"sum_hessian":[2.14E2,1.53E2,6.1E1,1.47E2,6E0,6E1,1E0,1.44E2,3E0,2E0,4E0,3.1E1,2.9E1,5.9E1,8.5E1,2E0,1E0,1E0,1E0,2.9E1,2E0,2E0,2.7E1],"tree_param":{"num_deleted":"0","num_feature":"10","num_nodes":"23","size_leaf_vector":"1"}},{"base_weights":[-4.6155004E-5,2.2704158E-5,-3.7357963E-3,-4.974177E-5,5.6640967E-4,4.0110678E-4,-1.6989775E-3,-6.4742344E-4,2.9595388E-4,-5.069315E-4,-2.7063319E-5,5.618287E-5,-3.8707943E-4],"categories":[],"categories_nodes":[],"categories_segments":[],"categories_sizes":[],"default_left":[0,0,0,0,0,0,0,0,0,0,0,0,0],"id":28,"left_children":[1,3,5,7,-1,-1,-1,9,11,-1,-1,-1,-1],"loss_changes":[5.547112E-5,5.9909093E-5,2.342023E-4,4.399419E-5,0E0,0E0,0E0,1.00669684E-4,3.5278452E-5,0E0,0E0,0E0,0E0],"parents":[2147483647,0,0,1,1,2,2,3,3,7,7,8,8],"right_children":[2,4,6,8,-1,-1,-1,10,12,-1,-1,-1,-1],"split_conditions":[9.824779E-1,9.8886883E-1,6.783682E-1,1.0976056E-1,5.6640967E-4,4.0110678E-4,-1.6989775E-3,5.764211E-1,9.797133E-1,-5.069315E-4,-2.7063319E-5,5.618287E-5,-3.8707943E-4],"split_indices":[4,5,0,1,0,0,0,9,5,0,0,0,0],"split_type":[0,0,0,0,0,0,0,0,0,0,0,0,0],"sum_hessian":[2.17E2,2.14E2,3E0,2.11E2,3E0,2E0,1E0,7.7E1,1.34E2,1E1,6.7E1,1.31E2,3E0],"tree_param":{"num_deleted":"0","num_feature":"10","num_nodes":"13","size_leaf_vector":"1"}},{"base_weights":[5.5040215E-5,1.3640814E-3,-8.7546E-5,2.0251186E-3,-4.489428E-4,8.2712964E-4,-3.3127755E-4,-6.275905E-4,3.4037721E-3,-2.9296835E-4,9.5388625E-4,-1.6811184E-4,-1.3508159E-3,-1.8722712E-4,9.6979E-5,5.7274883E-4,-1.5074333E-4,7.238191E-5,2.2867127E-4,-5.269021E-5,2.0507723E-4,-4.1734907E-4,6.230819E-5],"categories":[],"categories_nodes":[],"categories_segments":[],"categories_sizes":[],"default_left":[0,0,0,0,0,0,0,0,0,0,0,0,0,0,0,0,0,0,0,0,0,0,0],"id":29,"left_children":[1,3,5,7,-1,9,11,13,15,-1,17,19,21,-1,-1,-1,-1,-1,-1,-1,-1,-1,-1],"loss_changes":[3.800962E-5,6.463824E-5,4.1294104E-5,6.7965186E-5,0E0,1.5853104E-5,2.4060551E-5,6.6768666E-6,3.0374038E-5,0E0,9.799158E-6,3.8381662E-5,5.41346E-5,0E0,0E0,0E0,0E0,0E0,0E0,0E0,0E0,0E0,0E0],"parents":[2147483647,0,0,1,1,2,2,3,3,5,5,6,6,7,7,8,8,10,10,11,11,12,12],"right_children":[2,4,6,8,-1,10,12,14,16,-1,18,20,22,-1,-1,-1,-1,-1,-1,-1,-1,-1,-1],"split_conditions":[2.9171237E-1,9.2557436E-1,5.0481755E-1,7.5973764E-2,-4.489428E-4,9.5781036E-2,2.0985621E-1,7.5461674E-1,7.7589023E-1,-2.9296835E-4,6.347828E-1,2.8816774E-1,6.792316E-1,-1.8722712E-4,9.6979E-5,5.7274883E-4,-1.5074333E-4,7.238191E-5,2.2867127E-4,-5.269021E-5,2.0507723E-4,-4.1734907E-4,6.230819E-5],"split_indices":[5,8,3,6,0,3,6,8,0,0,0,2,9,0,0,0,0,0,0,0,0,0,0],"split_type":[0,0,0,0,0,0,0,0,0,0,0,0,0,0,0,0,0,0,0,0,0,0,0],"sum_hessian":[2.02E2,1.9E1,1.83E2,1.7E1,2E0,3.8E1,1.45E2,6E0,1.1E1,1E0,3.7E1,1.26E2,1.9E1,4E0,2E0,1E1,1E0,2.2E1,1.5E1,1.13E2,1.3E1,1E1,9E0],"tree_param":{"num_deleted":"0","num_feature":"10","num_nodes":"23","size_leaf_vector":"1"}},{"base_weights":[-3.1059067E-4,-2.0521923E-4,-1.5703478E-3,-3.1562767E-4,1.5508153E-3,1.5377175E-3,-3.9535918E-4,-4.5140676E-4,3.6282719E-3,3.636785E-4,-1.251243E-4,-3.743945E-4,-4.7013426E-5,-1.5825524E-4,1.0906813E-4,6.8079116E-4,1.5801254E-4],"categories":[],"categories_nodes":[],"categories_segments":[],"categories_sizes":[],"default_left":[0,0,0,0,0,0,0,0,0,0,0,0,0,0,0,0,0],"id":30,"left_children":[1,3,-1,5,7,9,11,13,15,-1,-1,-1,-1,-1,-1,-1,-1],"loss_changes":[2.1768975E-4,3.9265684E-5,0E0,2.853648E-5,5.1552182E-5,2.0052521E-5,2.8681043E-5,6.033783E-6,1.043731E-5,0E0,0E0,0E0,0E0,0E0,0E0,0E0,0E0],"parents":[2147483647,0,0,1,1,3,3,4,4,5,5,6,6,7,7,8,8],"right_children":[2,4,-1,6,8,10,12,14,16,-1,-1,-1,-1,-1,-1,-1,-1],"split_conditions":[9.824779E-1,9.511844E-1,-1.5703478E-3,5.7489026E-1,9.159618E-2,6.9147646E-1,5.2879333E-1,8.017751E-2,6.6437906E-1,3.636785E-4,-1.251243E-4,-3.743945E-4,-4.7013426E-5,-1.5825524E-4,1.0906813E-4,6.8079116E-4,1.5801254E-4],"split_indices":[4,4,0,8,6,0,9,6,0,0,0,0,0,0,0,0,0],"split_type":[0,0,0,0,0,0,0,0,0,0,0,0,0,0,0,0,0],"sum_hessian":[2E2,1.99E2,1E0,1.88E2,1.1E1,7E0,1.81E2,6E0,5E0,5E0,2E0,5E0,1.76E2,4E0,2E0,3E0,2E0],"tree_param":{"num_deleted":"0","num_feature":"10","num_nodes":"17","size_leaf_vector":"1"}},{"base_weights":[-1.8231462E-4,-1.0983018E-4,-4.9780007E-3,-1.7314058E-3,8.897256E-5,3.5839019E-4,-1.4550331E-3,-7.124678E-4,-3.8130633E-3,2.46711E-4,-1.7989766E-3,-2.961272E-4,-1.6129365E-5,-6.787272E-5,-9.121386E-4,2.6726592E-4,1.6622573E-5,-3.5947675E-4,-7.7268174E-5],"categories":[],"categories_nodes":[],"categories_segments":[],"categories_sizes":[],"default_left":[0,0,0,0,0,0,0,0,0,0,0,0,0,0,0,0,0,0,0],"id":31,"left_children":[1,3,5,7,9,-1,-1,11,13,15,17,-1,-1,-1,-1,-1,-1,-1,-1],"loss_changes":[7.001862E-5,6.495116E-5,1.3387616E-4,4.3947068E-5,5.4048203E-5,0E0,0E0,1.2350681E-5,5.337021E-5,3.4872835E-5,1.02718805E-5,0E0,0E0,0E0,0E0,0E0,0E0,0E0,0E0],"parents":[2147483647,0,0,1,1,2,2,3,3,4,4,7,7,8,8,9,9,10,10],"right_children":[2,4,6,8,10,-1,-1,12,14,16,18,-1,-1,-1,-1,-1,-1,-1,-1],"split_conditions":[9.813187E-1,5.944041E-2,6.133928E-1,1.3561307E-1,7.3855454E-1,3.5839019E-4,-1.4550331E-3,5.8898705E-1,4.6815187E-2,7.0116006E-2,5.0313026E-1,-2.961272E-4,-1.6129365E-5,-6.787272E-5,-9.121386E-4,2.6726592E-4,1.6622573E-5,-3.5947675E-4,-7.7268174E-5],"split_indices":[4,1,0,6,3,0,0,4,1,2,4,0,0,0,0,0,0,0,0],"split_type":[0,0,0,0,0,0,0,0,0,0,0,0,0,0,0,0,0,0,0],"sum_hessian":[2.02E2,2E2,2E0,2.1E1,1.79E2,1E0,1E0,1.5E1,6E0,1.66E2,1.3E1,4E0,1.1E1,3E0,3E0,1.2E1,1.54E2,8E0,5E0],"tree_param":{"num_deleted":"0","num_feature":"10","num_nodes":"19","size_leaf_vector":"1"}},{"base_weights":[-2.365071E-5,-3.5740098E-4,5.1796436E-4,-5.0485117E-4,1.5067215E-3,1.8590839E-3,5.535995E-5,7.851148E-4,-6.630014E-4,4.931279E-4,-2.8687224E-4,1.0799401E-3,6.1739665E-3,-7.828915E-4,4.731676E-4,-2.3184076E-4,2.7734888E-4,-6.873298E-6,-1.5027997E-4,8.005557E-5,-1.910039E-4,2.8197197E-4,-1.5568324E-4,1.6547718E-4,1.1946345E-3,4.846381E-5,-2.0016296E-4,2.5989983E-4,-5.767838E-5],"categories":[],"categories_nodes":[],"categories_segments":[],"categories_sizes":[],"default_left":[0,0,0,0,0,0,0,0,0,0,0,0,0,0,0,0,0,0,0,0,0,0,0,0,0,0,0,0,0],"id":32,"left_children":[1,3,5,7,9,11,13,15,17,-1,19,21,23,25,27,-1,-1,-1,-1,-1,-1,-1,-1,-1,-1,-1,-1,-1,-1],"loss_changes":[3.8868657E-5,3.7317746E-5,5.077052E-5,2.5817575E-5,3.416208E-5,6.3932675E-5,2.2084567E-5,3.9492894E-5,2.4592573E-5,0E0,5.7689426E-6,3.6189165E-5,2.0516578E-5,1.4004865E-5,4.7845002E-5,0E0,0E0,0E0,0E0,0E0,0E0,0E0,0E0,0E0,0E0,0E0,0E0,0E0,0E0],"parents":[2147483647,0,0,1,1,2,2,3,3,4,4,5,5,6,6,7,7,8,8,10,10,11,11,12,12,13,13,14,14],"right_children":[2,4,6,8,10,12,14,16,18,-1,20,22,24,26,28,-1,-1,-1,-1,-1,-1,-1,-1,-1,-1,-1,-1,-1,-1],"split_conditions":[7.155569E-1,8.764523E-1,7.970074E-1,4.926754E-2,2.1566495E-1,7.886038E-1,6.544063E-1,5.164207E-1,4.4750983E-1,4.931279E-4,7.4548465E-1,7.727646E-1,6.866829E-1,8.590912E-1,6.893151E-1,-2.3184076E-4,2.7734888E-4,-6.873298E-6,-1.5027997E-4,8.005557E-5,-1.910039E-4,2.8197197E-4,-1.5568324E-4,1.6547718E-4,1.1946345E-3,4.846381E-5,-2.0016296E-4,2.5989983E-4,-5.767838E-5],"split_indices":[5,8,5,7,7,5,0,5,5,0,0,5,0,5,8,0,0,0,0,0,0,0,0,0,0,0,0,0,0],"split_type":[0,0,0,0,0,0,0,0,0,0,0,0,0,0,0,0,0,0,0,0,0,0,0,0,0,0,0,0,0],"sum_hessian":[2.13E2,1.32E2,8.1E1,1.23E2,9E0,2E1,6.1E1,1.3E1,1.1E2,4E0,5E0,1.8E1,2E0,2E1,4.1E1,4E0,9E0,4.1E1,6.9E1,3E0,2E0,1.3E1,5E0,1E0,1E0,7E0,1.3E1,1.6E1,2.5E1],"tree_param":{"num_deleted":"0","num_feature":"10","num_nodes":"29","size_leaf_vector":"1"}},{"base_weights":[3.355028E-4,-2.1931587E-4,7.022754E-4,8.411587E-4,-4.7104282E-4,2.7607973E-3,5.0998566E-4,1.2066397E-3,-9.1201055E-4,9.3071593E-4,4.0387195E-3,2.0451953E-3,3.1668245E-4,-9.182627E-5,4.2410145E-4,-2.8468778E-5,-2.0135313E-4,-7.902774E-5,3.0684413E-4,7.3226984E-4,1.8329145E-5,5.957708E-5,4.910978E-4,-1.4309325E-4,8.037888E-5],"categories":[],"categories_nodes":[],"categories_segments":[],"categories_sizes":[],"default_left":[0,0,0,0,0,0,0,0,0,0,0,0,0,0,0,0,0,0,0,0,0,0,0,0,0],"id":33,"left_children":[1,3,5,-1,7,9,11,13,15,17,19,21,23,-1,-1,-1,-1,-1,-1,-1,-1,-1,-1,-1,-1],"loss_changes":[3.657914E-5,1.1047849E-4,4.1341955E-5,0E0,5.288674E-5,1.7289407E-5,2.9028419E-5,4.7997804E-5,1.8193841E-5,9.632884E-6,1.7915583E-5,2.2064953E-5,2.7328304E-5,0E0,0E0,0E0,0E0,0E0,0E0,0E0,0E0,0E0,0E0,0E0,0E0],"parents":[2147483647,0,0,1,1,2,2,4,4,5,5,6,6,7,7,8,8,9,9,10,10,11,11,12,12],"right_children":[2,4,6,-1,8,10,12,14,16,18,20,22,24,-1,-1,-1,-1,-1,-1,-1,-1,-1,-1,-1,-1],"split_conditions":[5.556266E-1,5.4689455E-1,5.994111E-1,8.411587E-4,3.0769423E-1,4.2364728E-2,5.223305E-2,5.9964288E-2,6.6108453E-1,6.58611E-1,6.460757E-1,7.829043E-1,6.2368307E-2,-9.182627E-5,4.2410145E-4,-2.8468778E-5,-2.0135313E-4,-7.902774E-5,3.0684413E-4,7.3226984E-4,1.8329145E-5,5.957708E-5,4.910978E-4,-1.4309325E-4,8.037888E-5],"split_indices":[5,9,5,0,4,7,7,5,0,0,4,4,7,0,0,0,0,0,0,0,0,0,0,0,0],"split_type":[0,0,0,0,0,0,0,0,0,0,0,0,0,0,0,0,0,0,0,0,0,0,0,0,0],"sum_hessian":[1.78E2,7.1E1,1.07E2,2E0,6.9E1,8E0,9.9E1,1.4E1,5.5E1,4E0,4E0,1E1,8.9E1,7E0,7E0,2.2E1,3.3E1,2E0,2E0,3E0,1E0,5E0,5E0,1.3E1,7.6E1],"tree_param":{"num_deleted":"0","num_feature":"10","num_nodes":"25","size_leaf_vector":"1"}},{"base_weights":[1.11542264E-4,5.220223E-4,-6.41612E-4,3.0940305E-4,2.7940487E-3,-3.8817496E-4,-1.3498534E-3,-4.360015E-4,9.0555893E-4,-2.3965302E-4,3.3998112E-3,-8.6781196E-4,7.723024E-4,-4.0827796E-5,-6.469671E-4,1.9035325E-4,-1.4575907E-4,1.4033409E-4,5.715174E-4,-7.928338E-5,-3.704232E-4,-7.9391146E-5,2.381871E-4],"categories":[],"categories_nodes":[],"categories_segments":[],"categories_sizes":[],"default_left":[0,0,0,0,0,0,0,0,0,0,0,0,0,0,0,0,0,0,0,0,0,0,0],"id":34,"left_children":[1,3,5,7,9,11,-1,13,15,-1,17,19,21,-1,-1,-1,-1,-1,-1,-1,-1,-1,-1],"loss_changes":[6.21659E-5,6.193547E-5,1.50272E-4,5.3720098E-5,3.5038844E-5,3.9632763E-5,0E0,3.264178E-5,5.0951658E-5,0E0,8.298426E-6,2.5768233E-5,2.4297842E-5,0E0,0E0,0E0,0E0,0E0,0E0,0E0,0E0,0E0,0E0],"parents":[2147483647,0,0,1,1,2,2,3,3,4,4,5,5,7,7,8,8,10,10,11,11,12,12],"right_children":[2,4,6,8,10,12,-1,14,16,-1,18,20,22,-1,-1,-1,-1,-1,-1,-1,-1,-1,-1],"split_conditions":[7.362176E-1,3.9661324E-1,9.7592187E-1,6.796436E-1,3.0145096E-2,2.0957454E-1,-1.3498534E-3,6.782022E-1,1.7870867E-1,-2.3965302E-4,6.7637734E-2,1.93555E-1,4.2537883E-1,-4.0827796E-5,-6.469671E-4,1.9035325E-4,-1.4575907E-4,1.4033409E-4,5.715174E-4,-7.928338E-5,-3.704232E-4,-7.9391146E-5,2.381871E-4],"split_indices":[8,1,4,8,9,7,0,8,7,0,7,7,4,0,0,0,0,0,0,0,0,0,0],"split_type":[0,0,0,0,0,0,0,0,0,0,0,0,0,0,0,0,0,0,0,0,0,0,0],"sum_hessian":[1.99E2,1.29E2,7E1,1.19E2,1E1,6.9E1,1E0,5.3E1,6.6E1,1E0,9E0,4.9E1,2E1,5.2E1,1E0,5.5E1,1.1E1,2E0,7E0,4.2E1,7E0,8E0,1.2E1],"tree_param":{"num_deleted":"0","num_feature":"10","num_nodes":"23","size_leaf_vector":"1"}},{"base_weights":[-6.600255E-5,-1.8631964E-4,1.6142587E-3,-2.5667375E-4,4.3927666E-4,-2.5217797E-4,2.0349587E-3,-4.413406E-5,-1.0937988E-3,-2.9578328E-4,2.8447374E-3,-4.0654262E-4,4.994849E-6,-1.9659294E-4,5.488377E-4,-9.641145E-5,5.7736605E-5,5.693214E-4,-7.503737E-5],"categories":[],"categories_nodes":[],"categories_segments":[],"categories_sizes":[],"default_left":[0,0,0,0,0,0,0,0,0,0,0,0,0,0,0,0,0,0,0],"id":35,"left_children":[1,3,5,7,-1,-1,9,11,13,15,17,-1,-1,-1,-1,-1,-1,-1,-1],"loss_changes":[3.9318445E-5,4.122824E-5,2.1713538E-5,3.1621894E-5,0E0,0E0,2.349005E-5,3.0533647E-5,4.7574504E-5,1.2519724E-6,3.3140488E-5,0E0,0E0,0E0,0E0,0E0,0E0,0E0,0E0],"parents":[2147483647,0,0,1,1,2,2,3,3,6,6,7,7,8,8,9,9,10,10],"right_children":[2,4,6,8,-1,-1,10,12,14,16,18,-1,-1,-1,-1,-1,-1,-1,-1],"split_conditions":[9.444033E-1,8.842455E-1,2.3422992E-2,8.176764E-1,4.3927666E-4,-2.5217797E-4,6.676896E-2,3.3373532E-1,2.7807757E-1,2.1237582E-1,7.365027E-1,-4.0654262E-4,4.994849E-6,-1.9659294E-4,5.488377E-4,-9.641145E-5,5.7736605E-5,5.693214E-4,-7.503737E-5],"split_indices":[5,1,7,5,0,0,6,3,6,1,8,0,0,0,0,0,0,0,0],"split_type":[0,0,0,0,0,0,0,0,0,0,0,0,0,0,0,0,0,0,0],"sum_hessian":[1.92E2,1.8E2,1.2E1,1.77E2,3E0,1E0,1.1E1,1.42E2,3.5E1,3E0,8E0,3E0,1.39E2,3.4E1,1E0,2E0,1E0,6E0,2E0],"tree_param":{"num_deleted":"0","num_feature":"10","num_nodes":"19","size_leaf_vector":"1"}},{"base_weights":[-3.7481723E-4,-2.1000636E-4,-1.3848566E-3,-1.8316918E-3,-1.0383844E-4,-8.157599E-4,-5.806125E-4,1.1216087E-4,-2.167601E-3,1.9090807E-4,-6.2034704E-4,-1.0991959E-3,4.3961938E-4,-4.2477922E-4,-1.269554E-4,-2.1570744E-5,3.403558E-4,-1.14578914E-4,2.7787397E-4,8.845861E-5,-2.4964547E-4],"categories":[],"categories_nodes":[],"categories_segments":[],"categories_sizes":[],"default_left":[0,0,0,0,0,0,0,0,0,0,0,0,0,0,0,0,0,0,0,0,0],"id":36,"left_children":[1,3,5,7,9,11,-1,-1,13,15,17,19,-1,-1,-1,-1,-1,-1,-1,-1,-1],"loss_changes":[3.4333993E-5,3.0800573E-5,3.9165236E-5,1.1245364E-5,2.5999077E-5,3.0281266E-5,0E0,0E0,6.943901E-6,7.863674E-5,2.6370326E-5,2.5551293E-5,0E0,0E0,0E0,0E0,0E0,0E0,0E0,0E0,0E0],"parents":[2147483647,0,0,1,1,2,2,3,3,4,4,5,5,8,8,9,9,10,10,11,11],"right_children":[2,4,6,8,10,12,-1,-1,14,16,18,20,-1,-1,-1,-1,-1,-1,-1,-1,-1],"split_conditions":[8.651314E-1,3.9352592E-2,2.1305287E-1,6.08953E-2,6.7867583E-1,9.813187E-1,-5.806125E-4,1.1216087E-4,2.3050445E-1,5.746991E-1,8.438943E-1,5.6792982E-2,4.3961938E-4,-4.2477922E-4,-1.269554E-4,-2.1570744E-5,3.403558E-4,-1.14578914E-4,2.7787397E-4,8.845861E-5,-2.4964547E-4],"split_indices":[5,4,6,2,0,4,0,0,7,3,5,7,0,0,0,0,0,0,0,0,0],"split_type":[0,0,0,0,0,0,0,0,0,0,0,0,0,0,0,0,0,0,0,0,0],"sum_hessian":[2.07E2,1.79E2,2.8E1,1E1,1.69E2,2.4E1,4E0,1E0,9E0,1.08E2,6.1E1,2.3E1,1E0,5E0,4E0,9.4E1,1.4E1,5.8E1,3E0,6E0,1.7E1],"tree_param":{"num_deleted":"0","num_feature":"10","num_nodes":"21","size_leaf_vector":"1"}},{"base_weights":[5.5811648E-5,-1.2456261E-3,1.7640526E-4,-5.3087686E-4,-6.887654E-4,5.323771E-5,2.30188E-3,1.3532588E-5,-9.811086E-4,4.2513094E-4,-5.3273013E-4,-1.1931278E-4,3.1819986E-3,-2.7906496E-4,-5.859232E-5,3.6224409E-4,3.4551093E-5,-1.401883E-4,4.1174357E-5,5.895131E-4,1.977586E-4],"categories":[],"categories_nodes":[],"categories_segments":[],"categories_sizes":[],"default_left":[0,0,0,0,0,0,0,0,0,0,0,0,0,0,0,0,0,0,0,0,0],"id":37,"left_children":[1,3,5,-1,7,9,11,-1,13,15,17,-1,19,-1,-1,-1,-1,-1,-1,-1,-1],"loss_changes":[3.1451804E-5,1.9937655E-5,4.778493E-5,0E0,3.5148014E-6,3.8144124E-5,2.9994371E-5,0E0,5.1271645E-6,4.089334E-5,2.3589208E-5,0E0,6.811555E-6,0E0,0E0,0E0,0E0,0E0,0E0,0E0,0E0],"parents":[2147483647,0,0,1,1,2,2,4,4,5,5,6,6,8,8,9,9,10,10,12,12],"right_children":[2,4,6,-1,8,10,12,-1,14,16,18,-1,20,-1,-1,-1,-1,-1,-1,-1,-1],"split_conditions":[5.263236E-2,4.791184E-1,9.511844E-1,-5.3087686E-4,6.6108507E-1,6.583566E-1,6.0372275E-1,1.3532588E-5,7.487766E-1,7.586733E-2,6.9538724E-1,-1.1931278E-4,6.893151E-1,-2.7906496E-4,-5.859232E-5,3.6224409E-4,3.4551093E-5,-1.401883E-4,4.1174357E-5,5.895131E-4,1.977586E-4],"split_indices":[2,4,4,0,5,4,9,0,5,1,9,0,8,0,0,0,0,0,0,0,0],"split_type":[0,0,0,0,0,0,0,0,0,0,0,0,0,0,0,0,0,0,0,0,0],"sum_hessian":[1.98E2,1.6E1,1.82E2,2E0,1.4E1,1.73E2,9E0,4E0,1E1,1.06E2,6.7E1,2E0,7E0,3E0,7E0,8E0,9.8E1,4.4E1,2.3E1,4E0,3E0],"tree_param":{"num_deleted":"0","num_feature":"10","num_nodes":"21","size_leaf_vector":"1"}},{"base_weights":[1.6696494E-4,-3.5318354E-4,6.8024226E-4,-1.8848461E-4,-2.8746026E-3,4.3895664E-3,3.967794E-4,-3.2215196E-4,5.8356544E-4,-4.68396E-6,-5.0474145E-4,1.2916957E-3,1.1880656E-3,1.6185853E-3,-1.1974816E-4,-1.7113556E-4,3.9097493E-5,-3.3171335E-5,2.5371718E-4,1.21590354E-4,5.6871463E-4,-1.5939497E-4,3.77589E-5],"categories":[],"categories_nodes":[],"categories_segments":[],"categories_sizes":[],"default_left":[0,0,0,0,0,0,0,0,0,0,0,0,0,0,0,0,0,0,0,0,0,0,0],"id":38,"left_children":[1,3,5,7,9,11,13,15,-1,-1,-1,17,-1,19,21,-1,-1,-1,-1,-1,-1,-1,-1],"loss_changes":[5.3102376E-5,4.05704E-5,1.0340388E-4,5.357396E-5,9.478797E-6,6.978413E-5,5.951689E-5,4.594708E-5,0E0,0E0,0E0,3.697367E-6,0E0,4.6690468E-5,2.465838E-5,0E0,0E0,0E0,0E0,0E0,0E0,0E0,0E0],"parents":[2147483647,0,0,1,1,2,2,3,3,4,4,5,5,6,6,7,7,11,11,13,13,14,14],"right_children":[2,4,6,8,10,12,14,16,-1,-1,-1,18,-1,20,22,-1,-1,-1,-1,-1,-1,-1,-1],"split_conditions":[7.163749E-1,3.1455362E-1,7.207273E-1,2.9713312E-1,3.9661324E-1,7.1433914E-1,9.871208E-2,9.871208E-2,5.8356544E-4,-4.68396E-6,-5.0474145E-4,6.174501E-2,1.1880656E-3,1.313276E-1,3.6694258E-1,-1.7113556E-4,3.9097493E-5,-3.3171335E-5,2.5371718E-4,1.21590354E-4,5.6871463E-4,-1.5939497E-4,3.77589E-5],"split_indices":[8,6,8,6,1,5,2,2,0,0,0,1,0,6,4,0,0,0,0,0,0,0,0],"split_type":[0,0,0,0,0,0,0,0,0,0,0,0,0,0,0,0,0,0,0,0,0,0,0],"sum_hessian":[1.97E2,9.8E1,9.9E1,9.3E1,5E0,6E0,9.3E1,9.1E1,2E0,1E0,4E0,4E0,2E0,2.7E1,6.6E1,3.7E1,5.4E1,1E0,3E0,2.1E1,6E0,1.8E1,4.8E1],"tree_param":{"num_deleted":"0","num_feature":"10","num_nodes":"23","size_leaf_vector":"1"}},{"base_weights":[-1.2733805E-4,1.9666615E-4,-7.270389E-4,-1.2994296E-4,1.3447958E-3,-2.2943353E-3,-2.7365514E-4,1.6196689E-4,-1.339015E-3,2.2504057E-3,1.0071729E-4,-2.541841E-3,6.77959E-5,-5.4955605E-4,3.0365945E-3,3.6454917E-4,9.457543E-6,-1.0260532E-4,-4.206622E-4,4.693083E-4,1.8582643E-4,6.3957646E-4,-1.0015005E-4,-4.087767E-4,2.615743E-5,-2.4978403E-4,2.342368E-5,5.610954E-4,5.0297233E-5],"categories":[],"categories_nodes":[],"categories_segments":[],"categories_sizes":[],"default_left":[0,0,0,0,0,0,0,0,0,0,0,0,0,0,0,0,0,0,0,0,0,0,0,0,0,0,0,0,0],"id":39,"left_children":[1,3,5,7,9,11,13,15,17,19,21,23,-1,25,27,-1,-1,-1,-1,-1,-1,-1,-1,-1,-1,-1,-1,-1,-1],"loss_changes":[3.4923687E-5,4.404853E-5,4.41391E-5,3.268736E-5,2.9066236E-5,1.0722972E-5,4.7333822E-5,1.6819198E-5,1.5580299E-5,9.922296E-6,4.2922882E-5,9.035153E-6,0E0,3.863571E-5,7.139104E-6,0E0,0E0,0E0,0E0,0E0,0E0,0E0,0E0,0E0,0E0,0E0,0E0,0E0,0E0],"parents":[2147483647,0,0,1,1,2,2,3,3,4,4,5,5,6,6,7,7,8,8,9,9,10,10,11,11,13,13,14,14],"right_children":[2,4,6,8,10,12,14,16,18,20,22,24,-1,26,28,-1,-1,-1,-1,-1,-1,-1,-1,-1,-1,-1,-1,-1,-1],"split_conditions":[1.34286E-1,2.37193E-1,6.796436E-1,2.0509852E-1,3.2845926E-1,6.042587E-1,8.6586744E-1,6.334089E-1,7.7791244E-1,2.428569E-1,1.7938809E-1,2.1983474E-1,6.77959E-5,8.7424956E-2,6.783682E-1,3.6454917E-4,9.457543E-6,-1.0260532E-4,-4.206622E-4,4.693083E-4,1.8582643E-4,6.3957646E-4,-1.0015005E-4,-4.087767E-4,2.615743E-5,-2.4978403E-4,2.342368E-5,5.610954E-4,5.0297233E-5],"split_indices":[6,1,8,7,2,1,5,0,8,7,5,7,0,7,0,0,0,0,0,0,0,0,0,0,0,0,0,0,0],"split_type":[0,0,0,0,0,0,0,0,0,0,0,0,0,0,0,0,0,0,0,0,0,0,0,0,0,0,0,0,0],"sum_hessian":[1.78E2,1.16E2,6.2E1,9.1E1,2.5E1,1.3E1,4.9E1,7.4E1,1.7E1,1.4E1,1.1E1,1.2E1,1E0,4.6E1,3E0,2E0,7.2E1,1.3E1,4E0,6E0,8E0,1E0,1E1,1.1E1,1E0,1.7E1,2.9E1,2E0,1E0],"tree_param":{"num_deleted":"0","num_feature":"10","num_nodes":"29","size_leaf_vector":"1"}},{"base_weights":[1.4424283E-4,2.0642027E-4,-4.1526295E-3,1.678917E-5,1.0961666E-3,3.8367475E-4,-1.2984902E-3,-2.9812786E-3,8.8498644E-5,2.1541247E-3,-7.202052E-4,6.3826633E-6,-5.8805005E-4,2.7469907E-5,-2.4412817E-4,1.7830277E-4,7.7773345E-4,-3.4561934E-4,2.4727307E-5],"categories":[],"categories_nodes":[],"categories_segments":[],"categories_sizes":[],"default_left":[0,0,0,0,0,0,0,0,0,0,0,0,0,0,0,0,0,0,0],"id":40,"left_children":[1,3,5,7,9,-1,-1,11,13,15,17,-1,-1,-1,-1,-1,-1,-1,-1],"loss_changes":[5.6161058E-5,3.456993E-5,1.18256256E-4,3.6812115E-5,7.073065E-5,0E0,0E0,1.2548004E-5,2.9122557E-5,6.149358E-5,2.0712057E-5,0E0,0E0,0E0,0E0,0E0,0E0,0E0,0E0],"parents":[2147483647,0,0,1,1,2,2,3,3,4,4,7,7,8,8,9,9,10,10],"right_children":[2,4,6,8,10,-1,-1,12,14,16,18,-1,-1,-1,-1,-1,-1,-1,-1],"split_conditions":[9.901594E-1,2.0148769E-1,6.2828034E-1,2.3664102E-2,7.2310644E-1,3.8367475E-4,-1.2984902E-3,6.624744E-1,1.8460864E-1,7.111934E-1,2.5194272E-1,6.3826633E-6,-5.8805005E-4,2.7469907E-5,-2.4412817E-4,1.7830277E-4,7.7773345E-4,-3.4561934E-4,2.4727307E-5],"split_indices":[5,6,0,7,0,0,0,0,6,0,5,0,0,0,0,0,0,0,0],"split_type":[0,0,0,0,0,0,0,0,0,0,0,0,0,0,0,0,0,0,0],"sum_hessian":[2.06E2,2.04E2,2E0,1.69E2,3.5E1,1E0,1E0,3E0,1.66E2,2.2E1,1.3E1,1E0,2E0,1.58E2,8E0,1.8E1,4E0,4E0,9E0],"tree_param":{"num_deleted":"0","num_feature":"10","num_nodes":"19","size_leaf_vector":"1"}},{"base_weights":[8.4308034E-5,3.302602E-4,-5.867897E-4,4.5936825E-4,-1.7004374E-3,-2.504052E-3,-3.8093523E-5,3.8027324E-4,3.9182515E-3,1.0776677E-5,-3.2570664E-4,-3.4005535E-3,1.3908956E-4,1.6739038E-3,-4.1747923E-4,3.7954418E-5,3.061314E-4,9.665273E-4,-1.0334484E-4,-5.340497E-4,-1.112052E-4,1.7422673E-4,-2.2048526E-4,4.0561587E-5,4.409746E-4,1.19013646E-4,-1.1708563E-4],"categories":[],"categories_nodes":[],"categories_segments":[],"categories_sizes":[],"default_left":[0,0,0,0,0,0,0,0,0,0,0,0,0,0,0,0,0,0,0,0,0,0,0,0,0,0,0],"id":41,"left_children":[1,3,5,7,9,11,13,15,17,-1,-1,19,21,23,25,-1,-1,-1,-1,-1,-1,-1,-1,-1,-1,-1,-1],"loss_changes":[3.3205382E-5,3.9321494E-5,5.6712306E-5,3.653768E-5,8.420877E-6,2.8907954E-5,2.8627632E-5,2.7908065E-5,4.155262E-5,0E0,0E0,2.8556533E-6,8.652223E-6,1.4027692E-5,1.7431936E-5,0E0,0E0,0E0,0E0,0E0,0E0,0E0,0E0,0E0,0E0,0E0,0E0],"parents":[2147483647,0,0,1,1,2,2,3,3,4,4,5,5,6,6,7,7,8,8,11,11,12,12,13,13,14,14],"right_children":[2,4,6,8,10,12,14,16,18,-1,-1,20,22,24,26,-1,-1,-1,-1,-1,-1,-1,-1,-1,-1,-1,-1],"split_conditions":[7.514983E-1,6.9638515E-1,7.7797645E-1,6.849392E-1,1.1213741E-1,6.2529945E-1,7.8548914E-1,7.432966E-1,1.6808283E-1,1.0776677E-5,-3.2570664E-4,7.5464505E-1,7.704822E-1,9.159618E-2,1.3675445E-1,3.7954418E-5,3.061314E-4,9.665273E-4,-1.0334484E-4,-5.340497E-4,-1.112052E-4,1.7422673E-4,-2.2048526E-4,4.0561587E-5,4.409746E-4,1.19013646E-4,-1.1708563E-4],"split_indices":[9,3,9,3,7,3,9,9,1,0,0,4,3,6,1,0,0,0,0,0,0,0,0,0,0,0,0],"split_type":[0,0,0,0,0,0,0,0,0,0,0,0,0,0,0,0,0,0,0,0,0,0,0,0,0,0,0],"sum_hessian":[1.99E2,1.46E2,5.3E1,1.38E2,8E0,1.1E1,4.2E1,1.36E2,2E0,2E0,6E0,8E0,3E0,7E0,3.5E1,1.28E2,8E0,1E0,1E0,7E0,1E0,2E0,1E0,4E0,3E0,8E0,2.7E1],"tree_param":{"num_deleted":"0","num_feature":"10","num_nodes":"27","size_leaf_vector":"1"}},{"base_weights":[-9.377384E-5,2.0140012E-4,-9.830957E-4,-1.4917016E-4,1.5550848E-3,-6.835691E-4,-1.2159327E-3,-2.2326202E-4,4.4241856E-4,-1.0137433E-3,2.0500093E-3,-2.2512274E-3,-2.0806986E-4,-5.2809387E-6,-2.5248018E-4,-2.852155E-4,2.663878E-4,3.9543275E-4,1.1930129E-4,-4.3980812E-4,-2.3130106E-6,2.1678218E-4,-1.0689716E-4],"categories":[],"categories_nodes":[],"categories_segments":[],"categories_sizes":[],"default_left":[0,0,0,0,0,0,0,0,0,0,0,0,0,0,0,0,0,0,0,0,0,0,0],"id":42,"left_children":[1,3,5,7,9,11,-1,13,-1,15,17,19,21,-1,-1,-1,-1,-1,-1,-1,-1,-1,-1],"loss_changes":[5.5848985E-5,7.6161836E-5,1.10166206E-4,3.0656236E-5,4.4033586E-5,3.8293445E-5,0E0,3.524114E-5,0E0,1.927111E-5,2.0078114E-5,1.9895346E-5,3.6965477E-5,0E0,0E0,0E0,0E0,0E0,0E0,0E0,0E0,0E0,0E0],"parents":[2147483647,0,0,1,1,2,2,3,3,4,4,5,5,7,7,9,9,10,10,11,11,12,12],"right_children":[2,4,6,8,10,12,-1,14,-1,16,18,20,22,-1,-1,-1,-1,-1,-1,-1,-1,-1,-1],"split_conditions":[7.6069045E-1,1.8981266E-1,9.729731E-1,9.813187E-1,4.8869604E-1,1.072584E-1,-1.2159327E-3,1.6338822E-1,4.4241856E-4,9.6881026E-1,6.583566E-1,7.7797645E-1,7.8548914E-1,-5.2809387E-6,-2.5248018E-4,-2.852155E-4,2.663878E-4,3.9543275E-4,1.1930129E-4,-4.3980812E-4,-2.3130106E-6,2.1678218E-4,-1.0689716E-4],"split_indices":[9,6,4,4,9,7,0,6,0,2,4,9,9,0,0,0,0,0,0,0,0,0,0],"split_type":[0,0,0,0,0,0,0,0,0,0,0,0,0,0,0,0,0,0,0,0,0,0,0],"sum_hessian":[2.11E2,1.59E2,5.2E1,1.27E2,3.2E1,5.1E1,1E0,1.25E2,2E0,5E0,2.7E1,1.1E1,4E1,1.12E2,1.3E1,4E0,1E0,1.7E1,1E1,8E0,3E0,9E0,3.1E1],"tree_param":{"num_deleted":"0","num_feature":"10","num_nodes":"23","size_leaf_vector":"1"}},{"base_weights":[-3.1988264E-5,6.931699E-5,-2.065025E-3,-3.911217E-4,4.7746985E-4,-5.8974465E-4,-1.1266436E-3,7.887988E-5,-1.363992E-3,2.2142148E-3,2.1372626E-4,-2.825626E-4,3.9947373E-4,2.0529002E-4,-3.1675445E-5,-4.9291865E-4,-1.3871928E-4,5.025148E-4,7.607973E-5,-1.3572339E-5,1.7077263E-4],"categories":[],"categories_nodes":[],"categories_segments":[],"categories_sizes":[],"default_left":[0,0,0,0,0,0,0,0,0,0,0,0,0,0,0,0,0,0,0,0,0],"id":43,"left_children":[1,3,5,7,9,11,-1,13,15,17,19,-1,-1,-1,-1,-1,-1,-1,-1,-1,-1],"loss_changes":[4.339418E-5,3.7960548E-5,7.81838E-5,4.35464E-5,4.853869E-5,4.4976343E-5,0E0,2.5554009E-5,2.2735785E-5,2.6899019E-5,2.741864E-5,0E0,0E0,0E0,0E0,0E0,0E0,0E0,0E0,0E0,0E0],"parents":[2147483647,0,0,1,1,2,2,3,3,4,4,5,5,7,7,8,8,9,9,10,10],"right_children":[2,4,6,8,10,12,-1,14,16,18,20,-1,-1,-1,-1,-1,-1,-1,-1,-1,-1],"split_conditions":[9.797133E-1,5.650603E-1,9.824779E-1,6.599825E-1,6.760644E-1,9.8886883E-1,-1.1266436E-3,9.161808E-2,5.490333E-1,9.0642475E-2,2.1176013E-1,-2.825626E-4,3.9947373E-4,2.0529002E-4,-3.1675445E-5,-4.9291865E-4,-1.3871928E-4,5.025148E-4,7.607973E-5,-1.3572339E-5,1.7077263E-4],"split_indices":[5,3,4,0,0,5,0,2,9,2,7,0,0,0,0,0,0,0,0,0,0],"split_type":[0,0,0,0,0,0,0,0,0,0,0,0,0,0,0,0,0,0,0,0,0],"sum_hessian":[2.09E2,2E2,9E0,9.4E1,1.06E2,8E0,1E0,6.4E1,3E1,1.3E1,9.3E1,6E0,2E0,1.1E1,5.3E1,4E0,2.6E1,7E0,6E0,7.1E1,2.2E1],"tree_param":{"num_deleted":"0","num_feature":"10","num_nodes":"21","size_leaf_vector":"1"}},{"base_weights":[4.171336E-5,1.7755997E-4,-7.7948906E-4,-1.2687591E-4,9.202448E-4,-4.0758998E-4,-4.4088374E-4,1.8207412E-4,-7.8794657E-4,1.58641E-5,1.5032045E-3,1.4296822E-3,-8.06625E-4,-1.9547899E-5,2.881704E-4,7.366337E-5,-2.0963576E-4,7.258259E-5,-4.4338053E-4,1.4829362E-4,5.679792E-4,3.2972044E-4,2.0230611E-5,-1.4975817E-4,2.6934364E-4],"categories":[],"categories_nodes":[],"categories_segments":[],"categories_sizes":[],"default_left":[0,0,0,0,0,0,0,0,0,0,0,0,0,0,0,0,0,0,0,0,0,0,0,0,0],"id":44,"left_children":[1,3,5,7,9,11,-1,13,15,17,19,21,23,-1,-1,-1,-1,-1,-1,-1,-1,-1,-1,-1,-1],"loss_changes":[2.2784592E-5,3.968424E-5,2.2745953E-5,2.5673187E-5,2.686424E-5,2.0214753E-5,0E0,4.8509984E-5,3.3699514E-5,3.1977765E-5,3.226134E-5,4.957773E-6,1.42480385E-5,0E0,0E0,0E0,0E0,0E0,0E0,0E0,0E0,0E0,0E0,0E0,0E0],"parents":[2147483647,0,0,1,1,2,2,3,3,4,4,5,5,7,7,8,8,9,9,10,10,11,11,12,12],"right_children":[2,4,6,8,10,12,-1,14,16,18,20,22,24,-1,-1,-1,-1,-1,-1,-1,-1,-1,-1,-1,-1],"split_conditions":[8.5963494E-1,6.932852E-1,5.7592714E-1,1.3595366E-1,9.5329635E-2,4.1272548E-1,-4.4088374E-4,1.14994526E-1,6.4977914E-1,8.746137E-2,7.2000617E-1,8.881152E-1,9.8642206E-1,-1.9547899E-5,2.881704E-4,7.366337E-5,-2.0963576E-4,7.258259E-5,-4.4338053E-4,1.4829362E-4,5.679792E-4,3.2972044E-4,2.0230611E-5,-1.4975817E-4,2.6934364E-4],"split_indices":[5,5,3,6,6,9,0,6,9,6,0,5,5,0,0,0,0,0,0,0,0,0,0,0,0],"split_type":[0,0,0,0,0,0,0,0,0,0,0,0,0,0,0,0,0,0,0,0,0,0,0,0,0],"sum_hessian":[2.02E2,1.74E2,2.8E1,1.24E2,5E1,2.5E1,3E0,8.5E1,3.9E1,2E1,3E1,4E0,2.1E1,7.3E1,1.2E1,1.3E1,2.6E1,1.8E1,2E0,2.6E1,4E0,2E0,2E0,2E1,1E0],"tree_param":{"num_deleted":"0","num_feature":"10","num_nodes":"25","size_leaf_vector":"1"}},{"base_weights":[4.4900375E-5,-1.1569709E-4,1.0757091E-3,1.5972546E-4,-4.6197185E-4,8.2580355E-4,6.990416E-4,-5.8509834E-4,6.1827153E-4,8.0874993E-4,-6.143958E-4,3.4081563E-4,3.9965493E-4,4.3629716E-5,-2.3950821E-4,-2.848475E-4,1.3534205E-4,1.7930234E-4,-1.8271175E-4,-6.356932E-5,-2.9559978E-4,-1.7861051E-4,1.1508713E-4],"categories":[],"categories_nodes":[],"categories_segments":[],"categories_sizes":[],"default_left":[0,0,0,0,0,0,0,0,0,0,0,0,0,0,0,0,0,0,0,0,0,0,0],"id":45,"left_children":[1,3,5,7,9,-1,11,13,15,17,19,-1,21,-1,-1,-1,-1,-1,-1,-1,-1,-1,-1],"loss_changes":[3.4392328E-5,1.7240727E-5,4.4026838E-5,3.4856894E-5,1.599197E-5,0E0,1.2180338E-5,3.646159E-5,5.065604E-5,9.132822E-6,1.7407716E-5,0E0,1.5843087E-5,0E0,0E0,0E0,0E0,0E0,0E0,0E0,0E0,0E0,0E0],"parents":[2147483647,0,0,1,1,2,2,3,3,4,4,6,6,7,7,8,8,9,9,10,10,12,12],"right_children":[2,4,6,8,10,-1,12,14,16,18,20,-1,22,-1,-1,-1,-1,-1,-1,-1,-1,-1,-1],"split_conditions":[7.094165E-1,1.3880213E-1,1.6808283E-1,7.6647826E-2,5.7489026E-1,8.2580355E-4,7.169979E-1,6.8106484E-1,5.501922E-1,9.9157155E-1,3.93721E-1,3.4081563E-4,7.2175664E-1,4.3629716E-5,-2.3950821E-4,-2.848475E-4,1.3534205E-4,1.7930234E-4,-1.8271175E-4,-6.356932E-5,-2.9559978E-4,-1.7861051E-4,1.1508713E-4],"split_indices":[0,1,1,2,8,0,0,9,9,1,2,0,0,0,0,0,0,0,0,0,0,0,0],"split_type":[0,0,0,0,0,0,0,0,0,0,0,0,0,0,0,0,0,0,0,0,0,0,0],"sum_hessian":[2.06E2,1.79E2,2.7E1,1E2,7.9E1,1E0,2.6E1,3.8E1,6.2E1,8E0,7.1E1,3E0,2.3E1,2.1E1,1.7E1,6E0,5.6E1,7E0,1E0,6.4E1,7E0,4E0,1.9E1],"tree_param":{"num_deleted":"0","num_feature":"10","num_nodes":"23","size_leaf_vector":"1"}},{"base_weights":[1.8911736E-4,-3.970268E-5,9.212227E-4,4.192775E-5,-4.434512E-3,2.576308E-3,2.8721162E-4,-6.2492145E-5,1.8240096E-3,2.9954417E-5,-1.006868E-3,3.9492566E-3,1.3747527E-3,-9.3837903E-4,1.0412387E-3,-2.1225585E-5,4.479158E-4,4.2659653E-4,-1.9174108E-4,5.779119E-5,8.2666945E-4,7.1089315E-5,2.923368E-4,-2.0130612E-4,3.7552838E-4,4.1814806E-4,1.9113984E-5],"categories":[],"categories_nodes":[],"categories_segments":[],"categories_sizes":[],"default_left":[0,0,0,0,0,0,0,0,0,0,0,0,0,0,0,0,0,0,0,0,0,0,0,0,0,0,0],"id":46,"left_children":[1,3,5,7,9,11,13,15,17,-1,-1,19,21,23,25,-1,-1,-1,-1,-1,-1,-1,-1,-1,-1,-1,-1],"loss_changes":[3.5885936E-5,5.9020957E-5,5.2776526E-5,3.0259724E-5,3.509048E-5,1.7666178E-5,3.6093956E-5,3.975871E-5,3.4230507E-5,0E0,0E0,3.3616576E-5,3.9726474E-6,2.6170666E-5,3.9118E-5,0E0,0E0,0E0,0E0,0E0,0E0,0E0,0E0,0E0,0E0,0E0,0E0],"parents":[2147483647,0,0,1,1,2,2,3,3,4,4,5,5,6,6,7,7,8,8,11,11,12,12,13,13,14,14],"right_children":[2,4,6,8,10,12,14,16,18,-1,-1,20,22,24,26,-1,-1,-1,-1,-1,-1,-1,-1,-1,-1,-1,-1],"split_conditions":[1.593849E-1,1.5554933E-1,5.1981527E-1,9.7620517E-1,6.699874E-1,1.1038013E-1,7.487766E-1,5.466073E-1,2.8353778E-1,2.9954417E-5,-1.006868E-3,3.701527E-1,1.24875546E-1,8.2829005E-1,8.335536E-2,-2.1225585E-5,4.479158E-4,4.2659653E-4,-1.9174108E-4,5.779119E-5,8.2666945E-4,7.1089315E-5,2.923368E-4,-2.0130612E-4,3.7552838E-4,4.1814806E-4,1.9113984E-5],"split_indices":[6,6,5,5,0,1,5,1,1,0,0,5,7,0,7,0,0,0,0,0,0,0,0,0,0,0,0],"split_type":[0,0,0,0,0,0,0,0,0,0,0,0,0,0,0,0,0,0,0,0,0,0,0,0,0,0,0],"sum_hessian":[2.13E2,1.63E2,5E1,1.61E2,2E0,1.3E1,3.7E1,1.53E2,8E0,1E0,1E0,5E0,8E0,1.4E1,2.3E1,1.5E2,3E0,6E0,2E0,2E0,3E0,4E0,4E0,1.3E1,1E0,7E0,1.6E1],"tree_param":{"num_deleted":"0","num_feature":"10","num_nodes":"27","size_leaf_vector":"1"}},{"base_weights":[5.1814666E-5,1.9689817E-4,-1.062651E-3,-5.2211713E-4,4.1324153E-4,-1.9419503E-4,-2.071354E-3,-1.3559472E-3,7.523124E-5,-3.2720948E-4,8.0689E-4,2.8079544E-4,-2.1322926E-4,-4.3825034E-4,-8.134525E-4,-1.0289444E-4,-3.7448664E-4,6.039707E-5,-3.8741983E-4,7.5115546E-5,-1.3983887E-4,6.5634516E-4,8.695682E-5,-1.1715046E-4,1.484832E-4,-3.745555E-5,-1.8899508E-4],"categories":[],"categories_nodes":[],"categories_segments":[],"categories_sizes":[],"default_left":[0,0,0,0,0,0,0,0,0,0,0,0,0,0,0,0,0,0,0,0,0,0,0,0,0,0,0],"id":47,"left_children":[1,3,5,7,9,11,13,15,17,19,21,23,-1,-1,25,-1,-1,-1,-1,-1,-1,-1,-1,-1,-1,-1,-1],"loss_changes":[3.3679185E-5,2.883773E-5,2.0622096E-5,2.1519752E-5,4.1653817E-5,8.7710505E-6,1.0201256E-5,1.2297212E-5,2.4787694E-5,2.6693206E-5,7.051179E-5,9.469186E-6,0E0,0E0,1.257968E-6,0E0,0E0,0E0,0E0,0E0,0E0,0E0,0E0,0E0,0E0,0E0,0E0],"parents":[2147483647,0,0,1,1,2,2,3,3,4,4,5,5,6,6,7,7,8,8,9,9,10,10,11,11,14,14],"right_children":[2,4,6,8,10,12,14,16,18,20,22,24,-1,-1,26,-1,-1,-1,-1,-1,-1,-1,-1,-1,-1,-1,-1],"split_conditions":[2.8154576E-1,6.5103185E-1,6.393352E-1,6.581498E-1,7.962487E-2,9.131207E-1,5.493971E-1,3.4910145E-1,6.4757705E-1,8.829574E-2,8.335536E-2,2.1237582E-1,-2.1322926E-4,-4.3825034E-4,7.4548465E-1,-1.0289444E-4,-3.7448664E-4,6.039707E-5,-3.8741983E-4,7.5115546E-5,-1.3983887E-4,6.5634516E-4,8.695682E-5,-1.1715046E-4,1.484832E-4,-3.745555E-5,-1.8899508E-4],"split_indices":[7,0,8,8,7,7,3,1,0,6,7,1,0,0,0,0,0,0,0,0,0,0,0,0,0,0,0],"split_type":[0,0,0,0,0,0,0,0,0,0,0,0,0,0,0,0,0,0,0,0,0,0,0,0,0,0,0],"sum_hessian":[2.06E2,1.83E2,2.3E1,4.2E1,1.41E2,1.3E1,1E1,1.7E1,2.5E1,4.9E1,9.2E1,1E1,3E0,5E0,5E0,1.2E1,5E0,2.3E1,2E0,2.1E1,2.8E1,4E0,8.8E1,4E0,6E0,3E0,2E0],"tree_param":{"num_deleted":"0","num_feature":"10","num_nodes":"27","size_leaf_vector":"1"}},{"base_weights":[6.810598E-5,2.4141707E-4,-5.454631E-4,3.0491801E-5,1.0905858E-3,-2.7924406E-4,-9.393164E-4,1.0358267E-3,-1.34438E-4,-5.228779E-4,1.3973786E-3,1.4114123E-3,-4.73864E-4,-3.8778533E-5,3.2781975E-4,-1.6504918E-4,3.519104E-5,8.9919595E-6,-2.528577E-4,3.3531483E-4,1.0132707E-4,-4.73067E-5,3.9278573E-4,-1.4006453E-4,1.4926485E-5],"categories":[],"categories_nodes":[],"categories_segments":[],"categories_sizes":[],"default_left":[0,0,0,0,0,0,0,0,0,0,0,0,0,0,0,0,0,0,0,0,0,0,0,0,0],"id":48,"left_children":[1,3,5,7,9,11,-1,13,15,17,19,21,23,-1,-1,-1,-1,-1,-1,-1,-1,-1,-1,-1,-1],"loss_changes":[2.2675413E-5,2.9699202E-5,7.14148E-5,2.2357754E-5,1.7065624E-5,1.580445E-5,0E0,3.0134635E-5,4.319838E-5,4.3068267E-6,1.5970505E-5,1.1809104E-5,1.16948595E-5,0E0,0E0,0E0,0E0,0E0,0E0,0E0,0E0,0E0,0E0,0E0,0E0],"parents":[2147483647,0,0,1,1,2,2,3,3,4,4,5,5,7,7,8,8,9,9,10,10,11,11,12,12],"right_children":[2,4,6,8,10,12,-1,14,16,18,20,22,24,-1,-1,-1,-1,-1,-1,-1,-1,-1,-1,-1,-1],"split_conditions":[7.6069045E-1,6.976876E-1,9.729731E-1,6.174501E-2,5.929337E-2,1.4561537E-1,-9.393164E-4,1.0114506E-1,1.0976056E-1,8.8301945E-1,7.430249E-1,6.637116E-1,2.0209615E-1,-3.8778533E-5,3.2781975E-4,-1.6504918E-4,3.519104E-5,8.9919595E-6,-2.528577E-4,3.3531483E-4,1.0132707E-4,-4.73067E-5,3.9278573E-4,-1.4006453E-4,1.4926485E-5],"split_indices":[9,9,4,1,1,4,0,6,1,4,8,0,1,0,0,0,0,0,0,0,0,0,0,0,0],"split_type":[0,0,0,0,0,0,0,0,0,0,0,0,0,0,0,0,0,0,0,0,0,0,0,0,0],"sum_hessian":[2.11E2,1.65E2,4.6E1,1.33E2,3.2E1,4.5E1,1E0,1.8E1,1.15E2,5E0,2.7E1,4E0,4.1E1,9E0,9E0,3.1E1,8.4E1,4E0,1E0,1.1E1,1.6E1,2E0,2E0,2.2E1,1.9E1],"tree_param":{"num_deleted":"0","num_feature":"10","num_nodes":"25","size_leaf_vector":"1"}},{"base_weights":[3.2874275E-5,2.3725982E-4,-6.72303E-4,5.6003275E-5,1.3881649E-3,-4.7022267E-3,-1.8807228E-4,-6.269534E-4,3.5207532E-4,7.070182E-4,8.048724E-4,-9.2930405E-4,-2.2168546E-4,1.6964892E-4,-1.7743087E-3,2.5651845E-5,-1.7004127E-4,7.10357E-5,-1.7702866E-4,5.8205227E-5,2.8657442E-4,-4.873639E-5,3.3700725E-4,-3.378424E-4,-9.886559E-5],"categories":[],"categories_nodes":[],"categories_segments":[],"categories_sizes":[],"default_left":[0,0,0,0,0,0,0,0,0,0,0,0,0,0,0,0,0,0,0,0,0,0,0,0,0],"id":49,"left_children":[1,3,5,7,9,11,13,15,17,-1,19,-1,-1,21,23,-1,-1,-1,-1,-1,-1,-1,-1,-1,-1],"loss_changes":[3.0138146E-5,3.3716933E-5,9.083205E-5,2.873155E-5,4.0087885E-5,1.639605E-5,2.4700517E-5,1.850039E-5,2.0874824E-5,0E0,8.594048E-6,0E0,0E0,3.912608E-5,3.0854662E-6,0E0,0E0,0E0,0E0,0E0,0E0,0E0,0E0,0E0,0E0],"parents":[2147483647,0,0,1,1,2,2,3,3,4,4,5,5,6,6,7,7,8,8,10,10,13,13,14,14],"right_children":[2,4,6,8,10,12,14,16,18,-1,20,-1,-1,22,24,-1,-1,-1,-1,-1,-1,-1,-1,-1,-1],"split_conditions":[7.6069045E-1,2.2462703E-1,7.726713E-1,6.828854E-2,1.6140392E-1,6.986779E-1,2.0467456E-1,8.829574E-2,6.620474E-1,7.070182E-4,6.179328E-1,-9.2930405E-4,-2.2168546E-4,7.094165E-1,3.7693432E-1,2.5651845E-5,-1.7004127E-4,7.10357E-5,-1.7702866E-4,5.8205227E-5,2.8657442E-4,-4.873639E-5,3.3700725E-4,-3.378424E-4,-9.886559E-5],"split_indices":[9,6,9,7,2,0,6,6,3,0,2,0,0,0,6,0,0,0,0,0,0,0,0,0,0],"split_type":[0,0,0,0,0,0,0,0,0,0,0,0,0,0,0,0,0,0,0,0,0,0,0,0,0],"sum_hessian":[2.07E2,1.61E2,4.6E1,1.4E2,2.1E1,4E0,4.2E1,4.2E1,9.8E1,2E0,1.9E1,2E0,2E0,3.5E1,7E0,1.7E1,2.5E1,9.1E1,7E0,1.5E1,4E0,2.9E1,6E0,4E0,3E0],"tree_param":{"num_deleted":"0","num_feature":"10","num_nodes":"25","size_leaf_vector":"1"}},{"base_weights":[-2.1976557E-4,5.4100563E-4,-3.9470178E-4,7.6122925E-4,-3.3514836E-4,-4.8962305E-4,1.5174657E-3,5.74572E-4,5.356347E-4,4.6521457E-4,-6.8268407E-4,1.8038193E-3,-3.5762398E-5,3.019862E-4,4.6565547E-5,9.973082E-5,-2.1617547E-4,-3.4354784E-4,-7.054852E-5,-3.6807892E-6,3.1029838E-4],"categories":[],"categories_nodes":[],"categories_segments":[],"categories_sizes":[],"default_left":[0,0,0,0,0,0,0,0,0,0,0,0,0,0,0,0,0,0,0,0,0],"id":50,"left_children":[1,3,5,7,-1,9,11,13,-1,15,17,19,-1,-1,-1,-1,-1,-1,-1,-1,-1],"loss_changes":[2.6963913E-5,2.5361558E-5,3.050986E-5,1.729665E-5,0E0,2.9259285E-5,4.4733206E-6,1.2701803E-5,0E0,1.2184453E-5,4.278101E-5,4.0087034E-6,0E0,0E0,0E0,0E0,0E0,0E0,0E0,0E0,0E0],"parents":[2147483647,0,0,1,1,2,2,3,3,5,5,6,6,7,7,9,9,10,10,11,11],"right_children":[2,4,6,8,-1,10,12,14,-1,16,18,20,-1,-1,-1,-1,-1,-1,-1,-1,-1],"split_conditions":[4.2423144E-1,9.2557436E-1,9.5730364E-1,4.1627178E-1,-3.3514836E-4,6.321742E-1,6.186738E-1,6.808745E-2,5.356347E-4,6.6272205E-1,5.7883775E-1,3.7037477E-2,-3.5762398E-5,3.019862E-4,4.6565547E-5,9.973082E-5,-2.1617547E-4,-3.4354784E-4,-7.054852E-5,-3.6807892E-6,3.1029838E-4],"split_indices":[5,8,4,5,0,8,3,2,0,3,9,2,0,0,0,0,0,0,0,0,0],"split_type":[0,0,0,0,0,0,0,0,0,0,0,0,0,0,0,0,0,0,0,0,0],"sum_hessian":[2E2,3.7E1,1.63E2,3.5E1,2E0,1.56E2,7E0,3.4E1,1E0,2.6E1,1.3E2,6E0,1E0,4E0,3E1,2.4E1,2E0,1.3E1,1.17E2,1E0,5E0],"tree_param":{"num_deleted":"0","num_feature":"10","num_nodes":"21","size_leaf_vector":"1"}},{"base_weights":[-3.500617E-5,2.069813E-4,-7.694397E-4,1.2244498E-4,2.8200257E-3,-8.8274006E-5,-1.7252517E-3,2.3403491E-3,6.404198E-5,4.9706013E-4,4.1289215E-5,2.3520747E-3,-4.2182993E-4,-2.8893705E-3,-2.9846266E-4,4.840959E-5,4.2601489E-4,7.838767E-5,-2.5511701E-5,7.7438344E-5,4.089585E-4,-2.3390434E-5,-2.971153E-4,-6.233224E-5,-6.7402626E-4,-9.074678E-5,2.1264804E-4],"categories":[],"categories_nodes":[],"categories_segments":[],"categories_sizes":[],"default_left":[0,0,0,0,0,0,0,0,0,0,0,0,0,0,0,0,0,0,0,0,0,0,0,0,0,0,0],"id":51,"left_children":[1,3,5,7,9,11,13,15,17,-1,-1,19,21,23,25,-1,-1,-1,-1,-1,-1,-1,-1,-1,-1,-1,-1],"loss_changes":[3.8014412E-5,3.5219146E-5,3.4354223E-5,2.018668E-5,6.2137333E-6,2.7039943E-5,3.5678575E-5,3.550882E-6,1.728997E-5,0E0,0E0,1.6887243E-6,1.1870098E-5,4.833866E-5,7.0309206E-6,0E0,0E0,0E0,0E0,0E0,0E0,0E0,0E0,0E0,0E0,0E0,0E0],"parents":[2147483647,0,0,1,1,2,2,3,3,4,4,5,5,6,6,7,7,8,8,11,11,12,12,13,13,14,14],"right_children":[2,4,6,8,10,12,14,16,18,-1,-1,20,22,24,26,-1,-1,-1,-1,-1,-1,-1,-1,-1,-1,-1,-1],"split_conditions":[8.0294937E-1,7.918416E-1,7.081156E-1,5.901271E-1,1.6808283E-1,5.223305E-2,7.4928886E-1,3.6694258E-1,6.6143346E-1,4.9706013E-4,4.1289215E-5,6.1576456E-1,9.131207E-1,8.328345E-1,3.9661324E-1,4.840959E-5,4.2601489E-4,7.838767E-5,-2.5511701E-5,7.7438344E-5,4.089585E-4,-2.3390434E-5,-2.971153E-4,-6.233224E-5,-6.7402626E-4,-9.074678E-5,2.1264804E-4],"split_indices":[5,5,8,8,1,7,8,4,9,0,0,0,7,5,1,0,0,0,0,0,0,0,0,0,0,0,0],"split_type":[0,0,0,0,0,0,0,0,0,0,0,0,0,0,0,0,0,0,0,0,0,0,0,0,0,0,0],"sum_hessian":[2.12E2,1.6E2,5.2E1,1.56E2,4E0,3.1E1,2.1E1,3E0,1.53E2,3E0,1E0,3E0,2.8E1,1.1E1,1E1,1E0,2E0,5.1E1,1.02E2,1E0,2E0,2.5E1,3E0,5E0,6E0,9E0,1E0],"tree_param":{"num_deleted":"0","num_feature":"10","num_nodes":"27","size_leaf_vector":"1"}},{"base_weights":[-1.1501022E-4,9.001994E-5,-7.35886E-4,-2.1629847E-4,1.1464345E-3,-4.042237E-3,-3.6848936E-4,4.896317E-6,-9.181887E-4,4.0324946E-4,1.6836607E-3,-5.6737696E-5,-7.137113E-4,-1.6955152E-3,1.8877098E-4,-3.3624357E-5,1.2775393E-4,-5.408763E-4,-4.8250757E-5,1.8377212E-4,-1.4096317E-5,9.9230354E-5,3.193525E-4,-3.773114E-5,-3.297516E-4,1.6543722E-4,-8.970437E-5],"categories":[],"categories_nodes":[],"categories_segments":[],"categories_sizes":[],"default_left":[0,0,0,0,0,0,0,0,0,0,0,0,0,0,0,0,0,0,0,0,0,0,0,0,0,0,0],"id":52,"left_children":[1,3,5,7,9,11,13,15,17,19,21,-1,-1,23,25,-1,-1,-1,-1,-1,-1,-1,-1,-1,-1,-1,-1],"loss_changes":[2.6162383E-5,5.040585E-5,6.0462327E-5,1.8790286E-5,1.3295114E-5,1.3064258E-5,3.507651E-5,1.9010144E-5,4.60647E-5,6.8940485E-6,8.425355E-6,0E0,0E0,1.0495416E-5,2.6179181E-5,0E0,0E0,0E0,0E0,0E0,0E0,0E0,0E0,0E0,0E0,0E0,0E0],"parents":[2147483647,0,0,1,1,2,2,3,3,4,4,5,5,6,6,7,7,8,8,9,9,10,10,13,13,14,14],"right_children":[2,4,6,8,10,12,14,16,18,20,22,-1,-1,24,26,-1,-1,-1,-1,-1,-1,-1,-1,-1,-1,-1,-1],"split_conditions":[7.6941466E-1,7.07431E-1,7.726713E-1,7.8943E-1,1.072584E-1,4.285917E-1,2.5194272E-1,7.851155E-1,8.508284E-1,6.474305E-2,4.7652072E-1,-5.6737696E-5,-7.137113E-4,6.2677306E-1,6.741424E-1,-3.3624357E-5,1.2775393E-4,-5.408763E-4,-4.8250757E-5,1.8377212E-4,-1.4096317E-5,9.9230354E-5,3.193525E-4,-3.773114E-5,-3.297516E-4,1.6543722E-4,-8.970437E-5],"split_indices":[9,9,9,4,7,4,5,5,4,7,4,0,0,0,0,0,0,0,0,0,0,0,0,0,0,0,0],"split_type":[0,0,0,0,0,0,0,0,0,0,0,0,0,0,0,0,0,0,0,0,0,0,0,0,0,0,0],"sum_hessian":[2.04E2,1.54E2,5E1,1.2E2,3.4E1,4E0,4.6E1,9.2E1,2.8E1,1.5E1,1.9E1,1E0,3E0,1.3E1,3.3E1,7.3E1,1.9E1,4E0,2.4E1,5E0,1E1,7E0,1.2E1,4E0,9E0,1.5E1,1.8E1],"tree_param":{"num_deleted":"0","num_feature":"10","num_nodes":"27","size_leaf_vector":"1"}},{"base_weights":[-8.179951E-5,3.6113983E-5,-7.986577E-4,-1.675914E-4,7.159072E-4,8.705009E-4,-1.2719383E-3,-1.8713403E-5,-1.4742542E-3,1.1004871E-4,1.5647634E-3,1.8334629E-3,-1.504785E-4,-1.4985729E-3,2.7273045E-4,-3.444289E-5,1.5434597E-4,-2.778161E-4,6.1858336E-6,1.08807515E-4,-1.116413E-4,6.1965286E-4,1.0201056E-4,-6.694063E-6,3.39937E-4,-2.510573E-4,5.9734433E-5],"categories":[],"categories_nodes":[],"categories_segments":[],"categories_sizes":[],"default_left":[0,0,0,0,0,0,0,0,0,0,0,0,0,0,0,0,0,0,0,0,0,0,0,0,0,0,0],"id":53,"left_children":[1,3,5,7,9,11,13,15,17,19,21,23,-1,25,-1,-1,-1,-1,-1,-1,-1,-1,-1,-1,-1,-1,-1],"loss_changes":[1.735693E-5,2.4630504E-5,2.4016654E-5,2.6623478E-5,2.0913554E-5,1.465296E-5,1.9092819E-5,2.8870349E-5,8.940446E-6,1.4286775E-5,3.6336427E-5,4.6260557E-6,0E0,9.534102E-6,0E0,0E0,0E0,0E0,0E0,0E0,0E0,0E0,0E0,0E0,0E0,0E0,0E0],"parents":[2147483647,0,0,1,1,2,2,3,3,4,4,5,5,6,6,7,7,8,8,9,9,10,10,11,11,13,13],"right_children":[2,4,6,8,10,12,14,16,18,20,22,24,-1,26,-1,-1,-1,-1,-1,-1,-1,-1,-1,-1,-1,-1,-1],"split_conditions":[3.7290302E-1,7.628841E-1,5.6287414E-1,7.461072E-1,5.883781E-1,6.6272205E-1,9.1503346E-1,1.7354318E-1,8.367237E-1,8.00471E-2,7.310527E-1,3.9661324E-1,-1.504785E-4,7.7193123E-1,2.7273045E-4,-3.444289E-5,1.5434597E-4,-2.778161E-4,6.1858336E-6,1.08807515E-4,-1.116413E-4,6.1965286E-4,1.0201056E-4,-6.694063E-6,3.39937E-4,-2.510573E-4,5.9734433E-5],"split_indices":[2,8,9,8,5,3,9,6,5,6,9,1,0,1,0,0,0,0,0,0,0,0,0,0,0,0,0],"split_type":[0,0,0,0,0,0,0,0,0,0,0,0,0,0,0,0,0,0,0,0,0,0,0,0,0,0,0],"sum_hessian":[2.04E2,1.76E2,2.8E1,1.36E2,4E1,6E0,2.2E1,1.23E2,1.3E1,2.4E1,1.6E1,4E0,2E0,2.1E1,1E0,1.03E2,2E1,1E1,3E0,1.4E1,1E1,3E0,1.3E1,1E0,3E0,1.9E1,2E0],"tree_param":{"num_deleted":"0","num_feature":"10","num_nodes":"27","size_leaf_vector":"1"}},{"base_weights":[-2.0091233E-4,-1.3176868E-4,-1.7996231E-3,-1.7564607E-4,4.3603496E-4,-2.3211886E-3,1.7424834E-4,-3.2381513E-4,3.8734727E-4,-1.9101994E-4,-6.95038E-4,8.317556E-5,-6.109472E-5,2.401341E-4,-1.0582294E-4],"categories":[],"categories_nodes":[],"categories_segments":[],"categories_sizes":[],"default_left":[0,0,0,0,0,0,0,0,0,0,0,0,0,0,0],"id":54,"left_children":[1,3,5,7,-1,9,-1,11,13,-1,-1,-1,-1,-1,-1],"loss_changes":[2.3971275E-5,2.9228297E-5,1.6770873E-5,1.7559829E-5,0E0,1.35313385E-5,0E0,1.3856117E-5,6.200088E-5,0E0,0E0,0E0,0E0,0E0,0E0],"parents":[2147483647,0,0,1,1,2,2,3,3,5,5,7,7,8,8],"right_children":[2,4,6,8,-1,10,-1,12,14,-1,-1,-1,-1,-1,-1],"split_conditions":[9.7938114E-1,9.7620517E-1,7.84634E-1,1.8181969E-1,4.3603496E-4,9.935599E-1,1.7424834E-4,5.920344E-1,1.09092906E-1,-1.9101994E-4,-6.95038E-4,8.317556E-5,-6.109472E-5,2.401341E-4,-1.0582294E-4],"split_indices":[5,5,9,6,0,5,0,8,7,0,0,0,0,0,0],"split_type":[0,0,0,0,0,0,0,0,0,0,0,0,0,0,0],"sum_hessian":[2.18E2,2.1E2,8E0,2.08E2,2E0,7E0,1E0,1.65E2,4.3E1,6E0,1E0,1.5E1,1.5E2,2E1,2.3E1],"tree_param":{"num_deleted":"0","num_feature":"10","num_nodes":"15","size_leaf_vector":"1"}},{"base_weights":[9.638519E-5,3.6619077E-4,-3.7336597E-4,1.7544458E-4,1.654684E-3,-2.5510442E-4,-6.439995E-4,6.651619E-4,-2.5914426E-4,2.8169135E-4,2.691268E-3,-2.0360523E-3,-2.8499939E-5,1.7140359E-5,3.3801707E-4,-9.661314E-5,1.4013957E-4,-3.1350555E-5,1.730229E-4,5.3019257E-4,-5.135478E-5,1.4130727E-5,-4.0576578E-4,2.3673658E-5,-1.7706737E-4],"categories":[],"categories_nodes":[],"categories_segments":[],"categories_sizes":[],"default_left":[0,0,0,0,0,0,0,0,0,0,0,0,0,0,0,0,0,0,0,0,0,0,0,0,0],"id":55,"left_children":[1,3,5,7,9,11,-1,13,15,17,19,21,23,-1,-1,-1,-1,-1,-1,-1,-1,-1,-1,-1,-1],"loss_changes":[2.4978055E-5,3.0431593E-5,3.3039498E-5,2.3583198E-5,2.201345E-5,2.8595496E-5,0E0,4.6400397E-5,2.9169052E-5,3.8024077E-6,2.6408306E-5,1.2663546E-5,1.44852975E-5,0E0,0E0,0E0,0E0,0E0,0E0,0E0,0E0,0E0,0E0,0E0,0E0],"parents":[2147483647,0,0,1,1,2,2,3,3,4,4,5,5,7,7,8,8,9,9,10,10,11,11,12,12],"right_children":[2,4,6,8,10,12,-1,14,16,18,20,22,24,-1,-1,-1,-1,-1,-1,-1,-1,-1,-1,-1,-1],"split_conditions":[5.843379E-1,5.746991E-1,9.729731E-1,6.883276E-1,7.114173E-1,5.9337366E-1,-6.439995E-4,6.7594194E-1,7.7028835E-1,6.7811525E-1,7.676651E-1,3.6853456E-1,7.507211E-1,1.7140359E-5,3.3801707E-4,-9.661314E-5,1.4013957E-4,-3.1350555E-5,1.730229E-4,5.3019257E-4,-5.135478E-5,1.4130727E-5,-4.0576578E-4,2.3673658E-5,-1.7706737E-4],"split_indices":[3,3,4,8,8,3,0,8,8,0,8,4,3,0,0,0,0,0,0,0,0,0,0,0,0],"split_type":[0,0,0,0,0,0,0,0,0,0,0,0,0,0,0,0,0,0,0,0,0,0,0,0,0],"sum_hessian":[1.95E2,1.24E2,7.1E1,1.09E2,1.5E1,7E1,1E0,5.1E1,5.8E1,7E0,8E0,7E0,6.3E1,3.9E1,1.2E1,4.4E1,1.4E1,5E0,2E0,6E0,2E0,2E0,5E0,5.5E1,8E0],"tree_param":{"num_deleted":"0","num_feature":"10","num_nodes":"25","size_leaf_vector":"1"}},{"base_weights":[1.165611E-4,-2.7701247E-4,2.6898194E-4,3.504881E-4,-6.4263406E-4,1.8418212E-3,1.6668027E-4,-5.8652153E-5,3.240262E-4,-1.2026277E-3,-2.4948022E-4,-4.5023544E-4,2.838458E-3,9.55576E-5,1.7510139E-3,-1.7079547E-4,6.150767E-5,3.331295E-5,-2.318846E-4,2.5375537E-5,-1.1979769E-4,6.143746E-4,1.7549365E-4,-2.2959014E-4,2.5085323E-5,1.7923125E-5,3.0142648E-4],"categories":[],"categories_nodes":[],"categories_segments":[],"categories_sizes":[],"default_left":[0,0,0,0,0,0,0,0,0,0,0,0,0,0,0,0,0,0,0,0,0,0,0,0,0,0,0],"id":56,"left_children":[1,3,5,7,9,11,13,15,-1,17,19,-1,21,23,25,-1,-1,-1,-1,-1,-1,-1,-1,-1,-1,-1,-1],"loss_changes":[1.2432207E-5,1.3532045E-5,2.3667712E-5,1.6833565E-5,7.846023E-6,5.2720257E-5,1.5720843E-5,1.0504761E-5,0E0,8.425957E-6,5.64005E-6,0E0,1.2682984E-5,1.724288E-5,2.6952493E-6,0E0,0E0,0E0,0E0,0E0,0E0,0E0,0E0,0E0,0E0,0E0,0E0],"parents":[2147483647,0,0,1,1,2,2,3,3,4,4,5,5,6,6,7,7,9,9,10,10,12,12,13,13,14,14],"right_children":[2,4,6,8,10,12,14,16,-1,18,20,-1,22,24,26,-1,-1,-1,-1,-1,-1,-1,-1,-1,-1,-1,-1],"split_conditions":[6.773988E-1,6.050809E-1,6.8725187E-1,5.987062E-1,5.072277E-1,5.944041E-2,9.6654284E-1,1.5546963E-1,3.240262E-4,6.1576456E-1,6.604495E-1,-4.5023544E-4,8.865274E-2,6.916447E-1,3.821216E-2,-1.7079547E-4,6.150767E-5,3.331295E-5,-2.318846E-4,2.5375537E-5,-1.1979769E-4,6.143746E-4,1.7549365E-4,-2.2959014E-4,2.5085323E-5,1.7923125E-5,3.0142648E-4],"split_indices":[8,8,8,8,3,1,4,7,0,0,0,0,1,8,1,0,0,0,0,0,0,0,0,0,0,0,0],"split_type":[0,0,0,0,0,0,0,0,0,0,0,0,0,0,0,0,0,0,0,0,0,0,0,0,0,0,0],"sum_hessian":[2.05E2,5.7E1,1.48E2,2.1E1,3.6E1,8E0,1.4E2,1.8E1,3E0,1.4E1,2.2E1,1E0,7E0,1.35E2,5E0,5E0,1.3E1,3E0,1.1E1,1.3E1,9E0,3E0,4E0,5E0,1.3E2,1E0,4E0],"tree_param":{"num_deleted":"0","num_feature":"10","num_nodes":"27","size_leaf_vector":"1"}},{"base_weights":[1.4917368E-4,5.0421386E-5,1.1613265E-3,3.4122248E-4,-4.4762137E-4,2.8942912E-3,2.7216383E-4,1.637276E-4,3.6271722E-3,-8.740276E-4,2.0797449E-4,1.3841873E-4,5.3379213E-4,-2.0591299E-4,1.1720443E-3,8.10263E-5,-5.2031086E-5,7.2025525E-4,1.05070736E-4,-2.4500635E-4,-5.448883E-5,1.4725627E-4,-4.2476706E-5,2.720043E-4,-1.18278964E-4],"categories":[],"categories_nodes":[],"categories_segments":[],"categories_sizes":[],"default_left":[0,0,0,0,0,0,0,0,0,0,0,0,0,0,0,0,0,0,0,0,0,0,0,0,0],"id":57,"left_children":[1,3,5,7,9,11,13,15,17,19,21,-1,-1,-1,23,-1,-1,-1,-1,-1,-1,-1,-1,-1,-1],"loss_changes":[2.023178E-5,2.7091375E-5,2.6948255E-5,6.8228364E-5,1.9470735E-5,5.2437426E-6,2.1229016E-5,2.2905566E-5,1.8801591E-5,1.616008E-5,1.1353249E-5,0E0,0E0,0E0,1.359368E-5,0E0,0E0,0E0,0E0,0E0,0E0,0E0,0E0,0E0,0E0],"parents":[2147483647,0,0,1,1,2,2,3,3,4,4,5,5,6,6,7,7,8,8,9,9,10,10,14,14],"right_children":[2,4,6,8,10,12,14,16,18,20,22,-1,-1,-1,24,-1,-1,-1,-1,-1,-1,-1,-1,-1,-1],"split_conditions":[4.534192E-1,1.5299617E-1,5.706311E-1,1.4476706E-1,6.8709373E-1,7.0421256E-2,4.2537883E-1,8.683717E-2,7.669442E-1,1.7285497E-1,6.6437906E-1,1.3841873E-4,5.3379213E-4,-2.0591299E-4,9.554304E-1,8.10263E-5,-5.2031086E-5,7.2025525E-4,1.05070736E-4,-2.4500635E-4,-5.448883E-5,1.4725627E-4,-4.2476706E-5,2.720043E-4,-1.18278964E-4],"split_indices":[1,7,1,7,5,7,4,7,4,1,0,0,0,0,5,0,0,0,0,0,0,0,0,0,0],"split_type":[0,0,0,0,0,0,0,0,0,0,0,0,0,0,0,0,0,0,0,0,0,0,0,0,0],"sum_hessian":[2.02E2,1.85E2,1.7E1,1.17E2,6.8E1,5E0,1.2E1,1.12E2,5E0,4.1E1,2.7E1,2E0,3E0,4E0,8E0,6.4E1,4.8E1,3E0,2E0,1.5E1,2.6E1,1E1,1.7E1,6E0,2E0],"tree_param":{"num_deleted":"0","num_feature":"10","num_nodes":"25","size_leaf_vector":"1"}},{"base_weights":[-5.3558044E-5,-2.1671742E-4,1.1351674E-5,-6.3686306E-4,1.2635221E-4,-6.0347375E-6,-1.4613281E-3,5.774397E-4,8.029757E-5,4.6031997E-5,-1.7660832E-4,1.9579749E-4,-3.0703918E-4,-8.9936955E-5,4.324565E-5],"categories":[],"categories_nodes":[],"categories_segments":[],"categories_sizes":[],"default_left":[0,0,0,0,0,0,0,0,0,0,0,0,0,0,0],"id":58,"left_children":[1,-1,3,5,7,9,11,-1,13,-1,-1,-1,-1,-1,-1],"loss_changes":[1.9031726E-5,0E0,1.4840386E-5,1.5594058E-5,2.930271E-5,7.257133E-6,2.5648378E-5,0E0,2.5102041E-5,0E0,0E0,0E0,0E0,0E0,0E0],"parents":[2147483647,0,0,2,2,3,3,4,4,5,5,6,6,8,8],"right_children":[2,-1,4,6,8,10,12,-1,14,-1,-1,-1,-1,-1,-1],"split_conditions":[2.2769514E-2,-2.1671742E-4,7.364337E-2,6.8106484E-1,7.584186E-2,6.1403926E-2,6.9226676E-1,5.774397E-4,6.0372275E-1,4.6031997E-5,-1.7660832E-4,1.9579749E-4,-3.0703918E-4,-8.9936955E-5,4.324565E-5],"split_indices":[6,0,1,9,1,2,8,0,9,0,0,0,0,0,0],"split_type":[0,0,0,0,0,0,0,0,0,0,0,0,0,0,0],"sum_hessian":[2.05E2,8E0,1.97E2,2.9E1,1.68E2,1.7E1,1.2E1,1E0,1.67E2,1.4E1,3E0,2E0,1E1,3.9E1,1.28E2],"tree_param":{"num_deleted":"0","num_feature":"10","num_nodes":"15","size_leaf_vector":"1"}},{"base_weights":[1.2000498E-4,6.8580644E-4,-8.448358E-5,2.5980847E-3,3.4572062E-4,-5.232903E-4,1.074639E-5,3.4744403E-4,6.993524E-4,2.148686E-4,4.6739232E-4,9.72998E-5,-1.1847654E-3,-1.1166263E-4,1.9670838E-4,-2.5326757E-5,1.5080438E-4,2.0279953E-5,-2.6201963E-4,-2.227579E-4,-4.5175828E-5],"categories":[],"categories_nodes":[],"categories_segments":[],"categories_sizes":[],"default_left":[0,0,0,0,0,0,0,0,0,0,0,0,0,0,0,0,0,0,0,0,0],"id":59,"left_children":[1,3,5,7,9,-1,11,13,-1,15,-1,17,19,-1,-1,-1,-1,-1,-1,-1,-1],"loss_changes":[2.3545024E-5,3.422008E-5,4.9728056E-5,3.7304642E-5,1.6762246E-5,0E0,1.5326192E-5,6.5124286E-6,0E0,1.4643319E-5,0E0,1.0835557E-5,2.445502E-6,0E0,0E0,0E0,0E0,0E0,0E0,0E0,0E0],"parents":[2147483647,0,0,1,1,2,2,3,3,4,4,6,6,7,7,9,9,11,11,12,12],"right_children":[2,4,6,8,10,-1,12,14,-1,16,-1,18,20,-1,-1,-1,-1,-1,-1,-1,-1],"split_conditions":[9.411521E-2,5.841868E-1,9.588138E-2,7.892855E-2,9.312625E-2,-5.232903E-4,8.8894653E-1,6.6198397E-1,6.993524E-4,1.0819407E-1,4.6739232E-4,9.824779E-1,6.847204E-1,-1.1166263E-4,1.9670838E-4,-2.5326757E-5,1.5080438E-4,2.0279953E-5,-2.6201963E-4,-2.227579E-4,-4.5175828E-5],"split_indices":[1,9,1,7,1,0,9,5,0,7,0,4,5,0,0,0,0,0,0,0,0],"split_type":[0,0,0,0,0,0,0,0,0,0,0,0,0,0,0,0,0,0,0,0,0],"sum_hessian":[2.02E2,5.3E1,1.49E2,7E0,4.6E1,3E0,1.46E2,4E0,3E0,4.5E1,1E0,1.37E2,9E0,2E0,2E0,3.1E1,1.4E1,1.35E2,2E0,6E0,3E0],"tree_param":{"num_deleted":"0","num_feature":"10","num_nodes":"21","size_leaf_vector":"1"}},{"base_weights":[8.964054E-5,-2.5625314E-4,1.322821E-4,1.8911202E-4,-7.565715E-4,1.3130633E-4,1.5672612E-3,-1.1940377E-3,1.099662E-3,6.7711667E-6,1.5807015E-4,2.9513246E-4,-1.12258786E-4,4.19191E-5,-2.0128273E-4,-8.102441E-8,2.4233422E-4],"categories":[],"categories_nodes":[],"categories_segments":[],"categories_sizes":[],"default_left":[0,0,0,0,0,0,0,0,0,0,0,0,0,0,0,0,0],"id":60,"left_children":[1,-1,3,5,7,9,11,13,15,-1,-1,-1,-1,-1,-1,-1,-1],"loss_changes":[1.7205457E-5,0E0,1.0902447E-5,1.5806847E-5,1.1869551E-5,1.55702E-5,9.785972E-6,3.2633816E-6,1.8175258E-6,0E0,0E0,0E0,0E0,0E0,0E0,0E0,0E0],"parents":[2147483647,0,0,2,2,3,3,4,4,5,5,6,6,7,7,8,8],"right_children":[2,-1,4,6,8,10,12,14,16,-1,-1,-1,-1,-1,-1,-1,-1],"split_conditions":[2.1853638E-1,-2.5625314E-4,8.790553E-1,8.496661E-1,9.1695696E-1,9.444033E-1,8.873479E-1,1.19570345E-1,7.4548465E-1,6.7711667E-6,1.5807015E-4,2.9513246E-4,-1.12258786E-4,4.19191E-5,-2.0128273E-4,-8.102441E-8,2.4233422E-4],"split_indices":[9,0,8,8,9,5,3,1,0,0,0,0,0,0,0,0,0],"split_type":[0,0,0,0,0,0,0,0,0,0,0,0,0,0,0,0,0],"sum_hessian":[2.16E2,4E0,2.12E2,2E2,1.2E1,1.93E2,7E0,1E1,2E0,1.78E2,1.5E1,6E0,1E0,1E0,9E0,1E0,1E0],"tree_param":{"num_deleted":"0","num_feature":"10","num_nodes":"17","size_leaf_vector":"1"}},{"base_weights":[-3.3523003E-5,-6.275389E-4,7.628661E-5,-3.212218E-4,-2.6148737E-3,4.9101247E-4,1.6784898E-5,1.1705911E-3,-6.964242E-4,-5.6971185E-4,-1.3223753E-4,-1.0818166E-3,9.414279E-5,-4.5547175E-5,2.920391E-4,-1.6735375E-4,-9.499364E-7,-1.2939228E-5,-3.314239E-4,2.7712257E-4,3.2726366E-6],"categories":[],"categories_nodes":[],"categories_segments":[],"categories_sizes":[],"default_left":[0,0,0,0,0,0,0,0,0,0,0,0,0,0,0,0,0,0,0,0,0],"id":61,"left_children":[1,3,5,7,9,-1,11,13,15,-1,-1,17,19,-1,-1,-1,-1,-1,-1,-1,-1],"loss_changes":[1.2963145E-5,1.8031438E-5,3.2601743E-5,1.6487718E-5,5.177464E-6,0E0,1.4209438E-5,7.883104E-6,7.023882E-6,0E0,0E0,1.2643144E-5,2.0055113E-5,0E0,0E0,0E0,0E0,0E0,0E0,0E0,0E0],"parents":[2147483647,0,0,1,1,2,2,3,3,4,4,6,6,7,7,8,8,11,11,12,12],"right_children":[2,4,6,8,10,-1,12,14,16,-1,-1,18,20,-1,-1,-1,-1,-1,-1,-1,-1],"split_conditions":[5.809895E-1,5.7349616E-1,5.841868E-1,1.2864527E-1,9.588138E-2,4.9101247E-4,2.5898162E-2,1.2706903E-1,2.3089299E-1,-5.6971185E-4,-1.3223753E-4,7.1686476E-1,4.019478E-2,-4.5547175E-5,2.920391E-4,-1.6735375E-4,-9.499364E-7,-1.2939228E-5,-3.314239E-4,2.7712257E-4,3.2726366E-6],"split_indices":[9,9,9,7,1,0,7,6,1,0,0,8,7,0,0,0,0,0,0,0,0],"split_type":[0,0,0,0,0,0,0,0,0,0,0,0,0,0,0,0,0,0,0,0,0],"sum_hessian":[1.97E2,3E1,1.67E2,2.7E1,3E0,2E0,1.65E2,5E0,2.2E1,1E0,2E0,1E1,1.55E2,2E0,3E0,1.3E1,9E0,6E0,4E0,5E0,1.5E2],"tree_param":{"num_deleted":"0","num_feature":"10","num_nodes":"21","size_leaf_vector":"1"}},{"base_weights":[9.041981E-6,8.918236E-5,-7.970556E-4,-1.7766488E-5,7.6857954E-4,-2.7511216E-4,-2.7890617E-4,6.882096E-5,-3.5417636E-3,9.924505E-4,-1.04395236E-4,-5.3532067E-4,2.2429865E-4,-1.8640711E-6,2.7716666E-4,-6.3465326E-4,-8.834411E-5,1.1134473E-4,3.380533E-4,-9.702267E-5,7.110599E-5],"categories":[],"categories_nodes":[],"categories_segments":[],"categories_sizes":[],"default_left":[0,0,0,0,0,0,0,0,0,0,0,0,0,0,0,0,0,0,0,0,0],"id":62,"left_children":[1,3,5,7,9,-1,11,13,15,17,-1,19,-1,-1,-1,-1,-1,-1,-1,-1,-1],"loss_changes":[1.3572686E-5,1.3891858E-5,1.0072293E-5,5.0895982E-5,9.3165345E-6,0E0,7.3012775E-6,2.41844E-5,6.569011E-6,5.311078E-6,0E0,1.980516E-6,0E0,0E0,0E0,0E0,0E0,0E0,0E0,0E0,0E0],"parents":[2147483647,0,0,1,1,2,2,3,3,4,4,6,6,7,7,8,8,9,9,11,11],"right_children":[2,4,6,8,10,-1,12,14,16,18,-1,20,-1,-1,-1,-1,-1,-1,-1,-1,-1],"split_conditions":[7.4305737E-1,7.726713E-1,2.8298286E-1,7.603663E-1,8.8894653E-1,-2.7511216E-4,8.9000446E-1,9.6654284E-1,6.986779E-1,2.891841E-1,-1.04395236E-4,7.9575545E-1,2.2429865E-4,-1.8640711E-6,2.7716666E-4,-6.3465326E-4,-8.834411E-5,1.1134473E-4,3.380533E-4,-9.702267E-5,7.110599E-5],"split_indices":[0,9,5,9,9,0,9,4,0,1,0,1,0,0,0,0,0,0,0,0,0],"split_type":[0,0,0,0,0,0,0,0,0,0,0,0,0,0,0,0,0,0,0,0,0],"sum_hessian":[2.08E2,1.9E2,1.8E1,1.65E2,2.5E1,5E0,1.3E1,1.62E2,3E0,2.2E1,3E0,1.2E1,1E0,1.56E2,6E0,2E0,1E0,2E1,2E0,1.1E1,1E0],"tree_param":{"num_deleted":"0","num_feature":"10","num_nodes":"21","size_leaf_vector":"1"}},{"base_weights":[7.5076685E-5,8.40989E-4,-8.398845E-5,1.2760921E-4,2.8876853E-3,-1.7904042E-4,8.36136E-4,-4.6724724E-4,6.346442E-4,6.434973E-4,8.162842E-4,-1.3739742E-4,-2.2292722E-3,1.7165521E-3,-9.17316E-4,-1.0568463E-4,1.880623E-4,2.4013493E-4,-4.2702004E-6,1.6589068E-4,-3.207192E-5,-3.763047E-6,-1.421768E-4,-4.2236666E-4,-6.8737245E-5,-1.0244977E-5,3.5176252E-4,-1.9393963E-4,-1.0857499E-5],"categories":[],"categories_nodes":[],